{"internal_dtype": "<class 'numpy.float64'>", "input_dtype": "<class 'numpy.float64'>", "objective": "binary_crossentropy", "tree_output": "probability", "base_offset": 0, "trees": [{"children_left": [1.0, 3.0, 5.0, 7.0, 9.0, 11.0, 13.0, 15.0, 17.0, 19.0, 21.0, -1.0, 23.0, 25.0, -1.0, 27.0, -1.0, -1.0, -1.0, 29.0, -1.0, 31.0, 33.0, 35.0, -1.0, 37.0, -1.0, -1.0, -1.0, -1.0, -1.0, -1.0, -1.0, -1.0, -1.0, -1.0, -1.0, -1.0, -1.0], "children_right": [2.0, 4.0, 6.0, 8.0, 10.0, 12.0, 14.0, 16.0, 18.0, 20.0, 22.0, -1.0, 24.0, 26.0, -1.0, 28.0, -1.0, -1.0, -1.0, 30.0, -1.0, 32.0, 34.0, 36.0, -1.0, 38.0, -1.0, -1.0, -1.0, -1.0, -1.0, -1.0, -1.0, -1.0, -1.0, -1.0, -1.0, -1.0, -1.0], "features": [1.0, 0.0, 7.0, 7.0, 6.0, 0.0, 2.0, 8.0, 3.0, 2.0, 0.0, -2.0, 3.0, 0.0, -2.0, 6.0, -2.0, -2.0, -2.0, 2.0, -2.0, 0.0, 3.0, 4.0, -2.0, 0.0, -2.0, -2.0, -2.0, -2.0, -2.0, -2.0, -2.0, -2.0, -2.0, -2.0, -2.0, -2.0, -2.0], "thresholds": [563.5, 0.5, 0.5, 0.5, 0.5, 1.5, 4.25, 0.5, 0.5, 2.899999976158142, 2.5, -2.0, 0.5, 4.5, -2.0, 0.5, -2.0, -2.0, -2.0, 1.1650000214576721, -2.0, 1.5, 0.5, 0.5, -2.0, 3.298858642578125, -2.0, -2.0, -2.0, -2.0, -2.0, -2.0, -2.0, -2.0, -2.0, -2.0, -2.0, -2.0, -2.0], "node_sample_weight": [5219.0, 3237.0, 1982.0, 1076.0, 2161.0, 1696.0, 286.0, 911.0, 165.0, 186.0, 1975.0, 50.0, 1646.0, 224.0, 62.0, 906.0, 5.0, 157.0, 8.0, 110.0, 76.0, 621.0, 1354.0, 1577.0, 69.0, 183.0, 41.0, 44.0, 862.0, 26.0, 84.0, 132.0, 489.0, 1259.0, 95.0, 1575.0, 2.0, 127.0, 56.0], "values": [[0.02551255029699176, 0.02448744970300824], [0.032792709298733395, 0.017207290701266607], [0.0136226034308779, 0.0363773965691221], [0.01854089219330855, 0.03145910780669145], [0.039888940305414164, 0.01011105969458584], [0.015713443396226417, 0.03428655660377358], [0.0012237762237762239, 0.04877622377622378], [0.021405049396267837, 0.028594950603732162], [0.0027272727272727275, 0.04727272727272727], [0.0239247311827957, 0.026075268817204303], [0.04139240506329114, 0.008607594936708861], [0.031, 0.019000000000000003], [0.015249088699878495, 0.034750911300121506], [0.0015625, 0.0484375], [0.0, 0.05], [0.02152317880794702, 0.028476821192052984], [0.0, 0.05], [0.002547770700636943, 0.04745222929936306], [0.00625, 0.043750000000000004], [0.03090909090909091, 0.019090909090909092], [0.013815789473684212, 0.03618421052631579], [0.04516908212560387, 0.004830917874396136], [0.0396602658788774, 0.010339734121122601], [0.014552948636651873, 0.03544705136334813], [0.031159420289855074, 0.01884057971014493], [0.0019125683060109292, 0.048087431693989074], [0.0, 0.05], [0.037500000000000006, 0.0125], [0.020707656612529005, 0.029292343387470998], [0.04038461538461539, 0.009615384615384616], [0.027976190476190477, 0.022023809523809525], [0.04659090909090909, 0.003409090909090909], [0.04478527607361964, 0.005214723926380368], [0.0391580619539317, 0.01084193804606831], [0.04631578947368421, 0.0036842105263157894], [0.014571428571428572, 0.03542857142857143], [0.0, 0.05], [0.0015748031496062992, 0.048425196850393704], [0.0026785714285714286, 0.04732142857142857]], "children_default": [1.0, 3.0, 5.0, 7.0, 9.0, 11.0, 13.0, 15.0, 17.0, 19.0, 21.0, -1.0, 23.0, 25.0, -1.0, 27.0, -1.0, -1.0, -1.0, 29.0, -1.0, 31.0, 33.0, 35.0, -1.0, 37.0, -1.0, -1.0, -1.0, -1.0, -1.0, -1.0, -1.0, -1.0, -1.0, -1.0, -1.0, -1.0, -1.0]}, {"children_left": [1.0, 3.0, 5.0, 7.0, 9.0, 11.0, 13.0, 15.0, 17.0, 19.0, 21.0, 23.0, -1.0, 25.0, 27.0, -1.0, -1.0, 29.0, 31.0, -1.0, -1.0, 33.0, 35.0, -1.0, 37.0, 39.0, -1.0, 41.0, 43.0, -1.0, -1.0, -1.0, -1.0, -1.0, -1.0, -1.0, -1.0, -1.0, -1.0, -1.0, -1.0, -1.0, -1.0, -1.0, -1.0], "children_right": [2.0, 4.0, 6.0, 8.0, 10.0, 12.0, 14.0, 16.0, 18.0, 20.0, 22.0, 24.0, -1.0, 26.0, 28.0, -1.0, -1.0, 30.0, 32.0, -1.0, -1.0, 34.0, 36.0, -1.0, 38.0, 40.0, -1.0, 42.0, 44.0, -1.0, -1.0, -1.0, -1.0, -1.0, -1.0, -1.0, -1.0, -1.0, -1.0, -1.0, -1.0, -1.0, -1.0, -1.0, -1.0], "features": [1.0, 6.0, 6.0, 7.0, 2.0, 5.0, 0.0, 1.0, 1.0, 3.0, 3.0, 1.0, -2.0, 3.0, 2.0, -2.0, -2.0, 1.0, 1.0, -2.0, -2.0, 1.0, 1.0, -2.0, 1.0, 2.0, -2.0, 0.0, 1.0, -2.0, -2.0, -2.0, -2.0, -2.0, -2.0, -2.0, -2.0, -2.0, -2.0, -2.0, -2.0, -2.0, -2.0, -2.0, -2.0], "thresholds": [618.5, 0.5, 0.5, 0.5, 0.5, 0.5, 2.5, 8.0, 26.0, 0.5, 0.5, 786.5, -2.0, 0.5, 5.25, -2.0, -2.0, 0.5, 601.0, -2.0, -2.0, 514.5, 343.5, -2.0, 1265.0, 1.5, -2.0, 3.298858642578125, 833.0, -2.0, -2.0, -2.0, -2.0, -2.0, -2.0, -2.0, -2.0, -2.0, -2.0, -2.0, -2.0, -2.0, -2.0, -2.0, -2.0], "node_sample_weight": [5219.0, 3289.0, 1930.0, 411.0, 2878.0, 326.0, 1604.0, 109.0, 302.0, 859.0, 2019.0, 287.0, 39.0, 428.0, 1176.0, 48.0, 61.0, 188.0, 114.0, 793.0, 66.0, 1820.0, 199.0, 38.0, 249.0, 411.0, 17.0, 1010.0, 166.0, 181.0, 7.0, 112.0, 2.0, 1732.0, 88.0, 159.0, 40.0, 122.0, 127.0, 82.0, 329.0, 274.0, 736.0, 14.0, 152.0], "values": [[0.025330523088714314, 0.02466947691128569], [0.03321678321678322, 0.016783216783216783], [0.01189119170984456, 0.03810880829015544], [0.015206812652068129, 0.034793187347931874], [0.035788742182070885, 0.014211257817929118], [0.002147239263803681, 0.04785276073619632], [0.013871571072319204, 0.036128428927680804], [0.04128440366972477, 0.00871559633027523], [0.005794701986754967, 0.044205298013245034], [0.021653084982537835, 0.028346915017462167], [0.041802872709262015, 0.00819712729073799], [0.0013937282229965157, 0.04860627177700349], [0.007692307692307693, 0.04230769230769231], [0.018808411214953275, 0.031191588785046732], [0.01207482993197279, 0.03792517006802721], [0.037500000000000006, 0.0125], [0.04426229508196722, 0.0057377049180327875], [0.0026595744680851068, 0.04734042553191489], [0.010964912280701754, 0.03903508771929825], [0.02162673392181589, 0.028373266078184113], [0.021969696969696972, 0.02803030303030303], [0.04104395604395605, 0.008956043956043956], [0.04874371859296483, 0.0012562814070351761], [0.006578947368421052, 0.04342105263157895], [0.0006024096385542169, 0.04939759036144578], [0.018126520681265208, 0.03187347931873479], [0.03529411764705883, 0.014705882352941178], [0.011287128712871288, 0.03871287128712872], [0.016867469879518072, 0.03313253012048193], [0.0027624309392265192, 0.047237569060773484], [0.0, 0.05], [0.010267857142857143, 0.039732142857142855], [0.05, 0.0], [0.04194572748267899, 0.008054272517321017], [0.023295454545454546, 0.026704545454545453], [0.04937106918238994, 0.000628930817610063], [0.046250000000000006, 0.00375], [0.0012295081967213116, 0.04877049180327869], [0.0, 0.05], [0.009756097560975611, 0.0402439024390244], [0.02021276595744681, 0.029787234042553193], [0.014416058394160583, 0.035583941605839414], [0.010122282608695653, 0.03987771739130435], [0.03571428571428572, 0.014285714285714285], [0.015131578947368421, 0.034868421052631576]], "children_default": [1.0, 3.0, 5.0, 7.0, 9.0, 11.0, 13.0, 15.0, 17.0, 19.0, 21.0, 23.0, -1.0, 25.0, 27.0, -1.0, -1.0, 29.0, 31.0, -1.0, -1.0, 33.0, 35.0, -1.0, 37.0, 39.0, -1.0, 41.0, 43.0, -1.0, -1.0, -1.0, -1.0, -1.0, -1.0, -1.0, -1.0, -1.0, -1.0, -1.0, -1.0, -1.0, -1.0, -1.0, -1.0]}, {"children_left": [1.0, 3.0, 5.0, 7.0, 9.0, 11.0, 13.0, 15.0, -1.0, 17.0, 19.0, 21.0, 23.0, 25.0, -1.0, 27.0, -1.0, 29.0, 31.0, 33.0, 35.0, -1.0, -1.0, -1.0, 37.0, -1.0, 39.0, -1.0, -1.0, -1.0, -1.0, -1.0, -1.0, -1.0, -1.0, -1.0, -1.0, -1.0, -1.0, -1.0, -1.0], "children_right": [2.0, 4.0, 6.0, 8.0, 10.0, 12.0, 14.0, 16.0, -1.0, 18.0, 20.0, 22.0, 24.0, 26.0, -1.0, 28.0, -1.0, 30.0, 32.0, 34.0, 36.0, -1.0, -1.0, -1.0, 38.0, -1.0, 40.0, -1.0, -1.0, -1.0, -1.0, -1.0, -1.0, -1.0, -1.0, -1.0, -1.0, -1.0, -1.0, -1.0, -1.0], "features": [7.0, 0.0, 2.0, 5.0, 1.0, 0.0, 2.0, 3.0, -2.0, 1.0, 8.0, 3.0, 1.0, 0.0, -2.0, 8.0, -2.0, 3.0, 8.0, 1.0, 0.0, -2.0, -2.0, -2.0, 1.0, -2.0, 1.0, -2.0, -2.0, -2.0, -2.0, -2.0, -2.0, -2.0, -2.0, -2.0, -2.0, -2.0, -2.0, -2.0, -2.0], "thresholds": [0.5, 0.5, 2.4828150272369385, 0.5, 564.0, 0.5, 6.75, 0.5, -2.0, 421.5, 0.5, 0.5, 418.0, 3.5, -2.0, 0.5, -2.0, 0.5, 0.5, 774.5, 3.5, -2.0, -2.0, -2.0, 777.0, -2.0, 1261.5, -2.0, -2.0, -2.0, -2.0, -2.0, -2.0, -2.0, -2.0, -2.0, -2.0, -2.0, -2.0, -2.0, -2.0], "node_sample_weight": [5219.0, 4629.0, 590.0, 943.0, 3686.0, 346.0, 244.0, 898.0, 45.0, 2031.0, 1655.0, 155.0, 191.0, 227.0, 17.0, 836.0, 62.0, 1819.0, 212.0, 1029.0, 626.0, 151.0, 4.0, 46.0, 145.0, 59.0, 168.0, 835.0, 1.0, 1615.0, 204.0, 118.0, 94.0, 116.0, 913.0, 291.0, 335.0, 27.0, 118.0, 111.0, 57.0], "values": [[0.025052692086606633, 0.024947307913393373], [0.02788939295744221, 0.022110607042557788], [0.0027966101694915256, 0.04720338983050848], [0.02168610816542948, 0.02831389183457052], [0.029476397178513292, 0.020523602821486707], [0.004046242774566475, 0.04595375722543353], [0.0010245901639344263, 0.048975409836065575], [0.021213808463251674, 0.02878619153674833], [0.031111111111111114, 0.01888888888888889], [0.04165435745937962, 0.008345642540620384], [0.014531722054380664, 0.03546827794561934], [0.0025806451612903226, 0.04741935483870968], [0.005235602094240838, 0.044764397905759166], [0.0008810572687224671, 0.04911894273127754], [0.0029411764705882353, 0.047058823529411764], [0.021291866028708136, 0.028708133971291867], [0.020161290322580645, 0.029838709677419358], [0.04219351291918637, 0.007806487080813634], [0.03702830188679245, 0.012971698113207548], [0.013459669582118562, 0.03654033041788144], [0.016293929712460065, 0.033706070287539934], [0.0026490066225165563, 0.04735099337748344], [0.0, 0.05], [0.016304347826086956, 0.03369565217391304], [0.0017241379310344827, 0.048275862068965524], [0.0025423728813559325, 0.04745762711864407], [0.00029761904761904765, 0.049702380952380956], [0.02131736526946108, 0.02868263473053892], [0.0, 0.05], [0.04151702786377709, 0.008482972136222912], [0.047549019607843135, 0.0024509803921568627], [0.03474576271186441, 0.015254237288135596], [0.0398936170212766, 0.010106382978723405], [0.02543103448275862, 0.02456896551724138], [0.011938663745892662, 0.03806133625410734], [0.023195876288659795, 0.026804123711340208], [0.010298507462686568, 0.039701492537313435], [0.005555555555555556, 0.044444444444444446], [0.0008474576271186442, 0.04915254237288136], [0.0, 0.05], [0.0008771929824561404, 0.04912280701754386]], "children_default": [1.0, 3.0, 5.0, 7.0, 9.0, 11.0, 13.0, 15.0, -1.0, 17.0, 19.0, 21.0, 23.0, 25.0, -1.0, 27.0, -1.0, 29.0, 31.0, 33.0, 35.0, -1.0, -1.0, -1.0, 37.0, -1.0, 39.0, -1.0, -1.0, -1.0, -1.0, -1.0, -1.0, -1.0, -1.0, -1.0, -1.0, -1.0, -1.0, -1.0, -1.0]}, {"children_left": [1.0, 3.0, 5.0, 7.0, 9.0, 11.0, 13.0, 15.0, 17.0, 19.0, -1.0, 21.0, 23.0, 25.0, 27.0, 29.0, -1.0, -1.0, 31.0, 33.0, -1.0, -1.0, -1.0, 35.0, 37.0, 39.0, 41.0, 43.0, -1.0, -1.0, -1.0, -1.0, -1.0, -1.0, -1.0, -1.0, -1.0, -1.0, -1.0, -1.0, -1.0, -1.0, -1.0, -1.0, -1.0], "children_right": [2.0, 4.0, 6.0, 8.0, 10.0, 12.0, 14.0, 16.0, 18.0, 20.0, -1.0, 22.0, 24.0, 26.0, 28.0, 30.0, -1.0, -1.0, 32.0, 34.0, -1.0, -1.0, -1.0, 36.0, 38.0, 40.0, 42.0, 44.0, -1.0, -1.0, -1.0, -1.0, -1.0, -1.0, -1.0, -1.0, -1.0, -1.0, -1.0, -1.0, -1.0, -1.0, -1.0, -1.0, -1.0], "features": [6.0, 5.0, 8.0, 0.0, 2.0, 2.0, 0.0, 3.0, 1.0, 1.0, -2.0, 3.0, 1.0, 1.0, 3.0, 0.0, -2.0, -2.0, 1.0, 3.0, -2.0, -2.0, -2.0, 2.0, 1.0, 0.0, 0.0, 1.0, -2.0, -2.0, -2.0, -2.0, -2.0, -2.0, -2.0, -2.0, -2.0, -2.0, -2.0, -2.0, -2.0, -2.0, -2.0, -2.0, -2.0], "thresholds": [0.5, 0.5, 0.5, 3.798858642578125, 2.2328150272369385, 0.5, 2.5, 0.5, 413.0, 822.5, -2.0, 0.5, 547.5, 752.0, 0.5, 0.5, -2.0, -2.0, 1261.5, 0.5, -2.0, -2.0, -2.0, 12.0, 774.0, 0.5, 1.5, 550.5, -2.0, -2.0, -2.0, -2.0, -2.0, -2.0, -2.0, -2.0, -2.0, -2.0, -2.0, -2.0, -2.0, -2.0, -2.0, -2.0, -2.0], "node_sample_weight": [5219.0, 749.0, 4470.0, 586.0, 163.0, 2966.0, 1504.0, 376.0, 210.0, 98.0, 65.0, 877.0, 2089.0, 478.0, 1026.0, 369.0, 7.0, 50.0, 160.0, 82.0, 16.0, 812.0, 65.0, 1091.0, 998.0, 345.0, 133.0, 949.0, 77.0, 161.0, 208.0, 98.0, 62.0, 76.0, 6.0, 1089.0, 2.0, 123.0, 875.0, 3.0, 342.0, 6.0, 127.0, 520.0, 429.0], "values": [[0.025129335121670822, 0.024870664878329184], [0.010280373831775701, 0.039719626168224303], [0.027617449664429528, 0.022382550335570472], [0.004095563139931741, 0.04590443686006826], [0.03251533742331288, 0.017484662576687116], [0.025910316925151722, 0.02408968307484828], [0.03098404255319149, 0.01901595744680851], [0.0050531914893617025, 0.0449468085106383], [0.002380952380952381, 0.047619047619047616], [0.03826530612244898, 0.011734693877551022], [0.02384615384615385, 0.026153846153846156], [0.020182440136830102, 0.029817559863169897], [0.028314983245572047, 0.021685016754427956], [0.03671548117154812, 0.013284518828451884], [0.02831384015594542, 0.021686159844054583], [0.004607046070460705, 0.0453929539295393], [0.02857142857142857, 0.02142857142857143], [0.009, 0.041], [0.00031250000000000006, 0.0496875], [0.04085365853658537, 0.009146341463414634], [0.025, 0.025], [0.02025862068965517, 0.02974137931034483], [0.019230769230769232, 0.03076923076923077], [0.04078826764436297, 0.00921173235563703], [0.014679358717434872, 0.03532064128256513], [0.043623188405797104, 0.006376811594202898], [0.018796992481203006, 0.031203007518796996], [0.02713382507903056, 0.022866174920969443], [0.04285714285714286, 0.007142857142857143], [0.002173913043478261, 0.04782608695652174], [0.006490384615384617, 0.04350961538461539], [0.0, 0.05], [0.0008064516129032258, 0.049193548387096775], [0.04078947368421053, 0.009210526315789473], [0.04166666666666667, 0.008333333333333333], [0.040863177226813596, 0.00913682277318641], [0.0, 0.05], [0.024796747967479674, 0.025203252032520326], [0.013257142857142856, 0.03674285714285715], [0.0, 0.05], [0.04400584795321638, 0.005994152046783626], [0.05, 0.0], [0.01732283464566929, 0.032677165354330705], [0.041442307692307695, 0.008557692307692308], [0.009790209790209791, 0.04020979020979021]], "children_default": [1.0, 3.0, 5.0, 7.0, 9.0, 11.0, 13.0, 15.0, 17.0, 19.0, -1.0, 21.0, 23.0, 25.0, 27.0, 29.0, -1.0, -1.0, 31.0, 33.0, -1.0, -1.0, -1.0, 35.0, 37.0, 39.0, 41.0, 43.0, -1.0, -1.0, -1.0, -1.0, -1.0, -1.0, -1.0, -1.0, -1.0, -1.0, -1.0, -1.0, -1.0, -1.0, -1.0, -1.0, -1.0]}, {"children_left": [1.0, 3.0, 5.0, 7.0, 9.0, 11.0, 13.0, 15.0, 17.0, 19.0, 21.0, 23.0, -1.0, 25.0, -1.0, 27.0, -1.0, -1.0, -1.0, 29.0, 31.0, 33.0, -1.0, 35.0, 37.0, 39.0, 41.0, -1.0, -1.0, -1.0, -1.0, -1.0, -1.0, -1.0, -1.0, -1.0, -1.0, -1.0, -1.0, -1.0, -1.0, -1.0, -1.0], "children_right": [2.0, 4.0, 6.0, 8.0, 10.0, 12.0, 14.0, 16.0, 18.0, 20.0, 22.0, 24.0, -1.0, 26.0, -1.0, 28.0, -1.0, -1.0, -1.0, 30.0, 32.0, 34.0, -1.0, 36.0, 38.0, 40.0, 42.0, -1.0, -1.0, -1.0, -1.0, -1.0, -1.0, -1.0, -1.0, -1.0, -1.0, -1.0, -1.0, -1.0, -1.0, -1.0, -1.0], "features": [1.0, 0.0, 6.0, 7.0, 1.0, 5.0, 3.0, 8.0, 3.0, 3.0, 7.0, 0.0, -2.0, 2.0, -2.0, 3.0, -2.0, -2.0, -2.0, 6.0, 2.0, 1.0, -2.0, 0.0, 2.0, 1.0, 8.0, -2.0, -2.0, -2.0, -2.0, -2.0, -2.0, -2.0, -2.0, -2.0, -2.0, -2.0, -2.0, -2.0, -2.0, -2.0, -2.0], "thresholds": [714.5, 0.5, 0.5, 0.5, 518.5, 0.5, 0.5, 0.5, 0.5, 0.5, 0.5, 3.298858642578125, -2.0, 1.3650000095367432, -2.0, 0.5, -2.0, -2.0, -2.0, 0.5, 7.5, 523.5, -2.0, 2.5, 3.75, 1488.5, 0.5, -2.0, -2.0, -2.0, -2.0, -2.0, -2.0, -2.0, -2.0, -2.0, -2.0, -2.0, -2.0, -2.0, -2.0, -2.0, -2.0], "node_sample_weight": [5219.0, 3389.0, 1830.0, 1094.0, 2295.0, 339.0, 1491.0, 923.0, 171.0, 2082.0, 213.0, 304.0, 35.0, 1422.0, 69.0, 921.0, 2.0, 162.0, 9.0, 1903.0, 179.0, 187.0, 26.0, 117.0, 187.0, 93.0, 1329.0, 863.0, 58.0, 158.0, 1745.0, 171.0, 8.0, 16.0, 171.0, 83.0, 34.0, 84.0, 103.0, 76.0, 17.0, 792.0, 537.0], "values": [[0.025531711055757807, 0.024468288944242193], [0.03331366184715256, 0.01668633815284745], [0.011120218579234974, 0.03887978142076503], [0.01969835466179159, 0.03030164533820841], [0.03980392156862745, 0.01019607843137255], [0.0028023598820058997, 0.0471976401179941], [0.013011401743796112, 0.036988598256203896], [0.022535211267605635, 0.02746478873239437], [0.0043859649122807015, 0.0456140350877193], [0.04104226705091259, 0.008957732949087416], [0.027699530516431925, 0.022300469483568078], [0.001151315789473684, 0.04884868421052632], [0.017142857142857144, 0.032857142857142856], [0.012271448663853728, 0.03772855133614628], [0.02826086956521739, 0.021739130434782608], [0.02258414766558089, 0.02741585233441911], [0.0, 0.05], [0.004320987654320987, 0.04567901234567901], [0.005555555555555556, 0.044444444444444446], [0.04040987913820284, 0.009590120861797162], [0.047765363128491625, 0.00223463687150838], [0.031283422459893045, 0.018716577540106954], [0.0019230769230769232, 0.04807692307692308], [0.002564102564102564, 0.047435897435897434], [0.00026737967914438503, 0.04973262032085562], [0.006989247311827956, 0.043010752688172046], [0.012641083521444697, 0.037358916478555305], [0.02242178447276941, 0.027578215527230596], [0.025, 0.025], [0.023734177215189875, 0.026265822784810128], [0.041919770773638974, 0.008080229226361032], [0.048245614035087724, 0.0017543859649122807], [0.037500000000000006, 0.0125], [0.009375000000000001, 0.040625], [0.03333333333333333, 0.016666666666666666], [0.0018072289156626507, 0.04819277108433735], [0.004411764705882354, 0.04558823529411765], [0.0, 0.05], [0.0004854368932038835, 0.04951456310679612], [0.004605263157894736, 0.045394736842105265], [0.017647058823529415, 0.03235294117647059], [0.012121212121212123, 0.03787878787878788], [0.013407821229050279, 0.03659217877094972]], "children_default": [1.0, 3.0, 5.0, 7.0, 9.0, 11.0, 13.0, 15.0, 17.0, 19.0, 21.0, 23.0, -1.0, 25.0, -1.0, 27.0, -1.0, -1.0, -1.0, 29.0, 31.0, 33.0, -1.0, 35.0, 37.0, 39.0, 41.0, -1.0, -1.0, -1.0, -1.0, -1.0, -1.0, -1.0, -1.0, -1.0, -1.0, -1.0, -1.0, -1.0, -1.0, -1.0, -1.0]}, {"children_left": [1.0, 3.0, 5.0, 7.0, 9.0, 11.0, 13.0, 15.0, 17.0, 19.0, -1.0, 21.0, -1.0, 23.0, 25.0, 27.0, 29.0, -1.0, 31.0, -1.0, 33.0, -1.0, -1.0, 35.0, 37.0, 39.0, 41.0, -1.0, -1.0, -1.0, -1.0, -1.0, -1.0, -1.0, -1.0, -1.0, -1.0, -1.0, -1.0, -1.0, -1.0, -1.0, -1.0], "children_right": [2.0, 4.0, 6.0, 8.0, 10.0, 12.0, 14.0, 16.0, 18.0, 20.0, -1.0, 22.0, -1.0, 24.0, 26.0, 28.0, 30.0, -1.0, 32.0, -1.0, 34.0, -1.0, -1.0, 36.0, 38.0, 40.0, 42.0, -1.0, -1.0, -1.0, -1.0, -1.0, -1.0, -1.0, -1.0, -1.0, -1.0, -1.0, -1.0, -1.0, -1.0, -1.0, -1.0], "features": [6.0, 5.0, 2.0, 8.0, 0.0, 3.0, 1.0, 1.0, 0.0, 2.0, -2.0, 8.0, -2.0, 0.0, 3.0, 1.0, 0.0, -2.0, 1.0, -2.0, 0.0, -2.0, -2.0, 1.0, 2.0, 2.0, 2.0, -2.0, -2.0, -2.0, -2.0, -2.0, -2.0, -2.0, -2.0, -2.0, -2.0, -2.0, -2.0, -2.0, -2.0, -2.0, -2.0], "thresholds": [0.5, 0.5, 0.5, 0.5, 4.5, 0.5, 564.0, 714.0, 3.5, 0.5, -2.0, 0.5, -2.0, 2.5, 0.5, 708.0, 4.5, -2.0, 416.5, -2.0, 2.5, -2.0, -2.0, 71.0, 1.2900000214576721, 2.365000009536743, 1.7099999785423279, -2.0, -2.0, -2.0, -2.0, -2.0, -2.0, -2.0, -2.0, -2.0, -2.0, -2.0, -2.0, -2.0, -2.0, -2.0, -2.0], "node_sample_weight": [5219.0, 772.0, 4447.0, 624.0, 148.0, 853.0, 3594.0, 460.0, 164.0, 118.0, 30.0, 791.0, 62.0, 1996.0, 1598.0, 273.0, 187.0, 65.0, 99.0, 39.0, 79.0, 790.0, 1.0, 631.0, 1365.0, 1514.0, 84.0, 270.0, 3.0, 135.0, 52.0, 13.0, 86.0, 47.0, 32.0, 124.0, 507.0, 26.0, 1339.0, 609.0, 905.0, 14.0, 70.0], "values": [[0.025062272465989657, 0.024937727534010346], [0.008290155440414509, 0.04170984455958549], [0.02797391499887565, 0.022026085001124355], [0.0033653846153846156, 0.046634615384615385], [0.029054054054054052, 0.020945945945945947], [0.02063305978898007, 0.029366940211019932], [0.029716193656093487, 0.020283806343906512], [0.003695652173913044, 0.04630434782608696], [0.002439024390243903, 0.0475609756097561], [0.03474576271186441, 0.015254237288135596], [0.006666666666666667, 0.043333333333333335], [0.020733249051833123, 0.029266750948166876], [0.01935483870967742, 0.030645161290322583], [0.04228456913827655, 0.007715430861723447], [0.014017521902377972, 0.03598247809762203], [0.005494505494505495, 0.04450549450549451], [0.0010695187165775401, 0.048930481283422464], [0.004615384615384616, 0.045384615384615384], [0.0010101010101010103, 0.04898989898989899], [0.026923076923076925, 0.023076923076923078], [0.038607594936708865, 0.01139240506329114], [0.020759493670886076, 0.029240506329113927], [0.0, 0.05], [0.044374009508716325, 0.005625990491283677], [0.04131868131868132, 0.00868131868131868], [0.013077939233817702, 0.0369220607661823], [0.030952380952380953, 0.01904761904761905], [0.005000000000000001, 0.045000000000000005], [0.05, 0.0], [0.0014814814814814816, 0.048518518518518516], [0.0, 0.05], [0.007692307692307693, 0.04230769230769231], [0.0, 0.05], [0.04255319148936171, 0.007446808510638298], [0.0328125, 0.0171875], [0.041935483870967745, 0.008064516129032258], [0.04497041420118344, 0.005029585798816568], [0.025, 0.025], [0.04163554891710232, 0.008364451082897685], [0.01568144499178982, 0.03431855500821018], [0.01132596685082873, 0.038674033149171276], [0.05, 0.0], [0.027142857142857142, 0.022857142857142857]], "children_default": [1.0, 3.0, 5.0, 7.0, 9.0, 11.0, 13.0, 15.0, 17.0, 19.0, -1.0, 21.0, -1.0, 23.0, 25.0, 27.0, 29.0, -1.0, 31.0, -1.0, 33.0, -1.0, -1.0, 35.0, 37.0, 39.0, 41.0, -1.0, -1.0, -1.0, -1.0, -1.0, -1.0, -1.0, -1.0, -1.0, -1.0, -1.0, -1.0, -1.0, -1.0, -1.0, -1.0]}, {"children_left": [1.0, 3.0, 5.0, 7.0, 9.0, 11.0, 13.0, 15.0, 17.0, 19.0, 21.0, -1.0, 23.0, -1.0, -1.0, 25.0, 27.0, 29.0, 31.0, -1.0, 33.0, -1.0, 35.0, 37.0, -1.0, -1.0, -1.0, -1.0, -1.0, -1.0, -1.0, -1.0, -1.0, -1.0, -1.0, -1.0, -1.0, -1.0, -1.0], "children_right": [2.0, 4.0, 6.0, 8.0, 10.0, 12.0, 14.0, 16.0, 18.0, 20.0, 22.0, -1.0, 24.0, -1.0, -1.0, 26.0, 28.0, 30.0, 32.0, -1.0, 34.0, -1.0, 36.0, 38.0, -1.0, -1.0, -1.0, -1.0, -1.0, -1.0, -1.0, -1.0, -1.0, -1.0, -1.0, -1.0, -1.0, -1.0, -1.0], "features": [3.0, 7.0, 1.0, 1.0, 1.0, 0.0, 6.0, 2.0, 0.0, 2.0, 2.0, -2.0, 7.0, -2.0, -2.0, 5.0, 6.0, 2.0, 2.0, -2.0, 0.0, -2.0, 8.0, 0.0, -2.0, -2.0, -2.0, -2.0, -2.0, -2.0, -2.0, -2.0, -2.0, -2.0, -2.0, -2.0, -2.0, -2.0, -2.0], "thresholds": [0.5, 0.5, 793.5, 601.0, 410.0, 0.5, 0.5, 0.5, 3.298858642578125, 0.5, 2.397814989089966, -2.0, 0.5, -2.0, -2.0, 0.5, 0.5, 1.25, 3.2899999618530273, -2.0, 2.5, -2.0, 0.5, 24.5, -2.0, -2.0, -2.0, -2.0, -2.0, -2.0, -2.0, -2.0, -2.0, -2.0, -2.0, -2.0, -2.0, -2.0, -2.0], "node_sample_weight": [5219.0, 4840.0, 379.0, 4287.0, 553.0, 301.0, 78.0, 2731.0, 1556.0, 261.0, 292.0, 57.0, 244.0, 11.0, 67.0, 878.0, 1853.0, 655.0, 901.0, 153.0, 108.0, 128.0, 164.0, 239.0, 5.0, 817.0, 61.0, 49.0, 1804.0, 92.0, 563.0, 364.0, 537.0, 25.0, 83.0, 106.0, 58.0, 234.0, 5.0], "values": [[0.025301781950565247, 0.02469821804943476], [0.024369834710743804, 0.0256301652892562], [0.037203166226912936, 0.012796833773087072], [0.02695358059248892, 0.02304641940751108], [0.00433996383363472, 0.045660036166365284], [0.0425249169435216, 0.007475083056478406], [0.016666666666666666, 0.03333333333333333], [0.034474551446356645, 0.015525448553643354], [0.013753213367609256, 0.03624678663239075], [0.008045977011494253, 0.04195402298850575], [0.0010273972602739725, 0.048972602739726034], [0.02017543859649123, 0.02982456140350877], [0.047745901639344265, 0.002254098360655738], [0.0, 0.05], [0.019402985074626868, 0.030597014925373135], [0.02203872437357631, 0.027961275626423695], [0.04036697247706422, 0.00963302752293578], [0.017557251908396947, 0.03244274809160305], [0.010987791342952276, 0.03901220865704773], [0.0029411764705882353, 0.047058823529411764], [0.015277777777777779, 0.034722222222222224], [0.0, 0.05], [0.0018292682926829267, 0.048170731707317074], [0.04832635983263599, 0.0016736401673640166], [0.020000000000000004, 0.03], [0.020685434516523868, 0.029314565483476135], [0.04016393442622951, 0.009836065573770493], [0.04591836734693878, 0.004081632653061224], [0.040216186252771624, 0.009783813747228382], [0.009782608695652175, 0.04021739130434783], [0.01882770870337478, 0.031172291296625222], [0.008516483516483517, 0.04148351648351649], [0.01266294227188082, 0.03733705772811918], [0.03, 0.020000000000000004], [0.010843373493975905, 0.0391566265060241], [0.0028301886792452833, 0.04716981132075472], [0.0, 0.05], [0.04871794871794872, 0.001282051282051282], [0.03, 0.020000000000000004]], "children_default": [1.0, 3.0, 5.0, 7.0, 9.0, 11.0, 13.0, 15.0, 17.0, 19.0, 21.0, -1.0, 23.0, -1.0, -1.0, 25.0, 27.0, 29.0, 31.0, -1.0, 33.0, -1.0, 35.0, 37.0, -1.0, -1.0, -1.0, -1.0, -1.0, -1.0, -1.0, -1.0, -1.0, -1.0, -1.0, -1.0, -1.0, -1.0, -1.0]}, {"children_left": [1.0, 3.0, 5.0, 7.0, 9.0, 11.0, 13.0, 15.0, -1.0, 17.0, 19.0, 21.0, 23.0, -1.0, 25.0, 27.0, -1.0, 29.0, 31.0, 33.0, 35.0, 37.0, -1.0, 39.0, -1.0, -1.0, -1.0, -1.0, -1.0, -1.0, -1.0, -1.0, -1.0, -1.0, -1.0, -1.0, -1.0, -1.0, -1.0, -1.0, -1.0], "children_right": [2.0, 4.0, 6.0, 8.0, 10.0, 12.0, 14.0, 16.0, -1.0, 18.0, 20.0, 22.0, 24.0, -1.0, 26.0, 28.0, -1.0, 30.0, 32.0, 34.0, 36.0, 38.0, -1.0, 40.0, -1.0, -1.0, -1.0, -1.0, -1.0, -1.0, -1.0, -1.0, -1.0, -1.0, -1.0, -1.0, -1.0, -1.0, -1.0, -1.0, -1.0], "features": [7.0, 2.0, 8.0, 5.0, 3.0, 1.0, 1.0, 3.0, -2.0, 1.0, 2.0, 2.0, 1.0, -2.0, 1.0, 8.0, -2.0, 8.0, 0.0, 2.0, 8.0, 3.0, -2.0, 1.0, -2.0, -2.0, -2.0, -2.0, -2.0, -2.0, -2.0, -2.0, -2.0, -2.0, -2.0, -2.0, -2.0, -2.0, -2.0, -2.0, -2.0], "thresholds": [0.5, 0.5, 0.5, 0.5, 0.5, 410.0, 449.0, 0.5, -2.0, 608.0, 2.397814989089966, 0.5, 1266.0, -2.0, 1378.5, 0.5, -2.0, 0.5, 2.5, 1.7099999785423279, 0.5, 0.5, -2.0, 1215.0, -2.0, -2.0, -2.0, -2.0, -2.0, -2.0, -2.0, -2.0, -2.0, -2.0, -2.0, -2.0, -2.0, -2.0, -2.0, -2.0, -2.0], "node_sample_weight": [5219.0, 4616.0, 603.0, 928.0, 3688.0, 438.0, 165.0, 878.0, 50.0, 3389.0, 299.0, 251.0, 187.0, 33.0, 132.0, 826.0, 52.0, 1863.0, 1526.0, 150.0, 149.0, 176.0, 75.0, 112.0, 75.0, 90.0, 42.0, 819.0, 7.0, 1018.0, 845.0, 391.0, 1135.0, 70.0, 80.0, 81.0, 68.0, 172.0, 4.0, 108.0, 4.0], "values": [[0.025368844606246405, 0.024631155393753594], [0.028022097053726172, 0.02197790294627383], [0.005058043117744611, 0.04494195688225539], [0.020689655172413793, 0.029310344827586206], [0.02986713665943601, 0.020132863340563995], [0.006278538812785388, 0.043721461187214615], [0.0018181818181818182, 0.04818181818181819], [0.019646924829157177, 0.030353075170842826], [0.03900000000000001, 0.011000000000000001], [0.028799055768663324, 0.02120094423133668], [0.041973244147157196, 0.00802675585284281], [0.009163346613545818, 0.04083665338645419], [0.0024064171122994654, 0.04759358288770054], [0.0060606060606060615, 0.043939393939393945], [0.0007575757575757577, 0.04924242424242425], [0.019552058111380145, 0.030447941888619857], [0.021153846153846155, 0.028846153846153844], [0.04143853998926463, 0.008561460010735374], [0.013368283093053735, 0.03663171690694627], [0.045000000000000005, 0.005000000000000001], [0.038926174496644296, 0.011073825503355707], [0.004545454545454546, 0.045454545454545456], [0.020000000000000004, 0.03], [0.004017857142857143, 0.04598214285714286], [0.0, 0.05], [0.0, 0.05], [0.002380952380952381, 0.047619047619047616], [0.01971916971916972, 0.03028083028083028], [0.0, 0.05], [0.040324165029469554, 0.009675834970530452], [0.0427810650887574, 0.007218934911242605], [0.01854219948849105, 0.03145780051150895], [0.011585903083700442, 0.038414096916299566], [0.047142857142857146, 0.002857142857142857], [0.043125000000000004, 0.006875000000000001], [0.03641975308641975, 0.013580246913580247], [0.04191176470588236, 0.008088235294117648], [0.00436046511627907, 0.04563953488372093], [0.0125, 0.037500000000000006], [0.002777777777777778, 0.04722222222222222], [0.037500000000000006, 0.0125]], "children_default": [1.0, 3.0, 5.0, 7.0, 9.0, 11.0, 13.0, 15.0, -1.0, 17.0, 19.0, 21.0, 23.0, -1.0, 25.0, 27.0, -1.0, 29.0, 31.0, 33.0, 35.0, 37.0, -1.0, 39.0, -1.0, -1.0, -1.0, -1.0, -1.0, -1.0, -1.0, -1.0, -1.0, -1.0, -1.0, -1.0, -1.0, -1.0, -1.0, -1.0, -1.0]}, {"children_left": [1.0, 3.0, 5.0, 7.0, 9.0, 11.0, 13.0, 15.0, -1.0, 17.0, -1.0, 19.0, -1.0, 21.0, 23.0, 25.0, 27.0, 29.0, -1.0, -1.0, -1.0, 31.0, 33.0, 35.0, 37.0, -1.0, -1.0, -1.0, -1.0, -1.0, -1.0, -1.0, -1.0, -1.0, -1.0, -1.0, -1.0, -1.0, -1.0], "children_right": [2.0, 4.0, 6.0, 8.0, 10.0, 12.0, 14.0, 16.0, -1.0, 18.0, -1.0, 20.0, -1.0, 22.0, 24.0, 26.0, 28.0, 30.0, -1.0, -1.0, -1.0, 32.0, 34.0, 36.0, 38.0, -1.0, -1.0, -1.0, -1.0, -1.0, -1.0, -1.0, -1.0, -1.0, -1.0, -1.0, -1.0, -1.0, -1.0], "features": [6.0, 0.0, 0.0, 1.0, 5.0, 3.0, 0.0, 5.0, -2.0, 8.0, -2.0, 8.0, -2.0, 1.0, 1.0, 1.0, 1.0, 3.0, -2.0, -2.0, -2.0, 8.0, 3.0, 1.0, 8.0, -2.0, -2.0, -2.0, -2.0, -2.0, -2.0, -2.0, -2.0, -2.0, -2.0, -2.0, -2.0, -2.0, -2.0], "thresholds": [0.5, 2.5, 0.5, 639.5, 0.5, 0.5, 2.5, 0.5, -2.0, 0.5, -2.0, 0.5, -2.0, 774.5, 591.0, 188.5, 1.0, 0.5, -2.0, -2.0, -2.0, 0.5, 0.5, 440.5, 0.5, -2.0, -2.0, -2.0, -2.0, -2.0, -2.0, -2.0, -2.0, -2.0, -2.0, -2.0, -2.0, -2.0, -2.0], "node_sample_weight": [5219.0, 711.0, 4508.0, 307.0, 404.0, 919.0, 3589.0, 247.0, 60.0, 324.0, 80.0, 854.0, 65.0, 1056.0, 2533.0, 166.0, 81.0, 194.0, 130.0, 851.0, 3.0, 693.0, 363.0, 1403.0, 1130.0, 151.0, 15.0, 51.0, 30.0, 187.0, 7.0, 363.0, 330.0, 329.0, 34.0, 1268.0, 135.0, 712.0, 418.0], "values": [[0.025531711055757807, 0.024468288944242193], [0.009704641350210971, 0.04029535864978903], [0.02802795031055901, 0.021972049689440998], [0.01465798045602606, 0.035342019543973945], [0.005940594059405941, 0.044059405940594064], [0.020620239390642003, 0.029379760609358], [0.029924770130955698, 0.020075229869044305], [0.01720647773279352, 0.03279352226720648], [0.004166666666666667, 0.04583333333333334], [0.0021604938271604936, 0.04783950617283951], [0.02125, 0.028749999999999998], [0.02066744730679157, 0.029332552693208433], [0.020000000000000004, 0.03], [0.03484848484848485, 0.015151515151515152], [0.027872088432688513, 0.02212791156731149], [0.006325301204819277, 0.043674698795180725], [0.03950617283950617, 0.010493827160493827], [0.003608247422680412, 0.04639175257731959], [0.0, 0.05], [0.02074030552291422, 0.02925969447708578], [0.0, 0.05], [0.04386724386724387, 0.006132756132756133], [0.01763085399449036, 0.03236914600550964], [0.04016393442622951, 0.009836065573770493], [0.01261061946902655, 0.03738938053097345], [0.004966887417218543, 0.04503311258278146], [0.020000000000000004, 0.03], [0.03333333333333333, 0.016666666666666666], [0.05, 0.0], [0.0034759358288770055, 0.046524064171123], [0.007142857142857143, 0.04285714285714286], [0.043112947658402206, 0.006887052341597796], [0.0446969696969697, 0.005303030303030303], [0.016261398176291793, 0.03373860182370821], [0.030882352941176472, 0.01911764705882353], [0.041285488958990535, 0.008714511041009464], [0.02962962962962963, 0.020370370370370372], [0.013202247191011235, 0.03679775280898877], [0.011602870813397129, 0.038397129186602874]], "children_default": [1.0, 3.0, 5.0, 7.0, 9.0, 11.0, 13.0, 15.0, -1.0, 17.0, -1.0, 19.0, -1.0, 21.0, 23.0, 25.0, 27.0, 29.0, -1.0, -1.0, -1.0, 31.0, 33.0, 35.0, 37.0, -1.0, -1.0, -1.0, -1.0, -1.0, -1.0, -1.0, -1.0, -1.0, -1.0, -1.0, -1.0, -1.0, -1.0]}, {"children_left": [1.0, 3.0, 5.0, 7.0, 9.0, -1.0, 11.0, 13.0, 15.0, 17.0, 19.0, -1.0, 21.0, 23.0, 25.0, 27.0, 29.0, 31.0, 33.0, 35.0, -1.0, 37.0, 39.0, -1.0, -1.0, -1.0, -1.0, -1.0, -1.0, -1.0, -1.0, -1.0, -1.0, -1.0, -1.0, -1.0, -1.0, -1.0, -1.0, -1.0, -1.0], "children_right": [2.0, 4.0, 6.0, 8.0, 10.0, -1.0, 12.0, 14.0, 16.0, 18.0, 20.0, -1.0, 22.0, 24.0, 26.0, 28.0, 30.0, 32.0, 34.0, 36.0, -1.0, 38.0, 40.0, -1.0, -1.0, -1.0, -1.0, -1.0, -1.0, -1.0, -1.0, -1.0, -1.0, -1.0, -1.0, -1.0, -1.0, -1.0, -1.0, -1.0, -1.0], "features": [3.0, 1.0, 6.0, 2.0, 7.0, -2.0, 0.0, 6.0, 6.0, 0.0, 2.0, -2.0, 0.0, 5.0, 8.0, 5.0, 2.0, 1.0, 1.0, 2.0, -2.0, 2.0, 0.0, -2.0, -2.0, -2.0, -2.0, -2.0, -2.0, -2.0, -2.0, -2.0, -2.0, -2.0, -2.0, -2.0, -2.0, -2.0, -2.0, -2.0, -2.0], "thresholds": [0.5, 606.5, 0.5, 0.5, 0.5, -2.0, 0.5, 0.5, 0.5, 3.298858642578125, 4.25, -2.0, 2.5, 0.5, 0.5, 0.5, 5.75, 1631.5, 951.0, 1.899999976158142, -2.0, 1.5, 3.798858642578125, -2.0, -2.0, -2.0, -2.0, -2.0, -2.0, -2.0, -2.0, -2.0, -2.0, -2.0, -2.0, -2.0, -2.0, -2.0, -2.0, -2.0, -2.0], "node_sample_weight": [5219.0, 4864.0, 355.0, 2990.0, 1874.0, 40.0, 315.0, 998.0, 1992.0, 1593.0, 281.0, 55.0, 260.0, 182.0, 816.0, 166.0, 1826.0, 696.0, 897.0, 225.0, 56.0, 105.0, 155.0, 150.0, 32.0, 815.0, 1.0, 103.0, 63.0, 1664.0, 162.0, 617.0, 79.0, 186.0, 711.0, 47.0, 178.0, 39.0, 66.0, 53.0, 102.0], "values": [[0.024937727534010346, 0.025062272465989657], [0.024187911184210528, 0.025812088815789475], [0.035211267605633804, 0.014788732394366198], [0.03214046822742475, 0.01785953177257525], [0.011499466382070438, 0.038500533617929565], [0.020000000000000004, 0.03], [0.037142857142857144, 0.012857142857142857], [0.018336673346693387, 0.031663326653306616], [0.039056224899598396, 0.010943775100401607], [0.013339610797237916, 0.036660389202762086], [0.0010676156583629894, 0.04893238434163701], [0.019090909090909092, 0.03090909090909091], [0.040961538461538466, 0.009038461538461539], [0.007692307692307693, 0.04230769230769231], [0.020710784313725493, 0.029289215686274513], [0.02319277108433735, 0.026807228915662652], [0.040498357064622126, 0.009501642935377877], [0.015948275862068966, 0.03405172413793103], [0.011315496098104795, 0.038684503901895206], [0.0013333333333333335, 0.04866666666666667], [0.0, 0.05], [0.0461904761904762, 0.00380952380952381], [0.03741935483870968, 0.012580645161290323], [0.0023333333333333335, 0.04766666666666667], [0.0328125, 0.0171875], [0.020736196319018407, 0.029263803680981595], [0.0, 0.05], [0.007766990291262136, 0.04223300970873786], [0.048412698412698414, 0.0015873015873015873], [0.04017427884615385, 0.009825721153846154], [0.043827160493827164, 0.006172839506172839], [0.016693679092382497, 0.0333063209076175], [0.010126582278481013, 0.03987341772151899], [0.008333333333333333, 0.04166666666666667], [0.01209563994374121, 0.037904360056258794], [0.0, 0.05], [0.0016853932584269663, 0.048314606741573035], [0.05, 0.0], [0.043939393939393945, 0.0060606060606060615], [0.03018867924528302, 0.019811320754716984], [0.041176470588235294, 0.008823529411764707]], "children_default": [1.0, 3.0, 5.0, 7.0, 9.0, -1.0, 11.0, 13.0, 15.0, 17.0, 19.0, -1.0, 21.0, 23.0, 25.0, 27.0, 29.0, 31.0, 33.0, 35.0, -1.0, 37.0, 39.0, -1.0, -1.0, -1.0, -1.0, -1.0, -1.0, -1.0, -1.0, -1.0, -1.0, -1.0, -1.0, -1.0, -1.0, -1.0, -1.0, -1.0, -1.0]}, {"children_left": [1.0, 3.0, 5.0, 7.0, 9.0, 11.0, 13.0, 15.0, -1.0, 17.0, 19.0, 21.0, -1.0, 23.0, -1.0, 25.0, -1.0, 27.0, 29.0, 31.0, -1.0, 33.0, -1.0, 35.0, 37.0, -1.0, -1.0, -1.0, -1.0, -1.0, -1.0, -1.0, -1.0, -1.0, -1.0, -1.0, -1.0, -1.0, -1.0], "children_right": [2.0, 4.0, 6.0, 8.0, 10.0, 12.0, 14.0, 16.0, -1.0, 18.0, 20.0, 22.0, -1.0, 24.0, -1.0, 26.0, -1.0, 28.0, 30.0, 32.0, -1.0, 34.0, -1.0, 36.0, 38.0, -1.0, -1.0, -1.0, -1.0, -1.0, -1.0, -1.0, -1.0, -1.0, -1.0, -1.0, -1.0, -1.0, -1.0], "features": [1.0, 2.0, 6.0, 5.0, 1.0, 3.0, 3.0, 3.0, -2.0, 0.0, 3.0, 1.0, -2.0, 0.0, -2.0, 7.0, -2.0, 2.0, 7.0, 0.0, -2.0, 2.0, -2.0, 8.0, 8.0, -2.0, -2.0, -2.0, -2.0, -2.0, -2.0, -2.0, -2.0, -2.0, -2.0, -2.0, -2.0, -2.0, -2.0], "thresholds": [728.0, 0.5, 0.5, 0.5, 421.5, 0.5, 0.5, 0.5, -2.0, 7.5, 0.5, 1573.0, -2.0, 2.5, -2.0, 0.5, -2.0, 2.397814989089966, 0.5, 2.5, -2.0, 3.1649999618530273, -2.0, 0.5, 0.5, -2.0, -2.0, -2.0, -2.0, -2.0, -2.0, -2.0, -2.0, -2.0, -2.0, -2.0, -2.0, -2.0, -2.0], "node_sample_weight": [5219.0, 3396.0, 1823.0, 1095.0, 2301.0, 334.0, 1489.0, 1050.0, 45.0, 1919.0, 382.0, 316.0, 18.0, 1424.0, 65.0, 984.0, 66.0, 1703.0, 216.0, 360.0, 22.0, 279.0, 37.0, 361.0, 1063.0, 827.0, 157.0, 862.0, 841.0, 201.0, 15.0, 110.0, 250.0, 179.0, 100.0, 205.0, 156.0, 623.0, 440.0], "values": [[0.025225138915501058, 0.024774861084498948], [0.03256772673733804, 0.017432273262661956], [0.011546900713110257, 0.038453099286889746], [0.018904109589041096, 0.031095890410958907], [0.03906996957844416, 0.010930030421555846], [0.002245508982035928, 0.04775449101796408], [0.013633310946944258, 0.03636668905305574], [0.018285714285714287, 0.031714285714285716], [0.03333333333333333, 0.016666666666666666], [0.04111516414799375, 0.008884835852006254], [0.02879581151832461, 0.021204188481675393], [0.0015822784810126584, 0.04841772151898735], [0.01388888888888889, 0.036111111111111115], [0.012956460674157302, 0.03704353932584269], [0.02846153846153846, 0.02153846153846154], [0.018140243902439023, 0.031859756097560976], [0.020454545454545458, 0.02954545454545455], [0.042131532589547854, 0.007868467410452143], [0.033101851851851855, 0.016898148148148148], [0.02777777777777778, 0.022222222222222223], [0.045454545454545456, 0.004545454545454546], [0.0007168458781362007, 0.0492831541218638], [0.008108108108108109, 0.041891891891891894], [0.019390581717451526, 0.03060941828254848], [0.01077140169332079, 0.03922859830667921], [0.021100362756952845, 0.02889963724304716], [0.002547770700636943, 0.04745222929936306], [0.043503480278422275, 0.0064965197215777265], [0.04072532699167658, 0.009274673008323424], [0.03507462686567164, 0.014925373134328358], [0.006666666666666667, 0.043333333333333335], [0.03409090909090909, 0.01590909090909091], [0.025, 0.025], [0.00111731843575419, 0.048882681564245814], [0.0, 0.05], [0.014390243902439023, 0.03560975609756097], [0.025961538461538466, 0.02403846153846154], [0.010112359550561799, 0.039887640449438204], [0.011704545454545455, 0.03829545454545455]], "children_default": [1.0, 3.0, 5.0, 7.0, 9.0, 11.0, 13.0, 15.0, -1.0, 17.0, 19.0, 21.0, -1.0, 23.0, -1.0, 25.0, -1.0, 27.0, 29.0, 31.0, -1.0, 33.0, -1.0, 35.0, 37.0, -1.0, -1.0, -1.0, -1.0, -1.0, -1.0, -1.0, -1.0, -1.0, -1.0, -1.0, -1.0, -1.0, -1.0]}, {"children_left": [1.0, 3.0, 5.0, 7.0, 9.0, 11.0, 13.0, -1.0, 15.0, 17.0, 19.0, 21.0, -1.0, -1.0, 23.0, -1.0, -1.0, 25.0, -1.0, 27.0, -1.0, 29.0, 31.0, -1.0, -1.0, -1.0, -1.0, -1.0, -1.0, -1.0, -1.0, -1.0, -1.0], "children_right": [2.0, 4.0, 6.0, 8.0, 10.0, 12.0, 14.0, -1.0, 16.0, 18.0, 20.0, 22.0, -1.0, -1.0, 24.0, -1.0, -1.0, 26.0, -1.0, 28.0, -1.0, 30.0, 32.0, -1.0, -1.0, -1.0, -1.0, -1.0, -1.0, -1.0, -1.0, -1.0, -1.0], "features": [7.0, 0.0, 0.0, 6.0, 3.0, 8.0, 1.0, -2.0, 3.0, 4.0, 1.0, 2.0, -2.0, -2.0, 0.0, -2.0, -2.0, 0.0, -2.0, 2.0, -2.0, 3.0, 0.0, -2.0, -2.0, -2.0, -2.0, -2.0, -2.0, -2.0, -2.0, -2.0, -2.0], "thresholds": [0.5, 0.5, 3.798858642578125, 0.5, 0.5, 0.5, 406.0, -2.0, 0.5, 0.5, 747.5, 0.5, -2.0, -2.0, 4.5, -2.0, -2.0, 2.5, -2.0, 2.065000057220459, -2.0, 0.5, 1.5, -2.0, -2.0, -2.0, -2.0, -2.0, -2.0, -2.0, -2.0, -2.0, -2.0], "node_sample_weight": [5219.0, 4642.0, 577.0, 964.0, 3678.0, 357.0, 220.0, 60.0, 904.0, 3379.0, 299.0, 287.0, 70.0, 36.0, 184.0, 854.0, 50.0, 3373.0, 6.0, 220.0, 79.0, 155.0, 132.0, 66.0, 118.0, 927.0, 2446.0, 122.0, 98.0, 146.0, 9.0, 14.0, 118.0], "values": [[0.025656255987737117, 0.024343744012262886], [0.02829599310641965, 0.021704006893580353], [0.0044194107452339695, 0.04558058925476603], [0.021628630705394194, 0.02837136929460581], [0.030043501903208265, 0.019956498096791734], [0.0063025210084033615, 0.04369747899159664], [0.0013636363636363637, 0.048636363636363644], [0.037500000000000006, 0.0125], [0.020575221238938055, 0.029424778761061948], [0.028973068955312223, 0.02102693104468778], [0.04214046822742475, 0.007859531772575251], [0.007142857142857143, 0.04285714285714286], [0.002857142857142857, 0.047142857142857146], [0.005555555555555556, 0.044444444444444446], [0.0005434782608695652, 0.049456521739130434], [0.02101873536299766, 0.028981264637002343], [0.013000000000000001, 0.037], [0.02900978357545212, 0.020990216424547882], [0.008333333333333333, 0.04166666666666667], [0.048636363636363644, 0.0013636363636363637], [0.02405063291139241, 0.025949367088607594], [0.005161290322580645, 0.044838709677419354], [0.00946969696969697, 0.04053030303030303], [0.0015151515151515154, 0.04848484848484849], [0.0, 0.05], [0.03478964401294498, 0.015210355987055016], [0.026819296811120198, 0.023180703188879805], [0.047540983606557376, 0.002459016393442623], [0.05, 0.0], [0.004794520547945206, 0.045205479452054796], [0.011111111111111112, 0.03888888888888889], [0.01785714285714286, 0.03214285714285715], [0.00847457627118644, 0.041525423728813564]], "children_default": [1.0, 3.0, 5.0, 7.0, 9.0, 11.0, 13.0, -1.0, 15.0, 17.0, 19.0, 21.0, -1.0, -1.0, 23.0, -1.0, -1.0, 25.0, -1.0, 27.0, -1.0, 29.0, 31.0, -1.0, -1.0, -1.0, -1.0, -1.0, -1.0, -1.0, -1.0, -1.0, -1.0]}, {"children_left": [1.0, 3.0, 5.0, 7.0, 9.0, 11.0, 13.0, 15.0, 17.0, 19.0, -1.0, 21.0, 23.0, -1.0, 25.0, 27.0, -1.0, 29.0, -1.0, 31.0, -1.0, -1.0, -1.0, 33.0, 35.0, 37.0, 39.0, -1.0, -1.0, -1.0, -1.0, -1.0, -1.0, -1.0, -1.0, -1.0, -1.0, -1.0, -1.0, -1.0, -1.0], "children_right": [2.0, 4.0, 6.0, 8.0, 10.0, 12.0, 14.0, 16.0, 18.0, 20.0, -1.0, 22.0, 24.0, -1.0, 26.0, 28.0, -1.0, 30.0, -1.0, 32.0, -1.0, -1.0, -1.0, 34.0, 36.0, 38.0, 40.0, -1.0, -1.0, -1.0, -1.0, -1.0, -1.0, -1.0, -1.0, -1.0, -1.0, -1.0, -1.0, -1.0, -1.0], "features": [6.0, 5.0, 3.0, 1.0, 0.0, 2.0, 2.0, 3.0, 1.0, 3.0, -2.0, 8.0, 0.0, -2.0, 0.0, 0.0, -2.0, 0.0, -2.0, 8.0, -2.0, -2.0, -2.0, 0.0, 2.0, 2.0, 8.0, -2.0, -2.0, -2.0, -2.0, -2.0, -2.0, -2.0, -2.0, -2.0, -2.0, -2.0, -2.0, -2.0, -2.0], "thresholds": [0.5, 0.5, 0.5, 444.0, 3.298858642578125, 0.5, 0.5, 0.5, 1729.0, 0.5, -2.0, 0.5, 2.5, -2.0, 2.5, 0.5, -2.0, 3.798858642578125, -2.0, 0.5, -2.0, -2.0, -2.0, 1.5, 2.4828150272369385, 1.5, 0.5, -2.0, -2.0, -2.0, -2.0, -2.0, -2.0, -2.0, -2.0, -2.0, -2.0, -2.0, -2.0, -2.0, -2.0], "node_sample_weight": [5219.0, 750.0, 4469.0, 572.0, 178.0, 4117.0, 352.0, 263.0, 309.0, 119.0, 59.0, 808.0, 3309.0, 45.0, 307.0, 252.0, 11.0, 292.0, 17.0, 104.0, 15.0, 806.0, 2.0, 968.0, 2341.0, 116.0, 191.0, 157.0, 95.0, 120.0, 172.0, 81.0, 23.0, 146.0, 822.0, 561.0, 1780.0, 44.0, 72.0, 106.0, 85.0], "values": [[0.02563709522897107, 0.024362904771028933], [0.0094, 0.040600000000000004], [0.02836204967554263, 0.021637950324457374], [0.003583916083916084, 0.04641608391608392], [0.02808988764044944, 0.021910112359550565], [0.027374301675977653, 0.02262569832402235], [0.03991477272727273, 0.010085227272727273], [0.006083650190114069, 0.04391634980988593], [0.0014563106796116505, 0.048543689320388356], [0.03529411764705883, 0.014705882352941178], [0.013559322033898306, 0.036440677966101696], [0.021225247524752477, 0.028774752475247523], [0.02887579329102448, 0.021124206708975524], [0.016666666666666666, 0.03333333333333333], [0.043322475570032576, 0.006677524429967427], [0.005753968253968254, 0.04424603174603175], [0.013636363636363636, 0.03636363636363637], [0.0011986301369863014, 0.0488013698630137], [0.0058823529411764705, 0.04411764705882353], [0.03317307692307692, 0.01682692307692308], [0.05, 0.0], [0.021277915632754343, 0.02872208436724566], [0.0, 0.05], [0.03507231404958678, 0.014927685950413223], [0.026313541221700126, 0.023686458778299873], [0.04741379310344828, 0.002586206896551724], [0.040837696335078534, 0.009162303664921467], [0.0022292993630573248, 0.04777070063694268], [0.011578947368421053, 0.038421052631578946], [0.0025000000000000005, 0.0475], [0.00029069767441860465, 0.0497093023255814], [0.031481481481481485, 0.018518518518518517], [0.0391304347826087, 0.010869565217391304], [0.039041095890410965, 0.010958904109589041], [0.034367396593673966, 0.015632603406326034], [0.021479500891265598, 0.028520499108734405], [0.027837078651685394, 0.02216292134831461], [0.048863636363636366, 0.0011363636363636365], [0.04652777777777778, 0.0034722222222222225], [0.038207547169811326, 0.01179245283018868], [0.04411764705882353, 0.0058823529411764705]], "children_default": [1.0, 3.0, 5.0, 7.0, 9.0, 11.0, 13.0, 15.0, 17.0, 19.0, -1.0, 21.0, 23.0, -1.0, 25.0, 27.0, -1.0, 29.0, -1.0, 31.0, -1.0, -1.0, -1.0, 33.0, 35.0, 37.0, 39.0, -1.0, -1.0, -1.0, -1.0, -1.0, -1.0, -1.0, -1.0, -1.0, -1.0, -1.0, -1.0, -1.0, -1.0]}, {"children_left": [1.0, 3.0, 5.0, 7.0, 9.0, 11.0, 13.0, 15.0, 17.0, -1.0, 19.0, 21.0, -1.0, 23.0, 25.0, 27.0, 29.0, 31.0, -1.0, 33.0, -1.0, -1.0, -1.0, 35.0, 37.0, -1.0, 39.0, -1.0, -1.0, -1.0, -1.0, -1.0, -1.0, -1.0, -1.0, -1.0, -1.0, -1.0, -1.0, -1.0, -1.0], "children_right": [2.0, 4.0, 6.0, 8.0, 10.0, 12.0, 14.0, 16.0, 18.0, -1.0, 20.0, 22.0, -1.0, 24.0, 26.0, 28.0, 30.0, 32.0, -1.0, 34.0, -1.0, -1.0, -1.0, 36.0, 38.0, -1.0, 40.0, -1.0, -1.0, -1.0, -1.0, -1.0, -1.0, -1.0, -1.0, -1.0, -1.0, -1.0, -1.0, -1.0, -1.0], "features": [6.0, 2.0, 2.0, 5.0, 7.0, 8.0, 3.0, 0.0, 1.0, -2.0, 2.0, 3.0, -2.0, 8.0, 2.0, 3.0, 2.0, 1.0, -2.0, 0.0, -2.0, -2.0, -2.0, 0.0, 1.0, -2.0, 2.0, -2.0, -2.0, -2.0, -2.0, -2.0, -2.0, -2.0, -2.0, -2.0, -2.0, -2.0, -2.0, -2.0, -2.0], "thresholds": [0.5, 2.0850000381469727, 0.5, 0.5, 0.5, 0.5, 0.5, 0.5, 822.5, -2.0, 6.75, 0.5, -2.0, 0.5, 1.375, 0.5, 1.6349999904632568, 1.0, -2.0, 4.5, -2.0, -2.0, -2.0, 3.298858642578125, 550.5, -2.0, 1.899999976158142, -2.0, -2.0, -2.0, -2.0, -2.0, -2.0, -2.0, -2.0, -2.0, -2.0, -2.0, -2.0, -2.0, -2.0], "node_sample_weight": [5219.0, 737.0, 4482.0, 428.0, 309.0, 863.0, 3619.0, 308.0, 120.0, 61.0, 248.0, 862.0, 1.0, 3331.0, 288.0, 152.0, 156.0, 105.0, 15.0, 224.0, 24.0, 804.0, 58.0, 1916.0, 1415.0, 48.0, 240.0, 145.0, 7.0, 56.0, 100.0, 58.0, 47.0, 126.0, 98.0, 915.0, 1001.0, 803.0, 612.0, 16.0, 224.0], "values": [[0.025445487641310594, 0.024554512358689405], [0.010719131614654003, 0.039280868385346], [0.027867023650156184, 0.02213297634984382], [0.013551401869158878, 0.03644859813084112], [0.006796116504854369, 0.04320388349514563], [0.01998841251448436, 0.030011587485515648], [0.029745786128764853, 0.020254213871235147], [0.005681818181818182, 0.04431818181818182], [0.03375, 0.01625], [0.018852459016393444, 0.03114754098360656], [0.003830645161290323, 0.04616935483870968], [0.020011600928074247, 0.029988399071925756], [0.0, 0.05], [0.028655058540978686, 0.021344941459021317], [0.04236111111111111, 0.0076388888888888895], [0.0036184210526315794, 0.046381578947368426], [0.007692307692307693, 0.04230769230769231], [0.037142857142857144, 0.012857142857142857], [0.010000000000000002, 0.04000000000000001], [0.003125, 0.046875], [0.010416666666666668, 0.03958333333333333], [0.019900497512437814, 0.030099502487562192], [0.021551724137931036, 0.028448275862068967], [0.027244258872651358, 0.022755741127348645], [0.030565371024734986, 0.019434628975265017], [0.05, 0.0], [0.04083333333333333, 0.009166666666666667], [0.0031034482758620693, 0.04689655172413793], [0.014285714285714285, 0.03571428571428572], [0.00625, 0.043750000000000004], [0.0085, 0.0415], [0.029310344827586206, 0.020689655172413793], [0.04680851063829788, 0.0031914893617021275], [0.004761904761904762, 0.045238095238095244], [0.001020408163265306, 0.0489795918367347], [0.02923497267759563, 0.020765027322404372], [0.025424575424575425, 0.024575424575424578], [0.04196762141967622, 0.008032378580323787], [0.015604575163398693, 0.03439542483660131], [0.028125, 0.021875000000000002], [0.04174107142857143, 0.008258928571428572]], "children_default": [1.0, 3.0, 5.0, 7.0, 9.0, 11.0, 13.0, 15.0, 17.0, -1.0, 19.0, 21.0, -1.0, 23.0, 25.0, 27.0, 29.0, 31.0, -1.0, 33.0, -1.0, -1.0, -1.0, 35.0, 37.0, -1.0, 39.0, -1.0, -1.0, -1.0, -1.0, -1.0, -1.0, -1.0, -1.0, -1.0, -1.0, -1.0, -1.0, -1.0, -1.0]}, {"children_left": [1.0, 3.0, 5.0, 7.0, 9.0, 11.0, 13.0, 15.0, -1.0, 17.0, -1.0, 19.0, 21.0, 23.0, 25.0, -1.0, -1.0, -1.0, -1.0, 27.0, 29.0, 31.0, 33.0, -1.0, 35.0, -1.0, 37.0, -1.0, -1.0, -1.0, -1.0, -1.0, -1.0, -1.0, -1.0, -1.0, -1.0, -1.0, -1.0], "children_right": [2.0, 4.0, 6.0, 8.0, 10.0, 12.0, 14.0, 16.0, -1.0, 18.0, -1.0, 20.0, 22.0, 24.0, 26.0, -1.0, -1.0, -1.0, -1.0, 28.0, 30.0, 32.0, 34.0, -1.0, 36.0, -1.0, 38.0, -1.0, -1.0, -1.0, -1.0, -1.0, -1.0, -1.0, -1.0, -1.0, -1.0, -1.0, -1.0], "features": [0.0, 6.0, 7.0, 3.0, 8.0, 2.0, 8.0, 5.0, -2.0, 3.0, -2.0, 0.0, 2.0, 1.0, 0.0, -2.0, -2.0, -2.0, -2.0, 0.0, 0.0, 0.0, 1.0, -2.0, 0.0, -2.0, 2.0, -2.0, -2.0, -2.0, -2.0, -2.0, -2.0, -2.0, -2.0, -2.0, -2.0, -2.0, -2.0], "thresholds": [0.5, 0.5, 0.5, 0.5, 0.5, 2.0850000381469727, 0.5, 0.5, -2.0, 0.5, -2.0, 3.5, 2.899999976158142, 411.0, 3.5, -2.0, -2.0, -2.0, -2.0, 1.5, 6.5, 10.5, 693.0, -2.0, 3.298858642578125, -2.0, 6.75, -2.0, -2.0, -2.0, -2.0, -2.0, -2.0, -2.0, -2.0, -2.0, -2.0, -2.0, -2.0], "node_sample_weight": [5219.0, 1109.0, 4110.0, 190.0, 919.0, 3699.0, 411.0, 182.0, 8.0, 916.0, 3.0, 1599.0, 2100.0, 221.0, 190.0, 139.0, 43.0, 851.0, 65.0, 1261.0, 338.0, 289.0, 1811.0, 53.0, 168.0, 64.0, 126.0, 173.0, 1088.0, 255.0, 83.0, 256.0, 33.0, 1051.0, 760.0, 70.0, 98.0, 116.0, 10.0], "values": [[0.025761640160950373, 0.024238359839049626], [0.018935978358881875, 0.031064021641118125], [0.027603406326034065, 0.022396593673965938], [0.010789473684210528, 0.03921052631578947], [0.020620239390642003, 0.029379760609358], [0.03027845363611787, 0.019721546363882132], [0.0035279805352798053, 0.046472019464720196], [0.01043956043956044, 0.03956043956043956], [0.018750000000000003, 0.03125], [0.020687772925764195, 0.029312227074235808], [0.0, 0.05], [0.033176985616010006, 0.016823014383989993], [0.02807142857142857, 0.02192857142857143], [0.005203619909502263, 0.044796380090497745], [0.0015789473684210528, 0.04842105263157895], [0.002877697841726619, 0.047122302158273385], [0.03488372093023256, 0.015116279069767442], [0.020799059929494712, 0.02920094007050529], [0.019230769230769232, 0.03076923076923077], [0.03528945281522602, 0.01471054718477399], [0.025295857988165683, 0.024704142011834324], [0.020242214532871974, 0.02975778546712803], [0.0293208172280508, 0.020679182771949203], [0.01886792452830189, 0.031132075471698113], [0.0008928571428571428, 0.049107142857142856], [0.00390625, 0.04609375], [0.0003968253968253968, 0.04960317460317461], [0.04219653179190752, 0.007803468208092486], [0.03419117647058824, 0.015808823529411764], [0.027450980392156866, 0.02254901960784314], [0.018674698795180723, 0.03132530120481928], [0.022265625, 0.027734375000000002], [0.004545454545454546, 0.045454545454545456], [0.04048525214081827, 0.009514747859181731], [0.01388157894736842, 0.03611842105263158], [0.002142857142857143, 0.04785714285714286], [0.0, 0.05], [0.0, 0.05], [0.005000000000000001, 0.045000000000000005]], "children_default": [1.0, 3.0, 5.0, 7.0, 9.0, 11.0, 13.0, 15.0, -1.0, 17.0, -1.0, 19.0, 21.0, 23.0, 25.0, -1.0, -1.0, -1.0, -1.0, 27.0, 29.0, 31.0, 33.0, -1.0, 35.0, -1.0, 37.0, -1.0, -1.0, -1.0, -1.0, -1.0, -1.0, -1.0, -1.0, -1.0, -1.0, -1.0, -1.0]}, {"children_left": [1.0, 3.0, 5.0, 7.0, 9.0, 11.0, 13.0, 15.0, 17.0, 19.0, 21.0, -1.0, 23.0, 25.0, 27.0, -1.0, 29.0, 31.0, -1.0, -1.0, 33.0, 35.0, 37.0, 39.0, 41.0, 43.0, 45.0, -1.0, -1.0, -1.0, -1.0, -1.0, -1.0, -1.0, -1.0, -1.0, -1.0, -1.0, -1.0, -1.0, -1.0, -1.0, -1.0, -1.0, -1.0, -1.0, -1.0], "children_right": [2.0, 4.0, 6.0, 8.0, 10.0, 12.0, 14.0, 16.0, 18.0, 20.0, 22.0, -1.0, 24.0, 26.0, 28.0, -1.0, 30.0, 32.0, -1.0, -1.0, 34.0, 36.0, 38.0, 40.0, 42.0, 44.0, 46.0, -1.0, -1.0, -1.0, -1.0, -1.0, -1.0, -1.0, -1.0, -1.0, -1.0, -1.0, -1.0, -1.0, -1.0, -1.0, -1.0, -1.0, -1.0, -1.0, -1.0], "features": [1.0, 0.0, 6.0, 6.0, 6.0, 7.0, 3.0, 7.0, 3.0, 0.0, 3.0, -2.0, 8.0, 0.0, 8.0, -2.0, 3.0, 8.0, -2.0, -2.0, 7.0, 1.0, 1.0, 1.0, 0.0, 2.0, 0.0, -2.0, -2.0, -2.0, -2.0, -2.0, -2.0, -2.0, -2.0, -2.0, -2.0, -2.0, -2.0, -2.0, -2.0, -2.0, -2.0, -2.0, -2.0, -2.0, -2.0], "thresholds": [602.5, 0.5, 0.5, 0.5, 0.5, 0.5, 0.5, 0.5, 0.5, 2.5, 0.5, -2.0, 0.5, 2.5, 0.5, -2.0, 0.5, 0.5, -2.0, -2.0, 0.5, 471.5, 166.0, 1215.0, 3.5, 1.5, 10.5, -2.0, -2.0, -2.0, -2.0, -2.0, -2.0, -2.0, -2.0, -2.0, -2.0, -2.0, -2.0, -2.0, -2.0, -2.0, -2.0, -2.0, -2.0, -2.0, -2.0], "node_sample_weight": [5219.0, 3349.0, 1870.0, 1052.0, 2297.0, 338.0, 1532.0, 198.0, 854.0, 206.0, 2091.0, 51.0, 287.0, 1445.0, 87.0, 50.0, 148.0, 797.0, 57.0, 76.0, 130.0, 1898.0, 193.0, 161.0, 126.0, 376.0, 1069.0, 55.0, 32.0, 140.0, 8.0, 795.0, 2.0, 26.0, 104.0, 1735.0, 163.0, 80.0, 113.0, 92.0, 69.0, 42.0, 84.0, 83.0, 293.0, 987.0, 82.0], "values": [[0.025819122437248515, 0.024180877562751488], [0.033039713347267845, 0.01696028665273216], [0.012887700534759359, 0.03711229946524064], [0.01806083650190114, 0.03193916349809886], [0.03989986939486287, 0.010100130605137135], [0.0020710059171597634, 0.04792899408284024], [0.015274151436031334, 0.034725848563968674], [0.009595959595959595, 0.04040404040404041], [0.020023419203747075, 0.029976580796252927], [0.024271844660194178, 0.025728155339805825], [0.041439502630320424, 0.008560497369679579], [0.010784313725490198, 0.0392156862745098], [0.0005226480836236935, 0.04947735191637631], [0.014359861591695503, 0.0356401384083045], [0.030459770114942532, 0.019540229885057474], [0.031, 0.019000000000000003], [0.002364864864864865, 0.04763513513513514], [0.02038895859473024, 0.029611041405269763], [0.014912280701754385, 0.03508771929824561], [0.03815789473684211, 0.011842105263157895], [0.016153846153846154, 0.03384615384615385], [0.04075342465753425, 0.009246575342465754], [0.04818652849740933, 0.0018134715025906736], [0.00031055900621118014, 0.04968944099378882], [0.0007936507936507937, 0.049206349206349205], [0.019680851063829788, 0.030319148936170215], [0.012488306828811975, 0.03751169317118803], [0.02909090909090909, 0.02090909090909091], [0.0328125, 0.0171875], [0.0025000000000000005, 0.0475], [0.0, 0.05], [0.020440251572327046, 0.029559748427672956], [0.0, 0.05], [0.03653846153846154, 0.013461538461538462], [0.011057692307692308, 0.03894230769230769], [0.04158501440922191, 0.008414985590778098], [0.03190184049079755, 0.018098159509202457], [0.05, 0.0], [0.04690265486725664, 0.003097345132743363], [0.0, 0.05], [0.0007246376811594203, 0.04927536231884058], [0.002380952380952381, 0.047619047619047616], [0.0, 0.05], [0.018674698795180723, 0.03132530120481928], [0.019965870307167236, 0.03003412969283277], [0.013120567375886525, 0.03687943262411347], [0.004878048780487806, 0.0451219512195122]], "children_default": [1.0, 3.0, 5.0, 7.0, 9.0, 11.0, 13.0, 15.0, 17.0, 19.0, 21.0, -1.0, 23.0, 25.0, 27.0, -1.0, 29.0, 31.0, -1.0, -1.0, 33.0, 35.0, 37.0, 39.0, 41.0, 43.0, 45.0, -1.0, -1.0, -1.0, -1.0, -1.0, -1.0, -1.0, -1.0, -1.0, -1.0, -1.0, -1.0, -1.0, -1.0, -1.0, -1.0, -1.0, -1.0, -1.0, -1.0]}, {"children_left": [1.0, 3.0, 5.0, 7.0, 9.0, 11.0, 13.0, 15.0, -1.0, 17.0, -1.0, 19.0, -1.0, 21.0, 23.0, 25.0, 27.0, 29.0, -1.0, -1.0, -1.0, 31.0, 33.0, 35.0, 37.0, -1.0, -1.0, -1.0, -1.0, -1.0, -1.0, -1.0, -1.0, -1.0, -1.0, -1.0, -1.0, -1.0, -1.0], "children_right": [2.0, 4.0, 6.0, 8.0, 10.0, 12.0, 14.0, 16.0, -1.0, 18.0, -1.0, 20.0, -1.0, 22.0, 24.0, 26.0, 28.0, 30.0, -1.0, -1.0, -1.0, 32.0, 34.0, 36.0, 38.0, -1.0, -1.0, -1.0, -1.0, -1.0, -1.0, -1.0, -1.0, -1.0, -1.0, -1.0, -1.0, -1.0, -1.0], "features": [6.0, 5.0, 0.0, 3.0, 2.0, 8.0, 0.0, 2.0, -2.0, 0.0, -2.0, 3.0, -2.0, 3.0, 3.0, 1.0, 1.0, 1.0, -2.0, -2.0, -2.0, 8.0, 8.0, 1.0, 0.0, -2.0, -2.0, -2.0, -2.0, -2.0, -2.0, -2.0, -2.0, -2.0, -2.0, -2.0, -2.0, -2.0, -2.0], "thresholds": [0.5, 0.5, 0.5, 0.5, 8.0, 0.5, 3.298858642578125, 3.1649999618530273, -2.0, 2.5, -2.0, 0.5, -2.0, 0.5, 0.5, 783.5, 41.5, 822.5, -2.0, -2.0, -2.0, 0.5, 0.5, 550.5, 3.798858642578125, -2.0, -2.0, -2.0, -2.0, -2.0, -2.0, -2.0, -2.0, -2.0, -2.0, -2.0, -2.0, -2.0, -2.0], "node_sample_weight": [5219.0, 742.0, 4477.0, 569.0, 173.0, 916.0, 3561.0, 548.0, 21.0, 164.0, 9.0, 914.0, 2.0, 1679.0, 1882.0, 430.0, 118.0, 94.0, 70.0, 859.0, 55.0, 1533.0, 146.0, 1749.0, 133.0, 279.0, 151.0, 5.0, 113.0, 83.0, 11.0, 879.0, 654.0, 83.0, 63.0, 888.0, 861.0, 12.0, 121.0], "values": [[0.025244299674267102, 0.0247557003257329], [0.010983827493261456, 0.03901617250673855], [0.02760777306231852, 0.022392226937681486], [0.004130052724077329, 0.045869947275922675], [0.033526011560693646, 0.01647398843930636], [0.02134279475982533, 0.028657205240174673], [0.029219320415613592, 0.02078067958438641], [0.003923357664233577, 0.04607664233576642], [0.009523809523809525, 0.04047619047619048], [0.03536585365853658, 0.014634146341463414], [0.0, 0.05], [0.02138949671772429, 0.028610503282275712], [0.0, 0.05], [0.03272781417510423, 0.017272185824895772], [0.026089266737513286, 0.023910733262486716], [0.004651162790697674, 0.04534883720930233], [0.0012711864406779662, 0.048728813559322036], [0.038829787234042554, 0.011170212765957447], [0.03071428571428572, 0.019285714285714288], [0.02142025611175786, 0.028579743888242144], [0.02090909090909091, 0.02909090909090909], [0.031539465101108936, 0.018460534898891063], [0.045205479452054796, 0.004794520547945206], [0.025157232704402517, 0.024842767295597486], [0.038345864661654135, 0.011654135338345865], [0.0062724014336917565, 0.04372759856630825], [0.001655629139072848, 0.04834437086092716], [0.020000000000000004, 0.03], [0.0004424778761061947, 0.049557522123893805], [0.04096385542168675, 0.009036144578313253], [0.022727272727272728, 0.02727272727272727], [0.027929465301478953, 0.02207053469852105], [0.036391437308868506, 0.013608562691131499], [0.0427710843373494, 0.007228915662650603], [0.048412698412698414, 0.0015873015873015873], [0.03845720720720721, 0.011542792792792793], [0.011440185830429734, 0.03855981416957027], [0.020833333333333336, 0.02916666666666667], [0.04008264462809918, 0.009917355371900827]], "children_default": [1.0, 3.0, 5.0, 7.0, 9.0, 11.0, 13.0, 15.0, -1.0, 17.0, -1.0, 19.0, -1.0, 21.0, 23.0, 25.0, 27.0, 29.0, -1.0, -1.0, -1.0, 31.0, 33.0, 35.0, 37.0, -1.0, -1.0, -1.0, -1.0, -1.0, -1.0, -1.0, -1.0, -1.0, -1.0, -1.0, -1.0, -1.0, -1.0]}, {"children_left": [1.0, 3.0, 5.0, 7.0, 9.0, 11.0, 13.0, 15.0, 17.0, -1.0, 19.0, 21.0, -1.0, -1.0, 23.0, 25.0, 27.0, 29.0, 31.0, -1.0, 33.0, 35.0, 37.0, -1.0, -1.0, -1.0, -1.0, -1.0, -1.0, -1.0, -1.0, -1.0, -1.0, -1.0, -1.0, -1.0, -1.0, -1.0, -1.0], "children_right": [2.0, 4.0, 6.0, 8.0, 10.0, 12.0, 14.0, 16.0, 18.0, -1.0, 20.0, 22.0, -1.0, -1.0, 24.0, 26.0, 28.0, 30.0, 32.0, -1.0, 34.0, 36.0, 38.0, -1.0, -1.0, -1.0, -1.0, -1.0, -1.0, -1.0, -1.0, -1.0, -1.0, -1.0, -1.0, -1.0, -1.0, -1.0, -1.0], "features": [7.0, 3.0, 0.0, 8.0, 0.0, 3.0, 1.0, 6.0, 1.0, -2.0, 6.0, 2.0, -2.0, -2.0, 0.0, 4.0, 1.0, 2.0, 2.0, -2.0, 1.0, 8.0, 2.0, -2.0, -2.0, -2.0, -2.0, -2.0, -2.0, -2.0, -2.0, -2.0, -2.0, -2.0, -2.0, -2.0, -2.0, -2.0, -2.0], "thresholds": [0.5, 0.5, 3.798858642578125, 0.5, 0.5, 0.5, 412.0, 0.5, 596.0, -2.0, 0.5, 1.25, -2.0, -2.0, 4.5, 0.5, 608.0, 0.5, 2.125, -2.0, 748.5, 0.5, 1.75, -2.0, -2.0, -2.0, -2.0, -2.0, -2.0, -2.0, -2.0, -2.0, -2.0, -2.0, -2.0, -2.0, -2.0, -2.0, -2.0], "node_sample_weight": [5219.0, 4650.0, 569.0, 4290.0, 360.0, 343.0, 226.0, 2893.0, 1397.0, 60.0, 300.0, 334.0, 9.0, 46.0, 180.0, 105.0, 2788.0, 801.0, 596.0, 18.0, 282.0, 182.0, 152.0, 57.0, 123.0, 101.0, 4.0, 1829.0, 959.0, 4.0, 797.0, 261.0, 335.0, 205.0, 77.0, 174.0, 8.0, 10.0, 142.0], "values": [[0.025253880053650125, 0.024746119946349877], [0.02789247311827957, 0.02210752688172043], [0.0036906854130052723, 0.04630931458699473], [0.027027972027972032, 0.022972027972027975], [0.03819444444444445, 0.011805555555555555], [0.0052478134110787176, 0.044752186588921286], [0.001327433628318584, 0.048672566371681415], [0.02573453162806775, 0.02426546837193225], [0.029706513958482464, 0.02029348604151754], [0.016666666666666666, 0.03333333333333333], [0.0425, 0.0075], [0.0047904191616766475, 0.045209580838323354], [0.022222222222222223, 0.02777777777777778], [0.004347826086956522, 0.04565217391304348], [0.0005555555555555556, 0.04944444444444445], [0.03, 0.020000000000000004], [0.025573888091822095, 0.024426111908177908], [0.0418227215980025, 0.008177278401997504], [0.01342281879194631, 0.03657718120805369], [0.04722222222222222, 0.002777777777777778], [0.04219858156028369, 0.007801418439716313], [0.0035714285714285713, 0.04642857142857143], [0.00625, 0.043750000000000004], [0.0017543859649122807, 0.048245614035087724], [0.0, 0.05], [0.030693069306930693, 0.01930693069306931], [0.0125, 0.037500000000000006], [0.03212137780207764, 0.017878622197922363], [0.013086548488008344, 0.03691345151199166], [0.0, 0.05], [0.042032622333751574, 0.007967377666248433], [0.016283524904214558, 0.033716475095785445], [0.01119402985074627, 0.038805970149253737], [0.04780487804878049, 0.002195121951219512], [0.02727272727272727, 0.022727272727272728], [0.0037356321839080464, 0.04626436781609196], [0.0, 0.05], [0.005000000000000001, 0.045000000000000005], [0.006338028169014085, 0.04366197183098591]], "children_default": [1.0, 3.0, 5.0, 7.0, 9.0, 11.0, 13.0, 15.0, 17.0, -1.0, 19.0, 21.0, -1.0, -1.0, 23.0, 25.0, 27.0, 29.0, 31.0, -1.0, 33.0, 35.0, 37.0, -1.0, -1.0, -1.0, -1.0, -1.0, -1.0, -1.0, -1.0, -1.0, -1.0, -1.0, -1.0, -1.0, -1.0, -1.0, -1.0]}, {"children_left": [1.0, 3.0, 5.0, 7.0, 9.0, 11.0, 13.0, 15.0, -1.0, 17.0, 19.0, 21.0, 23.0, 25.0, -1.0, 27.0, -1.0, 29.0, 31.0, 33.0, -1.0, 35.0, 37.0, 39.0, 41.0, -1.0, -1.0, -1.0, -1.0, -1.0, -1.0, -1.0, -1.0, -1.0, -1.0, -1.0, -1.0, -1.0, -1.0, -1.0, -1.0, -1.0, -1.0], "children_right": [2.0, 4.0, 6.0, 8.0, 10.0, 12.0, 14.0, 16.0, -1.0, 18.0, 20.0, 22.0, 24.0, 26.0, -1.0, 28.0, -1.0, 30.0, 32.0, 34.0, -1.0, 36.0, 38.0, 40.0, 42.0, -1.0, -1.0, -1.0, -1.0, -1.0, -1.0, -1.0, -1.0, -1.0, -1.0, -1.0, -1.0, -1.0, -1.0, -1.0, -1.0, -1.0, -1.0], "features": [8.0, 0.0, 7.0, 3.0, 3.0, 1.0, 2.0, 6.0, -2.0, 6.0, 1.0, 2.0, 2.0, 0.0, -2.0, 5.0, -2.0, 5.0, 1.0, 2.0, -2.0, 0.0, 3.0, 0.0, 1.0, -2.0, -2.0, -2.0, -2.0, -2.0, -2.0, -2.0, -2.0, -2.0, -2.0, -2.0, -2.0, -2.0, -2.0, -2.0, -2.0, -2.0, -2.0], "thresholds": [0.5, 0.5, 0.5, 0.5, 0.5, 556.0, 3.1649999618530273, 0.5, -2.0, 0.5, 812.0, 1.465000033378601, 2.565000057220459, 3.5, -2.0, 0.5, -2.0, 0.5, 562.0, 1.25, -2.0, 0.5, 0.5, 2.5, 861.0, -2.0, -2.0, -2.0, -2.0, -2.0, -2.0, -2.0, -2.0, -2.0, -2.0, -2.0, -2.0, -2.0, -2.0, -2.0, -2.0, -2.0, -2.0], "node_sample_weight": [5219.0, 3508.0, 1711.0, 1101.0, 2407.0, 1533.0, 178.0, 1039.0, 62.0, 2249.0, 158.0, 890.0, 643.0, 99.0, 79.0, 187.0, 852.0, 270.0, 1979.0, 109.0, 49.0, 82.0, 808.0, 296.0, 347.0, 67.0, 32.0, 149.0, 38.0, 213.0, 57.0, 1047.0, 932.0, 44.0, 65.0, 1.0, 81.0, 719.0, 89.0, 163.0, 133.0, 46.0, 301.0], "values": [[0.025368844606246405, 0.024631155393753594], [0.02410205245153934, 0.02589794754846066], [0.027966101694915254, 0.022033898305084745], [0.020118074477747504, 0.029881925522252502], [0.02592438720398837, 0.024075612796011635], [0.03088714938030007, 0.019112850619699934], [0.0028089887640449437, 0.04719101123595506], [0.019971126082771896, 0.030028873917228107], [0.022580645161290325, 0.027419354838709678], [0.025055580257892396, 0.024944419742107607], [0.03829113924050633, 0.01170886075949367], [0.042752808988764046, 0.007247191011235956], [0.014463452566096425, 0.035536547433903574], [0.004545454545454546, 0.045454545454545456], [0.0006329113924050633, 0.04936708860759494], [0.009358288770053477, 0.04064171122994653], [0.022300469483568078, 0.027699530516431925], [0.009074074074074075, 0.04092592592592593], [0.027235977766548763, 0.02276402223345124], [0.04541284403669725, 0.0045871559633027525], [0.022448979591836737, 0.027551020408163263], [0.048170731707317074, 0.0018292682926829267], [0.042202970297029706, 0.007797029702970297], [0.019932432432432434, 0.030067567567567566], [0.009798270893371758, 0.040201729106628246], [0.006716417910447761, 0.04328358208955224], [0.0, 0.05], [0.0033557046979865775, 0.046644295302013423], [0.03289473684210527, 0.017105263157894738], [0.004929577464788733, 0.04507042253521127], [0.02456140350877193, 0.025438596491228073], [0.04044890162368672, 0.009551098376313277], [0.012392703862660946, 0.03760729613733906], [0.05, 0.0], [0.04230769230769231, 0.007692307692307693], [0.0, 0.05], [0.04876543209876544, 0.0012345679012345679], [0.041446453407510436, 0.00855354659248957], [0.048314606741573035, 0.0016853932584269663], [0.025460122699386502, 0.024539877300613498], [0.013157894736842105, 0.03684210526315789], [0.02065217391304348, 0.029347826086956526], [0.008139534883720932, 0.041860465116279076]], "children_default": [1.0, 3.0, 5.0, 7.0, 9.0, 11.0, 13.0, 15.0, -1.0, 17.0, 19.0, 21.0, 23.0, 25.0, -1.0, 27.0, -1.0, 29.0, 31.0, 33.0, -1.0, 35.0, 37.0, 39.0, 41.0, -1.0, -1.0, -1.0, -1.0, -1.0, -1.0, -1.0, -1.0, -1.0, -1.0, -1.0, -1.0, -1.0, -1.0, -1.0, -1.0, -1.0, -1.0]}, {"children_left": [1.0, 3.0, 5.0, 7.0, 9.0, 11.0, 13.0, 15.0, 17.0, -1.0, 19.0, -1.0, 21.0, 23.0, -1.0, 25.0, 27.0, 29.0, -1.0, -1.0, 31.0, -1.0, 33.0, 35.0, 37.0, -1.0, -1.0, -1.0, -1.0, -1.0, -1.0, -1.0, -1.0, -1.0, -1.0, -1.0, -1.0, -1.0, -1.0], "children_right": [2.0, 4.0, 6.0, 8.0, 10.0, 12.0, 14.0, 16.0, 18.0, -1.0, 20.0, -1.0, 22.0, 24.0, -1.0, 26.0, 28.0, 30.0, -1.0, -1.0, 32.0, -1.0, 34.0, 36.0, 38.0, -1.0, -1.0, -1.0, -1.0, -1.0, -1.0, -1.0, -1.0, -1.0, -1.0, -1.0, -1.0, -1.0, -1.0], "features": [1.0, 8.0, 6.0, 0.0, 6.0, 7.0, 3.0, 7.0, 7.0, -2.0, 2.0, -2.0, 1.0, 2.0, -2.0, 6.0, 3.0, 0.0, -2.0, -2.0, 2.0, -2.0, 0.0, 0.0, 2.0, -2.0, -2.0, -2.0, -2.0, -2.0, -2.0, -2.0, -2.0, -2.0, -2.0, -2.0, -2.0, -2.0, -2.0], "thresholds": [562.5, 0.5, 0.5, 0.5, 0.5, 0.5, 0.5, 0.5, 0.5, -2.0, 0.5, -2.0, 779.0, 2.0850000381469727, -2.0, 0.5, 0.5, 4.5, -2.0, -2.0, 1.4050000309944153, -2.0, 4.5, 3.5, 2.4828150272369385, -2.0, -2.0, -2.0, -2.0, -2.0, -2.0, -2.0, -2.0, -2.0, -2.0, -2.0, -2.0, -2.0, -2.0], "node_sample_weight": [5219.0, 3280.0, 1939.0, 2288.0, 992.0, 346.0, 1593.0, 1055.0, 1233.0, 71.0, 921.0, 54.0, 292.0, 1513.0, 80.0, 917.0, 138.0, 1159.0, 74.0, 2.0, 919.0, 40.0, 252.0, 602.0, 911.0, 35.0, 882.0, 133.0, 5.0, 796.0, 363.0, 88.0, 831.0, 149.0, 103.0, 450.0, 152.0, 71.0, 840.0], "values": [[0.025282621191799193, 0.024717378808200807], [0.0331859756097561, 0.016814024390243903], [0.011913357400722023, 0.03808664259927798], [0.02958916083916084, 0.02041083916083916], [0.04148185483870968, 0.008518145161290323], [0.0023121387283236996, 0.047687861271676305], [0.013998744507219083, 0.036001255492780916], [0.018293838862559243, 0.03170616113744076], [0.03925385239253853, 0.010746147607461476], [0.021830985915492956, 0.028169014084507046], [0.04299674267100978, 0.007003257328990229], [0.010185185185185186, 0.03981481481481482], [0.0008561643835616438, 0.04914383561643836], [0.013152676801057504, 0.0368473231989425], [0.03, 0.020000000000000004], [0.02044711014176663, 0.029552889858233372], [0.003985507246376811, 0.04601449275362319], [0.0408541846419327, 0.0091458153580673], [0.01418918918918919, 0.03581081081081081], [0.0, 0.05], [0.04309031556039173, 0.00690968443960827], [0.00375, 0.046250000000000006], [0.0003968253968253968, 0.04960317460317461], [0.015199335548172759, 0.034800664451827244], [0.011800219538968168, 0.03819978046103184], [0.037142857142857144, 0.012857142857142857], [0.019784580498866215, 0.03021541950113379], [0.004135338345864661, 0.04586466165413534], [0.0, 0.05], [0.0425251256281407, 0.007474874371859297], [0.0371900826446281, 0.0128099173553719], [0.047159090909090914, 0.002840909090909091], [0.04265944645006017, 0.007340553549939831], [0.0006711409395973155, 0.049328859060402686], [0.0, 0.05], [0.018666666666666668, 0.03133333333333334], [0.00493421052631579, 0.04506578947368421], [0.0021126760563380284, 0.04788732394366197], [0.01261904761904762, 0.03738095238095238]], "children_default": [1.0, 3.0, 5.0, 7.0, 9.0, 11.0, 13.0, 15.0, 17.0, -1.0, 19.0, -1.0, 21.0, 23.0, -1.0, 25.0, 27.0, 29.0, -1.0, -1.0, 31.0, -1.0, 33.0, 35.0, 37.0, -1.0, -1.0, -1.0, -1.0, -1.0, -1.0, -1.0, -1.0, -1.0, -1.0, -1.0, -1.0, -1.0, -1.0]}]}