{"internal_dtype": "<class 'numpy.float64'>", "input_dtype": "<class 'numpy.float64'>", "objective": "squared_error", "tree_output": "raw_value", "base_offset": 0, "trees": [{"children_left": [1.0, 3.0, 5.0, 7.0, 9.0, 11.0, 13.0, 15.0, 17.0, 19.0, -1.0, 21.0, -1.0, 23.0, 25.0, 27.0, 29.0, 31.0, -1.0, 33.0, 35.0, 37.0, -1.0, 39.0, -1.0, -1.0, 41.0, 43.0, 45.0, 47.0, 49.0, 51.0, -1.0, -1.0, 53.0, 55.0, -1.0, 57.0, 59.0, -1.0, 61.0, 63.0, 65.0, 67.0, 69.0, 71.0, -1.0, 73.0, 75.0, 77.0, 79.0, 81.0, -1.0, 83.0, -1.0, -1.0, -1.0, 85.0, 87.0, 89.0, -1.0, 91.0, -1.0, 93.0, -1.0, 95.0, 97.0, 99.0, 101.0, 103.0, 105.0, 107.0, 109.0, 111.0, 113.0, 115.0, 117.0, 119.0, 121.0, 123.0, 125.0, -1.0, -1.0, 127.0, -1.0, 129.0, 131.0, 133.0, 135.0, 137.0, 139.0, 141.0, -1.0, 143.0, -1.0, 145.0, -1.0, 147.0, -1.0, 149.0, -1.0, 151.0, 153.0, 155.0, 157.0, -1.0, -1.0, 159.0, -1.0, 161.0, -1.0, 163.0, 165.0, 167.0, -1.0, 169.0, -1.0, -1.0, -1.0, 171.0, 173.0, -1.0, -1.0, 175.0, -1.0, -1.0, -1.0, 177.0, -1.0, 179.0, 181.0, -1.0, -1.0, 183.0, 185.0, 187.0, 189.0, -1.0, -1.0, 191.0, -1.0, 193.0, -1.0, -1.0, 195.0, 197.0, 199.0, -1.0, -1.0, 201.0, 203.0, 205.0, -1.0, 207.0, -1.0, 209.0, -1.0, 211.0, 213.0, 215.0, 217.0, 219.0, -1.0, -1.0, 221.0, 223.0, -1.0, 225.0, 227.0, -1.0, -1.0, -1.0, 229.0, -1.0, 231.0, 233.0, -1.0, 235.0, -1.0, 237.0, 239.0, 241.0, -1.0, -1.0, 243.0, -1.0, 245.0, 247.0, 249.0, 251.0, 253.0, 255.0, -1.0, 257.0, -1.0, 259.0, -1.0, -1.0, 261.0, 263.0, -1.0, 265.0, -1.0, -1.0, 267.0, -1.0, -1.0, -1.0, 269.0, 271.0, 273.0, -1.0, -1.0, 275.0, -1.0, -1.0, -1.0, -1.0, 277.0, 279.0, 281.0, 283.0, -1.0, 285.0, 287.0, -1.0, -1.0, -1.0, 289.0, -1.0, 291.0, 293.0, -1.0, 295.0, -1.0, -1.0, -1.0, 297.0, 299.0, 301.0, 303.0, 305.0, 307.0, 309.0, -1.0, 311.0, 313.0, 315.0, 317.0, 319.0, -1.0, 321.0, -1.0, 323.0, 325.0, -1.0, 327.0, 329.0, -1.0, 331.0, -1.0, 333.0, 335.0, 337.0, 339.0, -1.0, -1.0, -1.0, 341.0, 343.0, 345.0, -1.0, -1.0, 347.0, -1.0, 349.0, -1.0, 351.0, -1.0, 353.0, -1.0, 355.0, -1.0, 357.0, -1.0, 359.0, -1.0, 361.0, 363.0, 365.0, -1.0, 367.0, 369.0, 371.0, -1.0, -1.0, -1.0, 373.0, -1.0, -1.0, -1.0, -1.0, -1.0, 375.0, -1.0, 377.0, -1.0, -1.0, -1.0, 379.0, -1.0, 381.0, -1.0, 383.0, 385.0, 387.0, 389.0, -1.0, -1.0, 391.0, -1.0, 393.0, 395.0, 397.0, -1.0, -1.0, -1.0, -1.0, -1.0, -1.0, 399.0, 401.0, -1.0, 403.0, -1.0, -1.0, -1.0, 405.0, -1.0, 407.0, -1.0, 409.0, 411.0, 413.0, 415.0, 417.0, 419.0, 421.0, -1.0, 423.0, -1.0, -1.0, 425.0, 427.0, -1.0, -1.0, 429.0, 431.0, -1.0, -1.0, -1.0, -1.0, 433.0, -1.0, -1.0, 435.0, -1.0, -1.0, -1.0, -1.0, -1.0, 437.0, -1.0, 439.0, 441.0, 443.0, -1.0, 445.0, -1.0, 447.0, -1.0, -1.0, -1.0, -1.0, -1.0, 449.0, -1.0, -1.0, -1.0, 451.0, -1.0, 453.0, -1.0, 455.0, 457.0, -1.0, 459.0, 461.0, 463.0, 465.0, -1.0, -1.0, -1.0, -1.0, -1.0, 467.0, -1.0, -1.0, -1.0, 469.0, -1.0, 471.0, -1.0, 473.0, -1.0, 475.0, 477.0, 479.0, -1.0, -1.0, -1.0, 481.0, -1.0, 483.0, -1.0, -1.0, 485.0, 487.0, -1.0, -1.0, 489.0, -1.0, -1.0, 491.0, -1.0, 493.0, -1.0, 495.0, 497.0, 499.0, -1.0, -1.0, 501.0, -1.0, 503.0, -1.0, -1.0, -1.0, 505.0, -1.0, -1.0, 507.0, -1.0, -1.0, 509.0, 511.0, -1.0, 513.0, 515.0, 517.0, -1.0, 519.0, -1.0, -1.0, 521.0, 523.0, -1.0, -1.0, -1.0, -1.0, -1.0, -1.0, -1.0, -1.0, -1.0, 525.0, -1.0, -1.0, -1.0, 527.0, 529.0, 531.0, -1.0, -1.0, -1.0, 533.0, -1.0, -1.0, 535.0, 537.0, -1.0, 539.0, -1.0, 541.0, -1.0, -1.0, 543.0, 545.0, -1.0, -1.0, -1.0, -1.0, -1.0, -1.0, -1.0, 547.0, -1.0, -1.0, -1.0, -1.0, -1.0, -1.0, 549.0, -1.0, -1.0, -1.0, 551.0, -1.0, -1.0, 553.0, -1.0, 555.0, -1.0, -1.0, -1.0, -1.0, -1.0, -1.0, -1.0, -1.0, -1.0, -1.0, -1.0, -1.0, -1.0, -1.0, -1.0, 557.0, -1.0, 559.0, -1.0, -1.0, -1.0, 561.0, -1.0, -1.0, -1.0, -1.0, -1.0, 563.0, -1.0, -1.0, -1.0, -1.0, -1.0, -1.0, -1.0, -1.0, -1.0, -1.0, -1.0, -1.0, -1.0, 565.0, -1.0, -1.0, -1.0], "children_right": [2.0, 4.0, 6.0, 8.0, 10.0, 12.0, 14.0, 16.0, 18.0, 20.0, -1.0, 22.0, -1.0, 24.0, 26.0, 28.0, 30.0, 32.0, -1.0, 34.0, 36.0, 38.0, -1.0, 40.0, -1.0, -1.0, 42.0, 44.0, 46.0, 48.0, 50.0, 52.0, -1.0, -1.0, 54.0, 56.0, -1.0, 58.0, 60.0, -1.0, 62.0, 64.0, 66.0, 68.0, 70.0, 72.0, -1.0, 74.0, 76.0, 78.0, 80.0, 82.0, -1.0, 84.0, -1.0, -1.0, -1.0, 86.0, 88.0, 90.0, -1.0, 92.0, -1.0, 94.0, -1.0, 96.0, 98.0, 100.0, 102.0, 104.0, 106.0, 108.0, 110.0, 112.0, 114.0, 116.0, 118.0, 120.0, 122.0, 124.0, 126.0, -1.0, -1.0, 128.0, -1.0, 130.0, 132.0, 134.0, 136.0, 138.0, 140.0, 142.0, -1.0, 144.0, -1.0, 146.0, -1.0, 148.0, -1.0, 150.0, -1.0, 152.0, 154.0, 156.0, 158.0, -1.0, -1.0, 160.0, -1.0, 162.0, -1.0, 164.0, 166.0, 168.0, -1.0, 170.0, -1.0, -1.0, -1.0, 172.0, 174.0, -1.0, -1.0, 176.0, -1.0, -1.0, -1.0, 178.0, -1.0, 180.0, 182.0, -1.0, -1.0, 184.0, 186.0, 188.0, 190.0, -1.0, -1.0, 192.0, -1.0, 194.0, -1.0, -1.0, 196.0, 198.0, 200.0, -1.0, -1.0, 202.0, 204.0, 206.0, -1.0, 208.0, -1.0, 210.0, -1.0, 212.0, 214.0, 216.0, 218.0, 220.0, -1.0, -1.0, 222.0, 224.0, -1.0, 226.0, 228.0, -1.0, -1.0, -1.0, 230.0, -1.0, 232.0, 234.0, -1.0, 236.0, -1.0, 238.0, 240.0, 242.0, -1.0, -1.0, 244.0, -1.0, 246.0, 248.0, 250.0, 252.0, 254.0, 256.0, -1.0, 258.0, -1.0, 260.0, -1.0, -1.0, 262.0, 264.0, -1.0, 266.0, -1.0, -1.0, 268.0, -1.0, -1.0, -1.0, 270.0, 272.0, 274.0, -1.0, -1.0, 276.0, -1.0, -1.0, -1.0, -1.0, 278.0, 280.0, 282.0, 284.0, -1.0, 286.0, 288.0, -1.0, -1.0, -1.0, 290.0, -1.0, 292.0, 294.0, -1.0, 296.0, -1.0, -1.0, -1.0, 298.0, 300.0, 302.0, 304.0, 306.0, 308.0, 310.0, -1.0, 312.0, 314.0, 316.0, 318.0, 320.0, -1.0, 322.0, -1.0, 324.0, 326.0, -1.0, 328.0, 330.0, -1.0, 332.0, -1.0, 334.0, 336.0, 338.0, 340.0, -1.0, -1.0, -1.0, 342.0, 344.0, 346.0, -1.0, -1.0, 348.0, -1.0, 350.0, -1.0, 352.0, -1.0, 354.0, -1.0, 356.0, -1.0, 358.0, -1.0, 360.0, -1.0, 362.0, 364.0, 366.0, -1.0, 368.0, 370.0, 372.0, -1.0, -1.0, -1.0, 374.0, -1.0, -1.0, -1.0, -1.0, -1.0, 376.0, -1.0, 378.0, -1.0, -1.0, -1.0, 380.0, -1.0, 382.0, -1.0, 384.0, 386.0, 388.0, 390.0, -1.0, -1.0, 392.0, -1.0, 394.0, 396.0, 398.0, -1.0, -1.0, -1.0, -1.0, -1.0, -1.0, 400.0, 402.0, -1.0, 404.0, -1.0, -1.0, -1.0, 406.0, -1.0, 408.0, -1.0, 410.0, 412.0, 414.0, 416.0, 418.0, 420.0, 422.0, -1.0, 424.0, -1.0, -1.0, 426.0, 428.0, -1.0, -1.0, 430.0, 432.0, -1.0, -1.0, -1.0, -1.0, 434.0, -1.0, -1.0, 436.0, -1.0, -1.0, -1.0, -1.0, -1.0, 438.0, -1.0, 440.0, 442.0, 444.0, -1.0, 446.0, -1.0, 448.0, -1.0, -1.0, -1.0, -1.0, -1.0, 450.0, -1.0, -1.0, -1.0, 452.0, -1.0, 454.0, -1.0, 456.0, 458.0, -1.0, 460.0, 462.0, 464.0, 466.0, -1.0, -1.0, -1.0, -1.0, -1.0, 468.0, -1.0, -1.0, -1.0, 470.0, -1.0, 472.0, -1.0, 474.0, -1.0, 476.0, 478.0, 480.0, -1.0, -1.0, -1.0, 482.0, -1.0, 484.0, -1.0, -1.0, 486.0, 488.0, -1.0, -1.0, 490.0, -1.0, -1.0, 492.0, -1.0, 494.0, -1.0, 496.0, 498.0, 500.0, -1.0, -1.0, 502.0, -1.0, 504.0, -1.0, -1.0, -1.0, 506.0, -1.0, -1.0, 508.0, -1.0, -1.0, 510.0, 512.0, -1.0, 514.0, 516.0, 518.0, -1.0, 520.0, -1.0, -1.0, 522.0, 524.0, -1.0, -1.0, -1.0, -1.0, -1.0, -1.0, -1.0, -1.0, -1.0, 526.0, -1.0, -1.0, -1.0, 528.0, 530.0, 532.0, -1.0, -1.0, -1.0, 534.0, -1.0, -1.0, 536.0, 538.0, -1.0, 540.0, -1.0, 542.0, -1.0, -1.0, 544.0, 546.0, -1.0, -1.0, -1.0, -1.0, -1.0, -1.0, -1.0, 548.0, -1.0, -1.0, -1.0, -1.0, -1.0, -1.0, 550.0, -1.0, -1.0, -1.0, 552.0, -1.0, -1.0, 554.0, -1.0, 556.0, -1.0, -1.0, -1.0, -1.0, -1.0, -1.0, -1.0, -1.0, -1.0, -1.0, -1.0, -1.0, -1.0, -1.0, -1.0, 558.0, -1.0, 560.0, -1.0, -1.0, -1.0, 562.0, -1.0, -1.0, -1.0, -1.0, -1.0, 564.0, -1.0, -1.0, -1.0, -1.0, -1.0, -1.0, -1.0, -1.0, -1.0, -1.0, -1.0, -1.0, -1.0, 566.0, -1.0, -1.0, -1.0], "features": [3.0, 9.0, 5.0, 14.0, 7.0, 74.0, 1.0, 1.0, 1.0, 4.0, -2.0, 50.0, -2.0, 17.0, 4.0, 8.0, 0.0, 5.0, -2.0, 5.0, 15.0, 45.0, -2.0, 6.0, -2.0, -2.0, 1.0, 0.0, 18.0, 4.0, 9.0, 36.0, -2.0, -2.0, 0.0, 3.0, -2.0, 1.0, 1.0, -2.0, 37.0, 50.0, 7.0, 3.0, 51.0, 7.0, -2.0, 33.0, 32.0, 59.0, 51.0, 47.0, -2.0, 14.0, -2.0, -2.0, -2.0, 35.0, 11.0, 1.0, -2.0, 3.0, -2.0, 9.0, -2.0, 50.0, 9.0, 55.0, 8.0, 7.0, 60.0, 8.0, 60.0, 8.0, 42.0, 0.0, 0.0, 9.0, 51.0, 49.0, 67.0, -2.0, -2.0, 5.0, -2.0, 0.0, 65.0, 4.0, 0.0, 18.0, 23.0, 11.0, -2.0, 9.0, -2.0, 0.0, -2.0, 3.0, -2.0, 4.0, -2.0, 70.0, 37.0, 0.0, 11.0, -2.0, -2.0, 1.0, -2.0, 75.0, -2.0, 2.0, 75.0, 8.0, -2.0, 37.0, -2.0, -2.0, -2.0, 10.0, 22.0, -2.0, -2.0, 35.0, -2.0, -2.0, -2.0, 32.0, -2.0, 7.0, 3.0, -2.0, -2.0, 0.0, 4.0, 4.0, 9.0, -2.0, -2.0, 3.0, -2.0, 50.0, -2.0, -2.0, 23.0, 7.0, 45.0, -2.0, -2.0, 2.0, 6.0, 51.0, -2.0, 3.0, -2.0, 2.0, -2.0, 37.0, 67.0, 59.0, 9.0, 32.0, -2.0, -2.0, 5.0, 4.0, -2.0, 38.0, 2.0, -2.0, -2.0, -2.0, 3.0, -2.0, 51.0, 8.0, -2.0, 65.0, -2.0, 51.0, 3.0, 11.0, -2.0, -2.0, 31.0, -2.0, 2.0, 1.0, 3.0, 34.0, 7.0, 2.0, -2.0, 8.0, -2.0, 13.0, -2.0, -2.0, 11.0, 23.0, -2.0, 40.0, -2.0, -2.0, 26.0, -2.0, -2.0, -2.0, 7.0, 75.0, 60.0, -2.0, -2.0, 20.0, -2.0, -2.0, -2.0, -2.0, 60.0, 35.0, 5.0, 2.0, -2.0, 5.0, 5.0, -2.0, -2.0, -2.0, 59.0, -2.0, 54.0, 1.0, -2.0, 54.0, -2.0, -2.0, -2.0, 75.0, 73.0, 18.0, 2.0, 64.0, 7.0, 15.0, -2.0, 73.0, 7.0, 54.0, 33.0, 4.0, -2.0, 0.0, -2.0, 8.0, 4.0, -2.0, 18.0, 32.0, -2.0, 14.0, -2.0, 41.0, 56.0, 56.0, 7.0, -2.0, -2.0, -2.0, 51.0, 4.0, 16.0, -2.0, -2.0, 73.0, -2.0, 65.0, -2.0, 32.0, -2.0, 34.0, -2.0, 5.0, -2.0, 7.0, -2.0, 63.0, -2.0, 29.0, 37.0, 43.0, -2.0, 2.0, 73.0, 42.0, -2.0, -2.0, -2.0, 8.0, -2.0, -2.0, -2.0, -2.0, -2.0, 8.0, -2.0, 75.0, -2.0, -2.0, -2.0, 9.0, -2.0, 36.0, -2.0, 75.0, 47.0, 32.0, 32.0, -2.0, -2.0, 59.0, -2.0, 5.0, 32.0, 2.0, -2.0, -2.0, -2.0, -2.0, -2.0, -2.0, 55.0, 4.0, -2.0, 36.0, -2.0, -2.0, -2.0, 9.0, -2.0, 5.0, -2.0, 9.0, 60.0, 60.0, 54.0, 33.0, 0.0, 57.0, -2.0, 72.0, -2.0, -2.0, 3.0, 57.0, -2.0, -2.0, 5.0, 75.0, -2.0, -2.0, -2.0, -2.0, 1.0, -2.0, -2.0, 1.0, -2.0, -2.0, -2.0, -2.0, -2.0, 9.0, -2.0, 44.0, 3.0, 11.0, -2.0, 23.0, -2.0, 9.0, -2.0, -2.0, -2.0, -2.0, -2.0, 3.0, -2.0, -2.0, -2.0, 8.0, -2.0, 8.0, -2.0, 9.0, 0.0, -2.0, 53.0, 9.0, 5.0, 73.0, -2.0, -2.0, -2.0, -2.0, -2.0, 38.0, -2.0, -2.0, -2.0, 48.0, -2.0, 75.0, -2.0, 4.0, -2.0, 33.0, 0.0, 4.0, -2.0, -2.0, -2.0, 61.0, -2.0, 5.0, -2.0, -2.0, 75.0, 8.0, -2.0, -2.0, 67.0, -2.0, -2.0, 61.0, -2.0, 20.0, -2.0, 5.0, 37.0, 52.0, -2.0, -2.0, 47.0, -2.0, 2.0, -2.0, -2.0, -2.0, 5.0, -2.0, -2.0, 57.0, -2.0, -2.0, 60.0, 26.0, -2.0, 44.0, 4.0, 51.0, -2.0, 34.0, -2.0, -2.0, 9.0, 14.0, -2.0, -2.0, -2.0, -2.0, -2.0, -2.0, -2.0, -2.0, -2.0, 7.0, -2.0, -2.0, -2.0, 75.0, 59.0, 48.0, -2.0, -2.0, -2.0, 9.0, -2.0, -2.0, 54.0, 6.0, -2.0, 51.0, -2.0, 36.0, -2.0, -2.0, 5.0, 27.0, -2.0, -2.0, -2.0, -2.0, -2.0, -2.0, -2.0, 43.0, -2.0, -2.0, -2.0, -2.0, -2.0, -2.0, 8.0, -2.0, -2.0, -2.0, 51.0, -2.0, -2.0, 0.0, -2.0, 73.0, -2.0, -2.0, -2.0, -2.0, -2.0, -2.0, -2.0, -2.0, -2.0, -2.0, -2.0, -2.0, -2.0, -2.0, -2.0, 73.0, -2.0, 37.0, -2.0, -2.0, -2.0, 48.0, -2.0, -2.0, -2.0, -2.0, -2.0, 37.0, -2.0, -2.0, -2.0, -2.0, -2.0, -2.0, -2.0, -2.0, -2.0, -2.0, -2.0, -2.0, -2.0, 44.0, -2.0, -2.0, -2.0], "thresholds": [1960.0, 241.5, 1850.654052734375, 0.5, 221.0, 0.5, 42500.0, 90137.0, 110000.0, 2706.0, -2.0, 0.5, -2.0, 0.5, 2545.0, 1558.0, 2011.5, 1813.0, -2.0, 1776.5, 0.5, 0.5, -2.0, 3.0, -2.0, -2.0, 79184.5, 2015.5, 0.5, 2735.0, 158.5, 0.5, -2.0, -2.0, 2020.5, 1596.5, -2.0, 73610.0, 130000.0, -2.0, 0.5, 0.5, 291.0, 1495.5, 0.5, 104.0, -2.0, 0.5, 0.5, 0.5, 0.5, 0.5, -2.0, 0.5, -2.0, -2.0, -2.0, 0.5, 0.5, 46250.0, -2.0, 4960.0, -2.0, 525.0, -2.0, 0.5, 622.5, 0.5, 1432.0, 104.0, 0.5, 1727.5, 0.5, 1432.0, 0.5, 2008.5, 1997.0, 120.5, 0.5, 0.5, 0.5, -2.0, -2.0, 1835.0, -2.0, 2016.5, 0.5, 2935.0, 2006.5, 0.5, 0.5, 0.5, -2.0, 334.6666717529297, -2.0, 2011.5, -2.0, 3548.0, -2.0, 2415.0, -2.0, 0.5, 0.5, 2020.5, 0.5, -2.0, -2.0, 52500.0, -2.0, 0.5, -2.0, 3437.5, 0.5, 1425.5, -2.0, 0.5, -2.0, -2.0, -2.0, 4.5, 0.5, -2.0, -2.0, 0.5, -2.0, -2.0, -2.0, 0.5, -2.0, 168.0, 2490.5, -2.0, -2.0, 2007.5, 2980.0, 2827.5, 203.5, -2.0, -2.0, 1994.5, -2.0, 0.5, -2.0, -2.0, 0.5, 184.5, 0.5, -2.0, -2.0, 3852.5, 4.5, 0.5, -2.0, 1496.5, -2.0, 3647.5, -2.0, 0.5, 0.5, 0.5, 111.0, 0.5, -2.0, -2.0, 1758.5, 2542.5, -2.0, 0.5, 3960.0, -2.0, -2.0, -2.0, 993.5, -2.0, 0.5, 1485.0, -2.0, 0.5, -2.0, 0.5, 1998.5, 0.5, -2.0, -2.0, 0.5, -2.0, 5225.0, 177500.0, 4227.5, 0.5, 212.0, 4301.0, -2.0, 1797.5, -2.0, 0.5, -2.0, -2.0, 0.5, 0.5, -2.0, 0.5, -2.0, -2.0, 0.5, -2.0, -2.0, -2.0, 127.5, 0.5, 0.5, -2.0, -2.0, 0.5, -2.0, -2.0, -2.0, -2.0, 0.5, 0.5, 1790.5, 4007.5, -2.0, 1630.0, 1747.5, -2.0, -2.0, -2.0, 0.5, -2.0, 0.5, 10092500.0, -2.0, 0.5, -2.0, -2.0, -2.0, 0.5, 0.5, 0.5, 4942.5, 0.5, 160.5, 0.5, -2.0, 0.5, 140.0, 0.5, 0.5, 2955.0, -2.0, 2014.5, -2.0, 1867.5, 2925.0, -2.0, 0.5, 0.5, -2.0, 0.5, -2.0, 0.5, 0.5, 0.5, 231.0, -2.0, -2.0, -2.0, 0.5, 2536.5, 0.5, -2.0, -2.0, 0.5, -2.0, 0.5, -2.0, 0.5, -2.0, 0.5, -2.0, 1692.0, -2.0, 83.0, -2.0, 0.5, -2.0, 0.5, 0.5, 0.5, -2.0, 3640.0, 0.5, 0.5, -2.0, -2.0, -2.0, 1662.5, -2.0, -2.0, -2.0, -2.0, -2.0, 1835.0, -2.0, 0.5, -2.0, -2.0, -2.0, 403.5, -2.0, 0.5, -2.0, 0.5, 0.5, 0.5, 0.5, -2.0, -2.0, 0.5, -2.0, 1824.5, 0.5, 4782.5, -2.0, -2.0, -2.0, -2.0, -2.0, -2.0, 0.5, 2765.0, -2.0, 0.5, -2.0, -2.0, -2.0, 305.0, -2.0, 1870.0, -2.0, 126.5, 0.5, 0.5, 0.5, 0.5, 2013.5, 0.5, -2.0, 0.5, -2.0, -2.0, 1335.5, 0.5, -2.0, -2.0, 1717.5, 0.5, -2.0, -2.0, -2.0, -2.0, 170000.0, -2.0, -2.0, 197500.0, -2.0, -2.0, -2.0, -2.0, -2.0, 140.5, -2.0, 0.5, 1990.5, 0.5, -2.0, 0.5, -2.0, 275.0, -2.0, -2.0, -2.0, -2.0, -2.0, 2320.0, -2.0, -2.0, -2.0, 1674.5, -2.0, 1509.0, -2.0, 199.0, 2012.5, -2.0, 0.5, 251.0, 1797.5, 0.5, -2.0, -2.0, -2.0, -2.0, -2.0, 0.5, -2.0, -2.0, -2.0, 0.5, -2.0, 0.5, -2.0, 2460.5, -2.0, 0.5, 2013.5, 2705.0, -2.0, -2.0, -2.0, 0.5, -2.0, 1775.5, -2.0, -2.0, 0.5, 1620.0, -2.0, -2.0, 0.5, -2.0, -2.0, 0.5, -2.0, 0.5, -2.0, 1610.0, 0.5, 0.5, -2.0, -2.0, 0.5, -2.0, 4782.5, -2.0, -2.0, -2.0, 1842.5, -2.0, -2.0, 0.5, -2.0, -2.0, 0.5, 0.5, -2.0, 0.5, 2784.5, 0.5, -2.0, 0.5, -2.0, -2.0, 234.5, 0.5, -2.0, -2.0, -2.0, -2.0, -2.0, -2.0, -2.0, -2.0, -2.0, 107.0, -2.0, -2.0, -2.0, 0.5, 0.5, 0.5, -2.0, -2.0, -2.0, 133.0, -2.0, -2.0, 0.5, 6.0, -2.0, 0.5, -2.0, 0.5, -2.0, -2.0, 1721.0, 0.5, -2.0, -2.0, -2.0, -2.0, -2.0, -2.0, -2.0, 0.5, -2.0, -2.0, -2.0, -2.0, -2.0, -2.0, 1555.0, -2.0, -2.0, -2.0, 0.5, -2.0, -2.0, 2013.5, -2.0, 0.5, -2.0, -2.0, -2.0, -2.0, -2.0, -2.0, -2.0, -2.0, -2.0, -2.0, -2.0, -2.0, -2.0, -2.0, -2.0, 0.5, -2.0, 0.5, -2.0, -2.0, -2.0, 0.5, -2.0, -2.0, -2.0, -2.0, -2.0, 0.5, -2.0, -2.0, -2.0, -2.0, -2.0, -2.0, -2.0, -2.0, -2.0, -2.0, -2.0, -2.0, -2.0, 0.5, -2.0, -2.0, -2.0], "node_sample_weight": [8533.0, 4485.0, 4048.0, 4153.0, 332.0, 3006.0, 1042.0, 4004.0, 149.0, 327.0, 18.0, 2999.0, 22.0, 226.0, 816.0, 2309.0, 1695.0, 101.0, 78.0, 187.0, 140.0, 2958.0, 64.0, 186.0, 40.0, 16.0, 805.0, 1577.0, 732.0, 1040.0, 655.0, 85.0, 31.0, 44.0, 159.0, 100.0, 51.0, 2809.0, 149.0, 15.0, 183.0, 329.0, 476.0, 1110.0, 467.0, 678.0, 69.0, 934.0, 106.0, 457.0, 198.0, 74.0, 11.0, 158.0, 1.0, 41.0, 122.0, 711.0, 2098.0, 140.0, 9.0, 181.0, 2.0, 290.0, 58.0, 374.0, 102.0, 331.0, 779.0, 392.0, 79.0, 250.0, 428.0, 673.0, 261.0, 84.0, 50.0, 403.0, 63.0, 138.0, 64.0, 106.0, 12.0, 110.0, 85.0, 639.0, 78.0, 497.0, 1601.0, 55.0, 90.0, 176.0, 14.0, 257.0, 49.0, 365.0, 9.0, 91.0, 11.0, 290.0, 69.0, 93.0, 686.0, 204.0, 188.0, 83.0, 8.0, 226.0, 29.0, 416.0, 12.0, 262.0, 411.0, 238.0, 35.0, 54.0, 68.0, 5.0, 45.0, 133.0, 270.0, 57.0, 6.0, 121.0, 26.0, 71.0, 7.0, 88.0, 37.0, 421.0, 218.0, 82.0, 31.0, 180.0, 317.0, 375.0, 1226.0, 50.0, 13.0, 89.0, 1.0, 147.0, 29.0, 88.0, 198.0, 168.0, 197.0, 58.0, 89.0, 74.0, 216.0, 73.0, 22.0, 613.0, 85.0, 203.0, 1.0, 52.0, 151.0, 86.0, 148.0, 409.0, 7.0, 91.0, 200.0, 329.0, 110.0, 54.0, 187.0, 32.0, 37.0, 12.0, 121.0, 1.0, 269.0, 113.0, 8.0, 89.0, 18.0, 234.0, 187.0, 205.0, 13.0, 55.0, 139.0, 50.0, 283.0, 241.0, 134.0, 763.0, 463.0, 81.0, 16.0, 135.0, 19.0, 133.0, 87.0, 29.0, 139.0, 180.0, 28.0, 74.0, 7.0, 1.0, 215.0, 72.0, 10.0, 50.0, 585.0, 52.0, 155.0, 38.0, 18.0, 149.0, 2.0, 92.0, 12.0, 12.0, 144.0, 125.0, 284.0, 199.0, 1.0, 133.0, 196.0, 53.0, 18.0, 49.0, 164.0, 29.0, 101.0, 230.0, 42.0, 72.0, 49.0, 69.0, 36.0, 194.0, 52.0, 54.0, 155.0, 100.0, 105.0, 137.0, 13.0, 78.0, 205.0, 168.0, 81.0, 133.0, 1.0, 738.0, 44.0, 363.0, 100.0, 23.0, 75.0, 120.0, 32.0, 131.0, 2.0, 94.0, 63.0, 107.0, 73.0, 79.0, 16.0, 42.0, 176.0, 379.0, 206.0, 54.0, 6.0, 131.0, 29.0, 136.0, 23.0, 132.0, 12.0, 122.0, 3.0, 230.0, 76.0, 115.0, 131.0, 61.0, 105.0, 144.0, 61.0, 109.0, 98.0, 52.0, 69.0, 228.0, 2.0, 85.0, 29.0, 170.0, 29.0, 44.0, 8.0, 15.0, 39.0, 129.0, 26.0, 90.0, 17.0, 86.0, 46.0, 126.0, 11.0, 68.0, 24.0, 83.0, 132.0, 57.0, 118.0, 78.0, 7.0, 124.0, 19.0, 622.0, 116.0, 287.0, 122.0, 87.0, 30.0, 77.0, 20.0, 59.0, 85.0, 98.0, 43.0, 143.0, 8.0, 66.0, 8.0, 98.0, 9.0, 69.0, 4.0, 90.0, 86.0, 83.0, 296.0, 132.0, 74.0, 104.0, 29.0, 105.0, 49.0, 29.0, 113.0, 97.0, 34.0, 23.0, 212.0, 78.0, 58.0, 73.0, 6.0, 37.0, 117.0, 71.0, 14.0, 108.0, 1.0, 7.0, 50.0, 13.0, 62.0, 216.0, 22.0, 82.0, 88.0, 89.0, 70.0, 90.0, 6.0, 118.0, 18.0, 71.0, 33.0, 21.0, 69.0, 100.0, 38.0, 15.0, 42.0, 103.0, 21.0, 102.0, 24.0, 455.0, 167.0, 4.0, 112.0, 133.0, 154.0, 84.0, 4.0, 25.0, 99.0, 136.0, 7.0, 50.0, 75.0, 34.0, 85.0, 73.0, 26.0, 67.0, 23.0, 77.0, 11.0, 210.0, 86.0, 95.0, 53.0, 53.0, 50.0, 103.0, 1.0, 76.0, 29.0, 8.0, 105.0, 94.0, 3.0, 83.0, 164.0, 39.0, 54.0, 94.0, 30.0, 105.0, 3.0, 109.0, 107.0, 70.0, 35.0, 11.0, 77.0, 17.0, 83.0, 84.0, 26.0, 32.0, 86.0, 49.0, 77.0, 58.0, 49.0, 35.0, 93.0, 390.0, 90.0, 53.0, 121.0, 90.0, 49.0, 129.0, 4.0, 21.0, 147.0, 73.0, 42.0, 46.0, 19.0, 6.0, 72.0, 71.0, 18.0, 50.0, 52.0, 202.0, 8.0, 70.0, 37.0, 53.0, 53.0, 99.0, 4.0, 57.0, 31.0, 102.0, 10.0, 15.0, 88.0, 159.0, 5.0, 92.0, 2.0, 76.0, 32.0, 13.0, 102.0, 84.0, 43.0, 78.0, 6.0, 79.0, 26.0, 42.0, 60.0, 82.0, 4.0, 67.0, 5.0, 110.0, 9.0, 6.0, 384.0, 56.0, 12.0, 74.0, 71.0, 89.0, 26.0, 106.0, 23.0, 129.0, 25.0, 69.0, 26.0, 84.0, 160.0, 46.0, 7.0, 32.0, 21.0, 53.0, 92.0, 5.0, 136.0, 38.0, 68.0, 79.0, 129.0, 79.0, 19.0, 101.0, 6.0, 104.0, 2.0, 91.0, 4.0, 106.0, 11.0, 188.0, 283.0, 38.0, 33.0, 77.0, 67.0, 144.0, 39.0, 61.0, 37.0, 68.0, 31.0, 71.0, 66.0, 223.0, 32.0, 239.0, 6.0], "values": [[4588.692878628071], [2726.2735785953178], [6652.168807641634], [2451.326430692672], [6165.597389558233], [5062.157529385673], [11239.091938579655], [2383.637329337329], [4270.30067114094], [6007.8670744138635], [17606.248148148145], [5026.6373902411915], [10931.818181818182], [20566.31238938053], [8655.817647058822], [2819.3182041287714], [1790.1345919370697], [5746.483168316831], [1032.6495726495725], [6630.942245989304], [5175.616666666667], [4814.566982195177], [19323.202083333337], [18240.908602150535], [31379.44], [21764.1125], [8476.092836438924], [2402.8117099978863], [3716.62795992714], [1412.4123717948717], [2389.8767430025446], [6383.757647058824], [2588.870967741935], [3719.810606060606], [7074.514884696017], [6106.021333333334], [2788.971241830065], [4486.67063011748], [10996.183445190158], [49640.88444444445], [17924.566848816026], [11093.142654508612], [6667.249579831932], [2107.425885885886], [3104.9064953604566], [3493.4834808259584], [5856.857971014493], [1262.7900785153463], [2730.782389937107], [2069.011086797958], [3130.4606060606056], [7020.578378378378], [2099.690909090909], [7022.750210970465], [15253.333333333334], [12062.754471544715], [4845.253005464481], [7003.884013127052], [3633.601652367334], [11497.99238095238], [3190.2666666666664], [18040.639410681397], [7420.0], [10472.522528735632], [16966.420689655173], [5588.047237076649], [10624.324836601307], [1622.5601208459216], [2313.4471544715443], [3280.845068027211], [2202.279324894515], [2616.9919999999997], [4005.4528037383175], [1026.8620108964833], [1871.1409961685824], [2954.100793650794], [1767.489333333333], [2038.0206782464847], [2303.106878306878], [3693.0864734299516], [1849.9781249999999], [6740.029559748428], [4437.711111111112], [6452.6606060606055], [8082.762352941178], [6650.732811684924], [9982.862393162392], [4235.984439973172], [3446.6033728919424], [13139.207272727273], [10462.546666666667], [17512.70340909091], [34079.99523809524], [9271.447989623866], [21839.51156462585], [5348.724931506849], [15293.896296296296], [10099.435897435898], [14966.587878787877], [1404.6059770114944], [3536.5845410628017], [3122.9505376344086], [2203.703984450923], [2333.934640522876], [4308.343617021276], [2244.852208835341], [2549.7], [2438.5740412979353], [4312.537931034482], [3991.0748397435896], [4503.888888888889], [683.2992366412215], [1245.8728304947283], [1760.4532212885154], [2983.4266666666667], [2611.086419753086], [3337.7558823529416], [859.1999999999999], [1868.41037037037], [1519.8917293233085], [2293.247160493827], [2394.819883040936], [1431.8333333333333], [3938.326170798898], [1834.9410256410256], [1814.2525821596244], [2062.8571428571427], [6022.40303030303], [8274.446846846848], [5341.443705463183], [9179.222324159022], [12581.431707317073], [8995.526881720427], [5791.094074074074], [3352.956887486856], [1952.978311111111], [3903.4625883632407], [12763.161333333333], [15532.692307692309], [10517.331835205992], [5586.666666666667], [18588.67573696145], [12058.636781609195], [6902.921212121211], [9993.190572390571], [3408.994444444444], [7002.911336717428], [9281.522988505747], [9898.883146067416], [1018.5027027027027], [1536.8820987654321], [3165.928767123288], [3198.787878787879], [2092.98901576944], [3173.866666666667], [2318.896551724138], [5386.666666666667], [4664.405128205128], [4121.188962472406], [2734.358914728682], [2315.060810810811], [4034.3000814995926], [1465.4857142857143], [423.06813186813184], [767.026], [1331.4674772036476], [986.6751515151516], [2310.862962962963], [1610.4880570409982], [2470.539583333333], [2713.5513513513515], [1118.8166666666666], [1559.6677685950413], [3253.3333333333335], [2289.6780669144982], [3847.6471976401176], [5219.166666666667], [6089.202247191011], [6041.803703703703], [3895.715384615384], [7150.536898395721], [8824.802926829268], [14768.14358974359], [2428.2424242424245], [6895.66139088729], [1265.8506666666665], [3599.227797408716], [1616.0251728907328], [2558.9910447761195], [3163.2046308431627], [5123.3693304535645], [11317.480658436214], [1901.2458333333334], [17707.38962962963], [28242.912280701752], [12161.889724310777], [6346.211494252873], [2118.5678160919542], [3678.220143884892], [6815.688518518519], [10189.866666666667], [1158.5027027027027], [440.0], [6666.666666666667], [1513.0226356589149], [3627.1222222222223], [1004.0], [3558.8546666666666], [2027.9764102564104], [1811.8346153846153], [2473.8756989247313], [3569.0315789473684], [6547.718518518519], [4118.97807606264], [4285.9], [2614.460144927536], [3263.155555555553], [924.8611111111111], [2357.111111111111], [4213.9504], [3955.228638497653], [748.1001675041877], [4533.266666666666], [1023.8360902255639], [1540.2173469387753], [2513.3974842767293], [402.2222222222222], [1989.5360544217685], [1652.3252032520325], [1006.8390804597701], [1673.2818481848185], [2415.5350724637683], [1555.484126984127], [3218.2435185185186], [4631.917006802721], [6209.465700483092], [5664.977777777778], [4095.6240549828176], [2914.932051282051], [8655.464197530862], [6966.851612903226], [10798.854666666666], [6944.75365079365], [6784.162530413625], [18482.05128205128], [2794.062393162393], [3905.5834146341463], [1858.2666666666667], [1031.6864197530865], [2523.695238095238], [7253.333333333333], [3029.2692863595303], [7091.009090909091], [5324.130762167126], [4394.605333333333], [8889.333333333334], [11510.683555555555], [19027.486666666664], [7119.974999999999], [12068.89058524173], [18253.333333333332], [3487.7730496453896], [4037.808465608465], [7519.33769470405], [5784.312328767123], [956.5054852320676], [1788.6625], [1807.3555555555554], [1448.698484848485], [1855.746877748461], [2344.8453074433655], [1823.9246913580248], [1438.3555555555554], [2497.3017811704835], [2330.0298850574713], [4146.251470588235], [3867.707246376812], [2343.4651515151513], [2507.2166666666667], [4169.812568306011], [6008.888888888889], [4246.2591304347825], [2663.9298245614036], [877.9797101449276], [525.7974554707379], [855.5081967213116], [1053.7085714285713], [1436.636574074074], [1821.0972677595628], [1777.6954128440368], [1470.4680272108842], [1659.1846153846154], [1705.176811594203], [2408.7125730994153], [3193.3], [3414.082352941177], [3757.1218390804597], [4253.094901960784], [2912.3540229885057], [2967.193939393939], [2627.491666666667], [5205.497777777778], [9982.374358974357], [7448.613436692507], [4576.571794871795], [10324.136296296296], [14712.541176470588], [6303.962790697674], [7882.572463768116], [7030.599999999999], [3961.3333333333335], [2703.1039215686274], [2971.6305555555555], [3113.346184738956], [4318.966161616161], [1392.4818713450293], [1992.0112994350281], [940.2555555555556], [1910.4761904761906], [2625.576344086022], [1120.0], [2790.6998928188636], [4308.494827586207], [4796.076655052265], [6801.240437158471], [3972.3310344827582], [6740.924444444445], [10891.22251082251], [14660.656666666668], [18972.483615819205], [17850.84392156863], [12657.391836734694], [9609.122480620155], [3129.3468531468525], [8028.325], [4357.70606060606], [586.6666666666666], [7854.387074829931], [3871.0222222222224], [5062.050241545893], [18243.333333333332], [1621.4585185185185], [1267.903100775194], [1507.101204819277], [1953.509009009009], [2564.870202020202], [1952.3684684684683], [2463.8134615384615], [2586.319540229885], [4094.71619047619], [4353.163265306122], [2453.8390804597702], [2328.9917404129797], [4076.4054982817865], [4387.817647058823], [2017.7739130434782], [4431.591823899372], [744.8290598290598], [1107.8908045977012], [856.7981735159817], [606.5333333333333], [1881.4486486486487], [1323.6074074074072], [1679.9014084507041], [2234.2857142857147], [1740.5753086419754], [5786.666666666667], [1920.0], [1615.4186666666665], [1783.4358974358975], [1677.2989247311828], [2352.2854938271607], [3382.975757575757], [3734.047154471544], [4736.753030303031], [6243.056179775281], [10943.41619047619], [10804.194814814815], [6052.455555555555], [6769.171751412429], [11320.0], [2921.3859154929582], [1969.3050505050503], [3581.0857142857144], [2937.849275362319], [4419.348], [4098.124561403509], [2709.5955555555556], [922.084126984127], [2093.6330097087375], [1263.4825396825397], [2596.845098039216], [2716.6638888888892], [2515.932747252747], [3539.316966067864], [4921.466666666666], [4286.6029761904765], [4247.444611528822], [5269.895238095238], [17907.798412698416], [13016.666666666666], [9496.789333333332], [15043.276767676765], [3184.0470588235285], [2066.6], [5505.601333333332], [9216.309333333333], [6594.549019607844], [4519.800784313727], [1502.8264840182649], [1991.2153846153847], [1183.4776119402986], [1569.2753623188405], [1515.4580086580088], [1487.1939393939394], [1783.5234920634919], [2368.5899224806203], [2266.6266666666666], [3436.85534591195], [1619.9044025157234], [2218.0066666666667], [2461.9734627831717], [2653.3333333333335], [4139.778070175438], [3976.6229885057473], [1870.8333333333333], [2363.8990476190475], [4096.157446808511], [3457.511111111111], [3690.9228915662648], [4600.228861788618], [919.082051282051], [645.4160493827161], [1398.841843971631], [1029.2533333333333], [1754.9473015873016], [1237.5555555555554], [2132.365137614679], [2576.3165109034267], [3396.330476190476], [4427.213333333333], [8792.50909090909], [4157.359307359307], [9730.19607843137], [5840.546184738955], [13270.940476190475], [6341.2256410256405], [5752.1125], [7147.612403100776], [4003.351020408163], [4559.666666666667], [1695.0160919540228], [2457.1414965986396], [1943.2057142857145], [2708.5197132616486], [2647.0123076923073], [1683.6666666666667], [3045.5937106918236], [3719.747658402204], [4426.384444444444], [4124.933333333333], [4157.477519379845], [7148.883333333333], [2215.6190476190477], [5407.015873015873], [17892.10319634703], [18243.0619047619], [6562.628985507246], [3713.989473684209], [1120.0], [1522.0324074074074], [1208.0610328638497], [832.2185185185185], [1584.752], [1401.6538461538462], [1794.6270627062706], [1503.1583333333333], [1903.054285714286], [3270.0306306306306], [2542.698113207547], [1989.0540880503145], [2462.9959595959594], [2436.6666666666665], [3751.353216374269], [5093.634408602151], [2381.4777777777776], [1976.5333333333333], [8196.391111111112], [3520.904545454545], [4608.62180293501], [4333.333333333333], [1404.1789855072464], [1153.3333333333333], [1704.7736842105262], [1770.8333333333333], [2258.087179487179], [2108.116339869281], [2317.723015873016], [3684.7395348837213], [3516.1042735042734], [1721.0888888888887], [4276.5864978902955], [4777.176923076923], [4332.057142857143], [7231.648888888888], [6941.082926829268], [11381.466666666667], [1826.841791044776], [825.1733333333333], [2677.2806060606063], [2957.037037037037], [2246.6666666666665], [2653.2677083333333], [2721.246428571429], [3902.222222222222], [4279.915315315316], [3299.3765258215963], [4689.539325842697], [3052.0923076923077], [4230.390566037736], [3821.443478260869], [5134.972093023256], [6463.463999999999], [19126.742995169083], [15229.91282051282], [2020.486507936508], [1591.3345833333333], [2582.3115942028985], [2282.3809523809523], [2163.1208333333334], [1723.8095238095239], [2532.3207547169814], [2455.276811594203], [2709.8399999999997], [2352.8769607843137], [2548.0508771929826], [3808.4362745098038], [4917.702953586498], [4354.97984496124], [1567.081012658228], [931.8456140350877], [1732.8528052805282], [820.0], [2131.5269230769227], [1592.9333333333334], [2503.2461538461534], [2070.0], [6848.759748427673], [9723.630303030304], [2288.2446808510635], [2943.488810365135], [3583.4175438596494], [2972.29898989899], [3605.4683982683982], [5081.969154228856], [5501.89212962963], [5137.729914529915], [5003.969398907104], [4577.54054054054], [1388.1794117647057], [1913.0666666666666], [2168.818779342723], [2226.5555555555557], [2160.6382660687586], [3010.0520833333335], [2143.090655509065], [3299.244444444444]], "children_default": [1.0, 3.0, 5.0, 7.0, 9.0, 11.0, 13.0, 15.0, 17.0, 19.0, -1.0, 21.0, -1.0, 23.0, 25.0, 27.0, 29.0, 31.0, -1.0, 33.0, 35.0, 37.0, -1.0, 39.0, -1.0, -1.0, 41.0, 43.0, 45.0, 47.0, 49.0, 51.0, -1.0, -1.0, 53.0, 55.0, -1.0, 57.0, 59.0, -1.0, 61.0, 63.0, 65.0, 67.0, 69.0, 71.0, -1.0, 73.0, 75.0, 77.0, 79.0, 81.0, -1.0, 83.0, -1.0, -1.0, -1.0, 85.0, 87.0, 89.0, -1.0, 91.0, -1.0, 93.0, -1.0, 95.0, 97.0, 99.0, 101.0, 103.0, 105.0, 107.0, 109.0, 111.0, 113.0, 115.0, 117.0, 119.0, 121.0, 123.0, 125.0, -1.0, -1.0, 127.0, -1.0, 129.0, 131.0, 133.0, 135.0, 137.0, 139.0, 141.0, -1.0, 143.0, -1.0, 145.0, -1.0, 147.0, -1.0, 149.0, -1.0, 151.0, 153.0, 155.0, 157.0, -1.0, -1.0, 159.0, -1.0, 161.0, -1.0, 163.0, 165.0, 167.0, -1.0, 169.0, -1.0, -1.0, -1.0, 171.0, 173.0, -1.0, -1.0, 175.0, -1.0, -1.0, -1.0, 177.0, -1.0, 179.0, 181.0, -1.0, -1.0, 183.0, 185.0, 187.0, 189.0, -1.0, -1.0, 191.0, -1.0, 193.0, -1.0, -1.0, 195.0, 197.0, 199.0, -1.0, -1.0, 201.0, 203.0, 205.0, -1.0, 207.0, -1.0, 209.0, -1.0, 211.0, 213.0, 215.0, 217.0, 219.0, -1.0, -1.0, 221.0, 223.0, -1.0, 225.0, 227.0, -1.0, -1.0, -1.0, 229.0, -1.0, 231.0, 233.0, -1.0, 235.0, -1.0, 237.0, 239.0, 241.0, -1.0, -1.0, 243.0, -1.0, 245.0, 247.0, 249.0, 251.0, 253.0, 255.0, -1.0, 257.0, -1.0, 259.0, -1.0, -1.0, 261.0, 263.0, -1.0, 265.0, -1.0, -1.0, 267.0, -1.0, -1.0, -1.0, 269.0, 271.0, 273.0, -1.0, -1.0, 275.0, -1.0, -1.0, -1.0, -1.0, 277.0, 279.0, 281.0, 283.0, -1.0, 285.0, 287.0, -1.0, -1.0, -1.0, 289.0, -1.0, 291.0, 293.0, -1.0, 295.0, -1.0, -1.0, -1.0, 297.0, 299.0, 301.0, 303.0, 305.0, 307.0, 309.0, -1.0, 311.0, 313.0, 315.0, 317.0, 319.0, -1.0, 321.0, -1.0, 323.0, 325.0, -1.0, 327.0, 329.0, -1.0, 331.0, -1.0, 333.0, 335.0, 337.0, 339.0, -1.0, -1.0, -1.0, 341.0, 343.0, 345.0, -1.0, -1.0, 347.0, -1.0, 349.0, -1.0, 351.0, -1.0, 353.0, -1.0, 355.0, -1.0, 357.0, -1.0, 359.0, -1.0, 361.0, 363.0, 365.0, -1.0, 367.0, 369.0, 371.0, -1.0, -1.0, -1.0, 373.0, -1.0, -1.0, -1.0, -1.0, -1.0, 375.0, -1.0, 377.0, -1.0, -1.0, -1.0, 379.0, -1.0, 381.0, -1.0, 383.0, 385.0, 387.0, 389.0, -1.0, -1.0, 391.0, -1.0, 393.0, 395.0, 397.0, -1.0, -1.0, -1.0, -1.0, -1.0, -1.0, 399.0, 401.0, -1.0, 403.0, -1.0, -1.0, -1.0, 405.0, -1.0, 407.0, -1.0, 409.0, 411.0, 413.0, 415.0, 417.0, 419.0, 421.0, -1.0, 423.0, -1.0, -1.0, 425.0, 427.0, -1.0, -1.0, 429.0, 431.0, -1.0, -1.0, -1.0, -1.0, 433.0, -1.0, -1.0, 435.0, -1.0, -1.0, -1.0, -1.0, -1.0, 437.0, -1.0, 439.0, 441.0, 443.0, -1.0, 445.0, -1.0, 447.0, -1.0, -1.0, -1.0, -1.0, -1.0, 449.0, -1.0, -1.0, -1.0, 451.0, -1.0, 453.0, -1.0, 455.0, 457.0, -1.0, 459.0, 461.0, 463.0, 465.0, -1.0, -1.0, -1.0, -1.0, -1.0, 467.0, -1.0, -1.0, -1.0, 469.0, -1.0, 471.0, -1.0, 473.0, -1.0, 475.0, 477.0, 479.0, -1.0, -1.0, -1.0, 481.0, -1.0, 483.0, -1.0, -1.0, 485.0, 487.0, -1.0, -1.0, 489.0, -1.0, -1.0, 491.0, -1.0, 493.0, -1.0, 495.0, 497.0, 499.0, -1.0, -1.0, 501.0, -1.0, 503.0, -1.0, -1.0, -1.0, 505.0, -1.0, -1.0, 507.0, -1.0, -1.0, 509.0, 511.0, -1.0, 513.0, 515.0, 517.0, -1.0, 519.0, -1.0, -1.0, 521.0, 523.0, -1.0, -1.0, -1.0, -1.0, -1.0, -1.0, -1.0, -1.0, -1.0, 525.0, -1.0, -1.0, -1.0, 527.0, 529.0, 531.0, -1.0, -1.0, -1.0, 533.0, -1.0, -1.0, 535.0, 537.0, -1.0, 539.0, -1.0, 541.0, -1.0, -1.0, 543.0, 545.0, -1.0, -1.0, -1.0, -1.0, -1.0, -1.0, -1.0, 547.0, -1.0, -1.0, -1.0, -1.0, -1.0, -1.0, 549.0, -1.0, -1.0, -1.0, 551.0, -1.0, -1.0, 553.0, -1.0, 555.0, -1.0, -1.0, -1.0, -1.0, -1.0, -1.0, -1.0, -1.0, -1.0, -1.0, -1.0, -1.0, -1.0, -1.0, -1.0, 557.0, -1.0, 559.0, -1.0, -1.0, -1.0, 561.0, -1.0, -1.0, -1.0, -1.0, -1.0, 563.0, -1.0, -1.0, -1.0, -1.0, -1.0, -1.0, -1.0, -1.0, -1.0, -1.0, -1.0, -1.0, -1.0, 565.0, -1.0, -1.0, -1.0]}, {"children_left": [1.0, 3.0, 5.0, 7.0, 9.0, 11.0, -1.0, 13.0, 15.0, 17.0, 19.0, -1.0, -1.0, 21.0, 23.0, 25.0, 27.0, 29.0, 31.0, 33.0, -1.0, 35.0, -1.0, 37.0, 39.0, -1.0, 41.0, 43.0, 45.0, 47.0, 49.0, -1.0, 51.0, 53.0, 55.0, 57.0, -1.0, 59.0, 61.0, 63.0, 65.0, 67.0, -1.0, 69.0, 71.0, 73.0, 75.0, 77.0, 79.0, 81.0, 83.0, 85.0, -1.0, -1.0, 87.0, 89.0, -1.0, -1.0, 91.0, 93.0, -1.0, 95.0, 97.0, -1.0, -1.0, -1.0, -1.0, 99.0, -1.0, 101.0, -1.0, 103.0, 105.0, 107.0, -1.0, 109.0, 111.0, -1.0, -1.0, -1.0, -1.0, 113.0, 115.0, 117.0, 119.0, -1.0, -1.0, 121.0, 123.0, 125.0, 127.0, -1.0, 129.0, 131.0, -1.0, 133.0, -1.0, -1.0, 135.0, -1.0, -1.0, 137.0, -1.0, -1.0, -1.0, 139.0, 141.0, 143.0, -1.0, 145.0, -1.0, 147.0, -1.0, 149.0, 151.0, 153.0, -1.0, 155.0, 157.0, 159.0, -1.0, 161.0, 163.0, 165.0, 167.0, 169.0, -1.0, -1.0, -1.0, 171.0, -1.0, 173.0, 175.0, 177.0, 179.0, 181.0, -1.0, -1.0, 183.0, 185.0, -1.0, 187.0, -1.0, 189.0, 191.0, 193.0, 195.0, -1.0, 197.0, -1.0, 199.0, 201.0, 203.0, 205.0, 207.0, -1.0, 209.0, 211.0, 213.0, 215.0, -1.0, 217.0, -1.0, 219.0, -1.0, 221.0, 223.0, -1.0, -1.0, -1.0, 225.0, -1.0, 227.0, 229.0, -1.0, 231.0, -1.0, 233.0, -1.0, 235.0, -1.0, -1.0, -1.0, 237.0, 239.0, 241.0, -1.0, -1.0, 243.0, 245.0, -1.0, 247.0, 249.0, 251.0, 253.0, 255.0, -1.0, -1.0, -1.0, 257.0, -1.0, 259.0, 261.0, 263.0, -1.0, -1.0, 265.0, 267.0, -1.0, 269.0, 271.0, 273.0, 275.0, 277.0, -1.0, -1.0, 279.0, -1.0, -1.0, -1.0, 281.0, 283.0, -1.0, 285.0, -1.0, 287.0, -1.0, -1.0, 289.0, -1.0, 291.0, 293.0, -1.0, 295.0, 297.0, 299.0, 301.0, -1.0, -1.0, 303.0, 305.0, 307.0, -1.0, -1.0, 309.0, 311.0, -1.0, 313.0, 315.0, 317.0, 319.0, -1.0, 321.0, 323.0, -1.0, 325.0, 327.0, 329.0, -1.0, -1.0, 331.0, 333.0, -1.0, -1.0, 335.0, -1.0, 337.0, -1.0, 339.0, -1.0, 341.0, -1.0, -1.0, -1.0, -1.0, -1.0, -1.0, 343.0, -1.0, -1.0, -1.0, -1.0, -1.0, 345.0, 347.0, 349.0, 351.0, -1.0, -1.0, -1.0, 353.0, -1.0, -1.0, 355.0, 357.0, 359.0, 361.0, -1.0, -1.0, 363.0, -1.0, 365.0, -1.0, -1.0, -1.0, -1.0, -1.0, -1.0, 367.0, 369.0, -1.0, -1.0, -1.0, 371.0, 373.0, 375.0, 377.0, 379.0, -1.0, 381.0, 383.0, 385.0, 387.0, -1.0, -1.0, -1.0, -1.0, -1.0, 389.0, -1.0, 391.0, -1.0, -1.0, 393.0, -1.0, 395.0, -1.0, 397.0, -1.0, 399.0, -1.0, 401.0, -1.0, -1.0, -1.0, -1.0, -1.0, 403.0, -1.0, 405.0, 407.0, 409.0, 411.0, -1.0, -1.0, -1.0, -1.0, -1.0, -1.0, 413.0, -1.0, -1.0, -1.0, -1.0, 415.0, 417.0, -1.0, 419.0, -1.0, -1.0, 421.0, 423.0, -1.0, -1.0, -1.0, 425.0, 427.0, -1.0, -1.0, 429.0, 431.0, -1.0, -1.0, 433.0, -1.0, 435.0, -1.0, 437.0, -1.0, -1.0, 439.0, -1.0, -1.0, -1.0, 441.0, 443.0, -1.0, -1.0, -1.0, 445.0, 447.0, -1.0, -1.0, 449.0, -1.0, 451.0, -1.0, -1.0, -1.0, 453.0, -1.0, 455.0, -1.0, -1.0, 457.0, -1.0, -1.0, 459.0, 461.0, -1.0, -1.0, 463.0, 465.0, 467.0, 469.0, -1.0, 471.0, 473.0, 475.0, -1.0, -1.0, 477.0, -1.0, 479.0, -1.0, 481.0, -1.0, -1.0, 483.0, 485.0, -1.0, -1.0, -1.0, -1.0, 487.0, 489.0, -1.0, 491.0, -1.0, 493.0, -1.0, -1.0, 495.0, 497.0, 499.0, -1.0, -1.0, 501.0, 503.0, -1.0, 505.0, 507.0, -1.0, -1.0, -1.0, -1.0, -1.0, 509.0, -1.0, -1.0, 511.0, 513.0, -1.0, -1.0, -1.0, 515.0, -1.0, -1.0, 517.0, -1.0, -1.0, -1.0, -1.0, -1.0, -1.0, -1.0, 519.0, -1.0, -1.0, -1.0, -1.0, 521.0, 523.0, 525.0, -1.0, -1.0, -1.0, 527.0, -1.0, 529.0, -1.0, -1.0, -1.0, -1.0, -1.0, -1.0, -1.0, -1.0, -1.0, -1.0, -1.0, -1.0, -1.0, -1.0, -1.0, -1.0, -1.0, -1.0, -1.0, -1.0, -1.0, -1.0, -1.0, -1.0, -1.0, -1.0, -1.0, -1.0, -1.0, -1.0, -1.0], "children_right": [2.0, 4.0, 6.0, 8.0, 10.0, 12.0, -1.0, 14.0, 16.0, 18.0, 20.0, -1.0, -1.0, 22.0, 24.0, 26.0, 28.0, 30.0, 32.0, 34.0, -1.0, 36.0, -1.0, 38.0, 40.0, -1.0, 42.0, 44.0, 46.0, 48.0, 50.0, -1.0, 52.0, 54.0, 56.0, 58.0, -1.0, 60.0, 62.0, 64.0, 66.0, 68.0, -1.0, 70.0, 72.0, 74.0, 76.0, 78.0, 80.0, 82.0, 84.0, 86.0, -1.0, -1.0, 88.0, 90.0, -1.0, -1.0, 92.0, 94.0, -1.0, 96.0, 98.0, -1.0, -1.0, -1.0, -1.0, 100.0, -1.0, 102.0, -1.0, 104.0, 106.0, 108.0, -1.0, 110.0, 112.0, -1.0, -1.0, -1.0, -1.0, 114.0, 116.0, 118.0, 120.0, -1.0, -1.0, 122.0, 124.0, 126.0, 128.0, -1.0, 130.0, 132.0, -1.0, 134.0, -1.0, -1.0, 136.0, -1.0, -1.0, 138.0, -1.0, -1.0, -1.0, 140.0, 142.0, 144.0, -1.0, 146.0, -1.0, 148.0, -1.0, 150.0, 152.0, 154.0, -1.0, 156.0, 158.0, 160.0, -1.0, 162.0, 164.0, 166.0, 168.0, 170.0, -1.0, -1.0, -1.0, 172.0, -1.0, 174.0, 176.0, 178.0, 180.0, 182.0, -1.0, -1.0, 184.0, 186.0, -1.0, 188.0, -1.0, 190.0, 192.0, 194.0, 196.0, -1.0, 198.0, -1.0, 200.0, 202.0, 204.0, 206.0, 208.0, -1.0, 210.0, 212.0, 214.0, 216.0, -1.0, 218.0, -1.0, 220.0, -1.0, 222.0, 224.0, -1.0, -1.0, -1.0, 226.0, -1.0, 228.0, 230.0, -1.0, 232.0, -1.0, 234.0, -1.0, 236.0, -1.0, -1.0, -1.0, 238.0, 240.0, 242.0, -1.0, -1.0, 244.0, 246.0, -1.0, 248.0, 250.0, 252.0, 254.0, 256.0, -1.0, -1.0, -1.0, 258.0, -1.0, 260.0, 262.0, 264.0, -1.0, -1.0, 266.0, 268.0, -1.0, 270.0, 272.0, 274.0, 276.0, 278.0, -1.0, -1.0, 280.0, -1.0, -1.0, -1.0, 282.0, 284.0, -1.0, 286.0, -1.0, 288.0, -1.0, -1.0, 290.0, -1.0, 292.0, 294.0, -1.0, 296.0, 298.0, 300.0, 302.0, -1.0, -1.0, 304.0, 306.0, 308.0, -1.0, -1.0, 310.0, 312.0, -1.0, 314.0, 316.0, 318.0, 320.0, -1.0, 322.0, 324.0, -1.0, 326.0, 328.0, 330.0, -1.0, -1.0, 332.0, 334.0, -1.0, -1.0, 336.0, -1.0, 338.0, -1.0, 340.0, -1.0, 342.0, -1.0, -1.0, -1.0, -1.0, -1.0, -1.0, 344.0, -1.0, -1.0, -1.0, -1.0, -1.0, 346.0, 348.0, 350.0, 352.0, -1.0, -1.0, -1.0, 354.0, -1.0, -1.0, 356.0, 358.0, 360.0, 362.0, -1.0, -1.0, 364.0, -1.0, 366.0, -1.0, -1.0, -1.0, -1.0, -1.0, -1.0, 368.0, 370.0, -1.0, -1.0, -1.0, 372.0, 374.0, 376.0, 378.0, 380.0, -1.0, 382.0, 384.0, 386.0, 388.0, -1.0, -1.0, -1.0, -1.0, -1.0, 390.0, -1.0, 392.0, -1.0, -1.0, 394.0, -1.0, 396.0, -1.0, 398.0, -1.0, 400.0, -1.0, 402.0, -1.0, -1.0, -1.0, -1.0, -1.0, 404.0, -1.0, 406.0, 408.0, 410.0, 412.0, -1.0, -1.0, -1.0, -1.0, -1.0, -1.0, 414.0, -1.0, -1.0, -1.0, -1.0, 416.0, 418.0, -1.0, 420.0, -1.0, -1.0, 422.0, 424.0, -1.0, -1.0, -1.0, 426.0, 428.0, -1.0, -1.0, 430.0, 432.0, -1.0, -1.0, 434.0, -1.0, 436.0, -1.0, 438.0, -1.0, -1.0, 440.0, -1.0, -1.0, -1.0, 442.0, 444.0, -1.0, -1.0, -1.0, 446.0, 448.0, -1.0, -1.0, 450.0, -1.0, 452.0, -1.0, -1.0, -1.0, 454.0, -1.0, 456.0, -1.0, -1.0, 458.0, -1.0, -1.0, 460.0, 462.0, -1.0, -1.0, 464.0, 466.0, 468.0, 470.0, -1.0, 472.0, 474.0, 476.0, -1.0, -1.0, 478.0, -1.0, 480.0, -1.0, 482.0, -1.0, -1.0, 484.0, 486.0, -1.0, -1.0, -1.0, -1.0, 488.0, 490.0, -1.0, 492.0, -1.0, 494.0, -1.0, -1.0, 496.0, 498.0, 500.0, -1.0, -1.0, 502.0, 504.0, -1.0, 506.0, 508.0, -1.0, -1.0, -1.0, -1.0, -1.0, 510.0, -1.0, -1.0, 512.0, 514.0, -1.0, -1.0, -1.0, 516.0, -1.0, -1.0, 518.0, -1.0, -1.0, -1.0, -1.0, -1.0, -1.0, -1.0, 520.0, -1.0, -1.0, -1.0, -1.0, 522.0, 524.0, 526.0, -1.0, -1.0, -1.0, 528.0, -1.0, 530.0, -1.0, -1.0, -1.0, -1.0, -1.0, -1.0, -1.0, -1.0, -1.0, -1.0, -1.0, -1.0, -1.0, -1.0, -1.0, -1.0, -1.0, -1.0, -1.0, -1.0, -1.0, -1.0, -1.0, -1.0, -1.0, -1.0, -1.0, -1.0, -1.0, -1.0, -1.0], "features": [17.0, 5.0, 65.0, 32.0, 0.0, 8.0, -2.0, 1.0, 10.0, 9.0, 56.0, -2.0, -2.0, 74.0, 14.0, 7.0, 9.0, 10.0, 8.0, 5.0, -2.0, 43.0, -2.0, 8.0, 23.0, -2.0, 3.0, 5.0, 0.0, 7.0, 4.0, -2.0, 5.0, 4.0, 9.0, 8.0, -2.0, 7.0, 0.0, 8.0, 2.0, 0.0, -2.0, 68.0, 8.0, 20.0, 3.0, 14.0, 50.0, 0.0, 2.0, 2.0, -2.0, -2.0, 8.0, 5.0, -2.0, -2.0, 11.0, 63.0, -2.0, 25.0, 0.0, -2.0, -2.0, -2.0, -2.0, 73.0, -2.0, 67.0, -2.0, 51.0, 8.0, 46.0, -2.0, 35.0, 8.0, -2.0, -2.0, -2.0, -2.0, 5.0, 42.0, 2.0, 32.0, -2.0, -2.0, 8.0, 45.0, 38.0, 8.0, -2.0, 37.0, 5.0, -2.0, 8.0, -2.0, -2.0, 5.0, -2.0, -2.0, 5.0, -2.0, -2.0, -2.0, 2.0, 6.0, 8.0, -2.0, 2.0, -2.0, 37.0, -2.0, 4.0, 4.0, 8.0, -2.0, 7.0, 54.0, 0.0, -2.0, 37.0, 35.0, 9.0, 14.0, 7.0, -2.0, -2.0, -2.0, 9.0, -2.0, 7.0, 13.0, 7.0, 62.0, 3.0, -2.0, -2.0, 3.0, 70.0, -2.0, 7.0, -2.0, 71.0, 7.0, 3.0, 51.0, -2.0, 70.0, -2.0, 12.0, 9.0, 42.0, 6.0, 41.0, -2.0, 0.0, 7.0, 9.0, 0.0, -2.0, 5.0, -2.0, 32.0, -2.0, 51.0, 3.0, -2.0, -2.0, -2.0, 6.0, -2.0, 33.0, 26.0, -2.0, 1.0, -2.0, 36.0, -2.0, 8.0, -2.0, -2.0, -2.0, 72.0, 7.0, 1.0, -2.0, -2.0, 7.0, 65.0, -2.0, 10.0, 10.0, 26.0, 55.0, 1.0, -2.0, -2.0, -2.0, 34.0, -2.0, 2.0, 49.0, 4.0, -2.0, -2.0, 20.0, 4.0, -2.0, 5.0, 73.0, 11.0, 50.0, 2.0, -2.0, -2.0, 75.0, -2.0, -2.0, -2.0, 18.0, 3.0, -2.0, 5.0, -2.0, 72.0, -2.0, -2.0, 8.0, -2.0, 43.0, 1.0, -2.0, 2.0, 65.0, 72.0, 6.0, -2.0, -2.0, 75.0, 75.0, 4.0, -2.0, -2.0, 61.0, 2.0, -2.0, 59.0, 3.0, 40.0, 53.0, -2.0, 48.0, 1.0, -2.0, 54.0, 0.0, 11.0, -2.0, -2.0, 75.0, 74.0, -2.0, -2.0, 8.0, -2.0, 72.0, -2.0, 54.0, -2.0, 4.0, -2.0, -2.0, -2.0, -2.0, -2.0, -2.0, 8.0, -2.0, -2.0, -2.0, -2.0, -2.0, 32.0, 60.0, 46.0, 54.0, -2.0, -2.0, -2.0, 59.0, -2.0, -2.0, 59.0, 75.0, 57.0, 44.0, -2.0, -2.0, 1.0, -2.0, 5.0, -2.0, -2.0, -2.0, -2.0, -2.0, -2.0, 3.0, 1.0, -2.0, -2.0, -2.0, 60.0, 37.0, 4.0, 0.0, 5.0, -2.0, 37.0, 68.0, 6.0, 68.0, -2.0, -2.0, -2.0, -2.0, -2.0, 22.0, -2.0, 37.0, -2.0, -2.0, 20.0, -2.0, 4.0, -2.0, 15.0, -2.0, 5.0, -2.0, 32.0, -2.0, -2.0, -2.0, -2.0, -2.0, 65.0, -2.0, 49.0, 75.0, 43.0, 14.0, -2.0, -2.0, -2.0, -2.0, -2.0, -2.0, 8.0, -2.0, -2.0, -2.0, -2.0, 65.0, 8.0, -2.0, 75.0, -2.0, -2.0, 2.0, 51.0, -2.0, -2.0, -2.0, 7.0, 0.0, -2.0, -2.0, 37.0, 1.0, -2.0, -2.0, 73.0, -2.0, 14.0, -2.0, 8.0, -2.0, -2.0, 5.0, -2.0, -2.0, -2.0, 41.0, 8.0, -2.0, -2.0, -2.0, 15.0, 50.0, -2.0, -2.0, 8.0, -2.0, 8.0, -2.0, -2.0, -2.0, 1.0, -2.0, 32.0, -2.0, -2.0, 5.0, -2.0, -2.0, 5.0, 7.0, -2.0, -2.0, 48.0, 75.0, 3.0, 11.0, -2.0, 37.0, 75.0, 67.0, -2.0, -2.0, 11.0, -2.0, 59.0, -2.0, 8.0, -2.0, -2.0, 60.0, 4.0, -2.0, -2.0, -2.0, -2.0, 60.0, 10.0, -2.0, 4.0, -2.0, 0.0, -2.0, -2.0, 53.0, 55.0, 3.0, -2.0, -2.0, 59.0, 40.0, -2.0, 52.0, 59.0, -2.0, -2.0, -2.0, -2.0, -2.0, 71.0, -2.0, -2.0, 65.0, 47.0, -2.0, -2.0, -2.0, 75.0, -2.0, -2.0, 38.0, -2.0, -2.0, -2.0, -2.0, -2.0, -2.0, -2.0, 71.0, -2.0, -2.0, -2.0, -2.0, 37.0, 49.0, 44.0, -2.0, -2.0, -2.0, 18.0, -2.0, 16.0, -2.0, -2.0, -2.0, -2.0, -2.0, -2.0, -2.0, -2.0, -2.0, -2.0, -2.0, -2.0, -2.0, -2.0, -2.0, -2.0, -2.0, -2.0, -2.0, -2.0, -2.0, -2.0, -2.0, -2.0, -2.0, -2.0, -2.0, -2.0, -2.0, -2.0, -2.0], "thresholds": [0.5, 1788.5, 0.5, 0.5, 2014.5, 1414.0, -2.0, 61000.0, 3.5, 438.0, 0.5, -2.0, -2.0, 0.5, 0.5, 108.0, 128.0, 3.5, 1332.0, 1864.0, -2.0, 0.5, -2.0, 1434.0, 0.5, -2.0, 1597.5, 1575.0, 2015.5, 225.5, 2873.0, -2.0, 1976.5, 2510.5, 445.5, 1434.0, -2.0, 188.0, 2013.5, 1441.5, 4382.0, 2012.0, -2.0, 0.5, 1485.0, 0.5, 1698.0, 0.5, 0.5, 2011.5, 5004.0, 4822.0, -2.0, -2.0, 1447.5, 1921.5, -2.0, -2.0, 0.5, 0.5, -2.0, 0.5, 2014.5, -2.0, -2.0, -2.0, -2.0, 0.5, -2.0, 0.5, -2.0, 0.5, 1517.5, 0.5, -2.0, 0.5, 1812.5, -2.0, -2.0, -2.0, -2.0, 1802.0, 0.5, 4845.5, 0.5, -2.0, -2.0, 1429.5, 0.5, 0.5, 1714.5, -2.0, 0.5, 1739.5, -2.0, 1505.0, -2.0, -2.0, 1785.5, -2.0, -2.0, 1440.0, -2.0, -2.0, -2.0, 4203.5, 6.0, 1423.0, -2.0, 4430.0, -2.0, 0.5, -2.0, 2627.5, 2737.5, 1448.5, -2.0, 165.0, 0.5, 2013.5, -2.0, 0.5, 0.5, 207.5, 0.5, 177.5, -2.0, -2.0, -2.0, 123.5, -2.0, 177.0, 0.5, 235.5, 0.5, 1598.0, -2.0, -2.0, 918.0, 0.5, -2.0, 87.5, -2.0, 0.5, 140.5, 1497.5, 0.5, -2.0, 0.5, -2.0, 0.5, 220.5, 0.5, 4.5, 0.5, -2.0, 2011.5, 207.5, 282.0, 2011.5, -2.0, 1810.5, -2.0, 0.5, -2.0, 0.5, 3327.0, -2.0, -2.0, -2.0, 6.0, -2.0, 0.5, 0.5, -2.0, 120000.0, -2.0, 0.5, -2.0, 1604.5, -2.0, -2.0, -2.0, 0.5, 58.0, 67500.0, -2.0, -2.0, 89.5, 0.5, -2.0, 4.5, 4.5, 0.5, 0.5, 32500.0, -2.0, -2.0, -2.0, 0.5, -2.0, 4596.54541015625, 0.5, 2750.0, -2.0, -2.0, 0.5, 2599.5, -2.0, 1795.0, 0.5, 0.5, 0.5, 4867.5, -2.0, -2.0, 0.5, -2.0, -2.0, -2.0, 0.5, 1990.5, -2.0, 1820.5, -2.0, 0.5, -2.0, -2.0, 1515.0, -2.0, 0.5, 92500.0, -2.0, 4535.0, 0.5, 0.5, 7.5, -2.0, -2.0, 0.5, 0.5, 2420.0, -2.0, -2.0, 0.5, 4559.0, -2.0, 0.5, 1789.5, 0.5, 0.5, -2.0, 0.5, 37500.0, -2.0, 0.5, 2016.5, 0.5, -2.0, -2.0, 0.5, 0.5, -2.0, -2.0, 1666.0, -2.0, 0.5, -2.0, 0.5, -2.0, 2931.5, -2.0, -2.0, -2.0, -2.0, -2.0, -2.0, 1890.0, -2.0, -2.0, -2.0, -2.0, -2.0, 0.5, 0.5, 0.5, 0.5, -2.0, -2.0, -2.0, 0.5, -2.0, -2.0, 0.5, 0.5, 0.5, 0.5, -2.0, -2.0, 107500.0, -2.0, 1755.0, -2.0, -2.0, -2.0, -2.0, -2.0, -2.0, 1163.5, 12500.0, -2.0, -2.0, -2.0, 0.5, 0.5, 2707.5, 2011.5, 1757.5, -2.0, 0.5, 0.5, 5.5, 0.5, -2.0, -2.0, -2.0, -2.0, -2.0, 0.5, -2.0, 0.5, -2.0, -2.0, 0.5, -2.0, 2871.0, -2.0, 0.5, -2.0, 1839.0, -2.0, 0.5, -2.0, -2.0, -2.0, -2.0, -2.0, 0.5, -2.0, 0.5, 0.5, 0.5, 0.5, -2.0, -2.0, -2.0, -2.0, -2.0, -2.0, 1453.5, -2.0, -2.0, -2.0, -2.0, 0.5, 1740.0, -2.0, 0.5, -2.0, -2.0, 4099.0, 0.5, -2.0, -2.0, -2.0, 93.0, 2013.5, -2.0, -2.0, 0.5, 150000.0, -2.0, -2.0, 0.5, -2.0, 0.5, -2.0, 1542.5, -2.0, -2.0, 1757.5, -2.0, -2.0, -2.0, 0.5, 1470.5, -2.0, -2.0, -2.0, 0.5, 0.5, -2.0, -2.0, 1765.0, -2.0, 1472.5, -2.0, -2.0, -2.0, 69000.0, -2.0, 0.5, -2.0, -2.0, 1711.5, -2.0, -2.0, 1647.5, 134.5, -2.0, -2.0, 0.5, 0.5, 1497.5, 0.5, -2.0, 0.5, 0.5, 0.5, -2.0, -2.0, 0.5, -2.0, 0.5, -2.0, 1462.5, -2.0, -2.0, 0.5, 2631.0, -2.0, -2.0, -2.0, -2.0, 0.5, 4.5, -2.0, 2775.5, -2.0, 2016.5, -2.0, -2.0, 0.5, 0.5, 2098.0, -2.0, -2.0, 0.5, 0.5, -2.0, 0.5, 0.5, -2.0, -2.0, -2.0, -2.0, -2.0, 0.5, -2.0, -2.0, 0.5, 0.5, -2.0, -2.0, -2.0, 0.5, -2.0, -2.0, 0.5, -2.0, -2.0, -2.0, -2.0, -2.0, -2.0, -2.0, 0.5, -2.0, -2.0, -2.0, -2.0, 0.5, 0.5, 0.5, -2.0, -2.0, -2.0, 0.5, -2.0, 0.5, -2.0, -2.0, -2.0, -2.0, -2.0, -2.0, -2.0, -2.0, -2.0, -2.0, -2.0, -2.0, -2.0, -2.0, -2.0, -2.0, -2.0, -2.0, -2.0, -2.0, -2.0, -2.0, -2.0, -2.0, -2.0, -2.0, -2.0, -2.0, -2.0, -2.0, -2.0], "node_sample_weight": [8533.0, 8430.0, 103.0, 4610.0, 3820.0, 88.0, 32.0, 1483.0, 3127.0, 2343.0, 1477.0, 35.0, 111.0, 225.0, 1258.0, 100.0, 3027.0, 2231.0, 112.0, 1402.0, 129.0, 224.0, 1.0, 1125.0, 133.0, 5.0, 95.0, 829.0, 2198.0, 76.0, 2155.0, 18.0, 106.0, 1135.0, 267.0, 186.0, 43.0, 245.0, 880.0, 104.0, 55.0, 88.0, 7.0, 278.0, 551.0, 1562.0, 636.0, 54.0, 59.0, 1461.0, 694.0, 83.0, 29.0, 20.0, 1119.0, 233.0, 38.0, 84.0, 136.0, 220.0, 25.0, 754.0, 126.0, 72.0, 87.0, 9.0, 52.0, 83.0, 18.0, 273.0, 5.0, 74.0, 481.0, 1488.0, 74.0, 538.0, 98.0, 73.0, 22.0, 35.0, 45.0, 651.0, 810.0, 426.0, 268.0, 30.0, 91.0, 233.0, 886.0, 132.0, 101.0, 24.0, 118.0, 218.0, 2.0, 753.0, 1.0, 54.0, 78.0, 91.0, 9.0, 266.0, 7.0, 14.0, 95.0, 216.0, 265.0, 1446.0, 68.0, 530.0, 19.0, 82.0, 21.0, 137.0, 514.0, 785.0, 35.0, 157.0, 269.0, 199.0, 81.0, 122.0, 111.0, 831.0, 67.0, 83.0, 80.0, 65.0, 82.0, 103.0, 15.0, 89.0, 129.0, 356.0, 397.0, 131.0, 2.0, 89.0, 202.0, 188.0, 38.0, 243.0, 35.0, 100.0, 1346.0, 342.0, 188.0, 31.0, 68.0, 50.0, 99.0, 287.0, 227.0, 91.0, 694.0, 34.0, 125.0, 152.0, 117.0, 151.0, 56.0, 92.0, 38.0, 102.0, 18.0, 253.0, 578.0, 41.0, 44.0, 3.0, 80.0, 10.0, 97.0, 81.0, 11.0, 127.0, 2.0, 352.0, 4.0, 396.0, 1.0, 37.0, 99.0, 53.0, 157.0, 186.0, 2.0, 60.0, 191.0, 98.0, 4.0, 1045.0, 301.0, 243.0, 99.0, 185.0, 3.0, 79.0, 7.0, 98.0, 1.0, 137.0, 150.0, 208.0, 19.0, 1.0, 90.0, 663.0, 43.0, 91.0, 52.0, 94.0, 71.0, 79.0, 38.0, 84.0, 83.0, 22.0, 115.0, 49.0, 67.0, 217.0, 53.0, 573.0, 5.0, 84.0, 2.0, 10.0, 87.0, 41.0, 54.0, 118.0, 9.0, 286.0, 70.0, 160.0, 236.0, 7.0, 46.0, 85.0, 82.0, 119.0, 78.0, 9.0, 182.0, 92.0, 6.0, 542.0, 503.0, 150.0, 151.0, 3.0, 240.0, 87.0, 12.0, 65.0, 124.0, 76.0, 22.0, 112.0, 76.0, 101.0, 65.0, 30.0, 193.0, 2.0, 88.0, 33.0, 630.0, 5.0, 86.0, 52.0, 27.0, 77.0, 56.0, 70.0, 20.0, 117.0, 21.0, 74.0, 37.0, 72.0, 18.0, 54.0, 172.0, 166.0, 407.0, 106.0, 13.0, 42.0, 61.0, 11.0, 50.0, 71.0, 62.0, 225.0, 68.0, 70.0, 9.0, 128.0, 51.0, 227.0, 9.0, 75.0, 29.0, 80.0, 9.0, 12.0, 114.0, 180.0, 2.0, 112.0, 20.0, 481.0, 66.0, 398.0, 105.0, 139.0, 22.0, 62.0, 96.0, 139.0, 101.0, 47.0, 98.0, 57.0, 8.0, 26.0, 106.0, 3.0, 79.0, 96.0, 7.0, 100.0, 1.0, 116.0, 95.0, 87.0, 16.0, 565.0, 94.0, 72.0, 18.0, 30.0, 87.0, 41.0, 27.0, 153.0, 25.0, 116.0, 57.0, 327.0, 80.0, 47.0, 14.0, 58.0, 13.0, 80.0, 15.0, 224.0, 1.0, 100.0, 9.0, 80.0, 68.0, 185.0, 44.0, 56.0, 85.0, 7.0, 173.0, 450.0, 43.0, 63.0, 17.0, 272.0, 126.0, 70.0, 76.0, 59.0, 100.0, 30.0, 36.0, 82.0, 19.0, 93.0, 53.0, 99.0, 2.0, 2.0, 104.0, 60.0, 63.0, 67.0, 53.0, 113.0, 3.0, 89.0, 9.0, 327.0, 238.0, 74.0, 17.0, 121.0, 54.0, 109.0, 13.0, 43.0, 14.0, 310.0, 25.0, 52.0, 43.0, 59.0, 171.0, 72.0, 11.0, 97.0, 88.0, 68.0, 7.0, 116.0, 61.0, 336.0, 114.0, 24.0, 248.0, 66.0, 69.0, 49.0, 45.0, 97.0, 3.0, 53.0, 53.0, 88.0, 11.0, 29.0, 77.0, 99.0, 5.0, 30.0, 23.0, 121.0, 53.0, 301.0, 26.0, 237.0, 1.0, 99.0, 33.0, 36.0, 87.0, 208.0, 102.0, 49.0, 19.0, 129.0, 57.0, 32.0, 81.0, 65.0, 29.0, 63.0, 91.0, 70.0, 12.0, 108.0, 274.0, 66.0, 72.0, 236.0, 36.0, 84.0, 7.0, 70.0, 4.0, 11.0, 101.0, 27.0, 31.0, 9.0, 116.0, 101.0, 15.0, 19.0, 83.0, 46.0, 16.0, 176.0, 234.0, 119.0, 128.0, 77.0, 48.0, 89.0, 17.0, 186.0, 25.0, 51.0, 78.0, 147.0, 6.0, 54.0, 9.0, 104.0, 13.0, 40.0, 71.0, 127.0, 6.0, 67.0, 16.0, 235.0, 62.0, 73.0, 16.0, 110.0, 14.0, 92.0, 23.0, 101.0, 32.0, 132.0, 49.0, 79.0, 12.0, 179.0, 56.0, 45.0, 30.0], "values": [[4588.692878628071], [4373.301502570186], [22217.326860841426], [2586.143485177151], [6530.055026178011], [21288.487878787877], [20026.583333333332], [3373.9465497864685], [2212.522780087411], [4488.595959595959], [9768.469781087791], [27914.830476190476], [19371.362162162164], [5880.090666666667], [2925.7093269740326], [1378.2266666666667], [2240.084594207686], [4090.4911101150456], [12418.70238095238], [9498.387066096053], [15728.580878552972], [5778.96011904762], [28533.333333333332], [2768.2602666666667], [4257.515288220551], [2373.3333333333335], [1325.8526315789472], [1234.6398874145557], [2619.299181073703], [9481.44649122807], [3900.369249806651], [45718.51851851852], [11320.389937106918], [8184.677063142437], [15082.884644194755], [4977.960931899641], [10222.937984496124], [3634.9099319727893], [2526.977121212121], [4817.221153846154], [2227.9151515151516], [1232.0765151515152], [2504.752380952381], [738.5184652278178], [1484.9516031457956], [2155.4358514724713], [3758.5358490566036], [4515.3209876543215], [12264.776271186442], [3429.7216518366413], [4891.17060518732], [8996.483534136547], [20153.558620689655], [27193.583333333332], [7889.285195114686], [13412.828040057224], [27173.89298245614], [8361.620634920633], [3788.2691176470585], [2877.9384848484847], [10296.258666666667], [2287.4328028293544], [3960.4407407407407], [7543.112962962962], [3089.3762452107276], [1653.3333333333333], [2437.9871794871797], [1110.012048192771], [2091.762962962963], [735.1946275946275], [920.0], [498.4468468468469], [1628.6970200970202], [2098.132437275986], [3307.699099099099], [3494.7703841387856], [5206.5544217687075], [3944.319634703196], [13231.81818181818], [10543.935238095239], [11833.571851851852], [2572.5136712749613], [4118.662880658437], [5705.826291079812], [3596.2328358208956], [3787.973333333334], [10414.993406593405], [10545.886695278969], [7190.652972159518], [11913.95202020202], [15371.75511551155], [6828.8694444444445], [3451.1163841807906], [2900.9776758409785], [366.6666666666667], [2281.6170872067287], [6666.666666666667], [3650.3148148148143], [4224.335042735042], [1109.6446886446888], [1219.2592592592594], [731.3117794486215], [882.7428571428571], [906.5523809523809], [395.59017543859653], [1891.5293209876543], [1414.4638993710691], [2123.3023513139697], [1201.6549019607842], [3436.707169811321], [6564.785964912281], [4959.026829268292], [6612.8], [3554.631143552311], [2310.7430609597927], [3962.436772823779], [9093.449523809522], [4096.728237791932], [6644.965303593556], [3534.644891122278], [3472.4617283950615], [8522.25136612022], [12770.062462462462], [6819.434897713598], [13215.046766169153], [15902.637751004017], [5080.534166666666], [23917.19692307692], [10785.891056910568], [3627.8841423948215], [2237.311111111111], [2434.7168539325844], [3222.66149870801], [1904.3865168539326], [2619.8893366918555], [4085.034096692112], [6925.866666666667], [430.77752808988765], [833.6125412541254], [1962.7755319148935], [1214.7508771929824], [1434.6499314128941], [1141.1866666666665], [741.6926666666666], [2225.9479445269935], [2984.856530214425], [4258.690780141844], [4815.913978494623], [4987.0617647058825], [5478.937333333333], [2822.33265993266], [1782.2838559814168], [2978.883113069016], [5766.197802197802], [3725.92055715658], [2945.8588235294114], [4405.8704], [6302.248245614034], [7090.204558404558], [3154.7589403973507], [4680.697619047619], [9273.184057971015], [6128.291228070175], [12360.777777777777], [17777.644444444446], [5260.452173913043], [7501.826989619378], [16966.115447154472], [10822.054545454544], [6074.022222222222], [16271.210833333333], [1561.2933333333335], [3754.558762886598], [2149.853497942387], [5322.878787878788], [3201.6015748031496], [4559.966666666666], [1839.9477272727272], [7575.0], [2618.2], [3288.866666666667], [3575.4882882882885], [4250.300336700337], [609.6704402515724], [897.3070063694267], [1962.5186379928316], [1986.6666666666667], [1152.5222222222224], [1507.6541012216405], [739.4142857142857], [576.6666666666666], [2037.3587240829345], [2880.684606866002], [3202.421124828532], [2450.8343434343433], [4295.863063063063], [1966.3999999999999], [4939.078481012659], [4826.55238095238], [2840.5197278911564], [1040.0], [1233.3683698296838], [2283.6266666666666], [2740.8964743589745], [5584.210526315789], [2786.6666666666665], [5799.303703703704], [3478.7648064353943], [8368.578294573643], [3154.985347985348], [7820.323076923077], [5160.38439716312], [7952.754929577465], [7135.605063291139], [6995.819298245614], [2832.9730158730163], [3521.5927710843375], [13202.381818181817], [8626.085797101448], [12348.834013605441], [12019.29751243781], [5628.681720430107], [3263.5937106918236], [7404.1596276905175], [18694.506666666664], [16396.55], [13193.333333333334], [4082.66], [3716.845977011494], [1812.7739837398374], [2522.7358024691357], [3188.409604519774], [3374.562962962963], [1962.8270396270395], [1323.729523809524], [3190.8241666666668], [2229.9802259887006], [648.4571428571429], [603.768115942029], [805.4125490196078], [993.7048780487805], [2063.2431372549017], [1772.0837606837606], [2209.6222222222223], [1472.9413919413919], [745.8260869565217], [641.1], [1972.1130381303813], [2107.663220675944], [2518.1404444444443], [3240.8278145695363], [5398.511111111111], [3174.9700000000003], [2412.5678160919542], [2728.2666666666664], [4576.313846153846], [4151.781720430107], [2693.3605263157892], [3348.887878787879], [1840.5684523809523], [860.44649122807], [2731.986798679868], [1292.3076923076922], [2328.96], [2796.752677029361], [2553.3333333333335], [5873.075757575758], [6383.608080808081], [3326.606349206349], [2045.0133333333333], [3219.5186046511626], [7809.974358974359], [7971.081481481481], [6450.348917748919], [3999.2726190476187], [6843.8019047619055], [11132.293333333333], [6819.7145299145295], [8396.469841269842], [4441.927927927928], [2870.059459459459], [11241.593518518519], [14269.15925925926], [6897.335802469136], [5295.239147286821], [6576.679518072288], [7741.657657657658], [16729.781761006292], [13604.615384615385], [3415.3634920634922], [3942.7377049180327], [619.9757575757576], [2719.626666666666], [3265.5352112676055], [3107.616129032258], [1846.388148148148], [2350.5568627450984], [1282.4828571428575], [1543.5925925925926], [3211.6520833333334], [2957.299346405229], [2159.245227606461], [4014.074074074074], [863.5786666666667], [699.7011494252873], [1024.2141666666666], [680.0], [1849.8833333333332], [2076.906432748538], [1476.6655555555556], [1137.7666666666667], [804.502380952381], [566.92], [1996.598613998614], [1693.7575757575758], [2013.226800670017], [2465.6222222222223], [2555.227817745803], [1751.412121212121], [3178.1279569892477], [3249.1777777777775], [3418.6844124700237], [2839.5610561056105], [2660.9787234042556], [2363.411564625851], [4494.509941520467], [5159.166666666667], [3419.7384615384613], [4268.563522012579], [1768.8666666666666], [2730.4911392405065], [891.4645833333332], [626.6666666666656], [2681.373333333333], [7793.333333333333], [2448.4574712643675], [3342.935438596491], [5984.193103448276], [6421.2], [2984.1087905604722], [6365.466666666667], [3020.611111111111], [3993.0333333333333], [5824.444444444444], [7162.91111111111], [7967.2], [4869.664197530864], [5237.244008714597], [5641.52], [7148.11724137931], [5170.086549707603], [7428.579001019368], [9021.366666666667], [4343.272340425532], [2598.0857142857144], [3315.167816091954], [3044.097435897436], [3171.9475000000007], [2867.111111111111], [1852.0119047619048], [586.6666666666666], [2355.025333333333], [1912.592592592596], [3474.6941666666667], [2947.7833333333333], [2245.816936936937], [1778.3151515151515], [1761.5416666666667], [2303.0737254901965], [2599.2], [1431.2450867052023], [2004.3974814814812], [1781.9782945736436], [1548.7111111111112], [2472.5019607843137], [1927.7955882352942], [2197.649735449735], [1996.8990476190477], [2969.8254385964915], [2846.09604519774], [2341.5033333333336], [2454.4622222222224], [3945.8277777777776], [3160.528455284553], [3704.79298245614], [3823.332616487455], [2598.7522012578615], [2844.6700336700333], [2586.6666666666665], [4253.333333333333], [4268.8564102564105], [2022.6855555555555], [3027.7661375661373], [2700.5810945273633], [3160.7245283018865], [2482.3699115044246], [1171.0888888888887], [6521.722846441949], [3557.037037037037], [2528.7414882772678], [3609.7605042016808], [2979.6954954954954], [2270.580392156862], [5382.269972451791], [4643.524691358025], [7392.125382262997], [3766.148717948718], [5417.663565891473], [4409.671428571432], [7056.758924731183], [14005.469333333334], [11059.314102564102], [6840.8914728682175], [2090.6305084745763], [1758.0319688109162], [2779.387962962963], [3751.5151515151515], [2597.9525773195874], [1857.6674242424242], [1778.963725490196], [1368.1142857142856], [1598.7522988505746], [1084.424043715847], [2188.907142857143], [1460.5795321637427], [1073.263888888889], [2010.4922043010752], [1878.612121212121], [2457.9053140096617], [2269.197278911564], [3278.121481481481], [2373.096219931271], [1320.0], [3402.216352201258], [3100.9823899371067], [3789.961363636364], [3895.757575757576], [3046.409195402299], [2767.6597402597404], [4272.872727272727], [4189.333333333333], [2116.391111111111], [4522.898550724638], [2474.830303030303], [2049.153459119497], [2518.093687707641], [2652.0102564102563], [3555.2306610407873], [16533.333333333332], [5260.888888888889], [5703.434343434344], [5812.816666666667], [7840.922605363985], [7499.027884615384], [6154.877124183007], [13172.877551020409], [6172.547368421052], [1673.4170542635657], [2016.7134502923977], [2327.4895833333335], [2498.2732510288065], [1626.4830769230769], [2278.390804597701], [1586.5227513227514], [1586.054945054945], [1084.6295238095238], [871.0388888888889], [2690.2265432098766], [1966.768126520681], [1681.0696969696971], [1211.6037037037036], [1913.9714689265536], [3366.2444444444445], [1888.7190476190474], [1674.2857142857142], [2449.941904761905], [2524.8], [3073.430303030303], [2346.4996699669964], [3255.987654320988], [3591.584946236559], [2727.3703703703704], [3813.3614942528734], [2817.6719471947195], [2569.173333333333], [4167.747368421053], [4294.301204819277], [2269.6797101449274], [592.4916666666667], [2200.6844696969697], [2941.1903133903133], [4188.80056022409], [2959.289583333333], [4741.715151515151], [6449.798611111111], [6992.355056179775], [12450.196078431374], [7218.2046594982085], [9446.869333333334], [7874.241830065358], [4997.151282051283], [1699.0009070294782], [1344.0], [2156.6555555555556], [1379.2518518518518], [2811.5076923076927], [682.051282051282], [1996.8683333333333], [1471.2676056338028], [2632.5286089238843], [3602.222222222222], [1289.1542288557214], [964.7166666666667], [1762.5565957446806], [2175.856989247312], [2493.33698630137], [2139.479166666669], [2361.700606060606], [2637.5619047619048], [4348.071739130435], [4212.744927536232], [3997.3656765676565], [4468.333333333333], [3407.572727272727], [2111.7741496598637], [4678.404219409283], [5447.222222222217], [6649.800744878957], [12618.415476190476], [9052.835555555555], [6069.624444444445]], "children_default": [1.0, 3.0, 5.0, 7.0, 9.0, 11.0, -1.0, 13.0, 15.0, 17.0, 19.0, -1.0, -1.0, 21.0, 23.0, 25.0, 27.0, 29.0, 31.0, 33.0, -1.0, 35.0, -1.0, 37.0, 39.0, -1.0, 41.0, 43.0, 45.0, 47.0, 49.0, -1.0, 51.0, 53.0, 55.0, 57.0, -1.0, 59.0, 61.0, 63.0, 65.0, 67.0, -1.0, 69.0, 71.0, 73.0, 75.0, 77.0, 79.0, 81.0, 83.0, 85.0, -1.0, -1.0, 87.0, 89.0, -1.0, -1.0, 91.0, 93.0, -1.0, 95.0, 97.0, -1.0, -1.0, -1.0, -1.0, 99.0, -1.0, 101.0, -1.0, 103.0, 105.0, 107.0, -1.0, 109.0, 111.0, -1.0, -1.0, -1.0, -1.0, 113.0, 115.0, 117.0, 119.0, -1.0, -1.0, 121.0, 123.0, 125.0, 127.0, -1.0, 129.0, 131.0, -1.0, 133.0, -1.0, -1.0, 135.0, -1.0, -1.0, 137.0, -1.0, -1.0, -1.0, 139.0, 141.0, 143.0, -1.0, 145.0, -1.0, 147.0, -1.0, 149.0, 151.0, 153.0, -1.0, 155.0, 157.0, 159.0, -1.0, 161.0, 163.0, 165.0, 167.0, 169.0, -1.0, -1.0, -1.0, 171.0, -1.0, 173.0, 175.0, 177.0, 179.0, 181.0, -1.0, -1.0, 183.0, 185.0, -1.0, 187.0, -1.0, 189.0, 191.0, 193.0, 195.0, -1.0, 197.0, -1.0, 199.0, 201.0, 203.0, 205.0, 207.0, -1.0, 209.0, 211.0, 213.0, 215.0, -1.0, 217.0, -1.0, 219.0, -1.0, 221.0, 223.0, -1.0, -1.0, -1.0, 225.0, -1.0, 227.0, 229.0, -1.0, 231.0, -1.0, 233.0, -1.0, 235.0, -1.0, -1.0, -1.0, 237.0, 239.0, 241.0, -1.0, -1.0, 243.0, 245.0, -1.0, 247.0, 249.0, 251.0, 253.0, 255.0, -1.0, -1.0, -1.0, 257.0, -1.0, 259.0, 261.0, 263.0, -1.0, -1.0, 265.0, 267.0, -1.0, 269.0, 271.0, 273.0, 275.0, 277.0, -1.0, -1.0, 279.0, -1.0, -1.0, -1.0, 281.0, 283.0, -1.0, 285.0, -1.0, 287.0, -1.0, -1.0, 289.0, -1.0, 291.0, 293.0, -1.0, 295.0, 297.0, 299.0, 301.0, -1.0, -1.0, 303.0, 305.0, 307.0, -1.0, -1.0, 309.0, 311.0, -1.0, 313.0, 315.0, 317.0, 319.0, -1.0, 321.0, 323.0, -1.0, 325.0, 327.0, 329.0, -1.0, -1.0, 331.0, 333.0, -1.0, -1.0, 335.0, -1.0, 337.0, -1.0, 339.0, -1.0, 341.0, -1.0, -1.0, -1.0, -1.0, -1.0, -1.0, 343.0, -1.0, -1.0, -1.0, -1.0, -1.0, 345.0, 347.0, 349.0, 351.0, -1.0, -1.0, -1.0, 353.0, -1.0, -1.0, 355.0, 357.0, 359.0, 361.0, -1.0, -1.0, 363.0, -1.0, 365.0, -1.0, -1.0, -1.0, -1.0, -1.0, -1.0, 367.0, 369.0, -1.0, -1.0, -1.0, 371.0, 373.0, 375.0, 377.0, 379.0, -1.0, 381.0, 383.0, 385.0, 387.0, -1.0, -1.0, -1.0, -1.0, -1.0, 389.0, -1.0, 391.0, -1.0, -1.0, 393.0, -1.0, 395.0, -1.0, 397.0, -1.0, 399.0, -1.0, 401.0, -1.0, -1.0, -1.0, -1.0, -1.0, 403.0, -1.0, 405.0, 407.0, 409.0, 411.0, -1.0, -1.0, -1.0, -1.0, -1.0, -1.0, 413.0, -1.0, -1.0, -1.0, -1.0, 415.0, 417.0, -1.0, 419.0, -1.0, -1.0, 421.0, 423.0, -1.0, -1.0, -1.0, 425.0, 427.0, -1.0, -1.0, 429.0, 431.0, -1.0, -1.0, 433.0, -1.0, 435.0, -1.0, 437.0, -1.0, -1.0, 439.0, -1.0, -1.0, -1.0, 441.0, 443.0, -1.0, -1.0, -1.0, 445.0, 447.0, -1.0, -1.0, 449.0, -1.0, 451.0, -1.0, -1.0, -1.0, 453.0, -1.0, 455.0, -1.0, -1.0, 457.0, -1.0, -1.0, 459.0, 461.0, -1.0, -1.0, 463.0, 465.0, 467.0, 469.0, -1.0, 471.0, 473.0, 475.0, -1.0, -1.0, 477.0, -1.0, 479.0, -1.0, 481.0, -1.0, -1.0, 483.0, 485.0, -1.0, -1.0, -1.0, -1.0, 487.0, 489.0, -1.0, 491.0, -1.0, 493.0, -1.0, -1.0, 495.0, 497.0, 499.0, -1.0, -1.0, 501.0, 503.0, -1.0, 505.0, 507.0, -1.0, -1.0, -1.0, -1.0, -1.0, 509.0, -1.0, -1.0, 511.0, 513.0, -1.0, -1.0, -1.0, 515.0, -1.0, -1.0, 517.0, -1.0, -1.0, -1.0, -1.0, -1.0, -1.0, -1.0, 519.0, -1.0, -1.0, -1.0, -1.0, 521.0, 523.0, 525.0, -1.0, -1.0, -1.0, 527.0, -1.0, 529.0, -1.0, -1.0, -1.0, -1.0, -1.0, -1.0, -1.0, -1.0, -1.0, -1.0, -1.0, -1.0, -1.0, -1.0, -1.0, -1.0, -1.0, -1.0, -1.0, -1.0, -1.0, -1.0, -1.0, -1.0, -1.0, -1.0, -1.0, -1.0, -1.0, -1.0, -1.0]}, {"children_left": [1.0, 3.0, 5.0, 7.0, -1.0, 9.0, 11.0, 13.0, 15.0, 17.0, 19.0, 21.0, -1.0, -1.0, -1.0, 23.0, 25.0, -1.0, -1.0, 27.0, 29.0, -1.0, 31.0, 33.0, 35.0, 37.0, -1.0, 39.0, 41.0, 43.0, -1.0, 45.0, 47.0, 49.0, 51.0, 53.0, -1.0, 55.0, -1.0, 57.0, 59.0, 61.0, -1.0, 63.0, 65.0, 67.0, -1.0, 69.0, 71.0, 73.0, -1.0, 75.0, 77.0, 79.0, 81.0, -1.0, 83.0, 85.0, 87.0, 89.0, 91.0, -1.0, -1.0, -1.0, -1.0, -1.0, -1.0, 93.0, -1.0, 95.0, -1.0, -1.0, 97.0, 99.0, 101.0, 103.0, 105.0, 107.0, -1.0, 109.0, 111.0, -1.0, -1.0, -1.0, -1.0, 113.0, 115.0, 117.0, -1.0, 119.0, 121.0, 123.0, -1.0, -1.0, -1.0, 125.0, -1.0, -1.0, 127.0, 129.0, 131.0, -1.0, 133.0, 135.0, 137.0, 139.0, 141.0, 143.0, -1.0, -1.0, -1.0, 145.0, 147.0, -1.0, -1.0, 149.0, -1.0, 151.0, 153.0, 155.0, 157.0, 159.0, 161.0, 163.0, 165.0, -1.0, 167.0, -1.0, 169.0, 171.0, 173.0, -1.0, 175.0, 177.0, -1.0, 179.0, 181.0, 183.0, -1.0, 185.0, 187.0, 189.0, -1.0, 191.0, 193.0, 195.0, -1.0, 197.0, 199.0, 201.0, 203.0, 205.0, -1.0, -1.0, -1.0, 207.0, -1.0, 209.0, 211.0, -1.0, 213.0, 215.0, 217.0, -1.0, -1.0, 219.0, -1.0, 221.0, -1.0, -1.0, 223.0, -1.0, -1.0, 225.0, -1.0, 227.0, -1.0, 229.0, -1.0, -1.0, 231.0, 233.0, -1.0, 235.0, 237.0, 239.0, -1.0, -1.0, 241.0, 243.0, -1.0, 245.0, 247.0, 249.0, -1.0, -1.0, 251.0, 253.0, -1.0, 255.0, 257.0, -1.0, -1.0, 259.0, -1.0, -1.0, -1.0, 261.0, 263.0, -1.0, -1.0, 265.0, -1.0, -1.0, 267.0, -1.0, -1.0, -1.0, 269.0, 271.0, 273.0, -1.0, -1.0, -1.0, -1.0, 275.0, -1.0, 277.0, 279.0, 281.0, -1.0, 283.0, 285.0, -1.0, -1.0, 287.0, -1.0, 289.0, -1.0, -1.0, -1.0, 291.0, -1.0, -1.0, -1.0, -1.0, 293.0, -1.0, 295.0, -1.0, -1.0, -1.0, 297.0, 299.0, -1.0, -1.0, -1.0, -1.0, 301.0, -1.0, -1.0, 303.0, -1.0, 305.0, -1.0, 307.0, 309.0, 311.0, -1.0, 313.0, 315.0, -1.0, -1.0, -1.0, -1.0, 317.0, -1.0, 319.0, -1.0, -1.0, 321.0, -1.0, 323.0, 325.0, 327.0, 329.0, -1.0, -1.0, 331.0, 333.0, 335.0, 337.0, -1.0, 339.0, 341.0, -1.0, 343.0, -1.0, 345.0, 347.0, -1.0, 349.0, 351.0, 353.0, 355.0, 357.0, -1.0, 359.0, 361.0, -1.0, -1.0, -1.0, -1.0, 363.0, -1.0, -1.0, -1.0, 365.0, -1.0, 367.0, -1.0, 369.0, 371.0, -1.0, 373.0, -1.0, 375.0, 377.0, 379.0, -1.0, -1.0, 381.0, 383.0, 385.0, -1.0, -1.0, -1.0, -1.0, 387.0, 389.0, -1.0, 391.0, 393.0, -1.0, -1.0, 395.0, -1.0, 397.0, -1.0, 399.0, -1.0, -1.0, -1.0, 401.0, 403.0, -1.0, -1.0, 405.0, -1.0, 407.0, 409.0, -1.0, -1.0, 411.0, -1.0, -1.0, -1.0, 413.0, -1.0, 415.0, -1.0, -1.0, 417.0, -1.0, 419.0, -1.0, 421.0, 423.0, 425.0, -1.0, -1.0, -1.0, 427.0, 429.0, -1.0, -1.0, -1.0, -1.0, 431.0, -1.0, 433.0, 435.0, -1.0, -1.0, 437.0, -1.0, -1.0, 439.0, -1.0, 441.0, -1.0, -1.0, 443.0, -1.0, -1.0, -1.0, -1.0, -1.0, -1.0, 445.0, 447.0, 449.0, -1.0, -1.0, -1.0, -1.0, -1.0, -1.0, -1.0, -1.0, -1.0, 451.0, -1.0, 453.0, -1.0, -1.0, -1.0, -1.0, -1.0, -1.0, -1.0, -1.0, -1.0, -1.0, -1.0, -1.0, -1.0, -1.0, -1.0, -1.0, -1.0, -1.0, -1.0, -1.0, -1.0, -1.0, -1.0, -1.0, -1.0, -1.0, -1.0, -1.0, -1.0, -1.0, -1.0], "children_right": [2.0, 4.0, 6.0, 8.0, -1.0, 10.0, 12.0, 14.0, 16.0, 18.0, 20.0, 22.0, -1.0, -1.0, -1.0, 24.0, 26.0, -1.0, -1.0, 28.0, 30.0, -1.0, 32.0, 34.0, 36.0, 38.0, -1.0, 40.0, 42.0, 44.0, -1.0, 46.0, 48.0, 50.0, 52.0, 54.0, -1.0, 56.0, -1.0, 58.0, 60.0, 62.0, -1.0, 64.0, 66.0, 68.0, -1.0, 70.0, 72.0, 74.0, -1.0, 76.0, 78.0, 80.0, 82.0, -1.0, 84.0, 86.0, 88.0, 90.0, 92.0, -1.0, -1.0, -1.0, -1.0, -1.0, -1.0, 94.0, -1.0, 96.0, -1.0, -1.0, 98.0, 100.0, 102.0, 104.0, 106.0, 108.0, -1.0, 110.0, 112.0, -1.0, -1.0, -1.0, -1.0, 114.0, 116.0, 118.0, -1.0, 120.0, 122.0, 124.0, -1.0, -1.0, -1.0, 126.0, -1.0, -1.0, 128.0, 130.0, 132.0, -1.0, 134.0, 136.0, 138.0, 140.0, 142.0, 144.0, -1.0, -1.0, -1.0, 146.0, 148.0, -1.0, -1.0, 150.0, -1.0, 152.0, 154.0, 156.0, 158.0, 160.0, 162.0, 164.0, 166.0, -1.0, 168.0, -1.0, 170.0, 172.0, 174.0, -1.0, 176.0, 178.0, -1.0, 180.0, 182.0, 184.0, -1.0, 186.0, 188.0, 190.0, -1.0, 192.0, 194.0, 196.0, -1.0, 198.0, 200.0, 202.0, 204.0, 206.0, -1.0, -1.0, -1.0, 208.0, -1.0, 210.0, 212.0, -1.0, 214.0, 216.0, 218.0, -1.0, -1.0, 220.0, -1.0, 222.0, -1.0, -1.0, 224.0, -1.0, -1.0, 226.0, -1.0, 228.0, -1.0, 230.0, -1.0, -1.0, 232.0, 234.0, -1.0, 236.0, 238.0, 240.0, -1.0, -1.0, 242.0, 244.0, -1.0, 246.0, 248.0, 250.0, -1.0, -1.0, 252.0, 254.0, -1.0, 256.0, 258.0, -1.0, -1.0, 260.0, -1.0, -1.0, -1.0, 262.0, 264.0, -1.0, -1.0, 266.0, -1.0, -1.0, 268.0, -1.0, -1.0, -1.0, 270.0, 272.0, 274.0, -1.0, -1.0, -1.0, -1.0, 276.0, -1.0, 278.0, 280.0, 282.0, -1.0, 284.0, 286.0, -1.0, -1.0, 288.0, -1.0, 290.0, -1.0, -1.0, -1.0, 292.0, -1.0, -1.0, -1.0, -1.0, 294.0, -1.0, 296.0, -1.0, -1.0, -1.0, 298.0, 300.0, -1.0, -1.0, -1.0, -1.0, 302.0, -1.0, -1.0, 304.0, -1.0, 306.0, -1.0, 308.0, 310.0, 312.0, -1.0, 314.0, 316.0, -1.0, -1.0, -1.0, -1.0, 318.0, -1.0, 320.0, -1.0, -1.0, 322.0, -1.0, 324.0, 326.0, 328.0, 330.0, -1.0, -1.0, 332.0, 334.0, 336.0, 338.0, -1.0, 340.0, 342.0, -1.0, 344.0, -1.0, 346.0, 348.0, -1.0, 350.0, 352.0, 354.0, 356.0, 358.0, -1.0, 360.0, 362.0, -1.0, -1.0, -1.0, -1.0, 364.0, -1.0, -1.0, -1.0, 366.0, -1.0, 368.0, -1.0, 370.0, 372.0, -1.0, 374.0, -1.0, 376.0, 378.0, 380.0, -1.0, -1.0, 382.0, 384.0, 386.0, -1.0, -1.0, -1.0, -1.0, 388.0, 390.0, -1.0, 392.0, 394.0, -1.0, -1.0, 396.0, -1.0, 398.0, -1.0, 400.0, -1.0, -1.0, -1.0, 402.0, 404.0, -1.0, -1.0, 406.0, -1.0, 408.0, 410.0, -1.0, -1.0, 412.0, -1.0, -1.0, -1.0, 414.0, -1.0, 416.0, -1.0, -1.0, 418.0, -1.0, 420.0, -1.0, 422.0, 424.0, 426.0, -1.0, -1.0, -1.0, 428.0, 430.0, -1.0, -1.0, -1.0, -1.0, 432.0, -1.0, 434.0, 436.0, -1.0, -1.0, 438.0, -1.0, -1.0, 440.0, -1.0, 442.0, -1.0, -1.0, 444.0, -1.0, -1.0, -1.0, -1.0, -1.0, -1.0, 446.0, 448.0, 450.0, -1.0, -1.0, -1.0, -1.0, -1.0, -1.0, -1.0, -1.0, -1.0, 452.0, -1.0, 454.0, -1.0, -1.0, -1.0, -1.0, -1.0, -1.0, -1.0, -1.0, -1.0, -1.0, -1.0, -1.0, -1.0, -1.0, -1.0, -1.0, -1.0, -1.0, -1.0, -1.0, -1.0, -1.0, -1.0, -1.0, -1.0, -1.0, -1.0, -1.0, -1.0, -1.0, -1.0], "features": [20.0, 17.0, 2.0, 10.0, -2.0, 8.0, 7.0, 55.0, 8.0, 59.0, 50.0, 29.0, -2.0, -2.0, -2.0, 5.0, 4.0, -2.0, -2.0, 3.0, 67.0, -2.0, 3.0, 3.0, 42.0, 3.0, -2.0, 8.0, 1.0, 33.0, -2.0, 32.0, 8.0, 40.0, 6.0, 8.0, -2.0, 4.0, -2.0, 9.0, 49.0, 60.0, -2.0, 11.0, 11.0, 5.0, -2.0, 7.0, 9.0, 9.0, -2.0, 37.0, 4.0, 3.0, 33.0, -2.0, 0.0, 1.0, 7.0, 7.0, 4.0, -2.0, -2.0, -2.0, -2.0, -2.0, -2.0, 5.0, -2.0, 3.0, -2.0, -2.0, 5.0, 3.0, 32.0, 3.0, 8.0, 75.0, -2.0, 54.0, 8.0, -2.0, -2.0, -2.0, -2.0, 18.0, 54.0, 1.0, -2.0, 32.0, 1.0, 2.0, -2.0, -2.0, -2.0, 9.0, -2.0, -2.0, 8.0, 4.0, 8.0, -2.0, 19.0, 40.0, 49.0, 10.0, 7.0, 9.0, -2.0, -2.0, -2.0, 45.0, 8.0, -2.0, -2.0, 3.0, -2.0, 0.0, 45.0, 41.0, 1.0, 4.0, 26.0, 11.0, 0.0, -2.0, 0.0, -2.0, 38.0, 67.0, 69.0, -2.0, 38.0, 2.0, -2.0, 6.0, 33.0, 3.0, -2.0, 3.0, 8.0, 2.0, -2.0, 8.0, 8.0, 8.0, -2.0, 4.0, 1.0, 14.0, 35.0, 45.0, -2.0, -2.0, -2.0, 7.0, -2.0, 18.0, 40.0, -2.0, 2.0, 1.0, 9.0, -2.0, -2.0, 4.0, -2.0, 75.0, -2.0, -2.0, 72.0, -2.0, -2.0, 59.0, -2.0, 9.0, -2.0, 6.0, -2.0, -2.0, 48.0, 59.0, -2.0, 51.0, 46.0, 7.0, -2.0, -2.0, 2.0, 73.0, -2.0, 26.0, 3.0, 73.0, -2.0, -2.0, 8.0, 9.0, -2.0, 37.0, 8.0, -2.0, -2.0, 18.0, -2.0, -2.0, -2.0, 45.0, 7.0, -2.0, -2.0, 4.0, -2.0, -2.0, 41.0, -2.0, -2.0, -2.0, 18.0, 59.0, 59.0, -2.0, -2.0, -2.0, -2.0, 70.0, -2.0, 5.0, 32.0, 1.0, -2.0, 1.0, 2.0, -2.0, -2.0, 1.0, -2.0, 1.0, -2.0, -2.0, -2.0, 72.0, -2.0, -2.0, -2.0, -2.0, 2.0, -2.0, 7.0, -2.0, -2.0, -2.0, 7.0, 37.0, -2.0, -2.0, -2.0, -2.0, 9.0, -2.0, -2.0, 3.0, -2.0, 72.0, -2.0, 7.0, 14.0, 34.0, -2.0, 7.0, 35.0, -2.0, -2.0, -2.0, -2.0, 75.0, -2.0, 2.0, -2.0, -2.0, 10.0, -2.0, 0.0, 4.0, 75.0, 60.0, -2.0, -2.0, 3.0, 9.0, 73.0, 9.0, -2.0, 37.0, 4.0, -2.0, 7.0, -2.0, 7.0, 33.0, -2.0, 36.0, 2.0, 73.0, 38.0, 7.0, -2.0, 2.0, 56.0, -2.0, -2.0, -2.0, -2.0, 7.0, -2.0, -2.0, -2.0, 8.0, -2.0, 75.0, -2.0, 59.0, 5.0, -2.0, 3.0, -2.0, 3.0, 4.0, 72.0, -2.0, -2.0, 9.0, 4.0, 1.0, -2.0, -2.0, -2.0, -2.0, 32.0, 33.0, -2.0, 3.0, 4.0, -2.0, -2.0, 0.0, -2.0, 14.0, -2.0, 8.0, -2.0, -2.0, -2.0, 1.0, 44.0, -2.0, -2.0, 45.0, -2.0, 1.0, 1.0, -2.0, -2.0, 6.0, -2.0, -2.0, -2.0, 71.0, -2.0, 71.0, -2.0, -2.0, 54.0, -2.0, 67.0, -2.0, 43.0, 55.0, 51.0, -2.0, -2.0, -2.0, 45.0, 68.0, -2.0, -2.0, -2.0, -2.0, 71.0, -2.0, 59.0, 54.0, -2.0, -2.0, 54.0, -2.0, -2.0, 51.0, -2.0, 33.0, -2.0, -2.0, 2.0, -2.0, -2.0, -2.0, -2.0, -2.0, -2.0, 37.0, 37.0, 44.0, -2.0, -2.0, -2.0, -2.0, -2.0, -2.0, -2.0, -2.0, -2.0, 73.0, -2.0, 32.0, -2.0, -2.0, -2.0, -2.0, -2.0, -2.0, -2.0, -2.0, -2.0, -2.0, -2.0, -2.0, -2.0, -2.0, -2.0, -2.0, -2.0, -2.0, -2.0, -2.0, -2.0, -2.0, -2.0, -2.0, -2.0, -2.0, -2.0, -2.0, -2.0, -2.0, -2.0], "thresholds": [0.5, 0.5, 5051.5, 2.5, -2.0, 1304.5, 222.0, 0.5, 1862.5, 0.5, 0.5, 0.5, -2.0, -2.0, -2.0, 1818.5, 2975.0, -2.0, -2.0, 2994.0, 0.5, -2.0, 2459.5, 1494.0, 0.5, 4032.0, -2.0, 1443.5, 77500.0, 0.5, -2.0, 0.5, 1802.5, 0.5, 6.5, 1792.5, -2.0, 2925.0, -2.0, 295.0, 0.5, 0.5, -2.0, 0.5, 0.5, 1855.0, -2.0, 170.0, 301.5, 120.5, -2.0, 0.5, 2925.0, 1991.5, 0.5, -2.0, 2011.5, 52500.0, 254.0, 206.0, 2828.5, -2.0, -2.0, -2.0, -2.0, -2.0, -2.0, 1832.5, -2.0, 2496.5, -2.0, -2.0, 1710.0, 993.5, 0.5, 1795.5, 1565.0, 0.5, -2.0, 0.5, 1470.5, -2.0, -2.0, -2.0, -2.0, 0.5, 0.5, 67000.0, -2.0, 0.5, 52500.0, 4309.0, -2.0, -2.0, -2.0, 198.0, -2.0, -2.0, 1844.0, 2320.0, 1485.5, -2.0, 0.5, 0.5, 0.5, 3.5, 145.0, 222.0, -2.0, -2.0, -2.0, 0.5, 1667.0, -2.0, -2.0, 1595.5, -2.0, 2016.5, 0.5, 0.5, 17500.0, 2825.5, 0.5, 0.5, 2015.5, -2.0, 2012.5, -2.0, 0.5, 0.5, 0.5, -2.0, 0.5, 4267.5, -2.0, 4.5, 0.5, 1996.0, -2.0, 1747.0, 1425.5, 4314.0, -2.0, 1742.5, 1757.5, 1449.5, -2.0, 3187.5, 84000.0, 0.5, 0.5, 0.5, -2.0, -2.0, -2.0, 181.5, -2.0, 0.5, 0.5, -2.0, 4672.0, 60000.0, 329.6666717529297, -2.0, -2.0, 2772.0, -2.0, 0.5, -2.0, -2.0, 0.5, -2.0, -2.0, 0.5, -2.0, 98.0, -2.0, 5.5, -2.0, -2.0, 0.5, 0.5, -2.0, 0.5, 0.5, 129.5, -2.0, -2.0, 4532.5, 0.5, -2.0, 0.5, 1889.5, 0.5, -2.0, -2.0, 1463.5, 314.6666717529297, -2.0, 0.5, 1679.5, -2.0, -2.0, 0.5, -2.0, -2.0, -2.0, 0.5, 189.0, -2.0, -2.0, 2865.0, -2.0, -2.0, 0.5, -2.0, -2.0, -2.0, 0.5, 0.5, 0.5, -2.0, -2.0, -2.0, -2.0, 0.5, -2.0, 1622.5, 0.5, 22500.0, -2.0, 71662.0, 3790.0, -2.0, -2.0, 57500.0, -2.0, 156250.0, -2.0, -2.0, -2.0, 0.5, -2.0, -2.0, -2.0, -2.0, 4232.5, -2.0, 133.5, -2.0, -2.0, -2.0, 147.5, 0.5, -2.0, -2.0, -2.0, -2.0, 239.0, -2.0, -2.0, 1998.5, -2.0, 0.5, -2.0, 195.0, 0.5, 0.5, -2.0, 303.0, 0.5, -2.0, -2.0, -2.0, -2.0, 0.5, -2.0, 3642.5, -2.0, -2.0, 4.5, -2.0, 2015.0, 2544.0, 0.5, 0.5, -2.0, -2.0, 1985.0, 336.5, 0.5, 144.0, -2.0, 0.5, 2702.5, -2.0, 148.0, -2.0, 228.0, 0.5, -2.0, 0.5, 4802.5, 0.5, 0.5, 184.5, -2.0, 4552.5, 0.5, -2.0, -2.0, -2.0, -2.0, 284.0, -2.0, -2.0, -2.0, 1585.0, -2.0, 0.5, -2.0, 0.5, 1592.5, -2.0, 1313.5, -2.0, 1496.5, 2509.5, 0.5, -2.0, -2.0, 179.0, 2637.5, 102500.0, -2.0, -2.0, -2.0, -2.0, 0.5, 0.5, -2.0, 1547.5, 2735.0, -2.0, -2.0, 2009.5, -2.0, 0.5, -2.0, 1775.0, -2.0, -2.0, -2.0, 52500.0, 0.5, -2.0, -2.0, 0.5, -2.0, 100000.0, 69000.0, -2.0, -2.0, 6.0, -2.0, -2.0, -2.0, 0.5, -2.0, 0.5, -2.0, -2.0, 0.5, -2.0, 0.5, -2.0, 0.5, 0.5, 0.5, -2.0, -2.0, -2.0, 0.5, 0.5, -2.0, -2.0, -2.0, -2.0, 0.5, -2.0, 0.5, 0.5, -2.0, -2.0, 0.5, -2.0, -2.0, 0.5, -2.0, 0.5, -2.0, -2.0, 3970.0, -2.0, -2.0, -2.0, -2.0, -2.0, -2.0, 0.5, 0.5, 0.5, -2.0, -2.0, -2.0, -2.0, -2.0, -2.0, -2.0, -2.0, -2.0, 0.5, -2.0, 0.5, -2.0, -2.0, -2.0, -2.0, -2.0, -2.0, -2.0, -2.0, -2.0, -2.0, -2.0, -2.0, -2.0, -2.0, -2.0, -2.0, -2.0, -2.0, -2.0, -2.0, -2.0, -2.0, -2.0, -2.0, -2.0, -2.0, -2.0, -2.0, -2.0, -2.0, -2.0], "node_sample_weight": [8533.0, 5747.0, 2786.0, 5733.0, 26.0, 2234.0, 552.0, 50.0, 5691.0, 51.0, 2189.0, 503.0, 87.0, 62.0, 12.0, 5501.0, 190.0, 55.0, 21.0, 2085.0, 104.0, 9.0, 499.0, 4655.0, 846.0, 160.0, 54.0, 2000.0, 85.0, 103.0, 1.0, 129.0, 370.0, 976.0, 3679.0, 802.0, 44.0, 145.0, 30.0, 535.0, 1465.0, 62.0, 46.0, 62.0, 51.0, 117.0, 18.0, 199.0, 171.0, 944.0, 44.0, 2525.0, 1154.0, 714.0, 93.0, 43.0, 117.0, 306.0, 229.0, 1303.0, 162.0, 59.0, 13.0, 53.0, 31.0, 28.0, 34.0, 79.0, 38.0, 142.0, 71.0, 29.0, 142.0, 683.0, 261.0, 2096.0, 429.0, 1113.0, 68.0, 56.0, 667.0, 108.0, 7.0, 101.0, 57.0, 91.0, 221.0, 173.0, 73.0, 950.0, 353.0, 159.0, 3.0, 26.0, 61.0, 111.0, 47.0, 5.0, 137.0, 269.0, 414.0, 103.0, 182.0, 1255.0, 841.0, 313.0, 116.0, 1080.0, 40.0, 35.0, 42.0, 230.0, 437.0, 73.0, 62.0, 195.0, 41.0, 102.0, 76.0, 480.0, 470.0, 127.0, 226.0, 54.0, 115.0, 30.0, 98.0, 49.0, 98.0, 69.0, 204.0, 46.0, 381.0, 177.0, 5.0, 1169.0, 86.0, 801.0, 48.0, 91.0, 222.0, 106.0, 10.0, 992.0, 88.0, 221.0, 9.0, 183.0, 254.0, 74.0, 125.0, 51.0, 77.0, 50.0, 60.0, 472.0, 29.0, 50.0, 425.0, 83.0, 84.0, 51.0, 194.0, 21.0, 33.0, 112.0, 11.0, 83.0, 31.0, 40.0, 67.0, 80.0, 5.0, 203.0, 1.0, 362.0, 27.0, 145.0, 44.0, 72.0, 1117.0, 83.0, 7.0, 390.0, 411.0, 90.0, 1.0, 14.0, 212.0, 98.0, 8.0, 838.0, 154.0, 54.0, 46.0, 13.0, 214.0, 177.0, 6.0, 81.0, 181.0, 22.0, 71.0, 62.0, 97.0, 17.0, 43.0, 292.0, 180.0, 48.0, 14.0, 419.0, 6.0, 21.0, 80.0, 7.0, 44.0, 49.0, 156.0, 74.0, 53.0, 32.0, 70.0, 84.0, 6.0, 183.0, 25.0, 92.0, 270.0, 99.0, 65.0, 1039.0, 78.0, 81.0, 11.0, 377.0, 18.0, 369.0, 61.0, 43.0, 77.0, 191.0, 27.0, 95.0, 44.0, 30.0, 817.0, 131.0, 80.0, 29.0, 25.0, 65.0, 160.0, 164.0, 26.0, 38.0, 66.0, 5.0, 176.0, 44.0, 45.0, 274.0, 22.0, 139.0, 54.0, 366.0, 61.0, 125.0, 9.0, 105.0, 57.0, 51.0, 37.0, 30.0, 23.0, 174.0, 9.0, 90.0, 2.0, 1.0, 269.0, 23.0, 82.0, 275.0, 764.0, 59.0, 29.0, 37.0, 343.0, 308.0, 73.0, 165.0, 40.0, 199.0, 618.0, 5.0, 77.0, 28.0, 138.0, 146.0, 28.0, 104.0, 72.0, 237.0, 54.0, 129.0, 10.0, 301.0, 69.0, 40.0, 50.0, 116.0, 9.0, 97.0, 14.0, 21.0, 53.0, 101.0, 99.0, 79.0, 11.0, 86.0, 183.0, 8.0, 74.0, 67.0, 218.0, 684.0, 80.0, 49.0, 18.0, 205.0, 138.0, 305.0, 3.0, 35.0, 54.0, 6.0, 159.0, 140.0, 84.0, 185.0, 433.0, 71.0, 17.0, 127.0, 11.0, 111.0, 53.0, 102.0, 2.0, 38.0, 43.0, 168.0, 77.0, 49.0, 5.0, 110.0, 21.0, 99.0, 202.0, 40.0, 49.0, 90.0, 7.0, 102.0, 37.0, 79.0, 15.0, 83.0, 13.0, 8.0, 180.0, 1.0, 77.0, 39.0, 200.0, 137.0, 561.0, 107.0, 17.0, 229.0, 62.0, 102.0, 50.0, 301.0, 146.0, 17.0, 152.0, 155.0, 51.0, 110.0, 104.0, 127.0, 417.0, 35.0, 155.0, 119.0, 1.0, 94.0, 13.0, 27.0, 202.0, 70.0, 29.0, 132.0, 12.0, 133.0, 6.0, 63.0, 152.0, 94.0, 2.0, 83.0, 15.0, 81.0, 16.0, 190.0, 38.0, 89.0, 5.0, 247.0, 5.0, 171.0, 20.0, 473.0, 256.0, 85.0, 22.0, 111.0, 24.0, 192.0, 7.0, 52.0, 14.0, 131.0, 11.0, 288.0, 171.0, 43.0, 128.0, 107.0, 30.0, 13.0, 190.0, 90.0, 11.0, 155.0, 12.0, 125.0, 10.0, 40.0, 207.0, 147.0, 24.0], "values": [[4588.692878628071], [2944.741708717592], [7979.858482890644], [2901.6275481132625], [21092.302564102567], [8660.867054610564], [5223.747705314009], [9438.609333333334], [2845.8133661336615], [26346.25751633987], [8260.88308207705], [4230.333333333333], [15023.187739463601], [9593.0311827957], [3447.5222222222274], [2666.2194510089075], [8045.529824561403], [29153.39393939394], [24815.355555555554], [7826.422414068745], [16970.983974358976], [1751.7777777777778], [4249.883099532398], [2329.2939061940565], [4520.10646178093], [7097.95625], [13147.981481481484], [7346.323333333334], [19122.87137254902], [17051.673139158574], [8660.0], [5306.053746770025], [3881.650630630631], [1343.2670765027322], [2590.8764519344027], [4247.812967581047], [9483.274242424242], [6362.113103448275], [16616.664444444446], [9239.800623052959], [6654.848691695108], [25322.99569892473], [8837.210144927536], [15984.809677419353], [19717.597385620913], [5129.366381766381], [7125.837037037037], [3169.641206030151], [4710.246393762183], [1326.5387005649718], [1686.7303030303028], [2400.503709570957], [3007.41993067591], [3954.723342670401], [6580.718996415771], [3164.786046511628], [7090.204558404558], [7255.635511982571], [11891.130422125183], [7215.115732924021], [2148.50329218107], [23551.622598870057], [34529.230769230766], [20496.427672955975], [10014.582795698921], [27119.995238095235], [11472.509803921568], [4499.652320675105], [6438.508771929824], [2814.469953051643], [4070.4356807511735], [3403.7471264367814], [4977.066666666667], [1103.0893118594436], [1911.274074074074], [2157.5897900763357], [3587.3278943278942], [2892.5626235399823], [6858.417647058824], [5172.878571428572], [3824.9944027986007], [6872.594444444445], [1940.952380952381], [6137.255445544554], [8659.175438596492], [10478.729670329669], [6106.152337858221], [10321.128709055876], [17048.93515981735], [5405.728701754386], [12084.570915958451], [2021.0746331236896], [8902.222222222223], [5748.987179487179], [3899.872131147541], [2992.6924924924924], [2198.4794326241135], [3143.866666666667], [5043.971776155718], [738.7692688971499], [1339.8093397745572], [1625.851132686084], [2042.0285714285715], [1963.0954050464807], [2447.828141101863], [3281.0679446219383], [4413.701724137932], [2934.412222222222], [1633.645], [1883.4361904761904], [8506.079365079364], [4066.3408695652174], [3697.9699466056445], [8912.905936073059], [11694.012903225806], [6537.0899145299145], [2507.653658536585], [11805.799346405229], [7995.136842105263], [4666.292361111111], [6160.897730496454], [16617.848818897637], [9537.109439528023], [2445.038271604938], [1904.333913043478], [2588.1955555555555], [3069.2142857142853], [5814.795918367347], [4779.038775510204], [421.3410628019323], [843.1522875816993], [378.9347826086957], [1421.6740157480315], [2090.7487758945385], [317.3333333333333], [1935.4430567436555], [2338.9744186046514], [2524.4404494382024], [914.7222222222223], [3179.8256410256413], [3322.568168168168], [4681.983018867924], [1569.9199999999998], [2840.8640456989247], [3988.9553030303027], [4133.717647058823], [2411.866666666667], [3161.245537340619], [4084.665091863517], [7325.959459459459], [6101.958933333333], [9950.043137254901], [13013.497835497836], [7163.292], [9346.545555555555], [4539.2097457627115], [7335.586206896552], [9913.916000000001], [5687.669333333333], [13843.487550200804], [18592.111111111113], [14145.300653594772], [8843.727147766323], [3053.593650793651], [2057.775757575758], [1849.6291666666666], [4169.6909090909085], [2797.00562248996], [3652.2], [4836.883333333333], [4754.484577114428], [413.23999999999995], [586.666666666666], [842.4453201970443], [986.6666666666666], [1445.265561694291], [1035.7407407407406], [2411.9485057471265], [589.4696969696969], [2919.369444444444], [1895.378991345867], [2321.829718875502], [1377.1333333333332], [3182.9960683760683], [1899.5336577453365], [3154.0459259259255], [5500.0], [5026.390476190476], [3213.8396226415093], [4564.624489795918], [6119.625], [2985.1891010342083], [2055.5108225108224], [5443.392592592592], [2398.076811594203], [4599.082051282051], [4045.622118380062], [3043.661016949153], [6629.988888888888], [5625.338271604938], [3564.710128913444], [5334.796969696969], [7740.678873239437], [5051.212903225806], [7050.688659793815], [8946.57254901961], [10331.173643410852], [3672.219406392694], [5945.660740740741], [8766.509722222223], [15175.0], [5744.533333333333], [1716.6666666666667], [14819.64126984127], [18749.894166666665], [19253.333333333332], [13332.65909090909], [4545.504761904761], [9825.25641025641], [1626.2387387387387], [2174.9081761006287], [2995.6208333333334], [2728.1657142857143], [5044.270634920635], [4298.622222222222], [832.8222222222222], [941.7306666666667], [1713.6833333333334], [1353.8046913580247], [2324.2962962962965], [2596.521025641026], [1851.078986204684], [2485.4777777777776], [2413.928395061728], [1045.1818181818153], [3224.7352785145886], [1957.9592592592594], [1975.5622402890695], [1211.0251366120217], [2953.8976744186048], [3347.790476190476], [3319.375218150087], [2342.716049382716], [4553.272280701754], [4516.465151515152], [4326.0], [2951.3934720522234], [1631.5567430025444], [2552.5175], [5713.8873563218385], [5129.618666666666], [2913.270769230769], [4375.973333333333], [3156.929674796748], [2110.4435897435897], [4355.112280701755], [6477.547474747475], [5720.0], [3503.480303030303], [3666.5], [6799.042962962963], [3404.667883211679], [8140.412121212121], [5829.1352517985615], [7058.92962962963], [5371.926775956284], [8291.709289617485], [18001.415999999997], [28269.62222222222], [9359.342222222222], [10791.738011695907], [1787.4836601307188], [1468.2882882882882], [2280.337777777778], [2037.3913043478253], [819.5268199233716], [1089.8666666666666], [1702.1533333333332], [2232.5333333333333], [1720.0], [1352.4433705080546], [2475.594202898551], [2276.6666666666665], [2452.051636363636], [1634.7602966841187], [2183.9785310734464], [3046.409195402299], [5816.897297297298], [2967.5218658892127], [2155.035930735931], [1022.8958904109589], [3332.781818181818], [3644.2916666666665], [2460.093132328308], [3109.595361380798], [2268.8533333333335], [2571.976623376623], [2712.0833333333335], [4650.271014492754], [3153.0890410958905], [3235.195238095238], [3828.5897435897436], [3033.8777777777777], [3602.2537271448664], [2115.437037037037], [5897.543669250646], [4946.666666666667], [5721.992469545959], [3733.6057971014493], [10044.916666666666], [7476.218666666667], [18580.841379310346], [10533.266666666666], [9560.18969072165], [6522.323809523809], [13986.68888888889], [9612.237735849058], [940.3973597359735], [656.2713804713804], [1654.4227848101266], [2044.9454545454546], [1176.8317829457364], [1434.9712204007287], [2420.825], [2261.0819819819817], [1658.2845771144277], [2631.8461773700305], [1691.9912280701753], [1145.4358333333332], [2095.012244897959], [2368.1], [2625.600325203252], [3475.448792270531], [2124.5608743169396], [5253.333333333333], [1072.8990476190477], [842.7148148148149], [1395.0555555555554], [3405.9035639412996], [2345.1314285714284], [2811.9857142857145], [3590.7286486486487], [2904.0303310238646], [2594.8995305164317], [2260.6470588235297], [4482.394750656168], [6588.478787878788], [3343.603003003003], [2410.0201257861636], [3875.8169934640523], [1420.0], [2839.101754385965], [3267.441860465116], [3863.375], [3136.18961038961], [1992.5224489795917], [3320.0], [6102.089696969697], [4661.266666666666], [7296.377104377104], [4950.388118811881], [3818.31], [3458.2258503401367], [9344.648888888889], [12331.428571428572], [975.8901960784315], [836.7261261261261], [1711.9215189873419], [1337.1733333333332], [1176.2128514056226], [1016.5282051282051], [778.2333333333333], [1468.3733333333332], [1900.0], [2254.6329004329004], [4501.427350427351], [2362.134], [1381.5386861313868], [1781.1013666072488], [1250.996261682243], [689.7019607843138], [3291.1374090247446], [1332.431182795699], [3291.5790849673203], [4192.788], [2335.3162790697675], [1695.9246575342465], [2505.3921568627447], [3447.4583333333335], [2093.312688172043], [2880.9058823529413], [4390.32606060606], [2641.9448717948717], [1870.0362204724408], [3145.0099120703435], [2099.2361904761906], [4738.315268817203], [3318.5383753501396], [2566.6666666666665], [4086.879432624113], [2615.3846153846157], [5113.893827160493], [3563.983168316832], [2848.875238095238], [4086.3793103448274], [6057.915151515152], [5310.977777777778], [7594.245614035087], [3931.111111111111], [6107.448677248677], [4670.937280701754], [8845.298581560282], [12759.966666666667], [1661.5293172690763], [1889.72], [1052.2510288065844], [1558.1833333333334], [1497.5484210526313], [1134.5596491228068], [2280.312359550562], [2021.3333333333333], [2270.5236167341427], [7320.0], [1240.9688109161793], [2242.58], [1964.5878787878785], [1428.3929687499997], [918.147450980392], [2490.3848484848486], [3291.4384384384384], [3782.6833333333334], [3306.985069444445], [3997.0285714285715], [2821.5820512820515], [2445.652380952381], [4351.4106870229], [4840.6], [2876.8229166666656], [3497.8019493177385], [4378.446511627906], [3344.502604166666], [3654.5302180685358], [7586.833333333333], [1986.6666666666667], [3681.1470175438594], [5801.449629629629], [8221.2], [4337.033978494624], [8306.294444444444], [9730.795199999999], [3417.293333333321], [2627.4866666666667], [2201.545249597423], [1269.3356009070296], [1067.2222222222222]], "children_default": [1.0, 3.0, 5.0, 7.0, -1.0, 9.0, 11.0, 13.0, 15.0, 17.0, 19.0, 21.0, -1.0, -1.0, -1.0, 23.0, 25.0, -1.0, -1.0, 27.0, 29.0, -1.0, 31.0, 33.0, 35.0, 37.0, -1.0, 39.0, 41.0, 43.0, -1.0, 45.0, 47.0, 49.0, 51.0, 53.0, -1.0, 55.0, -1.0, 57.0, 59.0, 61.0, -1.0, 63.0, 65.0, 67.0, -1.0, 69.0, 71.0, 73.0, -1.0, 75.0, 77.0, 79.0, 81.0, -1.0, 83.0, 85.0, 87.0, 89.0, 91.0, -1.0, -1.0, -1.0, -1.0, -1.0, -1.0, 93.0, -1.0, 95.0, -1.0, -1.0, 97.0, 99.0, 101.0, 103.0, 105.0, 107.0, -1.0, 109.0, 111.0, -1.0, -1.0, -1.0, -1.0, 113.0, 115.0, 117.0, -1.0, 119.0, 121.0, 123.0, -1.0, -1.0, -1.0, 125.0, -1.0, -1.0, 127.0, 129.0, 131.0, -1.0, 133.0, 135.0, 137.0, 139.0, 141.0, 143.0, -1.0, -1.0, -1.0, 145.0, 147.0, -1.0, -1.0, 149.0, -1.0, 151.0, 153.0, 155.0, 157.0, 159.0, 161.0, 163.0, 165.0, -1.0, 167.0, -1.0, 169.0, 171.0, 173.0, -1.0, 175.0, 177.0, -1.0, 179.0, 181.0, 183.0, -1.0, 185.0, 187.0, 189.0, -1.0, 191.0, 193.0, 195.0, -1.0, 197.0, 199.0, 201.0, 203.0, 205.0, -1.0, -1.0, -1.0, 207.0, -1.0, 209.0, 211.0, -1.0, 213.0, 215.0, 217.0, -1.0, -1.0, 219.0, -1.0, 221.0, -1.0, -1.0, 223.0, -1.0, -1.0, 225.0, -1.0, 227.0, -1.0, 229.0, -1.0, -1.0, 231.0, 233.0, -1.0, 235.0, 237.0, 239.0, -1.0, -1.0, 241.0, 243.0, -1.0, 245.0, 247.0, 249.0, -1.0, -1.0, 251.0, 253.0, -1.0, 255.0, 257.0, -1.0, -1.0, 259.0, -1.0, -1.0, -1.0, 261.0, 263.0, -1.0, -1.0, 265.0, -1.0, -1.0, 267.0, -1.0, -1.0, -1.0, 269.0, 271.0, 273.0, -1.0, -1.0, -1.0, -1.0, 275.0, -1.0, 277.0, 279.0, 281.0, -1.0, 283.0, 285.0, -1.0, -1.0, 287.0, -1.0, 289.0, -1.0, -1.0, -1.0, 291.0, -1.0, -1.0, -1.0, -1.0, 293.0, -1.0, 295.0, -1.0, -1.0, -1.0, 297.0, 299.0, -1.0, -1.0, -1.0, -1.0, 301.0, -1.0, -1.0, 303.0, -1.0, 305.0, -1.0, 307.0, 309.0, 311.0, -1.0, 313.0, 315.0, -1.0, -1.0, -1.0, -1.0, 317.0, -1.0, 319.0, -1.0, -1.0, 321.0, -1.0, 323.0, 325.0, 327.0, 329.0, -1.0, -1.0, 331.0, 333.0, 335.0, 337.0, -1.0, 339.0, 341.0, -1.0, 343.0, -1.0, 345.0, 347.0, -1.0, 349.0, 351.0, 353.0, 355.0, 357.0, -1.0, 359.0, 361.0, -1.0, -1.0, -1.0, -1.0, 363.0, -1.0, -1.0, -1.0, 365.0, -1.0, 367.0, -1.0, 369.0, 371.0, -1.0, 373.0, -1.0, 375.0, 377.0, 379.0, -1.0, -1.0, 381.0, 383.0, 385.0, -1.0, -1.0, -1.0, -1.0, 387.0, 389.0, -1.0, 391.0, 393.0, -1.0, -1.0, 395.0, -1.0, 397.0, -1.0, 399.0, -1.0, -1.0, -1.0, 401.0, 403.0, -1.0, -1.0, 405.0, -1.0, 407.0, 409.0, -1.0, -1.0, 411.0, -1.0, -1.0, -1.0, 413.0, -1.0, 415.0, -1.0, -1.0, 417.0, -1.0, 419.0, -1.0, 421.0, 423.0, 425.0, -1.0, -1.0, -1.0, 427.0, 429.0, -1.0, -1.0, -1.0, -1.0, 431.0, -1.0, 433.0, 435.0, -1.0, -1.0, 437.0, -1.0, -1.0, 439.0, -1.0, 441.0, -1.0, -1.0, 443.0, -1.0, -1.0, -1.0, -1.0, -1.0, -1.0, 445.0, 447.0, 449.0, -1.0, -1.0, -1.0, -1.0, -1.0, -1.0, -1.0, -1.0, -1.0, 451.0, -1.0, 453.0, -1.0, -1.0, -1.0, -1.0, -1.0, -1.0, -1.0, -1.0, -1.0, -1.0, -1.0, -1.0, -1.0, -1.0, -1.0, -1.0, -1.0, -1.0, -1.0, -1.0, -1.0, -1.0, -1.0, -1.0, -1.0, -1.0, -1.0, -1.0, -1.0, -1.0, -1.0]}, {"children_left": [1.0, 3.0, 5.0, 7.0, 9.0, 11.0, 13.0, 15.0, 17.0, 19.0, 21.0, 23.0, 25.0, 27.0, 29.0, 31.0, 33.0, -1.0, -1.0, 35.0, -1.0, 37.0, -1.0, 39.0, 41.0, -1.0, -1.0, 43.0, -1.0, -1.0, -1.0, 45.0, 47.0, -1.0, 49.0, 51.0, 53.0, 55.0, 57.0, 59.0, -1.0, 61.0, -1.0, 63.0, -1.0, -1.0, 65.0, -1.0, 67.0, 69.0, 71.0, 73.0, 75.0, 77.0, 79.0, -1.0, 81.0, 83.0, -1.0, 85.0, 87.0, 89.0, -1.0, -1.0, 91.0, 93.0, -1.0, 95.0, 97.0, 99.0, 101.0, 103.0, 105.0, 107.0, -1.0, 109.0, 111.0, 113.0, 115.0, -1.0, 117.0, -1.0, 119.0, 121.0, 123.0, -1.0, -1.0, -1.0, 125.0, 127.0, 129.0, 131.0, 133.0, -1.0, -1.0, -1.0, -1.0, -1.0, -1.0, 135.0, 137.0, 139.0, -1.0, 141.0, 143.0, 145.0, -1.0, 147.0, -1.0, 149.0, -1.0, 151.0, 153.0, 155.0, -1.0, 157.0, 159.0, 161.0, 163.0, 165.0, -1.0, -1.0, 167.0, 169.0, -1.0, 171.0, -1.0, -1.0, -1.0, -1.0, -1.0, -1.0, 173.0, 175.0, -1.0, 177.0, -1.0, 179.0, -1.0, -1.0, 181.0, -1.0, -1.0, 183.0, -1.0, 185.0, 187.0, 189.0, 191.0, 193.0, -1.0, 195.0, 197.0, 199.0, 201.0, 203.0, 205.0, 207.0, -1.0, -1.0, -1.0, 209.0, -1.0, 211.0, -1.0, -1.0, 213.0, 215.0, 217.0, 219.0, -1.0, 221.0, -1.0, -1.0, 223.0, 225.0, -1.0, 227.0, 229.0, 231.0, -1.0, -1.0, -1.0, 233.0, -1.0, 235.0, -1.0, 237.0, -1.0, 239.0, 241.0, -1.0, 243.0, 245.0, 247.0, 249.0, -1.0, 251.0, 253.0, 255.0, 257.0, 259.0, -1.0, -1.0, -1.0, -1.0, 261.0, -1.0, 263.0, 265.0, -1.0, 267.0, -1.0, 269.0, 271.0, 273.0, 275.0, 277.0, -1.0, -1.0, 279.0, -1.0, 281.0, -1.0, -1.0, 283.0, 285.0, -1.0, -1.0, -1.0, 287.0, 289.0, -1.0, -1.0, -1.0, 291.0, 293.0, -1.0, 295.0, -1.0, -1.0, 297.0, -1.0, -1.0, 299.0, -1.0, 301.0, -1.0, 303.0, 305.0, -1.0, 307.0, -1.0, 309.0, 311.0, 313.0, -1.0, -1.0, -1.0, 315.0, 317.0, 319.0, -1.0, 321.0, -1.0, -1.0, -1.0, 323.0, -1.0, 325.0, -1.0, -1.0, -1.0, -1.0, -1.0, -1.0, -1.0, -1.0, -1.0, -1.0, -1.0, 327.0, -1.0, -1.0, 329.0, -1.0, 331.0, 333.0, -1.0, -1.0, 335.0, 337.0, -1.0, 339.0, -1.0, 341.0, -1.0, 343.0, 345.0, 347.0, 349.0, 351.0, -1.0, -1.0, 353.0, 355.0, 357.0, 359.0, 361.0, 363.0, -1.0, 365.0, -1.0, -1.0, -1.0, 367.0, -1.0, 369.0, 371.0, 373.0, -1.0, 375.0, -1.0, -1.0, 377.0, 379.0, -1.0, -1.0, -1.0, 381.0, -1.0, 383.0, -1.0, -1.0, 385.0, -1.0, 387.0, 389.0, 391.0, 393.0, -1.0, 395.0, 397.0, -1.0, -1.0, -1.0, -1.0, -1.0, 399.0, 401.0, 403.0, 405.0, -1.0, 407.0, -1.0, 409.0, -1.0, 411.0, -1.0, 413.0, 415.0, 417.0, 419.0, 421.0, -1.0, -1.0, -1.0, 423.0, -1.0, -1.0, -1.0, -1.0, -1.0, -1.0, -1.0, -1.0, 425.0, 427.0, -1.0, -1.0, 429.0, -1.0, -1.0, -1.0, -1.0, -1.0, 431.0, -1.0, -1.0, 433.0, -1.0, -1.0, 435.0, -1.0, -1.0, 437.0, -1.0, 439.0, 441.0, 443.0, -1.0, -1.0, -1.0, 445.0, -1.0, -1.0, -1.0, -1.0, -1.0, -1.0, 447.0, -1.0, 449.0, -1.0, 451.0, 453.0, -1.0, 455.0, -1.0, 457.0, -1.0, 459.0, 461.0, -1.0, -1.0, -1.0, -1.0, -1.0, 463.0, 465.0, -1.0, -1.0, -1.0, -1.0, -1.0, -1.0, -1.0, 467.0, -1.0, -1.0, -1.0, -1.0, -1.0, -1.0, 469.0, -1.0, -1.0, -1.0, -1.0, -1.0, -1.0, 471.0, -1.0, 473.0, -1.0, 475.0, -1.0, 477.0, 479.0, -1.0, -1.0, -1.0, -1.0, -1.0, -1.0, 481.0, -1.0, -1.0, -1.0, -1.0, -1.0, 483.0, -1.0, -1.0, -1.0, 485.0, -1.0, 487.0, -1.0, -1.0, -1.0, -1.0, -1.0, -1.0, -1.0, -1.0, -1.0, -1.0, -1.0], "children_right": [2.0, 4.0, 6.0, 8.0, 10.0, 12.0, 14.0, 16.0, 18.0, 20.0, 22.0, 24.0, 26.0, 28.0, 30.0, 32.0, 34.0, -1.0, -1.0, 36.0, -1.0, 38.0, -1.0, 40.0, 42.0, -1.0, -1.0, 44.0, -1.0, -1.0, -1.0, 46.0, 48.0, -1.0, 50.0, 52.0, 54.0, 56.0, 58.0, 60.0, -1.0, 62.0, -1.0, 64.0, -1.0, -1.0, 66.0, -1.0, 68.0, 70.0, 72.0, 74.0, 76.0, 78.0, 80.0, -1.0, 82.0, 84.0, -1.0, 86.0, 88.0, 90.0, -1.0, -1.0, 92.0, 94.0, -1.0, 96.0, 98.0, 100.0, 102.0, 104.0, 106.0, 108.0, -1.0, 110.0, 112.0, 114.0, 116.0, -1.0, 118.0, -1.0, 120.0, 122.0, 124.0, -1.0, -1.0, -1.0, 126.0, 128.0, 130.0, 132.0, 134.0, -1.0, -1.0, -1.0, -1.0, -1.0, -1.0, 136.0, 138.0, 140.0, -1.0, 142.0, 144.0, 146.0, -1.0, 148.0, -1.0, 150.0, -1.0, 152.0, 154.0, 156.0, -1.0, 158.0, 160.0, 162.0, 164.0, 166.0, -1.0, -1.0, 168.0, 170.0, -1.0, 172.0, -1.0, -1.0, -1.0, -1.0, -1.0, -1.0, 174.0, 176.0, -1.0, 178.0, -1.0, 180.0, -1.0, -1.0, 182.0, -1.0, -1.0, 184.0, -1.0, 186.0, 188.0, 190.0, 192.0, 194.0, -1.0, 196.0, 198.0, 200.0, 202.0, 204.0, 206.0, 208.0, -1.0, -1.0, -1.0, 210.0, -1.0, 212.0, -1.0, -1.0, 214.0, 216.0, 218.0, 220.0, -1.0, 222.0, -1.0, -1.0, 224.0, 226.0, -1.0, 228.0, 230.0, 232.0, -1.0, -1.0, -1.0, 234.0, -1.0, 236.0, -1.0, 238.0, -1.0, 240.0, 242.0, -1.0, 244.0, 246.0, 248.0, 250.0, -1.0, 252.0, 254.0, 256.0, 258.0, 260.0, -1.0, -1.0, -1.0, -1.0, 262.0, -1.0, 264.0, 266.0, -1.0, 268.0, -1.0, 270.0, 272.0, 274.0, 276.0, 278.0, -1.0, -1.0, 280.0, -1.0, 282.0, -1.0, -1.0, 284.0, 286.0, -1.0, -1.0, -1.0, 288.0, 290.0, -1.0, -1.0, -1.0, 292.0, 294.0, -1.0, 296.0, -1.0, -1.0, 298.0, -1.0, -1.0, 300.0, -1.0, 302.0, -1.0, 304.0, 306.0, -1.0, 308.0, -1.0, 310.0, 312.0, 314.0, -1.0, -1.0, -1.0, 316.0, 318.0, 320.0, -1.0, 322.0, -1.0, -1.0, -1.0, 324.0, -1.0, 326.0, -1.0, -1.0, -1.0, -1.0, -1.0, -1.0, -1.0, -1.0, -1.0, -1.0, -1.0, 328.0, -1.0, -1.0, 330.0, -1.0, 332.0, 334.0, -1.0, -1.0, 336.0, 338.0, -1.0, 340.0, -1.0, 342.0, -1.0, 344.0, 346.0, 348.0, 350.0, 352.0, -1.0, -1.0, 354.0, 356.0, 358.0, 360.0, 362.0, 364.0, -1.0, 366.0, -1.0, -1.0, -1.0, 368.0, -1.0, 370.0, 372.0, 374.0, -1.0, 376.0, -1.0, -1.0, 378.0, 380.0, -1.0, -1.0, -1.0, 382.0, -1.0, 384.0, -1.0, -1.0, 386.0, -1.0, 388.0, 390.0, 392.0, 394.0, -1.0, 396.0, 398.0, -1.0, -1.0, -1.0, -1.0, -1.0, 400.0, 402.0, 404.0, 406.0, -1.0, 408.0, -1.0, 410.0, -1.0, 412.0, -1.0, 414.0, 416.0, 418.0, 420.0, 422.0, -1.0, -1.0, -1.0, 424.0, -1.0, -1.0, -1.0, -1.0, -1.0, -1.0, -1.0, -1.0, 426.0, 428.0, -1.0, -1.0, 430.0, -1.0, -1.0, -1.0, -1.0, -1.0, 432.0, -1.0, -1.0, 434.0, -1.0, -1.0, 436.0, -1.0, -1.0, 438.0, -1.0, 440.0, 442.0, 444.0, -1.0, -1.0, -1.0, 446.0, -1.0, -1.0, -1.0, -1.0, -1.0, -1.0, 448.0, -1.0, 450.0, -1.0, 452.0, 454.0, -1.0, 456.0, -1.0, 458.0, -1.0, 460.0, 462.0, -1.0, -1.0, -1.0, -1.0, -1.0, 464.0, 466.0, -1.0, -1.0, -1.0, -1.0, -1.0, -1.0, -1.0, 468.0, -1.0, -1.0, -1.0, -1.0, -1.0, -1.0, 470.0, -1.0, -1.0, -1.0, -1.0, -1.0, -1.0, 472.0, -1.0, 474.0, -1.0, 476.0, -1.0, 478.0, 480.0, -1.0, -1.0, -1.0, -1.0, -1.0, -1.0, 482.0, -1.0, -1.0, -1.0, -1.0, -1.0, 484.0, -1.0, -1.0, -1.0, 486.0, -1.0, 488.0, -1.0, -1.0, -1.0, -1.0, -1.0, -1.0, -1.0, -1.0, -1.0, -1.0, -1.0], "features": [5.0, 22.0, 0.0, 19.0, 2.0, 7.0, 17.0, 5.0, 1.0, 3.0, 23.0, 4.0, 65.0, 38.0, 36.0, 0.0, 8.0, -2.0, -2.0, 59.0, -2.0, 6.0, -2.0, 3.0, 2.0, -2.0, -2.0, 22.0, -2.0, -2.0, -2.0, 9.0, 8.0, -2.0, 1.0, 2.0, 9.0, 29.0, 32.0, 2.0, -2.0, 45.0, -2.0, 6.0, -2.0, -2.0, 9.0, -2.0, 4.0, 45.0, 8.0, 54.0, 7.0, 1.0, 9.0, -2.0, 5.0, 37.0, -2.0, 41.0, 2.0, 4.0, -2.0, -2.0, 5.0, 4.0, -2.0, 11.0, 46.0, 3.0, 18.0, 0.0, 42.0, 63.0, -2.0, 65.0, 51.0, 75.0, 33.0, -2.0, 3.0, -2.0, 70.0, 54.0, 63.0, -2.0, -2.0, -2.0, 45.0, 7.0, 11.0, 5.0, 65.0, -2.0, -2.0, -2.0, -2.0, -2.0, -2.0, 35.0, 7.0, 7.0, -2.0, 0.0, 56.0, 1.0, -2.0, 2.0, -2.0, 4.0, -2.0, 3.0, 4.0, 3.0, -2.0, 9.0, 37.0, 3.0, 49.0, 4.0, -2.0, -2.0, 3.0, 72.0, -2.0, 42.0, -2.0, -2.0, -2.0, -2.0, -2.0, -2.0, 26.0, 67.0, -2.0, 16.0, -2.0, 75.0, -2.0, -2.0, 34.0, -2.0, -2.0, 18.0, -2.0, 49.0, 27.0, 8.0, 10.0, 2.0, -2.0, 37.0, 65.0, 9.0, 0.0, 10.0, 8.0, 3.0, -2.0, -2.0, -2.0, 37.0, -2.0, 53.0, -2.0, -2.0, 3.0, 4.0, 57.0, 9.0, -2.0, 1.0, -2.0, -2.0, 37.0, 32.0, -2.0, 43.0, 26.0, 3.0, -2.0, -2.0, -2.0, 45.0, -2.0, 32.0, -2.0, 2.0, -2.0, 65.0, 38.0, -2.0, 8.0, 1.0, 8.0, 9.0, -2.0, 49.0, 5.0, 64.0, 72.0, 2.0, -2.0, -2.0, -2.0, -2.0, 54.0, -2.0, 40.0, 49.0, -2.0, 0.0, -2.0, 34.0, 33.0, 8.0, 5.0, 8.0, -2.0, -2.0, 59.0, -2.0, 38.0, -2.0, -2.0, 4.0, 4.0, -2.0, -2.0, -2.0, 56.0, 1.0, -2.0, -2.0, -2.0, 36.0, 18.0, -2.0, 8.0, -2.0, -2.0, 7.0, -2.0, -2.0, 2.0, -2.0, 8.0, -2.0, 51.0, 2.0, -2.0, 8.0, -2.0, 6.0, 1.0, 75.0, -2.0, -2.0, -2.0, 72.0, 7.0, 4.0, -2.0, 38.0, -2.0, -2.0, -2.0, 29.0, -2.0, 7.0, -2.0, -2.0, -2.0, -2.0, -2.0, -2.0, -2.0, -2.0, -2.0, -2.0, -2.0, 4.0, -2.0, -2.0, 2.0, -2.0, 73.0, 4.0, -2.0, -2.0, 5.0, 2.0, -2.0, 0.0, -2.0, 0.0, -2.0, 75.0, 75.0, 5.0, 8.0, 8.0, -2.0, -2.0, 71.0, 9.0, 9.0, 72.0, 0.0, 36.0, -2.0, 0.0, -2.0, -2.0, -2.0, 70.0, -2.0, 1.0, 72.0, 37.0, -2.0, 5.0, -2.0, -2.0, 37.0, 11.0, -2.0, -2.0, -2.0, 41.0, -2.0, 40.0, -2.0, -2.0, 3.0, -2.0, 43.0, 75.0, 0.0, 23.0, -2.0, 49.0, 3.0, -2.0, -2.0, -2.0, -2.0, -2.0, 65.0, 44.0, 7.0, 73.0, -2.0, 75.0, -2.0, 48.0, -2.0, 3.0, -2.0, 4.0, 3.0, 67.0, 43.0, 4.0, -2.0, -2.0, -2.0, 2.0, -2.0, -2.0, -2.0, -2.0, -2.0, -2.0, -2.0, -2.0, 51.0, 9.0, -2.0, -2.0, 59.0, -2.0, -2.0, -2.0, -2.0, -2.0, 0.0, -2.0, -2.0, 3.0, -2.0, -2.0, 75.0, -2.0, -2.0, 44.0, -2.0, 32.0, 36.0, 48.0, -2.0, -2.0, -2.0, 75.0, -2.0, -2.0, -2.0, -2.0, -2.0, -2.0, 