{"internal_dtype": "<class 'numpy.float64'>", "input_dtype": "<class 'numpy.float64'>", "objective": "binary_crossentropy", "tree_output": "probability", "base_offset": 0, "trees": [{"children_left": [1.0, 3.0, 5.0, 7.0, 9.0, 11.0, 13.0, 15.0, 17.0, 19.0, 21.0, -1.0, 23.0, 25.0, -1.0, 27.0, -1.0, -1.0, -1.0, 29.0, -1.0, 31.0, 33.0, 35.0, -1.0, 37.0, -1.0, -1.0, 39.0, -1.0, -1.0, 41.0, 43.0, 45.0, -1.0, 47.0, -1.0, -1.0, -1.0, 49.0, -1.0, -1.0, -1.0, -1.0, -1.0, 51.0, 53.0, 55.0, 57.0, 59.0, -1.0, -1.0, -1.0, 61.0, -1.0, 63.0, -1.0, -1.0, -1.0, -1.0, -1.0, -1.0, -1.0, 65.0, -1.0, -1.0, -1.0], "children_right": [2.0, 4.0, 6.0, 8.0, 10.0, 12.0, 14.0, 16.0, 18.0, 20.0, 22.0, -1.0, 24.0, 26.0, -1.0, 28.0, -1.0, -1.0, -1.0, 30.0, -1.0, 32.0, 34.0, 36.0, -1.0, 38.0, -1.0, -1.0, 40.0, -1.0, -1.0, 42.0, 44.0, 46.0, -1.0, 48.0, -1.0, -1.0, -1.0, 50.0, -1.0, -1.0, -1.0, -1.0, -1.0, 52.0, 54.0, 56.0, 58.0, 60.0, -1.0, -1.0, -1.0, 62.0, -1.0, 64.0, -1.0, -1.0, -1.0, -1.0, -1.0, -1.0, -1.0, 66.0, -1.0, -1.0, -1.0], "features": [1.0, 0.0, 7.0, 7.0, 6.0, 0.0, 2.0, 8.0, 3.0, 2.0, 0.0, -2.0, 3.0, 0.0, -2.0, 6.0, -2.0, -2.0, -2.0, 2.0, -2.0, 0.0, 3.0, 4.0, -2.0, 0.0, -2.0, -2.0, 3.0, -2.0, -2.0, 3.0, 3.0, 8.0, -2.0, 5.0, -2.0, -2.0, -2.0, 8.0, -2.0, -2.0, -2.0, -2.0, -2.0, 0.0, 1.0, 0.0, 2.0, 8.0, -2.0, -2.0, -2.0, 2.0, -2.0, 1.0, -2.0, -2.0, -2.0, -2.0, -2.0, -2.0, -2.0, 1.0, -2.0, -2.0, -2.0], "thresholds": [563.5, 0.5, 0.5, 0.5, 0.5, 1.5, 4.25, 0.5, 0.5, 2.899999976158142, 2.5, -2.0, 0.5, 4.5, -2.0, 0.5, -2.0, -2.0, -2.0, 1.1650000214576721, -2.0, 1.5, 0.5, 0.5, -2.0, 3.298858642578125, -2.0, -2.0, 0.5, -2.0, -2.0, 0.5, 0.5, 0.5, -2.0, 0.5, -2.0, -2.0, -2.0, 0.5, -2.0, -2.0, -2.0, -2.0, -2.0, 5.909090909090909, 286.54545454545456, 4.090909090909091, 2.909090909090909, 0.5, -2.0, -2.0, -2.0, 2.909090909090909, -2.0, 1479.0, -2.0, -2.0, -2.0, -2.0, -2.0, -2.0, -2.0, 1277.4545454545455, -2.0, -2.0, -2.0], "node_sample_weight": [5219.0, 3237.0, 1982.0, 1076.0, 2161.0, 1696.0, 286.0, 911.0, 165.0, 186.0, 1975.0, 93.0, 1646.0, 224.0, 113.0, 906.0, 5.0, 359.0, 15.0, 110.0, 157.0, 621.0, 1354.0, 1577.0, 144.0, 183.0, 116.0, 140.0, 923.0, 51.0, 163.0, 294.0, 815.0, 1261.0, 272.0, 1578.0, 8.0, 258.0, 138.0, 967.0, 73.0, 214.0, 80.0, 733.0, 98.0, 446.0, 343.0, 875.0, 80.0, 962.0, 2.0, 736.351869375939, 199.64813062406103, 88.7491078573606, 228.2508921426394, 935.50424802604, 585.49575197396, 38.277738758281764, 47.722261241718236, 415.0, 2.0, 80.05798928911462, 348.94201071088537, 753.2795018556928, 228.72049814430716, 58.36881729712332, 13.631182702876679], "values": [[0.025512550296991763, 0.02448744970300824], [0.032792709298733395, 0.017207290701266607], [0.013622603430877902, 0.0363773965691221], [0.018540892193308553, 0.03145910780669145], [0.039888940305414164, 0.01011105969458584], [0.015713443396226417, 0.03428655660377359], [0.0012237762237762239, 0.04877622377622378], [0.021405049396267837, 0.028594950603732162], [0.0027272727272727275, 0.04727272727272728], [0.0239247311827957, 0.026075268817204303], [0.041392405063291136, 0.008607594936708861], [0.025268817204301075, 0.024731182795698928], [0.015249088699878495, 0.034750911300121506], [0.0015625, 0.04843750000000001], [0.004867256637168142, 0.045132743362831865], [0.02152317880794702, 0.02847682119205298], [0.0, 0.05], [0.0016713091922005573, 0.048328690807799446], [0.02666666666666667, 0.023333333333333334], [0.030909090909090914, 0.019090909090909092], [0.01687898089171975, 0.033121019108280254], [0.04516908212560387, 0.004830917874396135], [0.0396602658788774, 0.0103397341211226], [0.014552948636651873, 0.03544705136334813], [0.030555555555555558, 0.019444444444444445], [0.0019125683060109292, 0.048087431693989074], [0.0, 0.05], [0.03142857142857143, 0.018571428571428572], [0.020801733477789817, 0.02919826652221019], [0.03725490196078431, 0.012745098039215686], [0.02883435582822086, 0.021165644171779144], [0.047619047619047616, 0.002380952380952381], [0.044355828220858894, 0.005644171779141105], [0.03909595559080096, 0.010904044409199048], [0.046875, 0.003125], [0.014638783269961979, 0.035361216730038024], [0.037500000000000006, 0.0125], [0.002131782945736434, 0.04786821705426357], [0.0050724637681159425, 0.04492753623188406], [0.024405377456049638, 0.02559462254395036], [0.030136986301369864, 0.01986301369863014], [0.03925233644859813, 0.01074766355140187], [0.04625, 0.0037500000000000007], [0.03799454297407913, 0.012005457025920874], [0.041326530612244894, 0.008673469387755104], [0.023766816143497762, 0.026233183856502244], [0.02434402332361516, 0.02565597667638484], [0.024114285714285717, 0.02588571428571429], [0.02375, 0.026250000000000002], [0.02255717255717256, 0.027442827442827444], [0.025, 0.025], [0.03863641987370995, 0.011363580126290051], [0.03656432933873023, 0.013435670661269772], [0.04098582487966216, 0.009014175120337847], [0.04277111259232724, 0.007228887407672763], [0.016862790772557663, 0.03313720922744234], [0.015926311279390325, 0.03407368872060968], [0.034325092874766955, 0.01567490712523305], [0.011234024711663246, 0.03876597528833676], [0.018072289156626505, 0.031927710843373494], [0.025, 0.025], [0.03997102635745437, 0.01002897364254563], [0.0402645699535476, 0.009735430046452402], [0.014494588292224738, 0.03550541170777527], [0.020686924827543533, 0.02931307517245647], [0.00856621777095083, 0.04143378222904917], [0.033012542624421985, 0.016987457375578018]], "children_default": [1.0, 3.0, 5.0, 7.0, 9.0, 11.0, 13.0, 15.0, 17.0, 19.0, 21.0, -1.0, 23.0, 25.0, -1.0, 27.0, -1.0, -1.0, -1.0, 29.0, -1.0, 31.0, 33.0, 35.0, -1.0, 37.0, -1.0, -1.0, 39.0, -1.0, -1.0, 41.0, 43.0, 45.0, -1.0, 47.0, -1.0, -1.0, -1.0, 49.0, -1.0, -1.0, -1.0, -1.0, -1.0, 51.0, 53.0, 55.0, 57.0, 59.0, -1.0, -1.0, -1.0, 61.0, -1.0, 63.0, -1.0, -1.0, -1.0, -1.0, -1.0, -1.0, -1.0, 65.0, -1.0, -1.0, -1.0]}, {"children_left": [1.0, 3.0, 5.0, 7.0, 9.0, 11.0, 13.0, 15.0, 17.0, 19.0, 21.0, 23.0, -1.0, 25.0, 27.0, -1.0, -1.0, 29.0, 31.0, 33.0, -1.0, 35.0, 37.0, -1.0, 39.0, 41.0, -1.0, 43.0, 45.0, -1.0, -1.0, -1.0, -1.0, 47.0, -1.0, 49.0, -1.0, -1.0, -1.0, -1.0, -1.0, -1.0, -1.0, -1.0, 51.0, -1.0, -1.0, 53.0, -1.0, 55.0, -1.0, -1.0, 57.0, -1.0, -1.0, 59.0, -1.0, -1.0, -1.0, 61.0, -1.0, 63.0, -1.0, -1.0, -1.0], "children_right": [2.0, 4.0, 6.0, 8.0, 10.0, 12.0, 14.0, 16.0, 18.0, 20.0, 22.0, 24.0, -1.0, 26.0, 28.0, -1.0, -1.0, 30.0, 32.0, 34.0, -1.0, 36.0, 38.0, -1.0, 40.0, 42.0, -1.0, 44.0, 46.0, -1.0, -1.0, -1.0, -1.0, 48.0, -1.0, 50.0, -1.0, -1.0, -1.0, -1.0, -1.0, -1.0, -1.0, -1.0, 52.0, -1.0, -1.0, 54.0, -1.0, 56.0, -1.0, -1.0, 58.0, -1.0, -1.0, 60.0, -1.0, -1.0, -1.0, 62.0, -1.0, 64.0, -1.0, -1.0, -1.0], "features": [1.0, 6.0, 6.0, 7.0, 2.0, 5.0, 0.0, 1.0, 1.0, 3.0, 3.0, 1.0, -2.0, 3.0, 2.0, -2.0, -2.0, 1.0, 1.0, 8.0, -2.0, 1.0, 1.0, -2.0, 1.0, 2.0, -2.0, 0.0, 1.0, -2.0, -2.0, -2.0, -2.0, 5.0, -2.0, 7.0, -2.0, -2.0, -2.0, -2.0, -2.0, -2.0, -2.0, -2.0, 6.0, -2.0, -2.0, 7.0, -2.0, 7.0, -2.0, -2.0, 1.0, -2.0, -2.0, 7.0, -2.0, -2.0, -2.0, 2.0, -2.0, 2.0, -2.0, -2.0, -2.0], "thresholds": [618.5, 0.5, 0.5, 0.5, 0.5, 0.5, 2.5, 8.0, 26.0, 0.5, 0.5, 786.5, -2.0, 0.5, 5.25, -2.0, -2.0, 0.5, 601.0, 0.5, -2.0, 514.5, 343.5, -2.0, 1265.0, 1.5, -2.0, 3.298858642578125, 833.0, -2.0, -2.0, -2.0, -2.0, 0.5, -2.0, 0.5, -2.0, -2.0, -2.0, -2.0, -2.0, -2.0, -2.0, -2.0, 0.5, -2.0, -2.0, 0.5, -2.0, 0.5, -2.0, -2.0, 1143.8181818181818, -2.0, -2.0, 0.5, -2.0, -2.0, -2.0, 4.636363636363637, -2.0, 4.027272727272727, -2.0, -2.0, -2.0], "node_sample_weight": [5219.0, 3289.0, 1930.0, 411.0, 2878.0, 326.0, 1604.0, 109.0, 302.0, 859.0, 2019.0, 287.0, 102.0, 428.0, 1176.0, 159.0, 149.0, 188.0, 114.0, 955.0, 98.0, 1820.0, 199.0, 77.0, 249.0, 411.0, 34.0, 1010.0, 166.0, 399.0, 25.0, 205.0, 7.0, 951.0, 2.0, 1738.0, 194.0, 423.0, 105.0, 244.0, 271.0, 136.0, 661.0, 633.0, 946.0, 28.0, 263.0, 585.0, 2.0, 1016.0, 2.0, 2.0, 677.0, 316.0, 2.0, 947.0, 2.0, 318.8715613500252, 336.1284386499748, 946.0, 2.0, 951.5064935360589, 216.49350646394112, 872.8137865319075, 37.18621346809255], "values": [[0.025330523088714318, 0.02466947691128569], [0.033216783216783216, 0.016783216783216783], [0.01189119170984456, 0.03810880829015544], [0.015206812652068127, 0.034793187347931874], [0.035788742182070885, 0.01421125781792912], [0.002147239263803681, 0.04785276073619632], [0.013871571072319202, 0.0361284289276808], [0.04128440366972477, 0.00871559633027523], [0.005794701986754967, 0.04420529801324504], [0.021653084982537835, 0.028346915017462167], [0.041802872709262015, 0.00819712729073799], [0.0013937282229965157, 0.04860627177700349], [0.016176470588235296, 0.03382352941176471], [0.01880841121495327, 0.031191588785046732], [0.01207482993197279, 0.03792517006802721], [0.032075471698113214, 0.017924528301886792], [0.03691275167785235, 0.013087248322147652], [0.0026595744680851063, 0.04734042553191489], [0.010964912280701754, 0.03903508771929825], [0.022879581151832463, 0.02712041884816754], [0.02142857142857143, 0.028571428571428574], [0.04104395604395605, 0.008956043956043956], [0.04874371859296483, 0.001256281407035176], [0.005844155844155844, 0.044155844155844164], [0.0006024096385542169, 0.04939759036144579], [0.018126520681265208, 0.0318734793187348], [0.03823529411764706, 0.011764705882352941], [0.011287128712871287, 0.03871287128712871], [0.016867469879518072, 0.03313253012048193], [0.002506265664160401, 0.047493734335839595], [0.0, 0.05], [0.014634146341463415, 0.03536585365853658], [0.05, 0.0], [0.02308096740273397, 0.026919032597266038], [0.025, 0.025], [0.041800920598388955, 0.008199079401611048], [0.032989690721649485, 0.017010309278350517], [0.048817966903073294, 0.001182033096926714], [0.04523809523809524, 0.004761904761904762], [0.0006147540983606558, 0.04938524590163935], [0.0022140221402214026, 0.0477859778597786], [0.008455882352941178, 0.04154411764705883], [0.0226928895612708, 0.027307110438729198], [0.015323854660347552, 0.03467614533965245], [0.010887949260042284, 0.039112050739957716], [0.025, 0.025], [0.014828897338403044, 0.03517110266159696], [0.02341880341880342, 0.026581196581196582], [0.025, 0.025], [0.02332677165354331, 0.026673228346456693], [0.025, 0.025], [0.025, 0.025], [0.018611521418020683, 0.03138847858197932], [0.015822784810126583, 0.03417721518987342], [0.025, 0.025], [0.041446673706441395, 0.008553326293558606], [0.025, 0.025], [0.010819403227410852, 0.03918059677258915], [0.013238986911886916, 0.03676101308811309], [0.041966173361522204, 0.008033826638477801], [0.025, 0.025], [0.040173477465978366, 0.009826522534021642], [0.04561187762387585, 0.004388122376124158], [0.03928752026574664, 0.010712479734253363], [0.0486554156678818, 0.0013445843321181993]], "children_default": [1.0, 3.0, 5.0, 7.0, 9.0, 11.0, 13.0, 15.0, 17.0, 19.0, 21.0, 23.0, -1.0, 25.0, 27.0, -1.0, -1.0, 29.0, 31.0, 33.0, -1.0, 35.0, 37.0, -1.0, 39.0, 41.0, -1.0, 43.0, 45.0, -1.0, -1.0, -1.0, -1.0, 47.0, -1.0, 49.0, -1.0, -1.0, -1.0, -1.0, -1.0, -1.0, -1.0, -1.0, 51.0, -1.0, -1.0, 53.0, -1.0, 55.0, -1.0, -1.0, 57.0, -1.0, -1.0, 59.0, -1.0, -1.0, -1.0, 61.0, -1.0, 63.0, -1.0, -1.0, -1.0]}, {"children_left": [1.0, 3.0, 5.0, 7.0, 9.0, 11.0, 13.0, 15.0, -1.0, 17.0, 19.0, 21.0, 23.0, 25.0, -1.0, 27.0, -1.0, 29.0, 31.0, 33.0, 35.0, -1.0, -1.0, -1.0, 37.0, -1.0, 39.0, 41.0, -1.0, 43.0, -1.0, -1.0, -1.0, -1.0, 45.0, -1.0, -1.0, -1.0, -1.0, -1.0, -1.0, 47.0, -1.0, 49.0, -1.0, -1.0, 51.0, -1.0, -1.0, 53.0, -1.0, 55.0, -1.0, -1.0, 57.0, -1.0, -1.0, -1.0, -1.0], "children_right": [2.0, 4.0, 6.0, 8.0, 10.0, 12.0, 14.0, 16.0, -1.0, 18.0, 20.0, 22.0, 24.0, 26.0, -1.0, 28.0, -1.0, 30.0, 32.0, 34.0, 36.0, -1.0, -1.0, -1.0, 38.0, -1.0, 40.0, 42.0, -1.0, 44.0, -1.0, -1.0, -1.0, -1.0, 46.0, -1.0, -1.0, -1.0, -1.0, -1.0, -1.0, 48.0, -1.0, 50.0, -1.0, -1.0, 52.0, -1.0, -1.0, 54.0, -1.0, 56.0, -1.0, -1.0, 58.0, -1.0, -1.0, -1.0, -1.0], "features": [7.0, 0.0, 2.0, 5.0, 1.0, 0.0, 2.0, 3.0, -2.0, 1.0, 8.0, 3.0, 1.0, 0.0, -2.0, 8.0, -2.0, 3.0, 8.0, 1.0, 0.0, -2.0, -2.0, -2.0, 1.0, -2.0, 1.0, 7.0, -2.0, 4.0, -2.0, -2.0, -2.0, -2.0, 6.0, -2.0, -2.0, -2.0, -2.0, -2.0, -2.0, 4.0, -2.0, 1.0, -2.0, -2.0, 7.0, -2.0, -2.0, 0.0, -2.0, 0.0, -2.0, -2.0, 1.0, -2.0, -2.0, -2.0, -2.0], "thresholds": [0.5, 0.5, 2.4828150272369385, 0.5, 564.0, 0.5, 6.75, 0.5, -2.0, 421.5, 0.5, 0.5, 418.0, 3.5, -2.0, 0.5, -2.0, 0.5, 0.5, 774.5, 3.5, -2.0, -2.0, -2.0, 777.0, -2.0, 1261.5, 0.5, -2.0, 0.5, -2.0, -2.0, -2.0, -2.0, 0.5, -2.0, -2.0, -2.0, -2.0, -2.0, -2.0, 0.5, -2.0, 220.63636363636363, -2.0, -2.0, 0.5, -2.0, -2.0, 3.0, -2.0, 4.2727272727272725, -2.0, -2.0, 55.63636363636364, -2.0, -2.0, -2.0, -2.0], "node_sample_weight": [5219.0, 4629.0, 590.0, 943.0, 3686.0, 346.0, 244.0, 898.0, 122.0, 2031.0, 1655.0, 155.0, 191.0, 227.0, 37.0, 836.0, 113.0, 1819.0, 212.0, 1029.0, 626.0, 344.0, 9.0, 77.0, 145.0, 135.0, 168.0, 946.0, 1.0, 1622.0, 498.0, 266.0, 205.0, 281.0, 970.0, 580.0, 721.0, 34.0, 231.0, 240.0, 155.0, 935.0, 2.0, 971.0, 3.0, 58.0, 926.0, 896.0, 10.0, 921.1038624618415, 786.8961375381585, 484.0, 2.0, 509.2032785122132, 678.7967214877867, 289.02256631923655, 144.97743368076345, 21.034691063359105, 134.9653089366409], "values": [[0.02505269208660663, 0.024947307913393373], [0.02788939295744221, 0.022110607042557788], [0.0027966101694915256, 0.04720338983050848], [0.02168610816542948, 0.02831389183457052], [0.029476397178513296, 0.020523602821486707], [0.004046242774566475, 0.045953757225433524], [0.0010245901639344263, 0.048975409836065575], [0.02121380846325167, 0.028786191536748332], [0.03278688524590164, 0.01721311475409836], [0.04165435745937962, 0.008345642540620384], [0.014531722054380665, 0.03546827794561934], [0.0025806451612903226, 0.04741935483870968], [0.005235602094240838, 0.044764397905759166], [0.000881057268722467, 0.04911894273127754], [0.0013513513513513514, 0.04864864864864865], [0.021291866028708136, 0.028708133971291867], [0.022566371681415932, 0.02743362831858407], [0.04219351291918637, 0.007806487080813634], [0.03702830188679246, 0.012971698113207548], [0.013459669582118564, 0.03654033041788144], [0.016293929712460065, 0.03370607028753994], [0.0018895348837209302, 0.048110465116279075], [0.027777777777777776, 0.022222222222222223], [0.022727272727272728, 0.027272727272727275], [0.0017241379310344827, 0.04827586206896552], [0.00962962962962963, 0.04037037037037037], [0.00029761904761904765, 0.04970238095238095], [0.022251585623678648, 0.02774841437632135], [0.0, 0.05], [0.04133785450061652, 0.008662145499383477], [0.04849397590361446, 0.0015060240963855422], [0.03834586466165414, 0.011654135338345865], [0.03487804878048781, 0.015121951219512196], [0.02615658362989324, 0.023843416370106764], [0.013298969072164948, 0.036701030927835054], [0.02353448275862069, 0.026465517241379313], [0.012829403606102635, 0.037170596393897366], [0.011764705882352941, 0.03823529411764706], [0.0004329004329004329, 0.04956709956709957], [0.0022916666666666667, 0.04770833333333334], [0.0038709677419354843, 0.04612903225806452], [0.0246524064171123, 0.025347593582887705], [0.025, 0.025], [0.023326467559217304, 0.026673532440782702], [0.016666666666666666, 0.03333333333333333], [0.019827586206896553, 0.03017241379310345], [0.019924406047516198, 0.0300755939524838], [0.02137276785714286, 0.028627232142857145], [0.02, 0.030000000000000006], [0.0419447640096762, 0.0080552359903238], [0.03979497975248137, 0.01020502024751863], [0.017148760330578515, 0.03285123966942149], [0.025, 0.025], [0.04354906732222094, 0.006450932677779058], [0.041727768044156115, 0.00827223195584389], [0.012109781061642486, 0.03789021893835752], [0.00862203150010551, 0.0413779684998945], [0.03573784615631565, 0.014262153843684356], [0.04962953443078123, 0.0003704655692187714]], "children_default": [1.0, 3.0, 5.0, 7.0, 9.0, 11.0, 13.0, 15.0, -1.0, 17.0, 19.0, 21.0, 23.0, 25.0, -1.0, 27.0, -1.0, 29.0, 31.0, 33.0, 35.0, -1.0, -1.0, -1.0, 37.0, -1.0, 39.0, 41.0, -1.0, 43.0, -1.0, -1.0, -1.0, -1.0, 45.0, -1.0, -1.0, -1.0, -1.0, -1.0, -1.0, 47.0, -1.0, 49.0, -1.0, -1.0, 51.0, -1.0, -1.0, 53.0, -1.0, 55.0, -1.0, -1.0, 57.0, -1.0, -1.0, -1.0, -1.0]}, {"children_left": [1.0, 3.0, 5.0, 7.0, 9.0, 11.0, 13.0, 15.0, 17.0, 19.0, -1.0, 21.0, 23.0, 25.0, 27.0, 29.0, -1.0, -1.0, 31.0, 33.0, -1.0, 35.0, -1.0, 37.0, 39.0, 41.0, 43.0, 45.0, -1.0, -1.0, -1.0, -1.0, -1.0, -1.0, -1.0, 47.0, -1.0, 49.0, -1.0, -1.0, 51.0, -1.0, -1.0, -1.0, -1.0, 53.0, -1.0, -1.0, 55.0, 57.0, -1.0, 59.0, -1.0, -1.0, 61.0, -1.0, -1.0, 63.0, -1.0, 65.0, -1.0, 67.0, -1.0, -1.0, -1.0, -1.0, -1.0, -1.0, -1.0], "children_right": [2.0, 4.0, 6.0, 8.0, 10.0, 12.0, 14.0, 16.0, 18.0, 20.0, -1.0, 22.0, 24.0, 26.0, 28.0, 30.0, -1.0, -1.0, 32.0, 34.0, -1.0, 36.0, -1.0, 38.0, 40.0, 42.0, 44.0, 46.0, -1.0, -1.0, -1.0, -1.0, -1.0, -1.0, -1.0, 48.0, -1.0, 50.0, -1.0, -1.0, 52.0, -1.0, -1.0, -1.0, -1.0, 54.0, -1.0, -1.0, 56.0, 58.0, -1.0, 60.0, -1.0, -1.0, 62.0, -1.0, -1.0, 64.0, -1.0, 66.0, -1.0, 68.0, -1.0, -1.0, -1.0, -1.0, -1.0, -1.0, -1.0], "features": [6.0, 5.0, 8.0, 0.0, 2.0, 2.0, 0.0, 3.0, 1.0, 1.0, -2.0, 3.0, 1.0, 1.0, 3.0, 0.0, -2.0, -2.0, 1.0, 3.0, -2.0, 8.0, -2.0, 2.0, 1.0, 0.0, 0.0, 1.0, -2.0, -2.0, -2.0, -2.0, -2.0, -2.0, -2.0, 6.0, -2.0, 3.0, -2.0, -2.0, 3.0, -2.0, -2.0, -2.0, -2.0, 6.0, -2.0, -2.0, 8.0, 1.0, -2.0, 1.0, -2.0, -2.0, 0.0, -2.0, -2.0, 5.0, -2.0, 1.0, -2.0, 1.0, -2.0, -2.0, -2.0, -2.0, -2.0, -2.0, -2.0], "thresholds": [0.5, 0.5, 0.5, 3.798858642578125, 2.2328150272369385, 0.5, 2.5, 0.5, 413.0, 822.5, -2.0, 0.5, 547.5, 752.0, 0.5, 0.5, -2.0, -2.0, 1261.5, 0.5, -2.0, 0.5, -2.0, 12.0, 774.0, 0.5, 1.5, 550.5, -2.0, -2.0, -2.0, -2.0, -2.0, -2.0, -2.0, 0.5, -2.0, 0.5, -2.0, -2.0, 0.5, -2.0, -2.0, -2.0, -2.0, 0.5, -2.0, -2.0, 0.5, 437.09090909090907, -2.0, 1503.3636363636363, -2.0, -2.0, 9.818181818181817, -2.0, -2.0, 0.5, -2.0, 1341.5454545454545, -2.0, 132.0909090909091, -2.0, -2.0, -2.0, -2.0, -2.0, -2.0, -2.0], "node_sample_weight": [5219.0, 749.0, 4470.0, 586.0, 163.0, 2966.0, 1504.0, 376.0, 210.0, 98.0, 143.0, 877.0, 2089.0, 478.0, 1026.0, 369.0, 13.0, 88.0, 160.0, 82.0, 41.0, 925.0, 109.0, 1091.0, 998.0, 345.0, 133.0, 949.0, 245.0, 368.0, 387.0, 182.0, 169.0, 194.0, 11.0, 936.0, 2.0, 1095.0, 10.0, 296.0, 932.0, 3.0, 721.0, 16.0, 258.0, 953.0, 858.0, 2.0, 940.0, 926.0, 187.0, 577.0, 71.0, 2.0, 927.0, 424.0, 2.0, 926.7039482138207, 70.2960517861793, 192.27299854563427, 258.72700145436573, 240.78815505752146, 32.211844942478535, 763.0, 2.0, 457.47055939983477, 96.5294406001652, 18.980409377926684, 61.019590622073316], "values": [[0.02512933512167082, 0.024870664878329184], [0.010280373831775701, 0.0397196261682243], [0.02761744966442953, 0.022382550335570472], [0.0040955631399317415, 0.045904436860068266], [0.03251533742331289, 0.017484662576687116], [0.025910316925151722, 0.02408968307484828], [0.03098404255319149, 0.01901595744680851], [0.0050531914893617025, 0.0449468085106383], [0.002380952380952381, 0.047619047619047616], [0.03826530612244898, 0.011734693877551022], [0.02377622377622378, 0.026223776223776224], [0.020182440136830102, 0.0298175598631699], [0.028314983245572047, 0.02168501675442796], [0.03671548117154812, 0.013284518828451884], [0.02831384015594542, 0.02168615984405458], [0.004607046070460705, 0.04539295392953929], [0.038461538461538464, 0.01153846153846154], [0.007954545454545455, 0.042045454545454546], [0.0003125, 0.0496875], [0.04085365853658537, 0.009146341463414634], [0.024390243902439025, 0.025609756097560978], [0.02108108108108108, 0.02891891891891892], [0.024311926605504592, 0.025688073394495414], [0.04078826764436297, 0.00921173235563703], [0.01467935871743487, 0.03532064128256513], [0.043623188405797104, 0.006376811594202899], [0.018796992481203006, 0.031203007518796996], [0.02713382507903056, 0.022866174920969446], [0.04571428571428572, 0.004285714285714286], [0.0023097826086956523, 0.04769021739130435], [0.008139534883720932, 0.04186046511627907], [0.003021978021978022, 0.046978021978021985], [0.004437869822485207, 0.045562130177514794], [0.03479381443298969, 0.01520618556701031], [0.045454545454545456, 0.004545454545454546], [0.024732905982905985, 0.02526709401709402], [0.025, 0.025], [0.040639269406392696, 0.009360730593607305], [0.04, 0.01], [0.024324324324324326, 0.025675675675675677], [0.014484978540772532, 0.03551502145922747], [0.0, 0.05000000000000001], [0.044590846047156726, 0.005409153952843274], [0.037500000000000006, 0.0125], [0.02422480620155039, 0.025775193798449614], [0.040818467995802736, 0.009181532004197272], [0.01282051282051282, 0.03717948717948718], [0.025, 0.025], [0.022393617021276596, 0.027606382978723407], [0.02975161987041037, 0.020248380129589634], [0.04304812834224599, 0.006951871657754011], [0.0195840554592721, 0.030415944540727904], [0.022535211267605635, 0.027464788732394368], [0.025, 0.025], [0.03538295577130529, 0.014617044228694715], [0.017216981132075475, 0.03278301886792453], [0.025, 0.025], [0.03937093122459938, 0.010629068775400628], [0.04217594749598535, 0.007824052504014654], [0.004680844459740368, 0.04531915554025963], [0.021257928121468567, 0.028742071878531436], [0.04460106333017318, 0.005398936669826825], [0.04844777596287061, 0.0015522240371293914], [0.0408256880733945, 0.009174311926605505], [0.025, 0.025], [0.00977883249112392, 0.04022116750887609], [0.012187701728028527, 0.03781229827197148], [0.03155993408619345, 0.01844006591380655], [0.044264137198695166, 0.005735862801304841]], "children_default": [1.0, 3.0, 5.0, 7.0, 9.0, 11.0, 13.0, 15.0, 17.0, 19.0, -1.0, 21.0, 23.0, 25.0, 27.0, 29.0, -1.0, -1.0, 31.0, 33.0, -1.0, 35.0, -1.0, 37.0, 39.0, 41.0, 43.0, 45.0, -1.0, -1.0, -1.0, -1.0, -1.0, -1.0, -1.0, 47.0, -1.0, 49.0, -1.0, -1.0, 51.0, -1.0, -1.0, -1.0, -1.0, 53.0, -1.0, -1.0, 55.0, 57.0, -1.0, 59.0, -1.0, -1.0, 61.0, -1.0, -1.0, 63.0, -1.0, 65.0, -1.0, 67.0, -1.0, -1.0, -1.0, -1.0, -1.0, -1.0, -1.0]}, {"children_left": [1.0, 3.0, 5.0, 7.0, 9.0, 11.0, 13.0, 15.0, 17.0, 19.0, 21.0, 23.0, -1.0, 25.0, -1.0, 27.0, -1.0, -1.0, -1.0, 29.0, 31.0, 33.0, -1.0, 35.0, 37.0, 39.0, 41.0, 43.0, -1.0, -1.0, 45.0, -1.0, -1.0, -1.0, -1.0, -1.0, -1.0, -1.0, -1.0, -1.0, -1.0, 47.0, 49.0, 51.0, -1.0, 53.0, -1.0, 55.0, -1.0, -1.0, -1.0, -1.0, 57.0, 59.0, -1.0, 61.0, -1.0, 63.0, -1.0, 65.0, -1.0, -1.0, -1.0, -1.0, -1.0, 67.0, -1.0, 69.0, -1.0, -1.0, -1.0], "children_right": [2.0, 4.0, 6.0, 8.0, 10.0, 12.0, 14.0, 16.0, 18.0, 20.0, 22.0, 24.0, -1.0, 26.0, -1.0, 28.0, -1.0, -1.0, -1.0, 30.0, 32.0, 34.0, -1.0, 36.0, 38.0, 40.0, 42.0, 44.0, -1.0, -1.0, 46.0, -1.0, -1.0, -1.0, -1.0, -1.0, -1.0, -1.0, -1.0, -1.0, -1.0, 48.0, 50.0, 52.0, -1.0, 54.0, -1.0, 56.0, -1.0, -1.0, -1.0, -1.0, 58.0, 60.0, -1.0, 62.0, -1.0, 64.0, -1.0, 66.0, -1.0, -1.0, -1.0, -1.0, -1.0, 68.0, -1.0, 70.0, -1.0, -1.0, -1.0], "features": [1.0, 0.0, 6.0, 7.0, 1.0, 5.0, 3.0, 8.0, 3.0, 3.0, 7.0, 0.0, -2.0, 2.0, -2.0, 3.0, -2.0, -2.0, -2.0, 6.0, 2.0, 1.0, -2.0, 0.0, 2.0, 1.0, 8.0, 5.0, -2.0, -2.0, 5.0, -2.0, -2.0, -2.0, -2.0, -2.0, -2.0, -2.0, -2.0, -2.0, -2.0, 8.0, 7.0, 6.0, -2.0, 2.0, -2.0, 1.0, -2.0, -2.0, -2.0, -2.0, 8.0, 2.0, -2.0, 1.0, -2.0, 5.0, -2.0, 8.0, -2.0, -2.0, -2.0, -2.0, -2.0, 0.0, -2.0, 0.0, -2.0, -2.0, -2.0], "thresholds": [714.5, 0.5, 0.5, 0.5, 518.5, 0.5, 0.5, 0.5, 0.5, 0.5, 0.5, 3.298858642578125, -2.0, 1.3650000095367432, -2.0, 0.5, -2.0, -2.0, -2.0, 0.5, 7.5, 523.5, -2.0, 2.5, 3.75, 1488.5, 0.5, 0.5, -2.0, -2.0, 0.5, -2.0, -2.0, -2.0, -2.0, -2.0, -2.0, -2.0, -2.0, -2.0, -2.0, 0.5, 0.5, 0.5, -2.0, 4.818181818181818, -2.0, 1544.090909090909, -2.0, -2.0, -2.0, -2.0, 0.5, 3.5454545454545454, -2.0, 1019.2727272727273, -2.0, 0.5, -2.0, 0.5, -2.0, -2.0, -2.0, -2.0, -2.0, 5.545454545454545, -2.0, 4.272727272727273, -2.0, -2.0, -2.0], "node_sample_weight": [5219.0, 3389.0, 1830.0, 1094.0, 2295.0, 339.0, 1491.0, 923.0, 171.0, 2082.0, 213.0, 304.0, 96.0, 1422.0, 172.0, 921.0, 2.0, 362.0, 15.0, 1903.0, 179.0, 187.0, 58.0, 117.0, 187.0, 93.0, 1329.0, 922.0, 103.0, 337.0, 1752.0, 435.0, 30.0, 32.0, 385.0, 142.0, 78.0, 199.0, 197.0, 156.0, 36.0, 951.0, 967.0, 959.0, 96.0, 1017.0, 2.0, 648.0, 2.0, 815.0, 2.0, 6.0, 964.0, 970.0413036295274, 340.9586963704725, 87.06642112747792, 180.93357887252208, 481.0, 2.0, 844.4496922929192, 274.55030770708083, 152.0, 322.0, 66.0, 2.0, 185.0, 342.0, 181.90139394020125, 62.09860605979877, 194.0, 11.0], "values": [[0.025531711055757807, 0.024468288944242193], [0.03331366184715255, 0.01668633815284745], [0.011120218579234974, 0.03887978142076503], [0.01969835466179159, 0.030301645338208408], [0.03980392156862746, 0.01019607843137255], [0.0028023598820059, 0.0471976401179941], [0.013011401743796112, 0.036988598256203896], [0.022535211267605635, 0.027464788732394368], [0.0043859649122807015, 0.0456140350877193], [0.04104226705091259, 0.008957732949087418], [0.027699530516431925, 0.022300469483568074], [0.0011513157894736843, 0.04884868421052632], [0.019270833333333334, 0.03072916666666667], [0.012271448663853726, 0.03772855133614628], [0.031395348837209305, 0.018604651162790697], [0.02258414766558089, 0.027415852334419108], [0.0, 0.05], [0.0024861878453038676, 0.04751381215469613], [0.023333333333333334, 0.02666666666666667], [0.04040987913820284, 0.009590120861797162], [0.047765363128491625, 0.00223463687150838], [0.03128342245989305, 0.01871657754010695], [0.0060344827586206904, 0.043965517241379315], [0.0025641025641025645, 0.04743589743589744], [0.00026737967914438503, 0.04973262032085562], [0.006989247311827957, 0.043010752688172046], [0.012641083521444696, 0.03735891647855531], [0.0227765726681128, 0.027223427331887203], [0.02669902912621359, 0.023300970873786412], [0.025222551928783383, 0.024777448071216616], [0.04175228310502283, 0.00824771689497717], [0.04896551724137931, 0.0010344827586206897], [0.04666666666666667, 0.0033333333333333335], [0.015625, 0.034375], [0.030649350649350652, 0.01935064935064935], [0.0010563380281690142, 0.04894366197183099], [0.0019230769230769234, 0.04807692307692308], [0.0, 0.05], [0.003299492385786802, 0.0467005076142132], [0.005448717948717949, 0.04455128205128205], [0.018055555555555557, 0.03194444444444445], [0.01267087276550999, 0.03732912723449001], [0.014064115822130302, 0.0359358841778697], [0.024244004171011472, 0.025755995828988534], [0.027083333333333334, 0.02291666666666667], [0.022664700098328418, 0.027335299901671585], [0.025, 0.025], [0.020756172839506176, 0.029243827160493827], [0.025, 0.025], [0.01871165644171779, 0.03128834355828221], [0.025, 0.025], [0.025000000000000005, 0.025000000000000005], [0.023495850622406642, 0.02650414937759336], [0.042680724033673116, 0.007319275966326885], [0.04222779759481304, 0.00777220240518697], [0.004594193660657555, 0.04540580633934245], [0.02183121576776524, 0.02816878423223476], [0.020582120582120583, 0.02941787941787942], [0.025, 0.025], [0.04387288985019222, 0.006127110149807779], [0.038796356685814534, 0.011203643314185469], [0.009868421052631578, 0.04013157894736843], [0.012111801242236027, 0.03788819875776398], [0.014393939393939395, 0.035606060606060606], [0.025, 0.025], [0.032432432432432434, 0.01756756756756757], [0.046198830409356725, 0.003801169590643275], [0.04322267347005803, 0.006777326529941966], [0.01993177503505302, 0.030068224964946988], [0.0404639175257732, 0.009536082474226805], [0.022727272727272728, 0.02727272727272728]], "children_default": [1.0, 3.0, 5.0, 7.0, 9.0, 11.0, 13.0, 15.0, 17.0, 19.0, 21.0, 23.0, -1.0, 25.0, -1.0, 27.0, -1.0, -1.0, -1.0, 29.0, 31.0, 33.0, -1.0, 35.0, 37.0, 39.0, 41.0, 43.0, -1.0, -1.0, 45.0, -1.0, -1.0, -1.0, -1.0, -1.0, -1.0, -1.0, -1.0, -1.0, -1.0, 47.0, 49.0, 51.0, -1.0, 53.0, -1.0, 55.0, -1.0, -1.0, -1.0, -1.0, 57.0, 59.0, -1.0, 61.0, -1.0, 63.0, -1.0, 65.0, -1.0, -1.0, -1.0, -1.0, -1.0, 67.0, -1.0, 69.0, -1.0, -1.0, -1.0]}, {"children_left": [1.0, 3.0, 5.0, 7.0, 9.0, 11.0, 13.0, 15.0, 17.0, 19.0, -1.0, 21.0, -1.0, 23.0, 25.0, 27.0, 29.0, -1.0, 31.0, -1.0, 33.0, 35.0, -1.0, 37.0, 39.0, 41.0, 43.0, 45.0, -1.0, -1.0, -1.0, -1.0, -1.0, -1.0, -1.0, -1.0, 47.0, -1.0, 49.0, -1.0, 51.0, 53.0, 55.0, -1.0, -1.0, -1.0, -1.0, -1.0, -1.0, 57.0, -1.0, 59.0, 61.0, 63.0, -1.0, -1.0, -1.0, -1.0, -1.0, -1.0, -1.0, -1.0, 65.0, -1.0, -1.0, -1.0, -1.0], "children_right": [2.0, 4.0, 6.0, 8.0, 10.0, 12.0, 14.0, 16.0, 18.0, 20.0, -1.0, 22.0, -1.0, 24.0, 26.0, 28.0, 30.0, -1.0, 32.0, -1.0, 34.0, 36.0, -1.0, 38.0, 40.0, 42.0, 44.0, 46.0, -1.0, -1.0, -1.0, -1.0, -1.0, -1.0, -1.0, -1.0, 48.0, -1.0, 50.0, -1.0, 52.0, 54.0, 56.0, -1.0, -1.0, -1.0, -1.0, -1.0, -1.0, 58.0, -1.0, 60.0, 62.0, 64.0, -1.0, -1.0, -1.0, -1.0, -1.0, -1.0, -1.0, -1.0, 66.0, -1.0, -1.0, -1.0, -1.0], "features": [6.0, 5.0, 2.0, 8.0, 0.0, 3.0, 1.0, 1.0, 0.0, 2.0, -2.0, 8.0, -2.0, 0.0, 3.0, 1.0, 0.0, -2.0, 1.0, -2.0, 0.0, 6.0, -2.0, 1.0, 2.0, 2.0, 2.0, 5.0, -2.0, -2.0, -2.0, -2.0, -2.0, -2.0, -2.0, -2.0, 8.0, -2.0, 3.0, -2.0, 8.0, 7.0, 8.0, -2.0, -2.0, -2.0, -2.0, -2.0, -2.0, 1.0, -2.0, 2.0, 2.0, 2.0, -2.0, -2.0, -2.0, -2.0, -2.0, -2.0, -2.0, -2.0, 1.0, -2.0, -2.0, -2.0, -2.0], "thresholds": [0.5, 0.5, 0.5, 0.5, 4.5, 0.5, 564.0, 714.0, 3.5, 0.5, -2.0, 0.5, -2.0, 2.5, 0.5, 708.0, 4.5, -2.0, 416.5, -2.0, 2.5, 0.5, -2.0, 71.0, 1.2900000214576721, 2.365000009536743, 1.7099999785423279, 0.5, -2.0, -2.0, -2.0, -2.0, -2.0, -2.0, -2.0, -2.0, 0.5, -2.0, 0.5, -2.0, 0.5, 0.5, 0.5, -2.0, -2.0, -2.0, -2.0, -2.0, -2.0, 193.36363636363637, -2.0, 2.7727272727272725, 2.3909090909090907, 1.1818181818181819, -2.0, -2.0, -2.0, -2.0, -2.0, -2.0, -2.0, -2.0, 72.36363636363637, -2.0, -2.0, -2.0, -2.0], "node_sample_weight": [5219.0, 772.0, 4447.0, 624.0, 148.0, 853.0, 3594.0, 460.0, 164.0, 118.0, 61.0, 791.0, 97.0, 1996.0, 1598.0, 273.0, 187.0, 127.0, 99.0, 130.0, 79.0, 951.0, 1.0, 631.0, 1365.0, 1514.0, 84.0, 550.0, 8.0, 224.0, 137.0, 28.0, 170.0, 98.0, 103.0, 2.0, 954.0, 282.0, 937.0, 53.0, 1348.0, 925.0, 962.0, 42.0, 143.0, 436.0, 2.0, 871.0, 2.0, 643.0, 132.0, 466.0, 969.0, 710.0, 2.0, 924.0, 500.0, 45.638852860586425, 68.36114713941357, 241.06950759816027, 712.9304924018397, 139.5607375108744, 567.4392624891257, 39.81038029427503, 328.18961970572497, 15.0, 143.0], "values": [[0.025062272465989657, 0.024937727534010346], [0.008290155440414507, 0.0417098445595855], [0.027973914998875648, 0.022026085001124355], [0.0033653846153846156, 0.046634615384615385], [0.029054054054054052, 0.020945945945945947], [0.02063305978898007, 0.029366940211019932], [0.029716193656093494, 0.020283806343906512], [0.003695652173913044, 0.04630434782608696], [0.0024390243902439024, 0.047560975609756105], [0.034745762711864414, 0.015254237288135594], [0.018032786885245903, 0.0319672131147541], [0.020733249051833127, 0.02926675094816688], [0.02577319587628866, 0.02422680412371134], [0.04228456913827656, 0.0077154308617234475], [0.014017521902377974, 0.03598247809762203], [0.005494505494505495, 0.04450549450549451], [0.0010695187165775401, 0.048930481283422464], [0.008661417322834646, 0.04133858267716536], [0.00101010101010101, 0.04898989898989899], [0.027692307692307693, 0.02230769230769231], [0.038607594936708865, 0.01139240506329114], [0.022397476340694007, 0.027602523659305992], [0.0, 0.05], [0.044374009508716325, 0.005625990491283677], [0.04131868131868132, 0.008681318681318682], [0.013077939233817702, 0.036922060766182305], [0.030952380952380953, 0.01904761904761905], [0.006727272727272728, 0.043272727272727275], [0.05, 0.0], [0.0008928571428571429, 0.049107142857142856], [0.0018248175182481751, 0.04817518248175183], [0.0035714285714285718, 0.04642857142857143], [0.0029411764705882353, 0.047058823529411764], [0.03826530612244898, 0.011734693877551022], [0.02864077669902913, 0.021359223300970877], [0.025, 0.025], [0.0219601677148847, 0.028039832285115304], [0.04450354609929078, 0.00549645390070922], [0.044877267876200645, 0.00512273212379936], [0.033962264150943396, 0.016037735849056607], [0.041357566765578634, 0.008642433234421366], [0.016594594594594596, 0.03340540540540541], [0.012577962577962579, 0.037422037422037424], [0.04404761904761905, 0.005952380952380952], [0.029020979020979023, 0.02097902097902098], [0.01353211009174312, 0.03646788990825688], [0.025, 0.025], [0.020091848450057407, 0.029908151549942596], [0.025, 0.025], [0.03569206842923795, 0.014307931570762055], [0.04318181818181818, 0.006818181818181819], [0.023712446351931333, 0.02628755364806867], [0.0346749226006192, 0.015325077399380806], [0.022323943661971834, 0.027676056338028172], [0.025, 0.025], [0.017045454545454544, 0.03295454545454546], [0.017400000000000002, 0.032600000000000004], [0.041235537816388924, 0.008764462183611078], [0.049268590389537625, 0.0007314096104623811], [0.03442990398368965, 0.015570096016310351], [0.040326511920036105, 0.009673488079963896], [0.04964173304833601, 0.00035826695166399553], [0.04039544782979404, 0.009604552170205958], [0.003767861519814995, 0.04623213848018501], [0.01904386861962342, 0.030956131380376582], [0.023333333333333334, 0.02666666666666667], [0.04160839160839161, 0.008391608391608393]], "children_default": [1.0, 3.0, 5.0, 7.0, 9.0, 11.0, 13.0, 15.0, 17.0, 19.0, -1.0, 21.0, -1.0, 23.0, 25.0, 27.0, 29.0, -1.0, 31.0, -1.0, 33.0, 35.0, -1.0, 37.0, 39.0, 41.0, 43.0, 45.0, -1.0, -1.0, -1.0, -1.0, -1.0, -1.0, -1.0, -1.0, 47.0, -1.0, 49.0, -1.0, 51.0, 53.0, 55.0, -1.0, -1.0, -1.0, -1.0, -1.0, -1.0, 57.0, -1.0, 59.0, 61.0, 63.0, -1.0, -1.0, -1.0, -1.0, -1.0, -1.0, -1.0, -1.0, 65.0, -1.0, -1.0, -1.0, -1.0]}, {"children_left": [1.0, 3.0, 5.0, 7.0, 9.0, 11.0, 13.0, 15.0, 17.0, 19.0, 21.0, -1.0, 23.0, -1.0, -1.0, 25.0, 27.0, 29.0, 31.0, -1.0, 33.0, -1.0, 35.0, 37.0, -1.0, 39.0, -1.0, -1.0, 41.0, -1.0, 43.0, -1.0, 45.0, -1.0, -1.0, -1.0, -1.0, -1.0, -1.0, -1.0, 47.0, 49.0, 51.0, 53.0, -1.0, -1.0, 55.0, -1.0, -1.0, 57.0, -1.0, -1.0, 59.0, -1.0, -1.0, -1.0, -1.0, -1.0, -1.0, -1.0, -1.0], "children_right": [2.0, 4.0, 6.0, 8.0, 10.0, 12.0, 14.0, 16.0, 18.0, 20.0, 22.0, -1.0, 24.0, -1.0, -1.0, 26.0, 28.0, 30.0, 32.0, -1.0, 34.0, -1.0, 36.0, 38.0, -1.0, 40.0, -1.0, -1.0, 42.0, -1.0, 44.0, -1.0, 46.0, -1.0, -1.0, -1.0, -1.0, -1.0, -1.0, -1.0, 48.0, 50.0, 52.0, 54.0, -1.0, -1.0, 56.0, -1.0, -1.0, 58.0, -1.0, -1.0, 60.0, -1.0, -1.0, -1.0, -1.0, -1.0, -1.0, -1.0, -1.0], "features": [3.0, 7.0, 1.0, 1.0, 1.0, 0.0, 6.0, 2.0, 0.0, 2.0, 2.0, -2.0, 7.0, -2.0, -2.0, 5.0, 6.0, 2.0, 2.0, -2.0, 0.0, -2.0, 8.0, 0.0, -2.0, 6.0, -2.0, -2.0, 8.0, -2.0, 5.0, -2.0, 6.0, -2.0, -2.0, -2.0, -2.0, -2.0, -2.0, -2.0, 7.0, 2.0, 6.0, 8.0, -2.0, -2.0, 0.0, -2.0, -2.0, 1.0, -2.0, -2.0, 0.0, -2.0, -2.0, -2.0, -2.0, -2.0, -2.0, -2.0, -2.0], "thresholds": [0.5, 0.5, 793.5, 601.0, 410.0, 0.5, 0.5, 0.5, 3.298858642578125, 0.5, 2.397814989089966, -2.0, 0.5, -2.0, -2.0, 0.5, 0.5, 1.25, 3.2899999618530273, -2.0, 2.5, -2.0, 0.5, 24.5, -2.0, 0.5, -2.0, -2.0, 0.5, -2.0, 0.5, -2.0, 0.5, -2.0, -2.0, -2.0, -2.0, -2.0, -2.0, -2.0, 0.5, 5.090909090909091, 0.5, 0.5, -2.0, -2.0, 6.727272727272727, -2.0, -2.0, 435.1818181818182, -2.0, -2.0, 7.181818181818182, -2.0, -2.0, -2.0, -2.0, -2.0, -2.0, -2.0, -2.0], "node_sample_weight": [5219.0, 4840.0, 379.0, 4287.0, 553.0, 301.0, 78.0, 2731.0, 1556.0, 261.0, 292.0, 100.0, 244.0, 11.0, 148.0, 878.0, 1853.0, 655.0, 901.0, 370.0, 108.0, 256.0, 164.0, 239.0, 5.0, 931.0, 149.0, 109.0, 1811.0, 158.0, 944.0, 781.0, 971.0, 33.0, 141.0, 227.0, 154.0, 540.0, 5.0, 16.0, 950.0, 938.0, 960.0, 875.0, 34.0, 31.0, 765.0, 929.0, 2.0, 948.9349578494414, 99.06504215055858, 2.0, 944.0, 185.0, 116.0, 44.04849628489513, 31.95150371510487, 714.3822157949364, 56.61778420506364, 396.3869504696103, 110.61304953038965], "values": [[0.025301781950565243, 0.02469821804943476], [0.0243698347107438, 0.025630165289256202], [0.037203166226912936, 0.012796833773087072], [0.026953580592488924, 0.023046419407511082], [0.004339963833634721, 0.045660036166365284], [0.0425249169435216, 0.007475083056478406], [0.016666666666666666, 0.03333333333333333], [0.034474551446356645, 0.015525448553643356], [0.013753213367609256, 0.03624678663239075], [0.008045977011494253, 0.04195402298850575], [0.0010273972602739727, 0.04897260273972603], [0.027000000000000003, 0.023000000000000003], [0.047745901639344265, 0.002254098360655738], [0.0, 0.05], [0.028716216216216218, 0.021283783783783785], [0.02203872437357631, 0.02796127562642369], [0.040366972477064215, 0.00963302752293578], [0.017557251908396947, 0.03244274809160305], [0.010987791342952276, 0.03901220865704772], [0.001891891891891892, 0.04810810810810811], [0.015277777777777779, 0.034722222222222224], [0.0011718750000000002, 0.048828125], [0.0018292682926829272, 0.048170731707317074], [0.04832635983263599, 0.0016736401673640169], [0.02, 0.030000000000000006], [0.02180451127819549, 0.02819548872180451], [0.032214765100671144, 0.017785234899328862], [0.0389908256880734, 0.011009174311926608], [0.04006073992269464, 0.009939260077305357], [0.006962025316455697, 0.04303797468354431], [0.019703389830508476, 0.030296610169491527], [0.010947503201024328, 0.03905249679897567], [0.013542739443872296, 0.036457260556127705], [0.03484848484848485, 0.015151515151515152], [0.013120567375886525, 0.03687943262411348], [0.003524229074889868, 0.046475770925110134], [0.0055194805194805205, 0.04448051948051948], [0.04740740740740741, 0.002592592592592593], [0.030000000000000006, 0.02], [0.03125, 0.018750000000000003], [0.024631578947368424, 0.025368421052631582], [0.02873134328358209, 0.021268656716417915], [0.03302083333333334, 0.016979166666666667], [0.021714285714285714, 0.028285714285714286], [0.03676470588235294, 0.013235294117647059], [0.016129032258064516, 0.03387096774193549], [0.01777777777777778, 0.03222222222222222], [0.021797631862217438, 0.028202368137782565], [0.025, 0.025], [0.03872420084064638, 0.011275799159353627], [0.04545752981847934, 0.004542470181520663], [0.025, 0.025], [0.04274364406779661, 0.007256355932203391], [0.011081081081081082, 0.03891891891891892], [0.02931034482758621, 0.020689655172413796], [0.006865723912315764, 0.04313427608768424], [0.028091797924706768, 0.021908202075293235], [0.04122107351017282, 0.008778926489827182], [0.03448383216986041, 0.01551616783013959], [0.0419978853978668, 0.0080021146021332], [0.04793816193911712, 0.00206183806088289]], "children_default": [1.0, 3.0, 5.0, 7.0, 9.0, 11.0, 13.0, 15.0, 17.0, 19.0, 21.0, -1.0, 23.0, -1.0, -1.0, 25.0, 27.0, 29.0, 31.0, -1.0, 33.0, -1.0, 35.0, 37.0, -1.0, 39.0, -1.0, -1.0, 41.0, -1.0, 43.0, -1.0, 45.0, -1.0, -1.0, -1.0, -1.0, -1.0, -1.0, -1.0, 47.0, 49.0, 51.0, 53.0, -1.0, -1.0, 55.0, -1.0, -1.0, 57.0, -1.0, -1.0, 59.0, -1.0, -1.0, -1.0, -1.0, -1.0, -1.0, -1.0, -1.0]}, {"children_left": [1.0, 3.0, 5.0, 7.0, 9.0, 11.0, 13.0, 15.0, -1.0, 17.0, 19.0, 21.0, 23.0, -1.0, 25.0, 27.0, -1.0, 29.0, 31.0, 33.0, 35.0, 37.0, -1.0, 39.0, -1.0, -1.0, -1.0, 41.0, -1.0, 43.0, 45.0, -1.0, 47.0, -1.0, -1.0, -1.0, -1.0, -1.0, -1.0, -1.0, -1.0, -1.0, -1.0, 49.0, -1.0, -1.0, 51.0, 53.0, -1.0, -1.0, -1.0, 55.0, -1.0, -1.0, 57.0, -1.0, -1.0, -1.0, 59.0, -1.0, -1.0], "children_right": [2.0, 4.0, 6.0, 8.0, 10.0, 12.0, 14.0, 16.0, -1.0, 18.0, 20.0, 22.0, 24.0, -1.0, 26.0, 28.0, -1.0, 30.0, 32.0, 34.0, 36.0, 38.0, -1.0, 40.0, -1.0, -1.0, -1.0, 42.0, -1.0, 44.0, 46.0, -1.0, 48.0, -1.0, -1.0, -1.0, -1.0, -1.0, -1.0, -1.0, -1.0, -1.0, -1.0, 50.0, -1.0, -1.0, 52.0, 54.0, -1.0, -1.0, -1.0, 56.0, -1.0, -1.0, 58.0, -1.0, -1.0, -1.0, 60.0, -1.0, -1.0], "features": [7.0, 2.0, 8.0, 5.0, 3.0, 1.0, 1.0, 3.0, -2.0, 1.0, 2.0, 2.0, 1.0, -2.0, 1.0, 8.0, -2.0, 8.0, 0.0, 2.0, 8.0, 3.0, -2.0, 1.0, -2.0, -2.0, -2.0, 7.0, -2.0, 4.0, 8.0, -2.0, 4.0, -2.0, -2.0, -2.0, -2.0, -2.0, -2.0, -2.0, -2.0, -2.0, -2.0, 2.0, -2.0, -2.0, 0.0, 2.0, -2.0, -2.0, -2.0, 2.0, -2.0, -2.0, 2.0, -2.0, -2.0, -2.0, 0.0, -2.0, -2.0], "thresholds": [0.5, 0.5, 0.5, 0.5, 0.5, 410.0, 449.0, 0.5, -2.0, 608.0, 2.397814989089966, 0.5, 1266.0, -2.0, 1378.5, 0.5, -2.0, 0.5, 2.5, 1.7099999785423279, 0.5, 0.5, -2.0, 1215.0, -2.0, -2.0, -2.0, 0.5, -2.0, 0.5, 0.5, -2.0, 0.5, -2.0, -2.0, -2.0, -2.0, -2.0, -2.0, -2.0, -2.0, -2.0, -2.0, 3.909090909090909, -2.0, -2.0, 8.363636363636363, 3.090909090909091, -2.0, -2.0, -2.0, 2.909090909090909, -2.0, -2.0, 5.054545454545455, -2.0, -2.0, -2.0, 7.363636363636363, -2.0, -2.0], "node_sample_weight": [5219.0, 4616.0, 603.0, 928.0, 3688.0, 438.0, 165.0, 878.0, 121.0, 3389.0, 299.0, 251.0, 187.0, 52.0, 132.0, 826.0, 97.0, 1863.0, 1526.0, 150.0, 149.0, 176.0, 125.0, 112.0, 185.0, 185.0, 103.0, 928.0, 7.0, 1025.0, 960.0, 795.0, 1141.0, 178.0, 165.0, 154.0, 215.0, 381.0, 11.0, 202.0, 20.0, 1316.0, 2.0, 637.0, 3.0, 2.0, 930.0, 693.0, 8.0, 889.7227941781543, 397.27720582184566, 452.12937806912095, 146.87062193087905, 731.2262379796947, 125.77376202030527, 199.2233571304788, 200.7766428695212, 355.91167217096114, 93.08832782903886, 36.27825782474895, 39.72174217525105], "values": [[0.02536884460624641, 0.024631155393753594], [0.02802209705372617, 0.02197790294627383], [0.005058043117744611, 0.04494195688225539], [0.020689655172413796, 0.02931034482758621], [0.02986713665943601, 0.02013286334056399], [0.006278538812785388, 0.043721461187214615], [0.0018181818181818184, 0.04818181818181818], [0.019646924829157177, 0.030353075170842826], [0.03429752066115703, 0.015702479338842976], [0.028799055768663324, 0.02120094423133668], [0.041973244147157196, 0.00802675585284281], [0.009163346613545818, 0.04083665338645418], [0.0024064171122994654, 0.04759358288770053], [0.0038461538461538464, 0.04615384615384616], [0.0007575757575757576, 0.04924242424242424], [0.01955205811138015, 0.030447941888619857], [0.02422680412371134, 0.02577319587628866], [0.041438539989264625, 0.008561460010735374], [0.013368283093053736, 0.03663171690694627], [0.045, 0.005], [0.0389261744966443, 0.011073825503355705], [0.004545454545454546, 0.045454545454545456], [0.0208, 0.029200000000000004], [0.004017857142857143, 0.04598214285714286], [0.003783783783783784, 0.04621621621621622], [0.004594594594594595, 0.04540540540540541], [0.0038834951456310682, 0.04611650485436893], [0.021120689655172414, 0.02887931034482759], [0.0, 0.05], [0.04004878048780488, 0.009951219512195124], [0.041875, 0.008125], [0.020062893081761006, 0.029937106918238993], [0.011787905346187556, 0.038212094653812444], [0.046629213483146074, 0.003370786516853933], [0.04666666666666667, 0.0033333333333333335], [0.03409090909090909, 0.01590909090909091], [0.04558139534883721, 0.004418604651162791], [0.0027559055118110236, 0.047244094488188976], [0.03636363636363637, 0.01363636363636364], [0.0024752475247524753, 0.04752475247524753], [0.0075000000000000015, 0.0425], [0.02123860182370821, 0.028761398176291794], [0.025, 0.025], [0.02370486656200942, 0.02629513343799058], [0.016666666666666666, 0.03333333333333333], [0.025, 0.025], [0.03258064516129033, 0.017419354838709676], [0.023809523809523808, 0.026190476190476195], [0.037500000000000006, 0.0125], [0.039491108847406024, 0.010508891152593978], [0.03766604293376613, 0.012333957066233869], [0.04115297480318015, 0.008847025196819848], [0.047616950242338335, 0.0023830497576616694], [0.013827884413613612, 0.036172115586386396], [0.022967334797132855, 0.02703266520286715], [0.04749025411878523, 0.002509745881214778], [0.04203094554659034, 0.007969054453409667], [0.011800680698054046, 0.03819931930194596], [0.010205361103324578, 0.03979463889667542], [0.028193165613321067, 0.021806834386678933], [0.020824893966999422, 0.02917510603300058]], "children_default": [1.0, 3.0, 5.0, 7.0, 9.0, 11.0, 13.0, 15.0, -1.0, 17.0, 19.0, 21.0, 23.0, -1.0, 25.0, 27.0, -1.0, 29.0, 31.0, 33.0, 35.0, 37.0, -1.0, 39.0, -1.0, -1.0, -1.0, 41.0, -1.0, 43.0, 45.0, -1.0, 47.0, -1.0, -1.0, -1.0, -1.0, -1.0, -1.0, -1.0, -1.0, -1.0, -1.0, 49.0, -1.0, -1.0, 51.0, 53.0, -1.0, -1.0, -1.0, 55.0, -1.0, -1.0, 57.0, -1.0, -1.0, -1.0, 59.0, -1.0, -1.0]}, {"children_left": [1.0, 3.0, 5.0, 7.0, 9.0, 11.0, 13.0, 15.0, -1.0, 17.0, -1.0, 19.0, -1.0, 21.0, 23.0, 25.0, 27.0, 29.0, -1.0, 31.0, -1.0, 33.0, 35.0, 37.0, 39.0, -1.0, -1.0, -1.0, -1.0, -1.0, -1.0, 41.0, -1.0, -1.0, 43.0, -1.0, -1.0, 45.0, -1.0, 47.0, -1.0, -1.0, -1.0, -1.0, -1.0, 49.0, 51.0, 53.0, -1.0, -1.0, -1.0, -1.0, -1.0, 55.0, -1.0, -1.0, -1.0], "children_right": [2.0, 4.0, 6.0, 8.0, 10.0, 12.0, 14.0, 16.0, -1.0, 18.0, -1.0, 20.0, -1.0, 22.0, 24.0, 26.0, 28.0, 30.0, -1.0, 32.0, -1.0, 34.0, 36.0, 38.0, 40.0, -1.0, -1.0, -1.0, -1.0, -1.0, -1.0, 42.0, -1.0, -1.0, 44.0, -1.0, -1.0, 46.0, -1.0, 48.0, -1.0, -1.0, -1.0, -1.0, -1.0, 50.0, 52.0, 54.0, -1.0, -1.0, -1.0, -1.0, -1.0, 56.0, -1.0, -1.0, -1.0], "features": [6.0, 0.0, 0.0, 1.0, 5.0, 3.0, 0.0, 5.0, -2.0, 8.0, -2.0, 8.0, -2.0, 1.0, 1.0, 1.0, 1.0, 3.0, -2.0, 7.0, -2.0, 8.0, 3.0, 1.0, 8.0, -2.0, -2.0, -2.0, -2.0, -2.0, -2.0, 5.0, -2.0, -2.0, 5.0, -2.0, -2.0, 8.0, -2.0, 3.0, -2.0, -2.0, -2.0, -2.0, -2.0, 3.0, 1.0, 3.0, -2.0, -2.0, -2.0, -2.0, -2.0, 1.0, -2.0, -2.0, -2.0], "thresholds": [0.5, 2.5, 0.5, 639.5, 0.5, 0.5, 2.5, 0.5, -2.0, 0.5, -2.0, 0.5, -2.0, 774.5, 591.0, 188.5, 1.0, 0.5, -2.0, 0.5, -2.0, 0.5, 0.5, 440.5, 0.5, -2.0, -2.0, -2.0, -2.0, -2.0, -2.0, 0.5, -2.0, -2.0, 0.5, -2.0, -2.0, 0.5, -2.0, 0.5, -2.0, -2.0, -2.0, -2.0, -2.0, 0.5, 286.54545454545456, 0.5, -2.0, -2.0, -2.0, -2.0, -2.0, 1071.909090909091, -2.0, -2.0, -2.0], "node_sample_weight": [5219.0, 711.0, 4508.0, 307.0, 404.0, 919.0, 3589.0, 247.0, 121.0, 324.0, 185.0, 854.0, 109.0, 1056.0, 2533.0, 166.0, 81.0, 194.0, 296.0, 959.0, 3.0, 693.0, 363.0, 1403.0, 1130.0, 391.0, 27.0, 150.0, 59.0, 410.0, 7.0, 945.0, 2.0, 820.0, 598.0, 708.0, 43.0, 1269.0, 261.0, 932.0, 904.0, 936.0, 2.0, 558.0, 2.0, 968.0, 349.0, 934.0, 48.0, 857.0, 53.0, 560.0275779518123, 197.97242204818767, 599.0, 2.0, 39.42922234014227, 43.57077765985773], "values": [[0.025531711055757807, 0.024468288944242193], [0.009704641350210971, 0.04029535864978903], [0.02802795031055901, 0.021972049689440998], [0.014657980456026058, 0.035342019543973945], [0.0059405940594059415, 0.044059405940594064], [0.020620239390642, 0.029379760609358], [0.0299247701309557, 0.020075229869044302], [0.01720647773279352, 0.03279352226720648], [0.0049586776859504135, 0.04504132231404959], [0.002160493827160494, 0.047839506172839504], [0.024594594594594593, 0.025405405405405406], [0.020667447306791573, 0.029332552693208433], [0.022477064220183487, 0.027522935779816515], [0.03484848484848485, 0.015151515151515152], [0.027872088432688517, 0.02212791156731149], [0.006325301204819277, 0.043674698795180725], [0.03950617283950617, 0.010493827160493829], [0.0036082474226804126, 0.04639175257731959], [0.004054054054054054, 0.04594594594594595], [0.021897810218978103, 0.0281021897810219], [0.0, 0.05000000000000001], [0.04386724386724387, 0.006132756132756133], [0.01763085399449036, 0.03236914600550964], [0.04016393442622951, 0.009836065573770493], [0.012610619469026548, 0.03738938053097345], [0.0029411764705882357, 0.04705882352941177], [0.03333333333333333, 0.016666666666666666], [0.028333333333333332, 0.021666666666666667], [0.04745762711864407, 0.0025423728813559325], [0.005609756097560976, 0.04439024390243902], [0.0071428571428571435, 0.042857142857142864], [0.025396825396825397, 0.024603174603174603], [0.025, 0.025], [0.04353658536585366, 0.006463414634146342], [0.04431438127090301, 0.00568561872909699], [0.01843220338983051, 0.03156779661016949], [0.03488372093023256, 0.015116279069767442], [0.04125295508274232, 0.008747044917257684], [0.03045977011494253, 0.019540229885057474], [0.015236051502145924, 0.03476394849785407], [0.015044247787610621, 0.034955752212389384], [0.022329059829059833, 0.027670940170940173], [0.025, 0.025], [0.03844086021505377, 0.011559139784946238], [0.025, 0.025], [0.03259297520661157, 0.01740702479338843], [0.02464183381088825, 0.02535816618911175], [0.0186830835117773, 0.0313169164882227], [0.007291666666666668, 0.04270833333333334], [0.03920653442240374, 0.010793465577596266], [0.04905660377358491, 0.0009433962264150943], [0.0425003693293808, 0.007499630670619207], [0.045453912263694315, 0.004546087736305689], [0.015692821368948246, 0.03430717863105175], [0.025, 0.025], [0.017753330105304693, 0.03224666989469531], [0.0011475581269247252, 0.048852441873075275]], "children_default": [1.0, 3.0, 5.0, 7.0, 9.0, 11.0, 13.0, 15.0, -1.0, 17.0, -1.0, 19.0, -1.0, 21.0, 23.0, 25.0, 27.0, 29.0, -1.0, 31.0, -1.0, 33.0, 35.0, 37.0, 39.0, -1.0, -1.0, -1.0, -1.0, -1.0, -1.0, 41.0, -1.0, -1.0, 43.0, -1.0, -1.0, 45.0, -1.0, 47.0, -1.0, -1.0, -1.0, -1.0, -1.0, 49.0, 51.0, 53.0, -1.0, -1.0, -1.0, -1.0, -1.0, 55.0, -1.0, -1.0, -1.0]}, {"children_left": [1.0, 3.0, 5.0, 7.0, 9.0, -1.0, 11.0, 13.0, 15.0, 17.0, 19.0, -1.0, 21.0, 23.0, 25.0, 27.0, 29.0, 31.0, 33.0, 35.0, -1.0, 37.0, 39.0, 41.0, -1.0, 43.0, -1.0, -1.0, -1.0, 45.0, -1.0, 47.0, -1.0, -1.0, 49.0, -1.0, -1.0, -1.0, -1.0, -1.0, -1.0, -1.0, -1.0, 51.0, -1.0, 53.0, -1.0, -1.0, -1.0, 55.0, -1.0, -1.0, -1.0, 57.0, -1.0, 59.0, -1.0, 61.0, -1.0, -1.0, -1.0, 63.0, -1.0, -1.0, -1.0], "children_right": [2.0, 4.0, 6.0, 8.0, 10.0, -1.0, 12.0, 14.0, 16.0, 18.0, 20.0, -1.0, 22.0, 24.0, 26.0, 28.0, 30.0, 32.0, 34.0, 36.0, -1.0, 38.0, 40.0, 42.0, -1.0, 44.0, -1.0, -1.0, -1.0, 46.0, -1.0, 48.0, -1.0, -1.0, 50.0, -1.0, -1.0, -1.0, -1.0, -1.0, -1.0, -1.0, -1.0, 52.0, -1.0, 54.0, -1.0, -1.0, -1.0, 56.0, -1.0, -1.0, -1.0, 58.0, -1.0, 60.0, -1.0, 62.0, -1.0, -1.0, -1.0, 64.0, -1.0, -1.0, -1.0], "features": [3.0, 1.0, 6.0, 2.0, 7.0, -2.0, 0.0, 6.0, 6.0, 0.0, 2.0, -2.0, 0.0, 5.0, 8.0, 5.0, 2.0, 1.0, 1.0, 2.0, -2.0, 2.0, 0.0, 7.0, -2.0, 8.0, -2.0, -2.0, -2.0, 7.0, -2.0, 5.0, -2.0, -2.0, 7.0, -2.0, -2.0, -2.0, -2.0, -2.0, -2.0, -2.0, -2.0, 5.0, -2.0, 1.0, -2.0, -2.0, -2.0, 1.0, -2.0, -2.0, -2.0, 1.0, -2.0, 2.0, -2.0, 1.0, -2.0, -2.0, -2.0, 8.0, -2.0, -2.0, -2.0], "thresholds": [0.5, 606.5, 0.5, 0.5, 0.5, -2.0, 0.5, 0.5, 0.5, 3.298858642578125, 4.25, -2.0, 2.5, 0.5, 0.5, 0.5, 5.75, 1631.5, 951.0, 1.899999976158142, -2.0, 1.5, 3.798858642578125, 0.5, -2.0, 0.5, -2.0, -2.0, -2.0, 0.5, -2.0, 0.5, -2.0, -2.0, 0.5, -2.0, -2.0, -2.0, -2.0, -2.0, -2.0, -2.0, -2.0, 0.5, -2.0, 271.3636363636364, -2.0, -2.0, -2.0, 1353.4545454545455, -2.0, -2.0, -2.0, 197.63636363636363, -2.0, 1.9545454545454546, -2.0, 51.727272727272734, -2.0, -2.0, -2.0, 0.5, -2.0, -2.0, -2.0], "node_sample_weight": [5219.0, 4864.0, 355.0, 2990.0, 1874.0, 59.0, 315.0, 998.0, 1992.0, 1593.0, 281.0, 106.0, 260.0, 182.0, 816.0, 166.0, 1826.0, 696.0, 897.0, 225.0, 105.0, 105.0, 155.0, 266.0, 127.0, 935.0, 1.0, 220.0, 127.0, 1671.0, 396.0, 943.0, 188.0, 433.0, 924.0, 96.0, 391.0, 133.0, 132.0, 102.0, 274.0, 16.0, 290.0, 956.0, 2.0, 972.0, 2.0, 851.0, 35.0, 657.0, 2.0, 940.0, 2.0, 928.8514231862412, 679.1485768137588, 80.22073682539664, 185.77926317460336, 786.1741823647272, 273.82581763527276, 23.308678421391647, 215.69132157860835, 59.556776292117775, 207.44322370788223, 75.0, 37.0], "values": [[0.024937727534010346, 0.025062272465989657], [0.024187911184210528, 0.025812088815789475], [0.035211267605633804, 0.014788732394366197], [0.03214046822742475, 0.01785953177257525], [0.011499466382070438, 0.038500533617929565], [0.029661016949152543, 0.02033898305084746], [0.037142857142857144, 0.012857142857142857], [0.018336673346693387, 0.031663326653306616], [0.039056224899598396, 0.010943775100401607], [0.013339610797237916, 0.036660389202762086], [0.0010676156583629894, 0.04893238434163701], [0.023113207547169813, 0.02688679245283019], [0.040961538461538466, 0.009038461538461539], [0.007692307692307693, 0.04230769230769231], [0.020710784313725493, 0.029289215686274513], [0.02319277108433735, 0.026807228915662652], [0.040498357064622126, 0.009501642935377875], [0.015948275862068966, 0.03405172413793104], [0.011315496098104795, 0.038684503901895206], [0.0013333333333333335, 0.04866666666666667], [0.0028571428571428576, 0.047142857142857146], [0.0461904761904762, 0.0038095238095238095], [0.03741935483870968, 0.012580645161290325], [0.004699248120300752, 0.04530075187969925], [0.02913385826771654, 0.020866141732283468], [0.022299465240641712, 0.02770053475935829], [0.0, 0.05], [0.015227272727272728, 0.034772727272727275], [0.03779527559055119, 0.012204724409448819], [0.04000598444045482, 0.009994015559545183], [0.04469696969696969, 0.005303030303030303], [0.01638388123011665, 0.03361611876988335], [0.019680851063829788, 0.030319148936170215], [0.01166281755196305, 0.03833718244803695], [0.012662337662337663, 0.037337662337662336], [0.0, 0.05000000000000001], [0.0016624040920716113, 0.048337595907928396], [0.04849624060150376, 0.0015037593984962407], [0.046969696969696974, 0.0030303030303030303], [0.03480392156862745, 0.015196078431372549], [0.041970802919708027, 0.008029197080291971], [0.037500000000000006, 0.0125], [0.006551724137931035, 0.04344827586206897], [0.023901673640167365, 0.026098326359832637], [0.025, 0.025], [0.02227366255144033, 0.027726337448559672], [0.025, 0.025], [0.020329024676850764, 0.029670975323149235], [0.03142857142857143, 0.018571428571428572], [0.021156773211567732, 0.028843226788432267], [0.025, 0.025], [0.022074468085106384, 0.027925531914893616], [0.025, 0.025], [0.04107973611562327, 0.00892026388437674], [0.041217827145008594, 0.008782172854991407], [0.011979905437188444, 0.038020094562811566], [0.019587563738532612, 0.03041243626146739], [0.042055019380745316, 0.007944980619254683], [0.03903002871060576, 0.010969971289394243], [0.026403638590884893, 0.023596361409115113], [0.008969141942159078, 0.04103085805784092], [0.036100006310861195, 0.013899993689138804], [0.04025197762910934, 0.009748022370890659], [0.04933333333333333, 0.0006666666666666668], [0.04054054054054054, 0.00945945945945946]], "children_default": [1.0, 3.0, 5.0, 7.0, 9.0, -1.0, 11.0, 13.0, 15.0, 17.0, 19.0, -1.0, 21.0, 23.0, 25.0, 27.0, 29.0, 31.0, 33.0, 35.0, -1.0, 37.0, 39.0, 41.0, -1.0, 43.0, -1.0, -1.0, -1.0, 45.0, -1.0, 47.0, -1.0, -1.0, 49.0, -1.0, -1.0, -1.0, -1.0, -1.0, -1.0, -1.0, -1.0, 51.0, -1.0, 53.0, -1.0, -1.0, -1.0, 55.0, -1.0, -1.0, -1.0, 57.0, -1.0, 59.0, -1.0, 61.0, -1.0, -1.0, -1.0, 63.0, -1.0, -1.0, -1.0]}, {"children_left": [1.0, 3.0, 5.0, 7.0, 9.0, 11.0, 13.0, 15.0, -1.0, 17.0, 19.0, 21.0, -1.0, 23.0, -1.0, 25.0, -1.0, 27.0, 29.0, 31.0, -1.0, 33.0, -1.0, 35.0, 37.0, 39.0, 41.0, 43.0, 45.0, -1.0, -1.0, -1.0, -1.0, -1.0, -1.0, -1.0, 47.0, 49.0, -1.0, 51.0, -1.0, 53.0, -1.0, 55.0, -1.0, -1.0, 57.0, -1.0, -1.0, -1.0, 59.0, -1.0, -1.0, -1.0, -1.0, -1.0, -1.0, -1.0, -1.0, -1.0, -1.0], "children_right": [2.0, 4.0, 6.0, 8.0, 10.0, 12.0, 14.0, 16.0, -1.0, 18.0, 20.0, 22.0, -1.0, 24.0, -1.0, 26.0, -1.0, 28.0, 30.0, 32.0, -1.0, 34.0, -1.0, 36.0, 38.0, 40.0, 42.0, 44.0, 46.0, -1.0, -1.0, -1.0, -1.0, -1.0, -1.0, -1.0, 48.0, 50.0, -1.0, 52.0, -1.0, 54.0, -1.0, 56.0, -1.0, -1.0, 58.0, -1.0, -1.0, -1.0, 60.0, -1.0, -1.0, -1.0, -1.0, -1.0, -1.0, -1.0, -1.0, -1.0, -1.0], "features": [1.0, 2.0, 6.0, 5.0, 1.0, 3.0, 3.0, 3.0, -2.0, 0.0, 3.0, 1.0, -2.0, 0.0, -2.0, 7.0, -2.0, 2.0, 7.0, 0.0, -2.0, 2.0, -2.0, 8.0, 8.0, 7.0, 5.0, 3.0, 6.0, -2.0, -2.0, -2.0, -2.0, -2.0, -2.0, -2.0, 0.0, 6.0, -2.0, 7.0, -2.0, 6.0, -2.0, 1.0, -2.0, -2.0, 2.0, -2.0, -2.0, -2.0, 1.0, -2.0, -2.0, -2.0, -2.0, -2.0, -2.0, -2.0, -2.0, -2.0, -2.0], "thresholds": [728.0, 0.5, 0.5, 0.5, 421.5, 0.5, 0.5, 0.5, -2.0, 7.5, 0.5, 1573.0, -2.0, 2.5, -2.0, 0.5, -2.0, 2.397814989089966, 0.5, 2.5, -2.0, 3.1649999618530273, -2.0, 0.5, 0.5, 0.5, 0.5, 0.5, 0.5, -2.0, -2.0, -2.0, -2.0, -2.0, -2.0, -2.0, 1.9090909090909092, 0.5, -2.0, 0.5, -2.0, 0.5, -2.0, 128.9090909090909, -2.0, -2.0, 4.090909090909091, -2.0, -2.0, -2.0, 1449.909090909091, -2.0, -2.0, -2.0, -2.0, -2.0, -2.0, -2.0, -2.0, -2.0, -2.0], "node_sample_weight": [5219.0, 3396.0, 1823.0, 1095.0, 2301.0, 334.0, 1489.0, 1050.0, 131.0, 1919.0, 382.0, 316.0, 18.0, 1424.0, 150.0, 984.0, 110.0, 1703.0, 216.0, 360.0, 69.0, 279.0, 119.0, 361.0, 1063.0, 939.0, 263.0, 976.0, 948.0, 485.0, 20.0, 232.0, 624.0, 387.0, 197.0, 409.0, 160.0, 943.0, 852.0, 936.0, 2.0, 242.0, 2.0, 468.0, 172.0, 96.0, 504.0, 63.651299226290035, 326.34870077371, 2.0, 732.0, 886.0, 2.0, 91.0, 2.0, 359.4678259785504, 355.5321740214496, 742.0135167033093, 300.9864832966908, 277.0, 131.0], "values": [[0.025225138915501055, 0.024774861084498948], [0.03256772673733805, 0.017432273262661956], [0.011546900713110259, 0.038453099286889746], [0.0189041095890411, 0.031095890410958907], [0.03906996957844416, 0.010930030421555846], [0.002245508982035928, 0.04775449101796408], [0.013633310946944258, 0.03636668905305575], [0.018285714285714287, 0.031714285714285716], [0.030534351145038167, 0.019465648854961833], [0.04111516414799375, 0.008884835852006254], [0.028795811518324606, 0.021204188481675393], [0.0015822784810126582, 0.04841772151898734], [0.013888888888888888, 0.036111111111111115], [0.012956460674157302, 0.03704353932584269], [0.034333333333333334, 0.015666666666666666], [0.018140243902439027, 0.031859756097560976], [0.024090909090909093, 0.02590909090909091], [0.042131532589547854, 0.007868467410452143], [0.033101851851851855, 0.016898148148148148], [0.027777777777777776, 0.022222222222222223], [0.043478260869565216, 0.006521739130434783], [0.0007168458781362007, 0.0492831541218638], [0.00546218487394958, 0.04453781512605043], [0.019390581717451522, 0.030609418282548477], [0.010771401693320791, 0.03922859830667921], [0.022044728434504796, 0.027955271565495207], [0.0036121673003802284, 0.046387832699619776], [0.04313524590163935, 0.006864754098360656], [0.04018987341772152, 0.009810126582278481], [0.040618556701030935, 0.009381443298969071], [0.005, 0.045], [0.03383620689655173, 0.016163793103448277], [0.026602564102564105, 0.0233974358974359], [0.0028423772609819124, 0.047157622739018086], [0.0040609137055837565, 0.045939086294416245], [0.015158924205378973, 0.03484107579462103], [0.0265625, 0.0234375], [0.011187698833510075, 0.038812301166489926], [0.013497652582159625, 0.03650234741784038], [0.024572649572649572, 0.025427350427350427], [0.025, 0.025], [0.008884297520661156, 0.04111570247933885], [0.025, 0.025], [0.023076923076923078, 0.026923076923076925], [0.040697674418604654, 0.009302325581395349], [0.022395833333333334, 0.02760416666666667], [0.023710317460317463, 0.02628968253968254], [0.047643410239487385, 0.0023565897605126213], [0.023647819097759374, 0.026352180902240622], [0.025, 0.025], [0.01823770491803279, 0.031762295081967214], [0.022234762979683974, 0.02776523702031603], [0.025, 0.025], [0.0005494505494505495, 0.04945054945054945], [0.025, 0.025], [0.046661731834460186, 0.003338268165539813], [0.04282765334243377, 0.007172346657566234], [0.04164344625052865, 0.008356553749471352], [0.04003502040363048, 0.009964979596369519], [0.00848375451263538, 0.04151624548736462], [0.018320610687022905, 0.031679389312977105]], "children_default": [1.0, 3.0, 5.0, 7.0, 9.0, 11.0, 13.0, 15.0, -1.0, 17.0, 19.0, 21.0, -1.0, 23.0, -1.0, 25.0, -1.0, 27.0, 29.0, 31.0, -1.0, 33.0, -1.0, 35.0, 37.0, 39.0, 41.0, 43.0, 45.0, -1.0, -1.0, -1.0, -1.0, -1.0, -1.0, -1.0, 47.0, 49.0, -1.0, 51.0, -1.0, 53.0, -1.0, 55.0, -1.0, -1.0, 57.0, -1.0, -1.0, -1.0, 59.0, -1.0, -1.0, -1.0, -1.0, -1.0, -1.0, -1.0, -1.0, -1.0, -1.0]}, {"children_left": [1.0, 3.0, 5.0, 7.0, 9.0, 11.0, 13.0, -1.0, 15.0, 17.0, 19.0, 21.0, -1.0, -1.0, 23.0, 25.0, -1.0, 27.0, -1.0, 29.0, -1.0, 31.0, 33.0, -1.0, -1.0, 35.0, -1.0, 37.0, 39.0, -1.0, -1.0, -1.0, -1.0, -1.0, -1.0, -1.0, -1.0, -1.0, 41.0, 43.0, 45.0, 47.0, -1.0, -1.0, 49.0, 51.0, -1.0, 53.0, -1.0, 55.0, -1.0, 57.0, -1.0, -1.0, -1.0, 59.0, -1.0, -1.0, -1.0, -1.0, -1.0], "children_right": [2.0, 4.0, 6.0, 8.0, 10.0, 12.0, 14.0, -1.0, 16.0, 18.0, 20.0, 22.0, -1.0, -1.0, 24.0, 26.0, -1.0, 28.0, -1.0, 30.0, -1.0, 32.0, 34.0, -1.0, -1.0, 36.0, -1.0, 38.0, 40.0, -1.0, -1.0, -1.0, -1.0, -1.0, -1.0, -1.0, -1.0, -1.0, 42.0, 44.0, 46.0, 48.0, -1.0, -1.0, 50.0, 52.0, -1.0, 54.0, -1.0, 56.0, -1.0, 58.0, -1.0, -1.0, -1.0, 60.0, -1.0, -1.0, -1.0, -1.0, -1.0], "features": [7.0, 0.0, 0.0, 6.0, 3.0, 8.0, 1.0, -2.0, 3.0, 4.0, 1.0, 2.0, -2.0, -2.0, 0.0, 8.0, -2.0, 0.0, -2.0, 2.0, -2.0, 3.0, 0.0, -2.0, -2.0, 6.0, -2.0, 6.0, 8.0, -2.0, -2.0, -2.0, -2.0, -2.0, -2.0, -2.0, -2.0, -2.0, 2.0, 2.0, 2.0, 0.0, -2.0, -2.0, 0.0, 5.0, -2.0, 1.0, -2.0, 5.0, -2.0, 2.0, -2.0, -2.0, -2.0, 0.0, -2.0, -2.0, -2.0, -2.0, -2.0], "thresholds": [0.5, 0.5, 3.798858642578125, 0.5, 0.5, 0.5, 406.0, -2.0, 0.5, 0.5, 747.5, 0.5, -2.0, -2.0, 4.5, 0.5, -2.0, 2.5, -2.0, 2.065000057220459, -2.0, 0.5, 1.5, -2.0, -2.0, 0.5, -2.0, 0.5, 0.5, -2.0, -2.0, -2.0, -2.0, -2.0, -2.0, -2.0, -2.0, -2.0, 1.5454545454545454, 1.8181818181818181, 6.0227272727272725, 1.0909090909090908, -2.0, -2.0, 5.909090909090909, 0.5, -2.0, 547.909090909091, -2.0, 0.5, -2.0, 4.385454545454545, -2.0, -2.0, -2.0, 3.7272727272727275, -2.0, -2.0, -2.0, -2.0, -2.0], "node_sample_weight": [5219.0, 4642.0, 577.0, 964.0, 3678.0, 357.0, 220.0, 158.0, 904.0, 3379.0, 299.0, 287.0, 134.0, 82.0, 184.0, 965.0, 98.0, 3373.0, 14.0, 220.0, 177.0, 155.0, 132.0, 158.0, 251.0, 474.0, 2.0, 938.0, 2453.0, 278.0, 288.0, 375.0, 14.0, 14.0, 239.0, 2.0, 921.0, 57.0, 580.0, 969.0, 924.0, 83.42939250583997, 809.57060749416, 204.97178933718607, 263.02821066281393, 969.5026253148221, 108.49737468517787, 86.68454391439006, 70.31545608560994, 933.7464563467477, 350.2535436532524, 691.0, 6.0, 104.0, 23.0, 939.0, 23.0, 75.08510738333634, 31.914892616663664, 35.548149475237054, 80.45185052476295], "values": [[0.025656255987737117, 0.02434374401226289], [0.028295993106419646, 0.021704006893580353], [0.0044194107452339695, 0.04558058925476603], [0.021628630705394194, 0.02837136929460581], [0.030043501903208265, 0.019956498096791737], [0.0063025210084033615, 0.04369747899159664], [0.0013636363636363637, 0.048636363636363644], [0.03227848101265823, 0.017721518987341773], [0.020575221238938055, 0.029424778761061948], [0.028973068955312223, 0.021026931044687776], [0.04214046822742475, 0.007859531772575251], [0.0071428571428571435, 0.04285714285714286], [0.0070895522388059705, 0.04291044776119403], [0.0067073170731707325, 0.04329268292682927], [0.0005434782608695652, 0.049456521739130434], [0.021761658031088083, 0.028238341968911916], [0.020918367346938777, 0.029081632653061226], [0.02900978357545212, 0.02099021642454788], [0.03214285714285715, 0.017857142857142856], [0.048636363636363644, 0.0013636363636363637], [0.027683615819209043, 0.02231638418079096], [0.005161290322580645, 0.044838709677419354], [0.00946969696969697, 0.040530303030303035], [0.002531645569620253, 0.04746835443037975], [0.0021912350597609563, 0.04780876494023904], [0.023734177215189875, 0.026265822784810128], [0.025, 0.025], [0.0349680170575693, 0.015031982942430706], [0.026742763962494906, 0.023257236037505097], [0.048920863309352525, 0.0010791366906474822], [0.046875, 0.003125], [0.0028, 0.0472], [0.025, 0.025], [0.017857142857142856, 0.03214285714285715], [0.007322175732217573, 0.04267782426778243], [0.025, 0.025], [0.022638436482084693, 0.027361563517915313], [0.034210526315789476, 0.015789473684210527], [0.024655172413793103, 0.0253448275862069], [0.022497420020639834, 0.02750257997936017], [0.02554112554112554, 0.02445887445887446], [0.02939199731630459, 0.020608002683695413], [0.03557175032392115, 0.014428249676078852], [0.018783072599647406, 0.0312169274003526], [0.023571616080177882, 0.02642838391982212], [0.030782892841139897, 0.019217107158860106], [0.026322338065938315, 0.023677661934061685], [0.03864587443995173, 0.011354125560048273], [0.018488111609732488, 0.031511888390267515], [0.02896151401002997, 0.02103848598997003], [0.02785778787825043, 0.022142212121749577], [0.030390738060781478, 0.019609261939218525], [0.008333333333333333, 0.041666666666666664], [0.04807692307692308, 0.0019230769230769232], [0.002173913043478261, 0.04782608695652174], [0.02832800851970181, 0.02167199148029819], [0.021739130434782608, 0.02826086956521739], [0.03202040261981958, 0.01797959738018043], [0.04529999985268067, 0.004700000147319337], [0.010281492240607698, 0.039718507759392306], [0.030260484514934176, 0.01973951548506583]], "children_default": [1.0, 3.0, 5.0, 7.0, 9.0, 11.0, 13.0, -1.0, 15.0, 17.0, 19.0, 21.0, -1.0, -1.0, 23.0, 25.0, -1.0, 27.0, -1.0, 29.0, -1.0, 31.0, 33.0, -1.0, -1.0, 35.0, -1.0, 37.0, 39.0, -1.0, -1.0, -1.0, -1.0, -1.0, -1.0, -1.0, -1.0, -1.0, 41.0, 43.0, 45.0, 47.0, -1.0, -1.0, 49.0, 51.0, -1.0, 53.0, -1.0, 55.0, -1.0, 57.0, -1.0, -1.0, -1.0, 59.0, -1.0, -1.0, -1.0, -1.0, -1.0]}, {"children_left": [1.0, 3.0, 5.0, 7.0, 9.0, 11.0, 13.0, 15.0, 17.0, 19.0, -1.0, 21.0, 23.0, -1.0, 25.0, 27.0, -1.0, 29.0, -1.0, 31.0, -1.0, 33.0, -1.0, 35.0, 37.0, 39.0, 41.0, -1.0, -1.0, -1.0, -1.0, -1.0, -1.0, 43.0, -1.0, -1.0, 45.0, 47.0, 49.0, -1.0, -1.0, -1.0, -1.0, 51.0, -1.0, 53.0, -1.0, 55.0, -1.0, 57.0, 59.0, -1.0, -1.0, 61.0, -1.0, 63.0, -1.0, -1.0, -1.0, -1.0, -1.0, -1.0, -1.0, -1.0, -1.0], "children_right": [2.0, 4.0, 6.0, 8.0, 10.0, 12.0, 14.0, 16.0, 18.0, 20.0, -1.0, 22.0, 24.0, -1.0, 26.0, 28.0, -1.0, 30.0, -1.0, 32.0, -1.0, 34.0, -1.0, 36.0, 38.0, 40.0, 42.0, -1.0, -1.0, -1.0, -1.0, -1.0, -1.0, 44.0, -1.0, -1.0, 46.0, 48.0, 50.0, -1.0, -1.0, -1.0, -1.0, 52.0, -1.0, 54.0, -1.0, 56.0, -1.0, 58.0, 60.0, -1.0, -1.0, 62.0, -1.0, 64.0, -1.0, -1.0, -1.0, -1.0, -1.0, -1.0, -1.0, -1.0, -1.0], "features": [6.0, 5.0, 3.0, 1.0, 0.0, 2.0, 2.0, 3.0, 1.0, 3.0, -2.0, 8.0, 0.0, -2.0, 0.0, 0.0, -2.0, 0.0, -2.0, 8.0, -2.0, 7.0, -2.0, 0.0, 2.0, 2.0, 8.0, -2.0, -2.0, -2.0, -2.0, -2.0, -2.0, 5.0, -2.0, -2.0, 1.0, 0.0, 8.0, -2.0, -2.0, -2.0, -2.0, 7.0, -2.0, 4.0, -2.0, 7.0, -2.0, 1.0, 1.0, -2.0, -2.0, 1.0, -2.0, 2.0, -2.0, -2.0, -2.0, -2.0, -2.0, -2.0, -2.0, -2.0, -2.0], "thresholds": [0.5, 0.5, 0.5, 444.0, 3.298858642578125, 0.5, 0.5, 0.5, 1729.0, 0.5, -2.0, 0.5, 2.5, -2.0, 2.5, 0.5, -2.0, 3.798858642578125, -2.0, 0.5, -2.0, 0.5, -2.0, 1.5, 2.4828150272369385, 1.5, 0.5, -2.0, -2.0, -2.0, -2.0, -2.0, -2.0, 0.5, -2.0, -2.0, 2065.4545454545455, 20.454545454545453, 0.5, -2.0, -2.0, -2.0, -2.0, 0.5, -2.0, 0.5, -2.0, 0.5, -2.0, 834.7272727272726, 494.54545454545456, -2.0, -2.0, 629.2727272727273, -2.0, 1.8461954915003695, -2.0, -2.0, -2.0, -2.0, -2.0, -2.0, -2.0, -2.0, -2.0], "node_sample_weight": [5219.0, 750.0, 4469.0, 572.0, 178.0, 4117.0, 352.0, 263.0, 309.0, 119.0, 125.0, 808.0, 3309.0, 90.0, 307.0, 252.0, 19.0, 292.0, 43.0, 104.0, 42.0, 966.0, 2.0, 968.0, 2341.0, 116.0, 191.0, 372.0, 167.0, 245.0, 374.0, 175.0, 60.0, 947.0, 2.0, 353.0, 930.0, 944.0, 1784.0, 131.0, 144.0, 197.0, 252.0, 584.0, 2.0, 1661.0024089002636, 4.997591099736496, 1131.1010109167519, 52.89898908324801, 655.0, 458.0, 338.0, 2.0, 102.0, 2.0, 210.0, 2.0, 822.0782719038398, 482.9217280961602, 572.1709527228679, 350.8290472771321, 376.1920297767348, 265.8079702232652, 93.24092981077229, 72.75907018922771], "values": [[0.02563709522897107, 0.024362904771028933], [0.0094, 0.040600000000000004], [0.028362049675542626, 0.021637950324457374], [0.0035839160839160845, 0.046416083916083914], [0.028089887640449437, 0.021910112359550565], [0.027374301675977656, 0.022625698324022347], [0.03991477272727273, 0.010085227272727273], [0.006083650190114069, 0.043916349809885936], [0.0014563106796116505, 0.04854368932038835], [0.03529411764705882, 0.014705882352941176], [0.015600000000000001, 0.0344], [0.021225247524752477, 0.028774752475247526], [0.028875793291024483, 0.021124206708975524], [0.022222222222222223, 0.027777777777777776], [0.043322475570032576, 0.006677524429967428], [0.005753968253968254, 0.04424603174603175], [0.028947368421052635, 0.021052631578947368], [0.0011986301369863014, 0.0488013698630137], [0.005813953488372093, 0.04418604651162791], [0.03317307692307692, 0.016826923076923076], [0.05, 0.0], [0.022981366459627332, 0.027018633540372674], [0.0, 0.05], [0.03507231404958678, 0.014927685950413223], [0.02631354122170013, 0.023686458778299873], [0.04741379310344827, 0.0025862068965517245], [0.04083769633507854, 0.009162303664921465], [0.0032258064516129037, 0.046774193548387105], [0.014670658682634731, 0.03532934131736527], [0.004489795918367347, 0.04551020408163266], [0.002807486631016043, 0.04719251336898396], [0.03028571428571429, 0.019714285714285715], [0.0325, 0.0175], [0.0237064413938754, 0.026293558606124607], [0.025, 0.025], [0.041926345609065156, 0.008073654390934845], [0.03317204301075269, 0.01682795698924731], [0.0225635593220339, 0.027436440677966103], [0.027774663677130048, 0.022225336322869958], [0.046946564885496186, 0.0030534351145038168], [0.04826388888888889, 0.001736111111111111], [0.03781725888324873, 0.01218274111675127], [0.04623015873015873, 0.00376984126984127], [0.02474315068493151, 0.025256849315068493], [0.025, 0.025], [0.02531603793870532, 0.02468396206129468], [0.010004820122766009, 0.03999517987723399], [0.024007626448701132, 0.025992373551298877], [0.046219209412768615, 0.0037807905872313877], [0.023893129770992366, 0.026106870229007637], [0.023034934497816597, 0.02696506550218341], [0.01908284023668639, 0.030917159763313613], [0.025, 0.025], [0.03333333333333334, 0.01666666666666667], [0.025, 0.025], [0.01880952380952381, 0.031190476190476196], [0.025, 0.025], [0.03728831504596395, 0.012711684954036054], [0.016350654661858015, 0.033649345338141984], [0.041333800479478246, 0.008666199520521759], [0.018099983593957984, 0.03190001640604202], [0.046012674694649355, 0.00398732530535065], [0.022536564671599688, 0.027463435328400315], [0.028602192332310192, 0.021397807667689804], [0.0038909924435891283, 0.046109007556410876]], "children_default": [1.0, 3.0, 5.0, 7.0, 9.0, 11.0, 13.0, 15.0, 17.0, 19.0, -1.0, 21.0, 23.0, -1.0, 25.0, 27.0, -1.0, 29.0, -1.0, 31.0, -1.0, 33.0, -1.0, 35.0, 37.0, 39.0, 41.0, -1.0, -1.0, -1.0, -1.0, -1.0, -1.0, 43.0, -1.0, -1.0, 45.0, 47.0, 49.0, -1.0, -1.0, -1.0, -1.0, 51.0, -1.0, 53.0, -1.0, 55.0, -1.0, 57.0, 59.0, -1.0, -1.0, 61.0, -1.0, 63.0, -1.0, -1.0, -1.0, -1.0, -1.0, -1.0, -1.0, -1.0, -1.0]}, {"children_left": [1.0, 3.0, 5.0, 7.0, 9.0, 11.0, 13.0, 15.0, 17.0, -1.0, 19.0, 21.0, -1.0, 23.0, 25.0, 27.0, 29.0, 31.0, -1.0, 33.0, -1.0, 35.0, -1.0, 37.0, 39.0, -1.0, 41.0, -1.0, -1.0, -1.0, -1.0, -1.0, -1.0, -1.0, -1.0, 43.0, -1.0, 45.0, 47.0, 49.0, 51.0, -1.0, -1.0, 53.0, -1.0, 55.0, -1.0, -1.0, 57.0, 59.0, -1.0, -1.0, 61.0, -1.0, -1.0, -1.0, 63.0, -1.0, 65.0, -1.0, 67.0, -1.0, 69.0, -1.0, -1.0, -1.0, -1.0, -1.0, -1.0, -1.0, -1.0], "children_right": [2.0, 4.0, 6.0, 8.0, 10.0, 12.0, 14.0, 16.0, 18.0, -1.0, 20.0, 22.0, -1.0, 24.0, 26.0, 28.0, 30.0, 32.0, -1.0, 34.0, -1.0, 36.0, -1.0, 38.0, 40.0, -1.0, 42.0, -1.0, -1.0, -1.0, -1.0, -1.0, -1.0, -1.0, -1.0, 44.0, -1.0, 46.0, 48.0, 50.0, 52.0, -1.0, -1.0, 54.0, -1.0, 56.0, -1.0, -1.0, 58.0, 60.0, -1.0, -1.0, 62.0, -1.0, -1.0, -1.0, 64.0, -1.0, 66.0, -1.0, 68.0, -1.0, 70.0, -1.0, -1.0, -1.0, -1.0, -1.0, -1.0, -1.0, -1.0], "features": [6.0, 2.0, 2.0, 5.0, 7.0, 8.0, 3.0, 0.0, 1.0, -2.0, 2.0, 3.0, -2.0, 8.0, 2.0, 3.0, 2.0, 1.0, -2.0, 0.0, -2.0, 8.0, -2.0, 0.0, 1.0, -2.0, 2.0, -2.0, -2.0, -2.0, -2.0, -2.0, -2.0, -2.0, -2.0, 7.0, -2.0, 8.0, 6.0, 0.0, 6.0, -2.0, -2.0, 3.0, -2.0, 6.0, -2.0, -2.0, 2.0, 1.0, -2.0, -2.0, 2.0, -2.0, -2.0, -2.0, 1.0, -2.0, 0.0, -2.0, 0.0, -2.0, 0.0, -2.0, -2.0, -2.0, -2.0, -2.0, -2.0, -2.0, -2.0], "thresholds": [0.5, 2.0850000381469727, 0.5, 0.5, 0.5, 0.5, 0.5, 0.5, 822.5, -2.0, 6.75, 0.5, -2.0, 0.5, 1.375, 0.5, 1.6349999904632568, 1.0, -2.0, 4.5, -2.0, 0.5, -2.0, 3.298858642578125, 550.5, -2.0, 1.899999976158142, -2.0, -2.0, -2.0, -2.0, -2.0, -2.0, -2.0, -2.0, 0.5, -2.0, 0.5, 0.5, 22.09090909090909, 0.5, -2.0, -2.0, 0.5, -2.0, 0.5, -2.0, -2.0, 3.727272727272727, 139.8181818181818, -2.0, -2.0, 3.090909090909091, -2.0, -2.0, -2.0, 699.0909090909091, -2.0, 5.363636363636363, -2.0, 6.454545454545454, -2.0, 9.09090909090909, -2.0, -2.0, -2.0, -2.0, -2.0, -2.0, -2.0, -2.0], "node_sample_weight": [5219.0, 737.0, 4482.0, 428.0, 309.0, 863.0, 3619.0, 308.0, 120.0, 128.0, 248.0, 862.0, 1.0, 3331.0, 288.0, 152.0, 156.0, 105.0, 40.0, 224.0, 34.0, 960.0, 107.0, 1916.0, 1415.0, 126.0, 240.0, 344.0, 12.0, 105.0, 201.0, 161.0, 99.0, 305.0, 228.0, 951.0, 2.0, 974.0, 1005.0, 967.0, 940.0, 16.0, 549.0, 585.0, 2.0, 946.0, 2.0, 2.0, 850.0, 1584.0412485060601, 32.95875149393976, 2.0, 702.0, 360.0, 2.0, 2.0, 967.0, 601.8210093645222, 156.17899063547776, 290.093945652136, 147.906054347864, 197.34745983472828, 76.65254016527173, 275.91677659699127, 280.08322340300873, 414.118862175635, 177.881137824365, 363.6555403378429, 106.34445966215708, 65.73755818071335, 21.262441819286654], "values": [[0.025445487641310598, 0.024554512358689405], [0.010719131614654003, 0.039280868385346], [0.02786702365015618, 0.02213297634984382], [0.01355140186915888, 0.03644859813084112], [0.006796116504854369, 0.04320388349514564], [0.01998841251448436, 0.030011587485515644], [0.029745786128764853, 0.020254213871235147], [0.005681818181818182, 0.04431818181818182], [0.033749999999999995, 0.01625], [0.017578125, 0.032421875], [0.003830645161290323, 0.04616935483870968], [0.020011600928074247, 0.029988399071925756], [0.0, 0.05], [0.028655058540978686, 0.021344941459021317], [0.04236111111111111, 0.0076388888888888895], [0.0036184210526315794, 0.046381578947368426], [0.007692307692307694, 0.04230769230769231], [0.037142857142857144, 0.012857142857142859], [0.02, 0.030000000000000006], [0.003125, 0.046875], [0.007352941176470588, 0.04264705882352942], [0.021510416666666667, 0.028489583333333336], [0.02336448598130841, 0.02663551401869159], [0.027244258872651358, 0.022755741127348645], [0.030565371024734982, 0.019434628975265017], [0.04801587301587302, 0.001984126984126984], [0.04083333333333334, 0.009166666666666667], [0.002180232558139535, 0.047819767441860464], [0.02916666666666667, 0.020833333333333332], [0.0033333333333333335, 0.04666666666666667], [0.008706467661691543, 0.04129353233830846], [0.028571428571428574, 0.02142857142857143], [0.04141414141414142, 0.008585858585858587], [0.009672131147540983, 0.040327868852459016], [0.002412280701754386, 0.04758771929824562], [0.0240273396424816, 0.025972660357518405], [0.025, 0.025], [0.02920944558521561, 0.020790554414784394], [0.025323383084577118, 0.024676616915422885], [0.04136504653567735, 0.008634953464322647], [0.016117021276595745, 0.033882978723404254], [0.028125, 0.021875000000000002], [0.043897996357012754, 0.006102003642987249], [0.025384615384615387, 0.024615384615384615], [0.025, 0.025], [0.028594080338266385, 0.021405919661733615], [0.025, 0.025], [0.025, 0.025], [0.022176470588235297, 0.02782352941176471], [0.026198812713456452, 0.02380118728654355], [0.00758523878084303, 0.04241476121915697], [0.025, 0.025], [0.019800569800569802, 0.030199430199430204], [0.018055555555555554, 0.03194444444444444], [0.025, 0.025], [0.025, 0.025], [0.030455015511892454, 0.019544984488107552], [0.02440232618154796, 0.025597673818452044], [0.032745553071955646, 0.017254446928044363], [0.04120974415971504, 0.008790255840284974], [0.044591161237264434, 0.005408838762735566], [0.023055781938163624, 0.026944218061836372], [0.012393587974406201, 0.0376064120255938], [0.036222531515858775, 0.013777468484141226], [0.018942926318464833, 0.031057073681535166], [0.02995744517312079, 0.02004255482687921], [0.03341589200473437, 0.016584107995265638], [0.04573772477504393, 0.004262275224956069], [0.038715914267539196, 0.011284085732460805], [0.004363987908510938, 0.04563601209148906], [0.04764843565828615, 0.002351564341713857]], "children_default": [1.0, 3.0, 5.0, 7.0, 9.0, 11.0, 13.0, 15.0, 17.0, -1.0, 19.0, 21.0, -1.0, 23.0, 25.0, 27.0, 29.0, 31.0, -1.0, 33.0, -1.0, 35.0, -1.0, 37.0, 39.0, -1.0, 41.0, -1.0, -1.0, -1.0, -1.0, -1.0, -1.0, -1.0, -1.0, 43.0, -1.0, 45.0, 47.0, 49.0, 51.0, -1.0, -1.0, 53.0, -1.0, 55.0, -1.0, -1.0, 57.0, 59.0, -1.0, -1.0, 61.0, -1.0, -1.0, -1.0, 63.0, -1.0, 65.0, -1.0, 67.0, -1.0, 69.0, -1.0, -1.0, -1.0, -1.0, -1.0, -1.0, -1.0, -1.0]}, {"children_left": [1.0, 3.0, 5.0, 7.0, 9.0, 11.0, 13.0, 15.0, -1.0, 17.0, -1.0, 19.0, 21.0, 23.0, 25.0, -1.0, -1.0, 27.0, -1.0, 29.0, 31.0, 33.0, 35.0, -1.0, 37.0, -1.0, 39.0, 41.0, -1.0, -1.0, 43.0, -1.0, -1.0, -1.0, -1.0, 45.0, 47.0, -1.0, -1.0, -1.0, -1.0, -1.0, -1.0, 49.0, -1.0, 51.0, -1.0, 53.0, -1.0, 55.0, -1.0, -1.0, -1.0, 57.0, -1.0, -1.0, 59.0, -1.0, -1.0, 61.0, -1.0, -1.0, -1.0], "children_right": [2.0, 4.0, 6.0, 8.0, 10.0, 12.0, 14.0, 16.0, -1.0, 18.0, -1.0, 20.0, 22.0, 24.0, 26.0, -1.0, -1.0, 28.0, -1.0, 30.0, 32.0, 34.0, 36.0, -1.0, 38.0, -1.0, 40.0, 42.0, -1.0, -1.0, 44.0, -1.0, -1.0, -1.0, -1.0, 46.0, 48.0, -1.0, -1.0, -1.0, -1.0, -1.0, -1.0, 50.0, -1.0, 52.0, -1.0, 54.0, -1.0, 56.0, -1.0, -1.0, -1.0, 58.0, -1.0, -1.0, 60.0, -1.0, -1.0, 62.0, -1.0, -1.0, -1.0], "features": [0.0, 6.0, 7.0, 3.0, 8.0, 2.0, 8.0, 5.0, -2.0, 3.0, -2.0, 0.0, 2.0, 1.0, 0.0, -2.0, -2.0, 8.0, -2.0, 0.0, 0.0, 0.0, 1.0, -2.0, 0.0, -2.0, 2.0, 5.0, -2.0, -2.0, 1.0, -2.0, -2.0, -2.0, -2.0, 4.0, 4.0, -2.0, -2.0, -2.0, -2.0, -2.0, -2.0, 1.0, -2.0, 2.0, -2.0, 2.0, -2.0, 2.0, -2.0, -2.0, -2.0, 1.0, -2.0, -2.0, 1.0, -2.0, -2.0, 4.0, -2.0, -2.0, -2.0], "thresholds": [0.5, 0.5, 0.5, 0.5, 0.5, 2.0850000381469727, 0.5, 0.5, -2.0, 0.5, -2.0, 3.5, 2.899999976158142, 411.0, 3.5, -2.0, -2.0, 0.5, -2.0, 1.5, 6.5, 10.5, 693.0, -2.0, 3.298858642578125, -2.0, 6.75, 0.5, -2.0, -2.0, 2065.4545454545455, -2.0, -2.0, -2.0, -2.0, 0.5, 0.5, -2.0, -2.0, -2.0, -2.0, -2.0, -2.0, 906.4545454545455, -2.0, 4.090909090909091, -2.0, 5.545454545454545, -2.0, 1.9090909090909092, -2.0, -2.0, -2.0, 1148.909090909091, -2.0, -2.0, 590.5454545454545, -2.0, -2.0, 0.5, -2.0, -2.0, -2.0], "node_sample_weight": [5219.0, 1109.0, 4110.0, 190.0, 919.0, 3699.0, 411.0, 182.0, 20.0, 916.0, 3.0, 1599.0, 2100.0, 221.0, 190.0, 380.0, 119.0, 963.0, 109.0, 1261.0, 338.0, 289.0, 1811.0, 111.0, 168.0, 128.0, 126.0, 945.0, 2.0, 483.0, 1092.0, 539.0, 178.0, 603.0, 102.0, 1061.0, 922.0, 153.0, 221.0, 216.0, 23.0, 910.0, 2.0, 2175.5621647066696, 5.437835293330409, 639.0, 2.0, 934.0, 3.0, 197.10963183915152, 359.8903681608485, 915.287578198223, 505.71242180177705, 435.82589122909906, 133.17410877090094, 128.79555106807615, 298.2044489319238, 68.44462931125403, 96.55537068874597, 187.20340038947728, 46.79659961052272, 277.0, 2.0], "values": [[0.025761640160950377, 0.024238359839049626], [0.018935978358881875, 0.031064021641118128], [0.027603406326034065, 0.022396593673965938], [0.010789473684210528, 0.03921052631578947], [0.020620239390642, 0.029379760609358], [0.03027845363611787, 0.019721546363882132], [0.0035279805352798057, 0.046472019464720196], [0.01043956043956044, 0.03956043956043956], [0.0375, 0.0125], [0.02068777292576419, 0.029312227074235808], [0.0, 0.05000000000000001], [0.033176985616010006, 0.016823014383989997], [0.028071428571428574, 0.02192857142857143], [0.005203619909502263, 0.04479638009049774], [0.0015789473684210528, 0.048421052631578955], [0.0025, 0.0475], [0.030672268907563027, 0.019327731092436976], [0.02227414330218069, 0.027725856697819316], [0.024311926605504592, 0.025688073394495414], [0.03528945281522601, 0.014710547184773989], [0.025295857988165683, 0.02470414201183432], [0.020242214532871974, 0.029757785467128026], [0.029320817228050803, 0.0206791827719492], [0.023423423423423424, 0.02657657657657658], [0.0008928571428571429, 0.049107142857142856], [0.0078125, 0.0421875], [0.0003968253968253968, 0.0496031746031746], [0.02544973544973545, 0.024550264550264555], [0.025, 0.025], [0.04192546583850932, 0.008074534161490683], [0.034249084249084245, 0.01575091575091575], [0.029684601113172542, 0.02031539888682746], [0.016853932584269662, 0.03314606741573034], [0.02537313432835821, 0.024626865671641792], [0.021568627450980395, 0.02843137254901961], [0.040103675777568334, 0.009896324222431668], [0.015021691973969633, 0.03497830802603037], [0.0009803921568627453, 0.049019607843137254], [0.002714932126696833, 0.04728506787330317], [0.0016203703703703705, 0.048379629629629634], [0.002173913043478261, 0.04782608695652174], [0.023791208791208794, 0.02620879120879121], [0.025, 0.025], [0.024890118461543036, 0.02510988153845697], [0.009194835316421922, 0.04080516468357808], [0.023552425665101722, 0.02644757433489828], [0.025, 0.025], [0.016220556745182014, 0.033779443254817985], [0.016666666666666666, 0.03333333333333333], [0.034498567809963965, 0.015501432190036043], [0.02181219808720066, 0.02818780191279934], [0.03905755575391767, 0.010942444246082329], [0.04350516901536255, 0.0064948309846374515], [0.014404191287635369, 0.03559580871236463], [0.013683444262929185, 0.036316555737070814], [0.029115912536589877, 0.020884087463410125], [0.04376192255595471, 0.0062380774440452995], [0.012013089614724616, 0.03798691038527539], [0.016858394544251108, 0.033141605455748895], [0.049732910834440106, 0.0002670891655598928], [0.021151750100739417, 0.02884824989926059], [0.04765342960288809, 0.0023465703971119133], [0.025, 0.025]], "children_default": [1.0, 3.0, 5.0, 7.0, 9.0, 11.0, 13.0, 15.0, -1.0, 17.0, -1.0, 19.0, 21.0, 23.0, 25.0, -1.0, -1.0, 27.0, -1.0, 29.0, 31.0, 33.0, 35.0, -1.0, 37.0, -1.0, 39.0, 41.0, -1.0, -1.0, 43.0, -1.0, -1.0, -1.0, -1.0, 45.0, 47.0, -1.0, -1.0, -1.0, -1.0, -1.0, -1.0, 49.0, -1.0, 51.0, -1.0, 53.0, -1.0, 55.0, -1.0, -1.0, -1.0, 57.0, -1.0, -1.0, 59.0, -1.0, -1.0, 61.0, -1.0, -1.0, -1.0]}, {"children_left": [1.0, 3.0, 5.0, 7.0, 9.0, 11.0, 13.0, 15.0, 17.0, 19.0, 21.0, -1.0, 23.0, 25.0, 27.0, -1.0, 29.0, 31.0, -1.0, -1.0, 33.0, 35.0, 37.0, 39.0, 41.0, 43.0, 45.0, -1.0, -1.0, 47.0, -1.0, 49.0, -1.0, -1.0, -1.0, 51.0, -1.0, -1.0, -1.0, -1.0, -1.0, -1.0, -1.0, -1.0, -1.0, 53.0, -1.0, -1.0, -1.0, 55.0, -1.0, -1.0, 57.0, 59.0, 61.0, -1.0, -1.0, 63.0, 65.0, 67.0, -1.0, -1.0, -1.0, 69.0, -1.0, -1.0, -1.0, -1.0, -1.0, -1.0, -1.0], "children_right": [2.0, 4.0, 6.0, 8.0, 10.0, 12.0, 14.0, 16.0, 18.0, 20.0, 22.0, -1.0, 24.0, 26.0, 28.0, -1.0, 30.0, 32.0, -1.0, -1.0, 34.0, 36.0, 38.0, 40.0, 42.0, 44.0, 46.0, -1.0, -1.0, 48.0, -1.0, 50.0, -1.0, -1.0, -1.0, 52.0, -1.0, -1.0, -1.0, -1.0, -1.0, -1.0, -1.0, -1.0, -1.0, 54.0, -1.0, -1.0, -1.0, 56.0, -1.0, -1.0, 58.0, 60.0, 62.0, -1.0, -1.0, 64.0, 66.0, 68.0, -1.0, -1.0, -1.0, 70.0, -1.0, -1.0, -1.0, -1.0, -1.0, -1.0, -1.0], "features": [1.0, 0.0, 6.0, 6.0, 6.0, 7.0, 3.0, 7.0, 3.0, 0.0, 3.0, -2.0, 8.0, 0.0, 8.0, -2.0, 3.0, 8.0, -2.0, -2.0, 7.0, 1.0, 1.0, 1.0, 0.0, 2.0, 0.0, -2.0, -2.0, 7.0, -2.0, 8.0, -2.0, -2.0, -2.0, 6.0, -2.0, -2.0, -2.0, -2.0, -2.0, -2.0, -2.0, -2.0, -2.0, 8.0, -2.0, -2.0, -2.0, 4.0, -2.0, -2.0, 8.0, 1.0, 0.0, -2.0, -2.0, 0.0, 2.0, 0.0, -2.0, -2.0, -2.0, 0.0, -2.0, -2.0, -2.0, -2.0, -2.0, -2.0, -2.0], "thresholds": [602.5, 0.5, 0.5, 0.5, 0.5, 0.5, 0.5, 0.5, 0.5, 2.5, 0.5, -2.0, 0.5, 2.5, 0.5, -2.0, 0.5, 0.5, -2.0, -2.0, 0.5, 471.5, 166.0, 1215.0, 3.5, 1.5, 10.5, -2.0, -2.0, 0.5, -2.0, 0.5, -2.0, -2.0, -2.0, 0.5, -2.0, -2.0, -2.0, -2.0, -2.0, -2.0, -2.0, -2.0, -2.0, 0.5, -2.0, -2.0, -2.0, 0.5, -2.0, -2.0, 0.5, 1595.181818181818, 3.6363636363636362, -2.0, -2.0, 4.272727272727273, 5.363636363636363, 5.2727272727272725, -2.0, -2.0, -2.0, 3.8181818181818183, -2.0, -2.0, -2.0, -2.0, -2.0, -2.0, -2.0], "node_sample_weight": [5219.0, 3349.0, 1870.0, 1052.0, 2297.0, 338.0, 1532.0, 198.0, 854.0, 206.0, 2091.0, 120.0, 287.0, 1445.0, 87.0, 159.0, 148.0, 797.0, 99.0, 114.0, 130.0, 1898.0, 193.0, 161.0, 126.0, 376.0, 1069.0, 109.0, 101.0, 252.0, 12.0, 959.0, 2.0, 79.0, 216.0, 1739.0, 329.0, 233.0, 260.0, 163.0, 203.0, 96.0, 159.0, 140.0, 609.0, 992.0, 178.0, 2.0, 278.0, 953.0, 2.0, 2.0, 990.0, 955.0, 259.0, 866.0, 2.0, 85.0, 922.0, 579.8745639835324, 67.12543601646755, 114.69274509391684, 271.30725490608313, 84.9315887758949, 365.0684112241051, 776.7148220037107, 155.28517799628938, 133.67089906413213, 46.329100935867885, 557.3567676361142, 233.64323236388577], "values": [[0.025819122437248515, 0.024180877562751484], [0.033039713347267845, 0.01696028665273216], [0.012887700534759359, 0.037112299465240646], [0.01806083650190114, 0.03193916349809886], [0.03989986939486287, 0.010100130605137137], [0.0020710059171597634, 0.04792899408284024], [0.015274151436031332, 0.03472584856396867], [0.009595959595959597, 0.04040404040404041], [0.020023419203747075, 0.029976580796252927], [0.024271844660194174, 0.02572815533980583], [0.041439502630320424, 0.00856049736967958], [0.017083333333333336, 0.03291666666666667], [0.0005226480836236935, 0.04947735191637631], [0.014359861591695501, 0.035640138408304496], [0.030459770114942532, 0.019540229885057474], [0.030188679245283023, 0.019811320754716984], [0.002364864864864865, 0.04763513513513514], [0.02038895859473024, 0.029611041405269763], [0.01868686868686869, 0.031313131313131314], [0.041666666666666664, 0.008333333333333333], [0.016153846153846154, 0.03384615384615385], [0.04075342465753425, 0.009246575342465754], [0.04818652849740933, 0.0018134715025906738], [0.00031055900621118014, 0.049689440993788817], [0.0007936507936507937, 0.049206349206349205], [0.019680851063829788, 0.030319148936170215], [0.012488306828811975, 0.03751169317118803], [0.03165137614678899, 0.01834862385321101], [0.0405940594059406, 0.009405940594059407], [0.001984126984126984, 0.04801587301587302], [0.016666666666666666, 0.03333333333333333], [0.02231491136600626, 0.027685088633993743], [0.0, 0.05], [0.03291139240506329, 0.01708860759493671], [0.013194444444444444, 0.03680555555555556], [0.041489361702127664, 0.00851063829787234], [0.03571428571428571, 0.014285714285714287], [0.05, 0.0], [0.04519230769230769, 0.004807692307692308], [0.0, 0.05], [0.001724137931034483, 0.048275862068965524], [0.0046875, 0.045312500000000006], [0.0022012578616352205, 0.04779874213836478], [0.0125, 0.0375], [0.02266009852216749, 0.027339901477832516], [0.013306451612903227, 0.03669354838709677], [0.00955056179775281, 0.040449438202247195], [0.025, 0.025], [0.006294964028776978, 0.04370503597122302], [0.024501573976915006, 0.025498426023084997], [0.025, 0.025], [0.025, 0.025], [0.02292929292929293, 0.02707070707070707], [0.017853403141361256, 0.03214659685863875], [0.02084942084942085, 0.029150579150579153], [0.022286374133949193, 0.02771362586605081], [0.025, 0.025], [0.024117647058823532, 0.025882352941176474], [0.04246203904555315, 0.007537960954446855], [0.01514433226639642, 0.03485566773360359], [0.025596659510414517, 0.024403340489585482], [0.027028736625507973, 0.02297126337449203], [0.010504695132412025, 0.03949530486758798], [0.040620928558199446, 0.00937907144180056], [0.03807505544890102, 0.011924944551098984], [0.04190133369986626, 0.008098666300133736], [0.04575203599766658, 0.004247964002333424], [0.008854170664616905, 0.04114582933538309], [0.024098353394314136, 0.025901646605685863], [0.042464431682038735, 0.0075355683179612635], [0.03822991801569911, 0.011770081984300896]], "children_default": [1.0, 3.0, 5.0, 7.0, 9.0, 11.0, 13.0, 15.0, 17.0, 19.0, 21.0, -1.0, 23.0, 25.0, 27.0, -1.0, 29.0, 31.0, -1.0, -1.0, 33.0, 35.0, 37.0, 39.0, 41.0, 43.0, 45.0, -1.0, -1.0, 47.0, -1.0, 49.0, -1.0, -1.0, -1.0, 51.0, -1.0, -1.0, -1.0, -1.0, -1.0, -1.0, -1.0, -1.0, -1.0, 53.0, -1.0, -1.0, -1.0, 55.0, -1.0, -1.0, 57.0, 59.0, 61.0, -1.0, -1.0, 63.0, 65.0, 67.0, -1.0, -1.0, -1.0, 69.0, -1.0, -1.0, -1.0, -1.0, -1.0, -1.0, -1.0]}, {"children_left": [1.0, 3.0, 5.0, 7.0, 9.0, 11.0, 13.0, 15.0, -1.0, 17.0, -1.0, 19.0, -1.0, 21.0, 23.0, 25.0, 27.0, 29.0, -1.0, 31.0, -1.0, 33.0, 35.0, 37.0, 39.0, -1.0, -1.0, -1.0, -1.0, -1.0, -1.0, 41.0, -1.0, 43.0, 45.0, -1.0, -1.0, 47.0, 49.0, -1.0, -1.0, -1.0, -1.0, -1.0, 51.0, 53.0, -1.0, 55.0, -1.0, 57.0, -1.0, 59.0, 61.0, -1.0, 63.0, -1.0, -1.0, -1.0, 65.0, -1.0, -1.0, -1.0, -1.0, -1.0, -1.0, -1.0, -1.0], "children_right": [2.0, 4.0, 6.0, 8.0, 10.0, 12.0, 14.0, 16.0, -1.0, 18.0, -1.0, 20.0, -1.0, 22.0, 24.0, 26.0, 28.0, 30.0, -1.0, 32.0, -1.0, 34.0, 36.0, 38.0, 40.0, -1.0, -1.0, -1.0, -1.0, -1.0, -1.0, 42.0, -1.0, 44.0, 46.0, -1.0, -1.0, 48.0, 50.0, -1.0, -1.0, -1.0, -1.0, -1.0, 52.0, 54.0, -1.0, 56.0, -1.0, 58.0, -1.0, 60.0, 62.0, -1.0, 64.0, -1.0, -1.0, -1.0, 66.0, -1.0, -1.0, -1.0, -1.0, -1.0, -1.0, -1.0, -1.0], "features": [6.0, 5.0, 0.0, 3.0, 2.0, 8.0, 0.0, 2.0, -2.0, 0.0, -2.0, 3.0, -2.0, 3.0, 3.0, 1.0, 1.0, 1.0, -2.0, 8.0, -2.0, 8.0, 8.0, 1.0, 0.0, -2.0, -2.0, -2.0, -2.0, -2.0, -2.0, 6.0, -2.0, 6.0, 1.0, -2.0, -2.0, 0.0, 8.0, -2.0, -2.0, -2.0, -2.0, -2.0, 0.0, 2.0, -2.0, 0.0, -2.0, 1.0, -2.0, 6.0, 1.0, -2.0, 1.0, -2.0, -2.0, -2.0, 0.0, -2.0, -2.0, -2.0, -2.0, -2.0, -2.0, -2.0, -2.0], "thresholds": [0.5, 0.5, 0.5, 0.5, 8.0, 0.5, 3.298858642578125, 3.1649999618530273, -2.0, 2.5, -2.0, 0.5, -2.0, 0.5, 0.5, 783.5, 41.5, 822.5, -2.0, 0.5, -2.0, 0.5, 0.5, 550.5, 3.798858642578125, -2.0, -2.0, -2.0, -2.0, -2.0, -2.0, 0.5, -2.0, 0.5, 1859.2727272727275, -2.0, -2.0, 25.19958496787765, 0.5, -2.0, -2.0, -2.0, -2.0, -2.0, 1.9090909090909092, 2.6363636363636362, -2.0, 5.181818181818182, -2.0, 1392.8181818181818, -2.0, 0.5, 116.0909090909091, -2.0, 634.5454545454545, -2.0, -2.0, -2.0, 7.016729205753596, -2.0, -2.0, -2.0, -2.0, -2.0, -2.0, -2.0, -2.0], "node_sample_weight": [5219.0, 742.0, 4477.0, 569.0, 173.0, 916.0, 3561.0, 548.0, 29.0, 164.0, 9.0, 914.0, 2.0, 1679.0, 1882.0, 430.0, 118.0, 94.0, 176.0, 966.0, 108.0, 1533.0, 146.0, 1749.0, 133.0, 579.0, 353.0, 12.0, 247.0, 193.0, 25.0, 952.0, 2.0, 937.0, 936.0, 202.0, 149.0, 947.0, 971.0, 21.0, 322.0, 2.0, 926.0, 2.0, 564.0, 1622.2705175642986, 16.729482435701243, 1829.1127974435367, 33.88720255646331, 434.0, 531.0, 64.03981389116316, 95.96018610883684, 329.2639499112268, 64.73605008877318, 552.8118134349861, 482.1881865650139, 394.0, 63.0, 2.0, 116.0, 215.52872433622372, 672.4712756637763, 96.22180118619923, 65.77819881380077, 128.26058518696956, 30.739414813030443], "values": [[0.025244299674267102, 0.0247557003257329], [0.010983827493261456, 0.03901617250673855], [0.027607773062318517, 0.022392226937681482], [0.004130052724077329, 0.045869947275922675], [0.033526011560693646, 0.01647398843930636], [0.02134279475982533, 0.028657205240174673], [0.029219320415613596, 0.020780679584386407], [0.003923357664233577, 0.04607664233576642], [0.020689655172413796, 0.02931034482758621], [0.03536585365853659, 0.014634146341463417], [0.0, 0.05], [0.02138949671772429, 0.028610503282275712], [0.0, 0.05], [0.03272781417510423, 0.017272185824895772], [0.026089266737513283, 0.023910733262486716], [0.004651162790697674, 0.04534883720930233], [0.0012711864406779662, 0.048728813559322036], [0.038829787234042554, 0.011170212765957447], [0.027556818181818186, 0.02244318181818182], [0.02282608695652174, 0.02717391304347826], [0.02453703703703704, 0.02546296296296296], [0.031539465101108936, 0.018460534898891063], [0.045205479452054796, 0.004794520547945206], [0.025157232704402517, 0.024842767295597486], [0.03834586466165414, 0.011654135338345865], [0.00846286701208981, 0.04153713298791019], [0.000708215297450425, 0.04929178470254958], [0.008333333333333333, 0.041666666666666664], [0.003441295546558705, 0.0465587044534413], [0.035751295336787565, 0.014248704663212436], [0.024000000000000004, 0.026000000000000002], [0.024789915966386557, 0.025210084033613446], [0.025, 0.025], [0.02769477054429029, 0.022305229455709716], [0.0375534188034188, 0.012446581196581197], [0.04133663366336633, 0.008663366336633664], [0.049328859060402686, 0.0006711409395973155], [0.038225976768743404, 0.0117740232312566], [0.011585993820803296, 0.03841400617919671], [0.03333333333333334, 0.01666666666666667], [0.04254658385093168, 0.007453416149068324], [0.025, 0.025], [0.022408207343412527, 0.027591792656587472], [0.025, 0.025], [0.024556737588652486, 0.02544326241134752], [0.027954647211421418, 0.02204535278857859], [0.020921149315001462, 0.02907885068499854], [0.02561351058583156, 0.024386489414168443], [0.023607732112647228, 0.026392267887352775], [0.019009216589861752, 0.03099078341013825], [0.017796610169491526, 0.03220338983050848], [0.03828853560888483, 0.01171146439111517], [0.020300182653172794, 0.029699817346827213], [0.0387241185794268, 0.011275881420573203], [0.02857053770149568, 0.021429462298504325], [0.03724701638303698, 0.01275298361696303], [0.042948811076810624, 0.007051188923189381], [0.013071065989847717, 0.036928934010152285], [0.034126984126984124, 0.015873015873015872], [0.025, 0.025], [0.039655172413793106, 0.010344827586206898], [0.04628819776823806, 0.003711802231761944], [0.023976583635150404, 0.026023416364849596], [0.04492643312169792, 0.005073566878302086], [0.02321586348817005, 0.026784136511829957], [0.016762749030544935, 0.03323725096945507], [0.013012609460295905, 0.036987390539704096]], "children_default": [1.0, 3.0, 5.0, 7.0, 9.0, 11.0, 13.0, 15.0, -1.0, 17.0, -1.0, 19.0, -1.0, 21.0, 23.0, 25.0, 27.0, 29.0, -1.0, 31.0, -1.0, 33.0, 35.0, 37.0, 39.0, -1.0, -1.0, -1.0, -1.0, -1.0, -1.0, 41.0, -1.0, 43.0, 45.0, -1.0, -1.0, 47.0, 49.0, -1.0, -1.0, -1.0, -1.0, -1.0, 51.0, 53.0, -1.0, 55.0, -1.0, 57.0, -1.0, 59.0, 61.0, -1.0, 63.0, -1.0, -1.0, -1.0, 65.0, -1.0, -1.0, -1.0, -1.0, -1.0, -1.0, -1.0, -1.0]}, {"children_left": [1.0, 3.0, 5.0, 7.0, 9.0, 11.0, 13.0, 15.0, 17.0, -1.0, 19.0, 21.0, -1.0, -1.0, 23.0, 25.0, 27.0, 29.0, 31.0, -1.0, 33.0, 35.0, 37.0, -1.0, -1.0, -1.0, -1.0, 39.0, 41.0, -1.0, 43.0, -1.0, -1.0, -1.0, -1.0, 45.0, -1.0, -1.0, -1.0, 47.0, -1.0, 49.0, -1.0, -1.0, 51.0, -1.0, -1.0, 53.0, 55.0, -1.0, -1.0, -1.0, -1.0, 57.0, -1.0, -1.0, -1.0, 59.0, -1.0, -1.0, -1.0], "children_right": [2.0, 4.0, 6.0, 8.0, 10.0, 12.0, 14.0, 16.0, 18.0, -1.0, 20.0, 22.0, -1.0, -1.0, 24.0, 26.0, 28.0, 30.0, 32.0, -1.0, 34.0, 36.0, 38.0, -1.0, -1.0, -1.0, -1.0, 40.0, 42.0, -1.0, 44.0, -1.0, -1.0, -1.0, -1.0, 46.0, -1.0, -1.0, -1.0, 48.0, -1.0, 50.0, -1.0, -1.0, 52.0, -1.0, -1.0, 54.0, 56.0, -1.0, -1.0, -1.0, -1.0, 58.0, -1.0, -1.0, -1.0, 60.0, -1.0, -1.0, -1.0], "features": [7.0, 3.0, 0.0, 8.0, 0.0, 3.0, 1.0, 6.0, 1.0, -2.0, 6.0, 2.0, -2.0, -2.0, 0.0, 4.0, 1.0, 2.0, 2.0, -2.0, 1.0, 8.0, 2.0, -2.0, -2.0, -2.0, -2.0, 8.0, 7.0, -2.0, 8.0, -2.0, -2.0, -2.0, -2.0, 5.0, -2.0, -2.0, -2.0, 1.0, -2.0, 2.0, -2.0, -2.0, 1.0, -2.0, -2.0, 0.0, 0.0, -2.0, -2.0, -2.0, -2.0, 7.0, -2.0, -2.0, -2.0, 2.0, -2.0, -2.0, -2.0], "thresholds": [0.5, 0.5, 3.798858642578125, 0.5, 0.5, 0.5, 412.0, 0.5, 596.0, -2.0, 0.5, 1.25, -2.0, -2.0, 4.5, 0.5, 608.0, 0.5, 2.125, -2.0, 748.5, 0.5, 1.75, -2.0, -2.0, -2.0, -2.0, 0.5, 0.5, -2.0, 0.5, -2.0, -2.0, -2.0, -2.0, 0.5, -2.0, -2.0, -2.0, 151.36363636363637, -2.0, 3.090909090909091, -2.0, -2.0, 54.72727272727273, -2.0, -2.0, 3.090909090909091, 5.090909090909091, -2.0, -2.0, -2.0, -2.0, 0.5, -2.0, -2.0, -2.0, 0.8181818181818181, -2.0, -2.0, -2.0], "node_sample_weight": [5219.0, 4650.0, 569.0, 4290.0, 360.0, 343.0, 226.0, 2893.0, 1397.0, 107.0, 300.0, 334.0, 14.0, 99.0, 180.0, 105.0, 2788.0, 801.0, 596.0, 35.0, 282.0, 182.0, 152.0, 138.0, 249.0, 246.0, 18.0, 1837.0, 964.0, 4.0, 957.0, 523.0, 700.0, 521.0, 158.0, 284.0, 14.0, 21.0, 283.0, 1053.0, 2.0, 572.0, 2.0, 2.0, 933.0, 294.0, 2.0, 704.19656327417, 85.80343672583003, 722.387650361028, 349.612349638972, 159.47824369928952, 785.5217563007104, 933.8669978349017, 275.13300216509833, 598.5748573266428, 128.42514267335721, 580.0, 2.0, 186.293630166731, 64.70636983326901], "values": [[0.025253880053650125, 0.024746119946349877], [0.027892473118279575, 0.02210752688172043], [0.0036906854130052727, 0.04630931458699473], [0.02702797202797203, 0.022972027972027975], [0.03819444444444445, 0.011805555555555555], [0.0052478134110787176, 0.044752186588921286], [0.0013274336283185843, 0.048672566371681415], [0.025734531628067752, 0.02426546837193225], [0.029706513958482464, 0.02029348604151754], [0.02336448598130841, 0.02663551401869159], [0.0425, 0.0075], [0.004790419161676647, 0.045209580838323354], [0.03214285714285715, 0.017857142857142856], [0.00404040404040404, 0.04595959595959596], [0.0005555555555555556, 0.049444444444444444], [0.030000000000000002, 0.02], [0.025573888091822095, 0.024426111908177908], [0.041822721598002495, 0.008177278401997504], [0.013422818791946308, 0.03657718120805369], [0.04857142857142858, 0.0014285714285714286], [0.042198581560283686, 0.007801418439716313], [0.0035714285714285718, 0.04642857142857144], [0.00625, 0.043750000000000004], [0.0032608695652173916, 0.04673913043478261], [0.0012048192771084338, 0.04879518072289157], [0.031300813008130084, 0.018699186991869923], [0.03333333333333334, 0.01666666666666667], [0.031981491562329885, 0.018018508437670114], [0.013278008298755188, 0.036721991701244815], [0.0, 0.05], [0.04106583072100314, 0.008934169278996866], [0.01892925430210325, 0.03107074569789675], [0.013285714285714286, 0.03671428571428572], [0.04769673704414588, 0.002303262955854127], [0.030063291139240507, 0.019936708860759496], [0.0035211267605633804, 0.04647887323943662], [0.0, 0.05], [0.002380952380952381, 0.047619047619047616], [0.007597173144876325, 0.04240282685512368], [0.021937321937321938, 0.028062678062678065], [0.025, 0.025], [0.023951048951048954, 0.02604895104895105], [0.025, 0.025], [0.025, 0.025], [0.033976420150053595, 0.01602357984994641], [0.00816326530612245, 0.04183673469387755], [0.025, 0.025], [0.03202230907682014, 0.017977690923179863], [0.023891816904145914, 0.026108183095854092], [0.012762375593552613, 0.037237624406447394], [0.01653436295347681, 0.033465637046523194], [0.045297164161061415, 0.0047028358389385825], [0.04446227941478587, 0.005537720585214129], [0.026214361361988132, 0.02378563863801187], [0.044957431341873355, 0.005042568658126647], [0.037255156522270814, 0.01274484347772918], [0.04010118184644546, 0.009898818153554548], [0.02353448275862069, 0.026465517241379313], [0.025, 0.025], [0.016576844874905912, 0.03342315512509409], [0.04886442246242869, 0.0011355775375713098]], "children_default": [1.0, 3.0, 5.0, 7.0, 9.0, 11.0, 13.0, 15.0, 17.0, -1.0, 19.0, 21.0, -1.0, -1.0, 23.0, 25.0, 27.0, 29.0, 31.0, -1.0, 33.0, 35.0, 37.0, -1.0, -1.0, -1.0, -1.0, 39.0, 41.0, -1.0, 43.0, -1.0, -1.0, -1.0, -1.0, 45.0, -1.0, -1.0, -1.0, 47.0, -1.0, 49.0, -1.0, -1.0, 51.0, -1.0, -1.0, 53.0, 55.0, -1.0, -1.0, -1.0, -1.0, 57.0, -1.0, -1.0, -1.0, 59.0, -1.0, -1.0, -1.0]}, {"children_left": [1.0, 3.0, 5.0, 7.0, 9.0, 11.0, 13.0, 15.0, -1.0, 17.0, 19.0, 21.0, 23.0, 25.0, -1.0, 27.0, 29.0, 31.0, 33.0, 35.0, -1.0, 37.0, 39.0, 41.0, 43.0, -1.0, -1.0, -1.0, -1.0, 45.0, -1.0, -1.0, -1.0, 47.0, 49.0, -1.0, -1.0, -1.0, -1.0, 51.0, -1.0, -1.0, -1.0, -1.0, -1.0, 53.0, -1.0, 55.0, -1.0, 57.0, -1.0, 59.0, -1.0, -1.0, -1.0, -1.0, -1.0, -1.0, 61.0, -1.0, -1.0, -1.0, -1.0], "children_right": [2.0, 4.0, 6.0, 8.0, 10.0, 12.0, 14.0, 16.0, -1.0, 18.0, 20.0, 22.0, 24.0, 26.0, -1.0, 28.0, 30.0, 32.0, 34.0, 36.0, -1.0, 38.0, 40.0, 42.0, 44.0, -1.0, -1.0, -1.0, -1.0, 46.0, -1.0, -1.0, -1.0, 48.0, 50.0, -1.0, -1.0, -1.0, -1.0, 52.0, -1.0, -1.0, -1.0, -1.0, -1.0, 54.0, -1.0, 56.0, -1.0, 58.0, -1.0, 60.0, -1.0, -1.0, -1.0, -1.0, -1.0, -1.0, 62.0, -1.0, -1.0, -1.0, -1.0], "features": [8.0, 0.0, 7.0, 3.0, 3.0, 1.0, 2.0, 6.0, -2.0, 6.0, 1.0, 2.0, 2.0, 0.0, -2.0, 5.0, 5.0, 5.0, 1.0, 2.0, -2.0, 0.0, 3.0, 0.0, 1.0, -2.0, -2.0, -2.0, -2.0, 8.0, -2.0, -2.0, -2.0, 8.0, 8.0, -2.0, -2.0, -2.0, -2.0, 5.0, -2.0, -2.0, -2.0, -2.0, -2.0, 5.0, -2.0, 2.0, -2.0, 6.0, -2.0, 0.0, -2.0, -2.0, -2.0, -2.0, -2.0, -2.0, 2.0, -2.0, -2.0, -2.0, -2.0], "thresholds": [0.5, 0.5, 0.5, 0.5, 0.5, 556.0, 3.1649999618530273, 0.5, -2.0, 0.5, 812.0, 1.465000033378601, 2.565000057220459, 3.5, -2.0, 0.5, 0.5, 0.5, 562.0, 1.25, -2.0, 0.5, 0.5, 2.5, 861.0, -2.0, -2.0, -2.0, -2.0, 0.5, -2.0, -2.0, -2.0, 0.5, 0.5, -2.0, -2.0, -2.0, -2.0, 0.5, -2.0, -2.0, -2.0, -2.0, -2.0, 0.5, -2.0, 2.7727272727272725, -2.0, 0.5, -2.0, 5.636363636363637, -2.0, -2.0, -2.0, -2.0, -2.0, -2.0, 3.1818181818181817, -2.0, -2.0, -2.0, -2.0], "node_sample_weight": [5219.0, 3508.0, 1711.0, 1101.0, 2407.0, 1533.0, 178.0, 1039.0, 126.0, 2249.0, 158.0, 890.0, 643.0, 99.0, 156.0, 187.0, 962.0, 270.0, 1979.0, 109.0, 90.0, 82.0, 808.0, 296.0, 347.0, 131.0, 73.0, 362.0, 125.0, 947.0, 2.0, 474.0, 123.0, 1052.0, 941.0, 85.0, 197.0, 1.0, 215.0, 931.0, 208.0, 358.0, 263.0, 120.0, 584.0, 578.0, 2.0, 615.0, 2.0, 963.0, 2.0, 647.0, 43.0, 409.0, 2.0, 579.4420816715051, 630.5579183284949, 2.0, 484.0, 559.0386435311098, 210.96135646889027, 386.22018314286714, 201.77981685713286], "values": [[0.02536884460624641, 0.024631155393753594], [0.024102052451539343, 0.025897947548460663], [0.027966101694915254, 0.02203389830508475], [0.020118074477747504, 0.029881925522252495], [0.025924387203988368, 0.024075612796011635], [0.030887149380300065, 0.019112850619699934], [0.0028089887640449437, 0.04719101123595506], [0.019971126082771896, 0.030028873917228107], [0.02857142857142857, 0.02142857142857143], [0.025055580257892396, 0.024944419742107603], [0.03829113924050633, 0.01170886075949367], 