{"internal_dtype": "<class 'numpy.float64'>", "input_dtype": "<class 'numpy.float64'>", "objective": "binary_crossentropy", "tree_output": "probability", "base_offset": 0, "trees": [{"children_left": [1.0, 3.0, 5.0, 7.0, 9.0, 11.0, 13.0, 15.0, 17.0, 19.0, 21.0, 23.0, 25.0, 27.0, -1.0, 29.0, -1.0, -1.0, -1.0, 31.0, -1.0, 33.0, 35.0, -1.0, -1.0, 37.0, -1.0, 39.0, -1.0, -1.0, 41.0, -1.0, -1.0, 43.0, 45.0, 47.0, -1.0, 49.0, -1.0, -1.0, -1.0, 51.0, -1.0, -1.0, -1.0, -1.0, -1.0, 53.0, 55.0, 57.0, 59.0, 61.0, -1.0, -1.0, -1.0, 63.0, -1.0, 65.0, -1.0, -1.0, -1.0, -1.0, -1.0, -1.0, -1.0, 67.0, -1.0, 69.0, -1.0, -1.0, -1.0], "children_right": [2.0, 4.0, 6.0, 8.0, 10.0, 12.0, 14.0, 16.0, 18.0, 20.0, 22.0, 24.0, 26.0, 28.0, -1.0, 30.0, -1.0, -1.0, -1.0, 32.0, -1.0, 34.0, 36.0, -1.0, -1.0, 38.0, -1.0, 40.0, -1.0, -1.0, 42.0, -1.0, -1.0, 44.0, 46.0, 48.0, -1.0, 50.0, -1.0, -1.0, -1.0, 52.0, -1.0, -1.0, -1.0, -1.0, -1.0, 54.0, 56.0, 58.0, 60.0, 62.0, -1.0, -1.0, -1.0, 64.0, -1.0, 66.0, -1.0, -1.0, -1.0, -1.0, -1.0, -1.0, -1.0, 68.0, -1.0, 70.0, -1.0, -1.0, -1.0], "features": [1.0, 0.0, 7.0, 7.0, 6.0, 0.0, 2.0, 8.0, 3.0, 2.0, 0.0, 3.0, 3.0, 0.0, -2.0, 6.0, -2.0, -2.0, -2.0, 2.0, -2.0, 0.0, 3.0, -2.0, -2.0, 4.0, -2.0, 0.0, -2.0, -2.0, 3.0, -2.0, -2.0, 3.0, 3.0, 8.0, -2.0, 5.0, -2.0, -2.0, -2.0, 8.0, -2.0, -2.0, -2.0, -2.0, -2.0, 0.0, 1.0, 0.0, 2.0, 8.0, -2.0, -2.0, -2.0, 2.0, -2.0, 1.0, -2.0, -2.0, -2.0, -2.0, -2.0, -2.0, -2.0, 1.0, -2.0, 0.0, -2.0, -2.0, -2.0], "thresholds": [563.5, 0.5, 0.5, 0.5, 0.5, 1.5, 4.25, 0.5, 0.5, 2.899999976158142, 2.5, 0.5, 0.5, 4.5, -2.0, 0.5, -2.0, -2.0, -2.0, 1.1650000214576721, -2.0, 1.5, 0.5, -2.0, -2.0, 0.5, -2.0, 3.298858642578125, -2.0, -2.0, 0.5, -2.0, -2.0, 0.5, 0.5, 0.5, -2.0, 0.5, -2.0, -2.0, -2.0, 0.5, -2.0, -2.0, -2.0, -2.0, -2.0, 5.909090909090909, 286.54545454545456, 4.090909090909091, 2.909090909090909, 0.5, -2.0, -2.0, -2.0, 2.909090909090909, -2.0, 1479.0, -2.0, -2.0, -2.0, -2.0, -2.0, -2.0, -2.0, 1277.4545454545455, -2.0, 2.909090909090909, -2.0, -2.0, -2.0], "node_sample_weight": [5219.0, 3237.0, 1982.0, 1076.0, 2161.0, 1696.0, 286.0, 911.0, 165.0, 186.0, 1975.0, 107.0, 1646.0, 224.0, 120.0, 906.0, 5.0, 370.0, 15.0, 110.0, 163.0, 621.0, 1354.0, 73.0, 21.0, 1577.0, 159.0, 183.0, 116.0, 159.0, 923.0, 51.0, 163.0, 294.0, 815.0, 1261.0, 289.0, 1578.0, 8.0, 292.0, 147.0, 967.0, 76.0, 240.0, 80.0, 851.0, 107.0, 446.0, 343.0, 875.0, 80.0, 962.0, 2.0, 823.351869375939, 214.64813062406103, 88.7491078573606, 244.2508921426394, 935.50424802604, 675.49575197396, 38.277738758281764, 47.722261241718236, 562.0, 2.0, 98.05798928911462, 391.94201071088537, 753.2795018556928, 272.72049814430716, 90.36881729712331, 15.631182702876679, 22.987745798675714, 74.01225420132428], "values": [[0.025512550296991763, 0.02448744970300824], [0.032792709298733395, 0.017207290701266607], [0.013622603430877902, 0.0363773965691221], [0.018540892193308553, 0.03145910780669145], [0.039888940305414164, 0.01011105969458584], [0.015713443396226417, 0.03428655660377359], [0.0012237762237762239, 0.04877622377622378], [0.021405049396267837, 0.028594950603732162], [0.0027272727272727275, 0.04727272727272728], [0.0239247311827957, 0.026075268817204303], [0.041392405063291136, 0.008607594936708861], [0.021962616822429906, 0.028037383177570093], [0.015249088699878495, 0.034750911300121506], [0.0015625, 0.04843750000000001], [0.004583333333333333, 0.04541666666666667], [0.02152317880794702, 0.02847682119205298], [0.0, 0.05], [0.0016216216216216218, 0.048378378378378384], [0.02666666666666667, 0.023333333333333334], [0.030909090909090914, 0.019090909090909092], [0.016257668711656445, 0.03374233128834356], [0.04516908212560387, 0.004830917874396135], [0.0396602658788774, 0.0103397341211226], [0.0136986301369863, 0.0363013698630137], [0.045238095238095244, 0.004761904761904762], [0.014552948636651873, 0.03544705136334813], [0.030188679245283023, 0.019811320754716984], [0.0019125683060109292, 0.048087431693989074], [0.0, 0.05], [0.03238993710691824, 0.017610062893081764], [0.020801733477789817, 0.02919826652221019], [0.03725490196078431, 0.012745098039215686], [0.02883435582822086, 0.021165644171779144], [0.047619047619047616, 0.002380952380952381], [0.044355828220858894, 0.005644171779141105], [0.03909595559080096, 0.010904044409199048], [0.04705882352941177, 0.0029411764705882357], [0.014638783269961979, 0.035361216730038024], [0.037500000000000006, 0.0125], [0.0018835616438356165, 0.04811643835616439], [0.004761904761904762, 0.045238095238095244], [0.024405377456049638, 0.02559462254395036], [0.028947368421052635, 0.021052631578947368], [0.038125, 0.011875], [0.04625, 0.0037500000000000007], [0.03807285546415981, 0.011927144535840189], [0.04205607476635514, 0.007943925233644861], [0.023766816143497762, 0.026233183856502244], [0.02434402332361516, 0.02565597667638484], [0.024114285714285717, 0.02588571428571429], [0.02375, 0.026250000000000002], [0.02255717255717256, 0.027442827442827444], [0.025, 0.025], [0.039229886032179466, 0.010770113967820535], [0.035639723382442874, 0.01436027661755713], [0.04098582487966216, 0.009014175120337847], [0.04201640582397045, 0.00798359417602956], [0.016862790772557663, 0.03313720922744234], [0.01617299230494516, 0.033827007695054846], [0.034325092874766955, 0.01567490712523305], [0.011234024711663246, 0.03876597528833676], [0.017971530249110322, 0.03202846975088968], [0.025, 0.025], [0.04181199339006985, 0.008188006609930154], [0.04043965578288493, 0.00956034421711508], [0.014494588292224738, 0.03550541170777527], [0.018816054482689824, 0.03118394551731018], [0.010512475745660126, 0.03948752425433988], [0.02878860854957472, 0.021211391450425283], [0.023899137164003048, 0.026100862835996955], [0.005412788927850899, 0.04458721107214911]], "children_default": [1.0, 3.0, 5.0, 7.0, 9.0, 11.0, 13.0, 15.0, 17.0, 19.0, 21.0, 23.0, 25.0, 27.0, -1.0, 29.0, -1.0, -1.0, -1.0, 31.0, -1.0, 33.0, 35.0, -1.0, -1.0, 37.0, -1.0, 39.0, -1.0, -1.0, 41.0, -1.0, -1.0, 43.0, 45.0, 47.0, -1.0, 49.0, -1.0, -1.0, -1.0, 51.0, -1.0, -1.0, -1.0, -1.0, -1.0, 53.0, 55.0, 57.0, 59.0, 61.0, -1.0, -1.0, -1.0, 63.0, -1.0, 65.0, -1.0, -1.0, -1.0, -1.0, -1.0, -1.0, -1.0, 67.0, -1.0, 69.0, -1.0, -1.0, -1.0]}, {"children_left": [1.0, 3.0, 5.0, 7.0, 9.0, 11.0, 13.0, 15.0, 17.0, 19.0, 21.0, 23.0, -1.0, 25.0, 27.0, -1.0, -1.0, 29.0, 31.0, 33.0, -1.0, 35.0, 37.0, -1.0, 39.0, 41.0, -1.0, 43.0, 45.0, -1.0, -1.0, -1.0, -1.0, 47.0, -1.0, 49.0, -1.0, -1.0, -1.0, -1.0, -1.0, -1.0, -1.0, -1.0, 51.0, -1.0, -1.0, 53.0, -1.0, 55.0, -1.0, -1.0, 57.0, -1.0, -1.0, 59.0, -1.0, -1.0, -1.0, 61.0, -1.0, 63.0, -1.0, 65.0, -1.0, 67.0, -1.0, -1.0, -1.0], "children_right": [2.0, 4.0, 6.0, 8.0, 10.0, 12.0, 14.0, 16.0, 18.0, 20.0, 22.0, 24.0, -1.0, 26.0, 28.0, -1.0, -1.0, 30.0, 32.0, 34.0, -1.0, 36.0, 38.0, -1.0, 40.0, 42.0, -1.0, 44.0, 46.0, -1.0, -1.0, -1.0, -1.0, 48.0, -1.0, 50.0, -1.0, -1.0, -1.0, -1.0, -1.0, -1.0, -1.0, -1.0, 52.0, -1.0, -1.0, 54.0, -1.0, 56.0, -1.0, -1.0, 58.0, -1.0, -1.0, 60.0, -1.0, -1.0, -1.0, 62.0, -1.0, 64.0, -1.0, 66.0, -1.0, 68.0, -1.0, -1.0, -1.0], "features": [1.0, 6.0, 6.0, 7.0, 2.0, 5.0, 0.0, 1.0, 1.0, 3.0, 3.0, 1.0, -2.0, 3.0, 2.0, -2.0, -2.0, 1.0, 1.0, 8.0, -2.0, 1.0, 1.0, -2.0, 1.0, 2.0, -2.0, 0.0, 1.0, -2.0, -2.0, -2.0, -2.0, 5.0, -2.0, 7.0, -2.0, -2.0, -2.0, -2.0, -2.0, -2.0, -2.0, -2.0, 6.0, -2.0, -2.0, 7.0, -2.0, 7.0, -2.0, -2.0, 1.0, -2.0, -2.0, 7.0, -2.0, -2.0, -2.0, 2.0, -2.0, 2.0, -2.0, 8.0, -2.0, 2.0, -2.0, -2.0, -2.0], "thresholds": [618.5, 0.5, 0.5, 0.5, 0.5, 0.5, 2.5, 8.0, 26.0, 0.5, 0.5, 786.5, -2.0, 0.5, 5.25, -2.0, -2.0, 0.5, 601.0, 0.5, -2.0, 514.5, 343.5, -2.0, 1265.0, 1.5, -2.0, 3.298858642578125, 833.0, -2.0, -2.0, -2.0, -2.0, 0.5, -2.0, 0.5, -2.0, -2.0, -2.0, -2.0, -2.0, -2.0, -2.0, -2.0, 0.5, -2.0, -2.0, 0.5, -2.0, 0.5, -2.0, -2.0, 1143.8181818181818, -2.0, -2.0, 0.5, -2.0, -2.0, -2.0, 4.636363636363637, -2.0, 4.027272727272727, -2.0, 0.5, -2.0, 1.2727272727272727, -2.0, -2.0, -2.0], "node_sample_weight": [5219.0, 3289.0, 1930.0, 411.0, 2878.0, 326.0, 1604.0, 109.0, 302.0, 859.0, 2019.0, 287.0, 102.0, 428.0, 1176.0, 173.0, 149.0, 188.0, 114.0, 955.0, 100.0, 1820.0, 199.0, 77.0, 249.0, 411.0, 45.0, 1010.0, 166.0, 408.0, 25.0, 209.0, 7.0, 951.0, 2.0, 1738.0, 228.0, 446.0, 111.0, 264.0, 293.0, 163.0, 677.0, 657.0, 946.0, 28.0, 274.0, 585.0, 2.0, 1016.0, 2.0, 2.0, 677.0, 462.0, 2.0, 947.0, 2.0, 368.8715613500252, 387.1284386499748, 946.0, 2.0, 951.5064935360589, 263.4935064639411, 925.8137865319075, 37.18621346809255, 99.0, 82.0, 43.81623483639453, 80.18376516360547], "values": [[0.025330523088714318, 0.02466947691128569], [0.033216783216783216, 0.016783216783216783], [0.01189119170984456, 0.03810880829015544], [0.015206812652068127, 0.034793187347931874], [0.035788742182070885, 0.01421125781792912], [0.002147239263803681, 0.04785276073619632], [0.013871571072319202, 0.0361284289276808], [0.04128440366972477, 0.00871559633027523], [0.005794701986754967, 0.04420529801324504], [0.021653084982537835, 0.028346915017462167], [0.041802872709262015, 0.00819712729073799], [0.0013937282229965157, 0.04860627177700349], [0.016176470588235296, 0.03382352941176471], [0.01880841121495327, 0.031191588785046732], [0.01207482993197279, 0.03792517006802721], [0.03265895953757226, 0.017341040462427744], [0.03691275167785235, 0.013087248322147652], [0.0026595744680851063, 0.04734042553191489], [0.010964912280701754, 0.03903508771929825], [0.022879581151832463, 0.02712041884816754], [0.021, 0.029000000000000005], [0.04104395604395605, 0.008956043956043956], [0.04874371859296483, 0.001256281407035176], [0.005844155844155844, 0.044155844155844164], [0.0006024096385542169, 0.04939759036144579], [0.018126520681265208, 0.0318734793187348], [0.04111111111111111, 0.008888888888888889], [0.011287128712871287, 0.03871287128712871], [0.016867469879518072, 0.03313253012048193], [0.0024509803921568627, 0.04754901960784314], [0.0, 0.05], [0.014354066985645933, 0.03564593301435407], [0.05, 0.0], [0.02308096740273397, 0.026919032597266038], [0.025, 0.025], [0.041800920598388955, 0.008199079401611048], [0.032017543859649125, 0.01798245614035088], [0.04887892376681614, 0.0011210762331838565], [0.0454954954954955, 0.0045045045045045045], [0.0005681818181818183, 0.04943181818181819], [0.0020477815699658708, 0.04795221843003413], [0.0098159509202454, 0.040184049079754605], [0.0223781388478582, 0.0276218611521418], [0.014764079147640793, 0.035235920852359215], [0.010887949260042284, 0.039112050739957716], [0.025, 0.025], [0.015693430656934307, 0.034306569343065696], [0.02341880341880342, 0.026581196581196582], [0.025, 0.025], [0.02332677165354331, 0.026673228346456693], [0.025, 0.025], [0.025, 0.025], [0.018611521418020683, 0.03138847858197932], [0.017965367965367966, 0.032034632034632034], [0.025, 0.025], [0.041446673706441395, 0.008553326293558606], [0.025, 0.025], [0.010708334319792718, 0.03929166568020728], [0.012398985764876753, 0.03760101423512325], [0.041966173361522204, 0.008033826638477801], [0.025, 0.025], [0.040173477465978366, 0.009826522534021642], [0.042978954112278395, 0.0070210458877216055], [0.0394687245514852, 0.010531275448514801], [0.0486554156678818, 0.0013445843321181993], [0.044949494949494954, 0.005050505050505051], [0.042682926829268296, 0.007317073170731709], [0.0169072432760561, 0.033092756723943906], [0.038152215126570355, 0.011847784873429648]], "children_default": [1.0, 3.0, 5.0, 7.0, 9.0, 11.0, 13.0, 15.0, 17.0, 19.0, 21.0, 23.0, -1.0, 25.0, 27.0, -1.0, -1.0, 29.0, 31.0, 33.0, -1.0, 35.0, 37.0, -1.0, 39.0, 41.0, -1.0, 43.0, 45.0, -1.0, -1.0, -1.0, -1.0, 47.0, -1.0, 49.0, -1.0, -1.0, -1.0, -1.0, -1.0, -1.0, -1.0, -1.0, 51.0, -1.0, -1.0, 53.0, -1.0, 55.0, -1.0, -1.0, 57.0, -1.0, -1.0, 59.0, -1.0, -1.0, -1.0, 61.0, -1.0, 63.0, -1.0, 65.0, -1.0, 67.0, -1.0, -1.0, -1.0]}, {"children_left": [1.0, 3.0, 5.0, 7.0, 9.0, 11.0, 13.0, 15.0, -1.0, 17.0, 19.0, 21.0, 23.0, 25.0, -1.0, 27.0, -1.0, 29.0, 31.0, 33.0, 35.0, -1.0, -1.0, -1.0, 37.0, -1.0, 39.0, 41.0, -1.0, 43.0, -1.0, -1.0, -1.0, -1.0, 45.0, -1.0, -1.0, -1.0, -1.0, -1.0, -1.0, 47.0, -1.0, 49.0, -1.0, -1.0, 51.0, 53.0, -1.0, 55.0, -1.0, 57.0, -1.0, -1.0, -1.0, -1.0, 59.0, -1.0, -1.0, -1.0, -1.0], "children_right": [2.0, 4.0, 6.0, 8.0, 10.0, 12.0, 14.0, 16.0, -1.0, 18.0, 20.0, 22.0, 24.0, 26.0, -1.0, 28.0, -1.0, 30.0, 32.0, 34.0, 36.0, -1.0, -1.0, -1.0, 38.0, -1.0, 40.0, 42.0, -1.0, 44.0, -1.0, -1.0, -1.0, -1.0, 46.0, -1.0, -1.0, -1.0, -1.0, -1.0, -1.0, 48.0, -1.0, 50.0, -1.0, -1.0, 52.0, 54.0, -1.0, 56.0, -1.0, 58.0, -1.0, -1.0, -1.0, -1.0, 60.0, -1.0, -1.0, -1.0, -1.0], "features": [7.0, 0.0, 2.0, 5.0, 1.0, 0.0, 2.0, 3.0, -2.0, 1.0, 8.0, 3.0, 1.0, 0.0, -2.0, 8.0, -2.0, 3.0, 8.0, 1.0, 0.0, -2.0, -2.0, -2.0, 1.0, -2.0, 1.0, 7.0, -2.0, 4.0, -2.0, -2.0, -2.0, -2.0, 6.0, -2.0, -2.0, -2.0, -2.0, -2.0, -2.0, 4.0, -2.0, 1.0, -2.0, -2.0, 7.0, 3.0, -2.0, 0.0, -2.0, 0.0, -2.0, -2.0, -2.0, -2.0, 1.0, -2.0, -2.0, -2.0, -2.0], "thresholds": [0.5, 0.5, 2.4828150272369385, 0.5, 564.0, 0.5, 6.75, 0.5, -2.0, 421.5, 0.5, 0.5, 418.0, 3.5, -2.0, 0.5, -2.0, 0.5, 0.5, 774.5, 3.5, -2.0, -2.0, -2.0, 777.0, -2.0, 1261.5, 0.5, -2.0, 0.5, -2.0, -2.0, -2.0, -2.0, 0.5, -2.0, -2.0, -2.0, -2.0, -2.0, -2.0, 0.5, -2.0, 220.63636363636363, -2.0, -2.0, 0.5, 0.5, -2.0, 3.0, -2.0, 4.2727272727272725, -2.0, -2.0, -2.0, -2.0, 55.63636363636364, -2.0, -2.0, -2.0, -2.0], "node_sample_weight": [5219.0, 4629.0, 590.0, 943.0, 3686.0, 346.0, 244.0, 898.0, 138.0, 2031.0, 1655.0, 155.0, 191.0, 227.0, 37.0, 836.0, 116.0, 1819.0, 212.0, 1029.0, 626.0, 356.0, 9.0, 77.0, 145.0, 160.0, 168.0, 946.0, 1.0, 1622.0, 516.0, 302.0, 211.0, 287.0, 970.0, 622.0, 778.0, 34.0, 260.0, 247.0, 163.0, 935.0, 2.0, 971.0, 3.0, 58.0, 926.0, 934.0, 10.0, 921.1038624618415, 863.8961375381585, 484.0, 2.0, 534.0, 2.0, 608.2032785122133, 678.7967214877867, 410.02256631923655, 169.97743368076345, 41.034691063359105, 215.9653089366409], "values": [[0.02505269208660663, 0.024947307913393373], [0.02788939295744221, 0.022110607042557788], [0.0027966101694915256, 0.04720338983050848], [0.02168610816542948, 0.02831389183457052], [0.029476397178513296, 0.020523602821486707], [0.004046242774566475, 0.045953757225433524], [0.0010245901639344263, 0.048975409836065575], [0.02121380846325167, 0.028786191536748332], [0.03333333333333334, 0.01666666666666667], [0.04165435745937962, 0.008345642540620384], [0.014531722054380665, 0.03546827794561934], [0.0025806451612903226, 0.04741935483870968], [0.005235602094240838, 0.044764397905759166], [0.000881057268722467, 0.04911894273127754], [0.0013513513513513514, 0.04864864864864865], [0.021291866028708136, 0.028708133971291867], [0.021982758620689657, 0.028017241379310345], [0.04219351291918637, 0.007806487080813634], [0.03702830188679246, 0.012971698113207548], [0.013459669582118564, 0.03654033041788144], [0.016293929712460065, 0.03370607028753994], [0.0018258426966292136, 0.048174157303370796], [0.027777777777777776, 0.022222222222222223], [0.022727272727272728, 0.027272727272727275], [0.0017241379310344827, 0.04827586206896552], [0.008125, 0.041875], [0.00029761904761904765, 0.04970238095238095], [0.022251585623678648, 0.02774841437632135], [0.0, 0.05], [0.04133785450061652, 0.008662145499383477], [0.04854651162790698, 0.0014534883720930232], [0.039735099337748346, 0.010264900662251657], [0.03530805687203792, 0.014691943127962086], [0.025958188153310104, 0.024041811846689895], [0.013298969072164948, 0.036701030927835054], [0.023794212218649517, 0.026205787781350482], [0.013303341902313626, 0.03669665809768637], [0.011764705882352941, 0.03823529411764706], [0.0003846153846153846, 0.04961538461538462], [0.0022267206477732796, 0.04777327935222672], [0.003680981595092025, 0.04631901840490798], [0.0246524064171123, 0.025347593582887705], [0.025, 0.025], [0.023326467559217304, 0.026673532440782702], [0.016666666666666666, 0.03333333333333333], [0.019827586206896553, 0.03017241379310345], [0.019924406047516198, 0.0300755939524838], [0.021038543897216277, 0.028961456102783726], [0.02, 0.030000000000000006], [0.0419447640096762, 0.0080552359903238], [0.03919975375412651, 0.010800246245873498], [0.017148760330578515, 0.03285123966942149], [0.025, 0.025], [0.016947565543071162, 0.03305243445692884], [0.025, 0.025], [0.042215043495705866, 0.007784956504294126], [0.041727768044156115, 0.00827223195584389], [0.010731116678525044, 0.039268883321474955], [0.009707170912457026, 0.040292829087542975], [0.04268911274275738, 0.0073108872572426285], [0.04513810803610109, 0.004861891963898911]], "children_default": [1.0, 3.0, 5.0, 7.0, 9.0, 11.0, 13.0, 15.0, -1.0, 17.0, 19.0, 21.0, 23.0, 25.0, -1.0, 27.0, -1.0, 29.0, 31.0, 33.0, 35.0, -1.0, -1.0, -1.0, 37.0, -1.0, 39.0, 41.0, -1.0, 43.0, -1.0, -1.0, -1.0, -1.0, 45.0, -1.0, -1.0, -1.0, -1.0, -1.0, -1.0, 47.0, -1.0, 49.0, -1.0, -1.0, 51.0, 53.0, -1.0, 55.0, -1.0, 57.0, -1.0, -1.0, -1.0, -1.0, 59.0, -1.0, -1.0, -1.0, -1.0]}, {"children_left": [1.0, 3.0, 5.0, 7.0, 9.0, 11.0, 13.0, 15.0, 17.0, 19.0, -1.0, 21.0, 23.0, 25.0, 27.0, 29.0, -1.0, -1.0, 31.0, 33.0, -1.0, 35.0, -1.0, 37.0, 39.0, 41.0, 43.0, 45.0, -1.0, -1.0, -1.0, -1.0, -1.0, -1.0, -1.0, 47.0, -1.0, 49.0, -1.0, -1.0, 51.0, -1.0, -1.0, -1.0, -1.0, 53.0, -1.0, -1.0, 55.0, 57.0, -1.0, 59.0, 61.0, -1.0, 63.0, -1.0, -1.0, 65.0, -1.0, 67.0, -1.0, -1.0, -1.0, 69.0, -1.0, 71.0, -1.0, -1.0, -1.0, -1.0, 73.0, -1.0, -1.0, -1.0, -1.0], "children_right": [2.0, 4.0, 6.0, 8.0, 10.0, 12.0, 14.0, 16.0, 18.0, 20.0, -1.0, 22.0, 24.0, 26.0, 28.0, 30.0, -1.0, -1.0, 32.0, 34.0, -1.0, 36.0, -1.0, 38.0, 40.0, 42.0, 44.0, 46.0, -1.0, -1.0, -1.0, -1.0, -1.0, -1.0, -1.0, 48.0, -1.0, 50.0, -1.0, -1.0, 52.0, -1.0, -1.0, -1.0, -1.0, 54.0, -1.0, -1.0, 56.0, 58.0, -1.0, 60.0, 62.0, -1.0, 64.0, -1.0, -1.0, 66.0, -1.0, 68.0, -1.0, -1.0, -1.0, 70.0, -1.0, 72.0, -1.0, -1.0, -1.0, -1.0, 74.0, -1.0, -1.0, -1.0, -1.0], "features": [6.0, 5.0, 8.0, 0.0, 2.0, 2.0, 0.0, 3.0, 1.0, 1.0, -2.0, 3.0, 1.0, 1.0, 3.0, 0.0, -2.0, -2.0, 1.0, 3.0, -2.0, 8.0, -2.0, 2.0, 1.0, 0.0, 0.0, 1.0, -2.0, -2.0, -2.0, -2.0, -2.0, -2.0, -2.0, 6.0, -2.0, 3.0, -2.0, -2.0, 3.0, -2.0, -2.0, -2.0, -2.0, 6.0, -2.0, -2.0, 8.0, 1.0, -2.0, 1.0, 2.0, -2.0, 0.0, -2.0, -2.0, 5.0, -2.0, 1.0, -2.0, -2.0, -2.0, 1.0, -2.0, 0.0, -2.0, -2.0, -2.0, -2.0, 1.0, -2.0, -2.0, -2.0, -2.0], "thresholds": [0.5, 0.5, 0.5, 3.798858642578125, 2.2328150272369385, 0.5, 2.5, 0.5, 413.0, 822.5, -2.0, 0.5, 547.5, 752.0, 0.5, 0.5, -2.0, -2.0, 1261.5, 0.5, -2.0, 0.5, -2.0, 12.0, 774.0, 0.5, 1.5, 550.5, -2.0, -2.0, -2.0, -2.0, -2.0, -2.0, -2.0, 0.5, -2.0, 0.5, -2.0, -2.0, 0.5, -2.0, -2.0, -2.0, -2.0, 0.5, -2.0, -2.0, 0.5, 437.09090909090907, -2.0, 1503.3636363636363, 2.590909090909091, -2.0, 9.818181818181817, -2.0, -2.0, 0.5, -2.0, 1341.5454545454545, -2.0, -2.0, -2.0, 132.0909090909091, -2.0, 1.8181818181818183, -2.0, -2.0, -2.0, -2.0, 347.5454545454545, -2.0, -2.0, -2.0, -2.0], "node_sample_weight": [5219.0, 749.0, 4470.0, 586.0, 163.0, 2966.0, 1504.0, 376.0, 210.0, 98.0, 143.0, 877.0, 2089.0, 478.0, 1026.0, 369.0, 13.0, 88.0, 160.0, 82.0, 41.0, 925.0, 115.0, 1091.0, 998.0, 345.0, 133.0, 949.0, 257.0, 378.0, 422.0, 185.0, 175.0, 201.0, 19.0, 936.0, 2.0, 1095.0, 10.0, 306.0, 932.0, 3.0, 755.0, 35.0, 265.0, 953.0, 923.0, 2.0, 940.0, 926.0, 194.0, 577.0, 80.0, 2.0, 927.0, 586.0, 2.0, 926.7039482138207, 95.2960517861793, 192.27299854563427, 303.72700145436573, 26.993998757016158, 26.006001242983842, 240.78815505752146, 48.211844942478535, 851.0, 2.0, 567.4705593998348, 96.5294406001652, 36.980409377926684, 96.01959062207331, 21.953244207390526, 307.0467557926095, 53.0, 8.0], "values": [[0.02512933512167082, 0.024870664878329184], [0.010280373831775701, 0.0397196261682243], [0.02761744966442953, 0.022382550335570472], [0.0040955631399317415, 0.045904436860068266], [0.03251533742331289, 0.017484662576687116], [0.025910316925151722, 0.02408968307484828], [0.03098404255319149, 0.01901595744680851], [0.0050531914893617025, 0.0449468085106383], [0.002380952380952381, 0.047619047619047616], [0.03826530612244898, 0.011734693877551022], [0.02377622377622378, 0.026223776223776224], [0.020182440136830102, 0.0298175598631699], [0.028314983245572047, 0.02168501675442796], [0.03671548117154812, 0.013284518828451884], [0.02831384015594542, 0.02168615984405458], [0.004607046070460705, 0.04539295392953929], [0.038461538461538464, 0.01153846153846154], [0.007954545454545455, 0.042045454545454546], [0.0003125, 0.0496875], [0.04085365853658537, 0.009146341463414634], [0.024390243902439025, 0.025609756097560978], [0.02108108108108108, 0.02891891891891892], [0.023043478260869568, 0.026956521739130435], [0.04078826764436297, 0.00921173235563703], [0.01467935871743487, 0.03532064128256513], [0.043623188405797104, 0.006376811594202899], [0.018796992481203006, 0.031203007518796996], [0.02713382507903056, 0.022866174920969446], [0.045914396887159536, 0.004085603112840467], [0.002248677248677249, 0.04775132275132275], [0.007464454976303318, 0.04253554502369668], [0.0029729729729729734, 0.04702702702702703], [0.004285714285714286, 0.045714285714285714], [0.034328358208955224, 0.01567164179104478], [0.04736842105263158, 0.002631578947368421], [0.024732905982905985, 0.02526709401709402], [0.025, 0.025], [0.040639269406392696, 0.009360730593607305], [0.04, 0.01], [0.02434640522875817, 0.025653594771241833], [0.014484978540772532, 0.03551502145922747], [0.0, 0.05000000000000001], [0.04443708609271524, 0.005562913907284768], [0.02428571428571429, 0.025714285714285714], [0.02490566037735849, 0.02509433962264151], [0.040818467995802736, 0.009181532004197272], [0.012946912242686891, 0.03705308775731311], [0.025, 0.025], [0.022393617021276596, 0.027606382978723407], [0.02975161987041037, 0.020248380129589634], [0.04329896907216495, 0.006701030927835052], [0.0195840554592721, 0.030415944540727904], [0.02, 0.030000000000000006], [0.025, 0.025], [0.03538295577130529, 0.014617044228694715], [0.01808873720136519, 0.031911262798634814], [0.025, 0.025], [0.03937093122459938, 0.010629068775400628], [0.04422851220285534, 0.005771487797144667], [0.004680844459740368, 0.04531915554025963], [0.020083825181135603, 0.029916174818864404], [0.04260206167865727, 0.007397938321342733], [0.0019226331465891744, 0.04807736685341083], [0.04460106333017318, 0.005398936669826825], [0.04066619415753755, 0.009333805842462453], [0.0400117508813161, 0.0099882491186839], [0.025, 0.025], [0.010879027762287712, 0.0391209722377123], [0.012187701728028527, 0.03781229827197148], [0.03242312589465329, 0.017576874105346706], [0.04635491051635934, 0.0036450894836406525], [0.0022775677037823678, 0.047722432296217636], [0.04022188727615686, 0.009778112723843145], [0.04905660377358491, 0.0009433962264150943], [0.00625, 0.043750000000000004]], "children_default": [1.0, 3.0, 5.0, 7.0, 9.0, 11.0, 13.0, 15.0, 17.0, 19.0, -1.0, 21.0, 23.0, 25.0, 27.0, 29.0, -1.0, -1.0, 31.0, 33.0, -1.0, 35.0, -1.0, 37.0, 39.0, 41.0, 43.0, 45.0, -1.0, -1.0, -1.0, -1.0, -1.0, -1.0, -1.0, 47.0, -1.0, 49.0, -1.0, -1.0, 51.0, -1.0, -1.0, -1.0, -1.0, 53.0, -1.0, -1.0, 55.0, 57.0, -1.0, 59.0, 61.0, -1.0, 63.0, -1.0, -1.0, 65.0, -1.0, 67.0, -1.0, -1.0, -1.0, 69.0, -1.0, 71.0, -1.0, -1.0, -1.0, -1.0, 73.0, -1.0, -1.0, -1.0, -1.0]}, {"children_left": [1.0, 3.0, 5.0, 7.0, 9.0, 11.0, 13.0, 15.0, 17.0, 19.0, 21.0, 23.0, -1.0, 25.0, -1.0, 27.0, -1.0, -1.0, -1.0, 29.0, 31.0, 33.0, -1.0, 35.0, 37.0, 39.0, 41.0, 43.0, -1.0, -1.0, 45.0, -1.0, -1.0, -1.0, -1.0, -1.0, -1.0, -1.0, -1.0, -1.0, -1.0, 47.0, 49.0, 51.0, -1.0, 53.0, -1.0, 55.0, -1.0, -1.0, -1.0, -1.0, 57.0, 59.0, -1.0, 61.0, -1.0, 63.0, -1.0, 65.0, -1.0, -1.0, -1.0, -1.0, -1.0, 67.0, -1.0, 69.0, -1.0, -1.0, -1.0], "children_right": [2.0, 4.0, 6.0, 8.0, 10.0, 12.0, 14.0, 16.0, 18.0, 20.0, 22.0, 24.0, -1.0, 26.0, -1.0, 28.0, -1.0, -1.0, -1.0, 30.0, 32.0, 34.0, -1.0, 36.0, 38.0, 40.0, 42.0, 44.0, -1.0, -1.0, 46.0, -1.0, -1.0, -1.0, -1.0, -1.0, -1.0, -1.0, -1.0, -1.0, -1.0, 48.0, 50.0, 52.0, -1.0, 54.0, -1.0, 56.0, -1.0, -1.0, -1.0, -1.0, 58.0, 60.0, -1.0, 62.0, -1.0, 64.0, -1.0, 66.0, -1.0, -1.0, -1.0, -1.0, -1.0, 68.0, -1.0, 70.0, -1.0, -1.0, -1.0], "features": [1.0, 0.0, 6.0, 7.0, 1.0, 5.0, 3.0, 8.0, 3.0, 3.0, 7.0, 0.0, -2.0, 2.0, -2.0, 3.0, -2.0, -2.0, -2.0, 6.0, 2.0, 1.0, -2.0, 0.0, 2.0, 1.0, 8.0, 5.0, -2.0, -2.0, 5.0, -2.0, -2.0, -2.0, -2.0, -2.0, -2.0, -2.0, -2.0, -2.0, -2.0, 8.0, 7.0, 6.0, -2.0, 2.0, -2.0, 1.0, -2.0, -2.0, -2.0, -2.0, 8.0, 2.0, -2.0, 1.0, -2.0, 5.0, -2.0, 8.0, -2.0, -2.0, -2.0, -2.0, -2.0, 0.0, -2.0, 0.0, -2.0, -2.0, -2.0], "thresholds": [714.5, 0.5, 0.5, 0.5, 518.5, 0.5, 0.5, 0.5, 0.5, 0.5, 0.5, 3.298858642578125, -2.0, 1.3650000095367432, -2.0, 0.5, -2.0, -2.0, -2.0, 0.5, 7.5, 523.5, -2.0, 2.5, 3.75, 1488.5, 0.5, 0.5, -2.0, -2.0, 0.5, -2.0, -2.0, -2.0, -2.0, -2.0, -2.0, -2.0, -2.0, -2.0, -2.0, 0.5, 0.5, 0.5, -2.0, 4.818181818181818, -2.0, 1544.090909090909, -2.0, -2.0, -2.0, -2.0, 0.5, 3.5454545454545454, -2.0, 1019.2727272727273, -2.0, 0.5, -2.0, 0.5, -2.0, -2.0, -2.0, -2.0, -2.0, 5.545454545454545, -2.0, 4.272727272727273, -2.0, -2.0, -2.0], "node_sample_weight": [5219.0, 3389.0, 1830.0, 1094.0, 2295.0, 339.0, 1491.0, 923.0, 171.0, 2082.0, 213.0, 304.0, 96.0, 1422.0, 193.0, 921.0, 2.0, 375.0, 15.0, 1903.0, 179.0, 187.0, 58.0, 117.0, 187.0, 93.0, 1329.0, 922.0, 110.0, 345.0, 1752.0, 456.0, 30.0, 32.0, 408.0, 154.0, 90.0, 205.0, 206.0, 181.0, 36.0, 951.0, 967.0, 959.0, 103.0, 1017.0, 2.0, 648.0, 2.0, 874.0, 2.0, 6.0, 964.0, 970.0413036295274, 386.9586963704725, 87.06642112747792, 204.93357887252208, 481.0, 2.0, 844.4496922929192, 311.55030770708083, 196.0, 361.0, 214.0, 2.0, 185.0, 426.0, 181.90139394020125, 75.09860605979877, 285.0, 11.0], "values": [[0.025531711055757807, 0.024468288944242193], [0.03331366184715255, 0.01668633815284745], [0.011120218579234974, 0.03887978142076503], [0.01969835466179159, 0.030301645338208408], [0.03980392156862746, 0.01019607843137255], [0.0028023598820059, 0.0471976401179941], [0.013011401743796112, 0.036988598256203896], [0.022535211267605635, 0.027464788732394368], [0.0043859649122807015, 0.0456140350877193], [0.04104226705091259, 0.008957732949087418], [0.027699530516431925, 0.022300469483568074], [0.0011513157894736843, 0.04884868421052632], [0.019270833333333334, 0.03072916666666667], [0.012271448663853726, 0.03772855133614628], [0.03238341968911917, 0.01761658031088083], [0.02258414766558089, 0.027415852334419108], [0.0, 0.05], [0.0024000000000000002, 0.0476], [0.023333333333333334, 0.02666666666666667], [0.04040987913820284, 0.009590120861797162], [0.047765363128491625, 0.00223463687150838], [0.03128342245989305, 0.01871657754010695], [0.0060344827586206904, 0.043965517241379315], [0.0025641025641025645, 0.04743589743589744], [0.00026737967914438503, 0.04973262032085562], [0.006989247311827957, 0.043010752688172046], [0.012641083521444696, 0.03735891647855531], [0.0227765726681128, 0.027223427331887203], [0.02727272727272727, 0.022727272727272728], [0.02463768115942029, 0.025362318840579712], [0.04175228310502283, 0.00824771689497717], [0.04901315789473684, 0.000986842105263158], [0.04666666666666667, 0.0033333333333333335], [0.015625, 0.034375], [0.03075980392156863, 0.019240196078431374], [0.0009740259740259741, 0.04902597402597403], [0.001666666666666667, 0.04833333333333334], [0.0, 0.05], [0.003155339805825243, 0.046844660194174756], [0.006077348066298343, 0.04392265193370166], [0.018055555555555557, 0.03194444444444445], [0.01267087276550999, 0.03732912723449001], [0.014064115822130302, 0.0359358841778697], [0.024244004171011472, 0.025755995828988534], [0.02718446601941748, 0.022815533980582524], [0.022664700098328418, 0.027335299901671585], [0.025, 0.025], [0.020756172839506176, 0.029243827160493827], [0.025, 0.025], [0.018821510297482837, 0.031178489702517163], [0.025, 0.025], [0.025000000000000005, 0.025000000000000005], [0.023495850622406642, 0.02650414937759336], [0.042680724033673116, 0.007319275966326885], [0.04030904322561143, 0.00969095677438857], [0.004594193660657555, 0.04540580633934245], [0.02025046370063877, 0.029749536299361234], [0.020582120582120583, 0.02941787941787942], [0.025, 0.025], [0.04387288985019222, 0.006127110149807779], [0.03900349755850318, 0.010996502441496818], [0.009693877551020408, 0.040306122448979596], [0.01191135734072022, 0.038088642659279776], [0.019626168224299065, 0.030373831775700934], [0.025, 0.025], [0.032432432432432434, 0.01756756756756757], [0.04553990610328639, 0.004460093896713616], [0.04322267347005803, 0.006777326529941966], [0.020476218223675638, 0.02952378177632437], [0.037719298245614034, 0.012280701754385965], [0.022727272727272728, 0.02727272727272728]], "children_default": [1.0, 3.0, 5.0, 7.0, 9.0, 11.0, 13.0, 15.0, 17.0, 19.0, 21.0, 23.0, -1.0, 25.0, -1.0, 27.0, -1.0, -1.0, -1.0, 29.0, 31.0, 33.0, -1.0, 35.0, 37.0, 39.0, 41.0, 43.0, -1.0, -1.0, 45.0, -1.0, -1.0, -1.0, -1.0, -1.0, -1.0, -1.0, -1.0, -1.0, -1.0, 47.0, 49.0, 51.0, -1.0, 53.0, -1.0, 55.0, -1.0, -1.0, -1.0, -1.0, 57.0, 59.0, -1.0, 61.0, -1.0, 63.0, -1.0, 65.0, -1.0, -1.0, -1.0, -1.0, -1.0, 67.0, -1.0, 69.0, -1.0, -1.0, -1.0]}, {"children_left": [1.0, 3.0, 5.0, 7.0, 9.0, 11.0, 13.0, 15.0, 17.0, 19.0, -1.0, 21.0, -1.0, 23.0, 25.0, 27.0, 29.0, -1.0, 31.0, -1.0, 33.0, 35.0, -1.0, 37.0, 39.0, 41.0, 43.0, 45.0, -1.0, -1.0, -1.0, -1.0, -1.0, -1.0, -1.0, -1.0, 47.0, -1.0, 49.0, -1.0, 51.0, 53.0, 55.0, -1.0, -1.0, -1.0, -1.0, 57.0, -1.0, 59.0, -1.0, 61.0, 63.0, 65.0, -1.0, 67.0, -1.0, -1.0, -1.0, -1.0, 69.0, -1.0, -1.0, -1.0, 71.0, -1.0, -1.0, -1.0, -1.0, -1.0, -1.0, -1.0, -1.0], "children_right": [2.0, 4.0, 6.0, 8.0, 10.0, 12.0, 14.0, 16.0, 18.0, 20.0, -1.0, 22.0, -1.0, 24.0, 26.0, 28.0, 30.0, -1.0, 32.0, -1.0, 34.0, 36.0, -1.0, 38.0, 40.0, 42.0, 44.0, 46.0, -1.0, -1.0, -1.0, -1.0, -1.0, -1.0, -1.0, -1.0, 48.0, -1.0, 50.0, -1.0, 52.0, 54.0, 56.0, -1.0, -1.0, -1.0, -1.0, 58.0, -1.0, 60.0, -1.0, 62.0, 64.0, 66.0, -1.0, 68.0, -1.0, -1.0, -1.0, -1.0, 70.0, -1.0, -1.0, -1.0, 72.0, -1.0, -1.0, -1.0, -1.0, -1.0, -1.0, -1.0, -1.0], "features": [6.0, 5.0, 2.0, 8.0, 0.0, 3.0, 1.0, 1.0, 0.0, 2.0, -2.0, 8.0, -2.0, 0.0, 3.0, 1.0, 0.0, -2.0, 1.0, -2.0, 0.0, 6.0, -2.0, 1.0, 2.0, 2.0, 2.0, 5.0, -2.0, -2.0, -2.0, -2.0, -2.0, -2.0, -2.0, -2.0, 8.0, -2.0, 3.0, -2.0, 8.0, 7.0, 8.0, -2.0, -2.0, -2.0, -2.0, 7.0, -2.0, 1.0, -2.0, 2.0, 2.0, 2.0, -2.0, 2.0, -2.0, -2.0, -2.0, -2.0, 2.0, -2.0, -2.0, -2.0, 1.0, -2.0, -2.0, -2.0, -2.0, -2.0, -2.0, -2.0, -2.0], "thresholds": [0.5, 0.5, 0.5, 0.5, 4.5, 0.5, 564.0, 714.0, 3.5, 0.5, -2.0, 0.5, -2.0, 2.5, 0.5, 708.0, 4.5, -2.0, 416.5, -2.0, 2.5, 0.5, -2.0, 71.0, 1.2900000214576721, 2.365000009536743, 1.7099999785423279, 0.5, -2.0, -2.0, -2.0, -2.0, -2.0, -2.0, -2.0, -2.0, 0.5, -2.0, 0.5, -2.0, 0.5, 0.5, 0.5, -2.0, -2.0, -2.0, -2.0, 0.5, -2.0, 193.36363636363637, -2.0, 2.7727272727272725, 2.3909090909090907, 1.1818181818181819, -2.0, 5.43579822616408, -2.0, -2.0, -2.0, -2.0, 1.0909090909090908, -2.0, -2.0, -2.0, 72.36363636363637, -2.0, -2.0, -2.0, -2.0, -2.0, -2.0, -2.0, -2.0], "node_sample_weight": [5219.0, 772.0, 4447.0, 624.0, 148.0, 853.0, 3594.0, 460.0, 164.0, 118.0, 61.0, 791.0, 105.0, 1996.0, 1598.0, 273.0, 187.0, 148.0, 99.0, 149.0, 79.0, 951.0, 1.0, 631.0, 1365.0, 1514.0, 84.0, 550.0, 8.0, 244.0, 137.0, 28.0, 174.0, 98.0, 103.0, 2.0, 954.0, 295.0, 937.0, 53.0, 1348.0, 925.0, 962.0, 42.0, 161.0, 443.0, 2.0, 950.0, 2.0, 643.0, 139.0, 466.0, 969.0, 710.0, 2.0, 967.0, 538.0, 486.0, 2.0, 116.63885286058643, 85.36114713941357, 257.06950759816027, 796.9304924018397, 151.5607375108744, 567.4392624891257, 74.81038029427503, 414.18961970572497, 591.9621238305158, 84.03787616948415, 23.895391050730225, 54.104608949269775, 34.0, 204.0], "values": [[0.025062272465989657, 0.024937727534010346], [0.008290155440414507, 0.0417098445595855], [0.027973914998875648, 0.022026085001124355], [0.0033653846153846156, 0.046634615384615385], [0.029054054054054052, 0.020945945945945947], [0.02063305978898007, 0.029366940211019932], [0.029716193656093494, 0.020283806343906512], [0.003695652173913044, 0.04630434782608696], [0.0024390243902439024, 0.047560975609756105], [0.034745762711864414, 0.015254237288135594], [0.018032786885245903, 0.0319672131147541], [0.020733249051833127, 0.02926675094816688], [0.023809523809523808, 0.02619047619047619], [0.04228456913827656, 0.0077154308617234475], [0.014017521902377974, 0.03598247809762203], [0.005494505494505495, 0.04450549450549451], [0.0010695187165775401, 0.048930481283422464], [0.007432432432432433, 0.04256756756756757], [0.00101010101010101, 0.04898989898989899], [0.028187919463087248, 0.02181208053691275], [0.038607594936708865, 0.01139240506329114], [0.022397476340694007, 0.027602523659305992], [0.0, 0.05], [0.044374009508716325, 0.005625990491283677], [0.04131868131868132, 0.008681318681318682], [0.013077939233817702, 0.036922060766182305], [0.030952380952380953, 0.01904761904761905], [0.006727272727272728, 0.043272727272727275], [0.05, 0.0], [0.000819672131147541, 0.04918032786885246], [0.0018248175182481751, 0.04817518248175183], [0.0035714285714285718, 0.04642857142857143], [0.0028735632183908046, 0.0471264367816092], [0.03826530612244898, 0.011734693877551022], [0.02864077669902913, 0.021359223300970877], [0.025, 0.025], [0.0219601677148847, 0.028039832285115304], [0.04355932203389831, 0.006440677966101696], [0.044877267876200645, 0.00512273212379936], [0.033962264150943396, 0.016037735849056607], [0.041357566765578634, 0.008642433234421366], [0.016594594594594596, 0.03340540540540541], [0.012577962577962579, 0.037422037422037424], [0.04404761904761905, 0.005952380952380952], [0.030124223602484474, 0.01987577639751553], [0.013318284424379233, 0.03668171557562077], [0.025, 0.025], [0.019894736842105267, 0.03010526315789474], [0.025, 0.025], [0.03569206842923795, 0.014307931570762055], [0.043525179856115113, 0.006474820143884892], [0.023712446351931333, 0.02628755364806867], [0.0346749226006192, 0.015325077399380806], [0.022323943661971834, 0.027676056338028172], [0.025, 0.025], [0.016701137538779734, 0.03329886246122027], [0.01700743494423792, 0.032992565055762084], [0.018621399176954732, 0.03137860082304527], [0.025, 0.025], [0.03542509671256851, 0.0145749032874315], [0.04472828078018855, 0.005271719219811453], [0.03539898638707753, 0.014601013612922464], [0.03958939995496045, 0.010410600045039554], [0.04967009925643564, 0.00032990074356435836], [0.04039544782979404, 0.009604552170205958], [0.009356990263202398, 0.0406430097367976], [0.018107648388988186, 0.03189235161101182], [0.013486026238737238, 0.036513973761262766], [0.01864377512971911, 0.03135622487028089], [0.03326037020483177, 0.016739629795168232], [0.04907586431228287, 0.0009241356877171335], [0.03823529411764706, 0.011764705882352941], [0.04093137254901961, 0.009068627450980393]], "children_default": [1.0, 3.0, 5.0, 7.0, 9.0, 11.0, 13.0, 15.0, 17.0, 19.0, -1.0, 21.0, -1.0, 23.0, 25.0, 27.0, 29.0, -1.0, 31.0, -1.0, 33.0, 35.0, -1.0, 37.0, 39.0, 41.0, 43.0, 45.0, -1.0, -1.0, -1.0, -1.0, -1.0, -1.0, -1.0, -1.0, 47.0, -1.0, 49.0, -1.0, 51.0, 53.0, 55.0, -1.0, -1.0, -1.0, -1.0, 57.0, -1.0, 59.0, -1.0, 61.0, 63.0, 65.0, -1.0, 67.0, -1.0, -1.0, -1.0, -1.0, 69.0, -1.0, -1.0, -1.0, 71.0, -1.0, -1.0, -1.0, -1.0, -1.0, -1.0, -1.0, -1.0]}, {"children_left": [1.0, 3.0, 5.0, 7.0, 9.0, 11.0, 13.0, 15.0, 17.0, 19.0, 21.0, -1.0, 23.0, -1.0, -1.0, 25.0, 27.0, 29.0, 31.0, -1.0, 33.0, -1.0, 35.0, 37.0, -1.0, 39.0, -1.0, -1.0, 41.0, -1.0, 43.0, -1.0, 45.0, -1.0, -1.0, -1.0, -1.0, -1.0, -1.0, -1.0, 47.0, 49.0, 51.0, 53.0, -1.0, -1.0, 55.0, 57.0, -1.0, 59.0, -1.0, -1.0, 61.0, -1.0, -1.0, -1.0, -1.0, 63.0, -1.0, -1.0, -1.0, -1.0, -1.0, -1.0, -1.0], "children_right": [2.0, 4.0, 6.0, 8.0, 10.0, 12.0, 14.0, 16.0, 18.0, 20.0, 22.0, -1.0, 24.0, -1.0, -1.0, 26.0, 28.0, 30.0, 32.0, -1.0, 34.0, -1.0, 36.0, 38.0, -1.0, 40.0, -1.0, -1.0, 42.0, -1.0, 44.0, -1.0, 46.0, -1.0, -1.0, -1.0, -1.0, -1.0, -1.0, -1.0, 48.0, 50.0, 52.0, 54.0, -1.0, -1.0, 56.0, 58.0, -1.0, 60.0, -1.0, -1.0, 62.0, -1.0, -1.0, -1.0, -1.0, 64.0, -1.0, -1.0, -1.0, -1.0, -1.0, -1.0, -1.0], "features": [3.0, 7.0, 1.0, 1.0, 1.0, 0.0, 6.0, 2.0, 0.0, 2.0, 2.0, -2.0, 7.0, -2.0, -2.0, 5.0, 6.0, 2.0, 2.0, -2.0, 0.0, -2.0, 8.0, 0.0, -2.0, 6.0, -2.0, -2.0, 8.0, -2.0, 5.0, -2.0, 6.0, -2.0, -2.0, -2.0, -2.0, -2.0, -2.0, -2.0, 7.0, 2.0, 6.0, 8.0, -2.0, -2.0, 0.0, 7.0, -2.0, 1.0, -2.0, -2.0, 0.0, -2.0, -2.0, -2.0, -2.0, 3.0, -2.0, -2.0, -2.0, -2.0, -2.0, -2.0, -2.0], "thresholds": [0.5, 0.5, 793.5, 601.0, 410.0, 0.5, 0.5, 0.5, 3.298858642578125, 0.5, 2.397814989089966, -2.0, 0.5, -2.0, -2.0, 0.5, 0.5, 1.25, 3.2899999618530273, -2.0, 2.5, -2.0, 0.5, 24.5, -2.0, 0.5, -2.0, -2.0, 0.5, -2.0, 0.5, -2.0, 0.5, -2.0, -2.0, -2.0, -2.0, -2.0, -2.0, -2.0, 0.5, 5.090909090909091, 0.5, 0.5, -2.0, -2.0, 6.727272727272727, 0.5, -2.0, 435.1818181818182, -2.0, -2.0, 7.181818181818182, -2.0, -2.0, -2.0, -2.0, 0.5, -2.0, -2.0, -2.0, -2.0, -2.0, -2.0, -2.0], "node_sample_weight": [5219.0, 4840.0, 379.0, 4287.0, 553.0, 301.0, 78.0, 2731.0, 1556.0, 261.0, 292.0, 112.0, 244.0, 19.0, 158.0, 878.0, 1853.0, 655.0, 901.0, 383.0, 108.0, 277.0, 164.0, 239.0, 5.0, 931.0, 163.0, 109.0, 1811.0, 198.0, 944.0, 841.0, 971.0, 33.0, 146.0, 236.0, 166.0, 575.0, 5.0, 16.0, 950.0, 938.0, 960.0, 875.0, 34.0, 31.0, 765.0, 956.0, 2.0, 948.9349578494414, 102.06504215055858, 2.0, 944.0, 232.0, 121.0, 80.04849628489514, 55.95150371510487, 481.0, 2.0, 861.3822157949364, 93.61778420506364, 496.3869504696104, 124.61304953038965, 117.0, 2.0], "values": [[0.025301781950565243, 0.02469821804943476], [0.0243698347107438, 0.025630165289256202], [0.037203166226912936, 0.012796833773087072], [0.026953580592488924, 0.023046419407511082], [0.004339963833634721, 0.045660036166365284], [0.0425249169435216, 0.007475083056478406], [0.016666666666666666, 0.03333333333333333], [0.034474551446356645, 0.015525448553643356], [0.013753213367609256, 0.03624678663239075], [0.008045977011494253, 0.04195402298850575], [0.0010273972602739727, 0.04897260273972603], [0.028125000000000004, 0.021875000000000002], [0.047745901639344265, 0.002254098360655738], [0.0, 0.05], [0.028164556962025317, 0.021835443037974685], [0.02203872437357631, 0.02796127562642369], [0.040366972477064215, 0.00963302752293578], [0.017557251908396947, 0.03244274809160305], [0.010987791342952276, 0.03901220865704772], [0.0018276762402088774, 0.04817232375979112], [0.015277777777777779, 0.034722222222222224], [0.0010830324909747295, 0.04891696750902527], [0.0018292682926829272, 0.048170731707317074], [0.04832635983263599, 0.0016736401673640169], [0.02, 0.030000000000000006], [0.02180451127819549, 0.02819548872180451], [0.032208588957055216, 0.017791411042944787], [0.0389908256880734, 0.011009174311926608], [0.04006073992269464, 0.009939260077305357], [0.010606060606060607, 0.0393939393939394], [0.019703389830508476, 0.030296610169491527], [0.010939357907253271, 0.039060642092746733], [0.013542739443872296, 0.036457260556127705], [0.03484848484848485, 0.015151515151515152], [0.012671232876712329, 0.03732876712328767], [0.0033898305084745766, 0.046610169491525424], [0.0051204819277108436, 0.04487951807228916], [0.04756521739130435, 0.0024347826086956524], [0.030000000000000006, 0.02], [0.03125, 0.018750000000000003], [0.024631578947368424, 0.025368421052631582], [0.02873134328358209, 0.021268656716417915], [0.03302083333333334, 0.016979166666666667], [0.021714285714285714, 0.028285714285714286], [0.03676470588235294, 0.013235294117647059], [0.016129032258064516, 0.03387096774193549], [0.01777777777777778, 0.03222222222222222], [0.021600418410041844, 0.028399581589958162], [0.025, 0.025], [0.03872420084064638, 0.011275799159353627], [0.04412139565753644, 0.005878604342463561], [0.025, 0.025], [0.04274364406779661, 0.007256355932203391], [0.010560344827586207, 0.039439655172413796], [0.02809917355371901, 0.021900826446280993], [0.004402641281236133, 0.045597358718763865], [0.024084700075566463, 0.02591529992443354], [0.01632016632016632, 0.03367983367983368], [0.025, 0.025], [0.04028130740965222, 0.009718692590347787], [0.03741167554964785, 0.01258832445035215], [0.041998311396602504, 0.008001688603397497], [0.04696607861715252, 0.003033921382847483], [0.020512820512820516, 0.02948717948717949], [0.025, 0.025]], "children_default": [1.0, 3.0, 5.0, 7.0, 9.0, 11.0, 13.0, 15.0, 17.0, 19.0, 21.0, -1.0, 23.0, -1.0, -1.0, 25.0, 27.0, 29.0, 31.0, -1.0, 33.0, -1.0, 35.0, 37.0, -1.0, 39.0, -1.0, -1.0, 41.0, -1.0, 43.0, -1.0, 45.0, -1.0, -1.0, -1.0, -1.0, -1.0, -1.0, -1.0, 47.0, 49.0, 51.0, 53.0, -1.0, -1.0, 55.0, 57.0, -1.0, 59.0, -1.0, -1.0, 61.0, -1.0, -1.0, -1.0, -1.0, 63.0, -1.0, -1.0, -1.0, -1.0, -1.0, -1.0, -1.0]}, {"children_left": [1.0, 3.0, 5.0, 7.0, 9.0, 11.0, 13.0, 15.0, -1.0, 17.0, 19.0, 21.0, 23.0, -1.0, 25.0, 27.0, -1.0, 29.0, 31.0, 33.0, 35.0, 37.0, -1.0, 39.0, -1.0, -1.0, -1.0, 41.0, -1.0, 43.0, 45.0, -1.0, 47.0, -1.0, -1.0, -1.0, -1.0, -1.0, -1.0, -1.0, -1.0, -1.0, -1.0, 49.0, -1.0, -1.0, 51.0, 53.0, -1.0, 55.0, -1.0, 57.0, -1.0, -1.0, 59.0, -1.0, -1.0, -1.0, -1.0, -1.0, 61.0, -1.0, -1.0], "children_right": [2.0, 4.0, 6.0, 8.0, 10.0, 12.0, 14.0, 16.0, -1.0, 18.0, 20.0, 22.0, 24.0, -1.0, 26.0, 28.0, -1.0, 30.0, 32.0, 34.0, 36.0, 38.0, -1.0, 40.0, -1.0, -1.0, -1.0, 42.0, -1.0, 44.0, 46.0, -1.0, 48.0, -1.0, -1.0, -1.0, -1.0, -1.0, -1.0, -1.0, -1.0, -1.0, -1.0, 50.0, -1.0, -1.0, 52.0, 54.0, -1.0, 56.0, -1.0, 58.0, -1.0, -1.0, 60.0, -1.0, -1.0, -1.0, -1.0, -1.0, 62.0, -1.0, -1.0], "features": [7.0, 2.0, 8.0, 5.0, 3.0, 1.0, 1.0, 3.0, -2.0, 1.0, 2.0, 2.0, 1.0, -2.0, 1.0, 8.0, -2.0, 8.0, 0.0, 2.0, 8.0, 3.0, -2.0, 1.0, -2.0, -2.0, -2.0, 7.0, -2.0, 4.0, 8.0, -2.0, 4.0, -2.0, -2.0, -2.0, -2.0, -2.0, -2.0, -2.0, -2.0, -2.0, -2.0, 2.0, -2.0, -2.0, 0.0, 2.0, -2.0, 1.0, -2.0, 2.0, -2.0, -2.0, 2.0, -2.0, -2.0, -2.0, -2.0, -2.0, 0.0, -2.0, -2.0], "thresholds": [0.5, 0.5, 0.5, 0.5, 0.5, 410.0, 449.0, 0.5, -2.0, 608.0, 2.397814989089966, 0.5, 1266.0, -2.0, 1378.5, 0.5, -2.0, 0.5, 2.5, 1.7099999785423279, 0.5, 0.5, -2.0, 1215.0, -2.0, -2.0, -2.0, 0.5, -2.0, 0.5, 0.5, -2.0, 0.5, -2.0, -2.0, -2.0, -2.0, -2.0, -2.0, -2.0, -2.0, -2.0, -2.0, 3.909090909090909, -2.0, -2.0, 8.363636363636363, 3.090909090909091, -2.0, 328.8181818181818, -2.0, 2.909090909090909, -2.0, -2.0, 5.054545454545455, -2.0, -2.0, -2.0, -2.0, -2.0, 7.363636363636363, -2.0, -2.0], "node_sample_weight": [5219.0, 4616.0, 603.0, 928.0, 3688.0, 438.0, 165.0, 878.0, 141.0, 3389.0, 299.0, 251.0, 187.0, 56.0, 132.0, 826.0, 104.0, 1863.0, 1526.0, 150.0, 149.0, 176.0, 125.0, 112.0, 209.0, 214.0, 107.0, 928.0, 7.0, 1025.0, 960.0, 844.0, 1141.0, 181.0, 182.0, 160.0, 227.0, 390.0, 11.0, 202.0, 20.0, 1458.0, 2.0, 637.0, 3.0, 2.0, 930.0, 693.0, 8.0, 934.7227941781543, 448.27720582184566, 452.12937806912095, 159.87062193087905, 819.2262379796947, 125.77376202030527, 760.3564210793221, 229.64357892067792, 247.2233571304788, 253.7766428695212, 406.91167217096114, 93.08832782903886, 43.27825782474895, 53.72174217525105], "values": [[0.02536884460624641, 0.024631155393753594], [0.02802209705372617, 0.02197790294627383], [0.005058043117744611, 0.04494195688225539], [0.020689655172413796, 0.02931034482758621], [0.02986713665943601, 0.02013286334056399], [0.006278538812785388, 0.043721461187214615], [0.0018181818181818184, 0.04818181818181818], [0.019646924829157177, 0.030353075170842826], [0.03404255319148937, 0.015957446808510637], [0.028799055768663324, 0.02120094423133668], [0.041973244147157196, 0.00802675585284281], [0.009163346613545818, 0.04083665338645418], [0.0024064171122994654, 0.04759358288770053], [0.0035714285714285718, 0.04642857142857143], [0.0007575757575757576, 0.04924242424242424], [0.01955205811138015, 0.030447941888619857], [0.022596153846153846, 0.027403846153846154], [0.041438539989264625, 0.008561460010735374], [0.013368283093053736, 0.03663171690694627], [0.045, 0.005], [0.0389261744966443, 0.011073825503355705], [0.004545454545454546, 0.045454545454545456], [0.0208, 0.029200000000000004], [0.004017857142857143, 0.04598214285714286], [0.003349282296650718, 0.04665071770334928], [0.003971962616822431, 0.046028037383177574], [0.003738317757009346, 0.046261682242990654], [0.021120689655172414, 0.02887931034482759], [0.0, 0.05], [0.04004878048780488, 0.009951219512195124], [0.041875, 0.008125], [0.019490521327014218, 0.03050947867298578], [0.011787905346187556, 0.038212094653812444], [0.046685082872928184, 0.0033149171270718237], [0.046978021978021985, 0.003021978021978022], [0.0328125, 0.0171875], [0.04581497797356828, 0.004185022026431718], [0.0026923076923076926, 0.04730769230769231], [0.03636363636363637, 0.01363636363636364], [0.0024752475247524753, 0.04752475247524753], [0.0075000000000000015, 0.0425], [0.02163923182441701, 0.02836076817558299], [0.025, 0.025], [0.02370486656200942, 0.02629513343799058], [0.016666666666666666, 0.03333333333333333], [0.025, 0.025], [0.03258064516129033, 0.017419354838709676], [0.023809523809523808, 0.026190476190476195], [0.037500000000000006, 0.0125], [0.03951560819845358, 0.010484391801546417], [0.0382884966448942, 0.011711503355105802], [0.04115297480318015, 0.008847025196819848], [0.04468320076738363, 0.005316799232616373], [0.013319045940097422, 0.036680954059902585], [0.022967334797132855, 0.02703266520286715], [0.04014705818061929, 0.009852941819380708], [0.034069868453075663, 0.015930131546924343], [0.0459550747485715, 0.004044925251428501], [0.04251310136931364, 0.007486898630686362], [0.01069028071077887, 0.03930971928922113], [0.010205361103324578, 0.03979463889667542], [0.02363308927909325, 0.026366910720906748], [0.02842798850420854, 0.02157201149579146]], "children_default": [1.0, 3.0, 5.0, 7.0, 9.0, 11.0, 13.0, 15.0, -1.0, 17.0, 19.0, 21.0, 23.0, -1.0, 25.0, 27.0, -1.0, 29.0, 31.0, 33.0, 35.0, 37.0, -1.0, 39.0, -1.0, -1.0, -1.0, 41.0, -1.0, 43.0, 45.0, -1.0, 47.0, -1.0, -1.0, -1.0, -1.0, -1.0, -1.0, -1.0, -1.0, -1.0, -1.0, 49.0, -1.0, -1.0, 51.0, 53.0, -1.0, 55.0, -1.0, 57.0, -1.0, -1.0, 59.0, -1.0, -1.0, -1.0, -1.0, -1.0, 61.0, -1.0, -1.0]}, {"children_left": [1.0, 3.0, 5.0, 7.0, 9.0, 11.0, 13.0, 15.0, -1.0, 17.0, -1.0, 19.0, -1.0, 21.0, 23.0, 25.0, 27.0, 29.0, -1.0, 31.0, -1.0, 33.0, 35.0, 37.0, 39.0, -1.0, -1.0, -1.0, -1.0, -1.0, -1.0, 41.0, -1.0, -1.0, 43.0, -1.0, -1.0, 45.0, -1.0, 47.0, 49.0, 51.0, -1.0, -1.0, -1.0, 53.0, 55.0, 57.0, -1.0, -1.0, -1.0, -1.0, -1.0, -1.0, -1.0, -1.0, -1.0, 59.0, -1.0, -1.0, 61.0, -1.0, -1.0], "children_right": [2.0, 4.0, 6.0, 8.0, 10.0, 12.0, 14.0, 16.0, -1.0, 18.0, -1.0, 20.0, -1.0, 22.0, 24.0, 26.0, 28.0, 30.0, -1.0, 32.0, -1.0, 34.0, 36.0, 38.0, 40.0, -1.0, -1.0, -1.0, -1.0, -1.0, -1.0, 42.0, -1.0, -1.0, 44.0, -1.0, -1.0, 46.0, -1.0, 48.0, 50.0, 52.0, -1.0, -1.0, -1.0, 54.0, 56.0, 58.0, -1.0, -1.0, -1.0, -1.0, -1.0, -1.0, -1.0, -1.0, -1.0, 60.0, -1.0, -1.0, 62.0, -1.0, -1.0], "features": [6.0, 0.0, 0.0, 1.0, 5.0, 3.0, 0.0, 5.0, -2.0, 8.0, -2.0, 8.0, -2.0, 1.0, 1.0, 1.0, 1.0, 3.0, -2.0, 7.0, -2.0, 8.0, 3.0, 1.0, 8.0, -2.0, -2.0, -2.0, -2.0, -2.0, -2.0, 5.0, -2.0, -2.0, 5.0, -2.0, -2.0, 8.0, -2.0, 3.0, 7.0, 5.0, -2.0, -2.0, -2.0, 3.0, 1.0, 3.0, -2.0, -2.0, -2.0, -2.0, -2.0, -2.0, -2.0, -2.0, -2.0, 1.0, -2.0, -2.0, 2.0, -2.0, -2.0], "thresholds": [0.5, 2.5, 0.5, 639.5, 0.5, 0.5, 2.5, 0.5, -2.0, 0.5, -2.0, 0.5, -2.0, 774.5, 591.0, 188.5, 1.0, 0.5, -2.0, 0.5, -2.0, 0.5, 0.5, 440.5, 0.5, -2.0, -2.0, -2.0, -2.0, -2.0, -2.0, 0.5, -2.0, -2.0, 0.5, -2.0, -2.0, 0.5, -2.0, 0.5, 0.5, 0.5, -2.0, -2.0, -2.0, 0.5, 286.54545454545456, 0.5, -2.0, -2.0, -2.0, -2.0, -2.0, -2.0, -2.0, -2.0, -2.0, 1071.909090909091, -2.0, -2.0, 2.754545454545455, -2.0, -2.0], "node_sample_weight": [5219.0, 711.0, 4508.0, 307.0, 404.0, 919.0, 3589.0, 247.0, 143.0, 324.0, 185.0, 854.0, 113.0, 1056.0, 2533.0, 166.0, 81.0, 194.0, 320.0, 959.0, 3.0, 693.0, 363.0, 1403.0, 1130.0, 403.0, 27.0, 166.0, 59.0, 424.0, 15.0, 945.0, 2.0, 896.0, 598.0, 769.0, 50.0, 1269.0, 285.0, 932.0, 952.0, 960.0, 2.0, 601.0, 2.0, 968.0, 349.0, 934.0, 52.0, 809.0, 2.0, 548.0, 2.0, 940.0, 61.0, 627.0275779518123, 216.97242204818767, 599.0, 2.0, 71.42922234014227, 80.57077765985773, 15.0, 49.0], "values": [[0.025531711055757807, 0.024468288944242193], [0.009704641350210971, 0.04029535864978903], [0.02802795031055901, 0.021972049689440998], [0.014657980456026058, 0.035342019543973945], [0.0059405940594059415, 0.044059405940594064], [0.020620239390642, 0.029379760609358], [0.0299247701309557, 0.020075229869044302], [0.01720647773279352, 0.03279352226720648], [0.004195804195804197, 0.045804195804195806], [0.002160493827160494, 0.047839506172839504], [0.024594594594594593, 0.025405405405405406], [0.020667447306791573, 0.029332552693208433], [0.021681415929203543, 0.028318584070796463], [0.03484848484848485, 0.015151515151515152], [0.027872088432688517, 0.02212791156731149], [0.006325301204819277, 0.043674698795180725], [0.03950617283950617, 0.010493827160493829], [0.0036082474226804126, 0.04639175257731959], [0.0037500000000000007, 0.04625], [0.021897810218978103, 0.0281021897810219], [0.0, 0.05000000000000001], [0.04386724386724387, 0.006132756132756133], [0.01763085399449036, 0.03236914600550964], [0.04016393442622951, 0.009836065573770493], [0.012610619469026548, 0.03738938053097345], [0.0028535980148883377, 0.04714640198511166], [0.03333333333333333, 0.016666666666666666], [0.02951807228915663, 0.020481927710843374], [0.04745762711864407, 0.0025423728813559325], [0.005424528301886793, 0.04457547169811321], [0.0033333333333333335, 0.04666666666666667], [0.025396825396825397, 0.024603174603174603], [0.025, 0.025], [0.04291294642857143, 0.007087053571428572], [0.04431438127090301, 0.00568561872909699], [0.017945383615084527, 0.032054616384915476], [0.037000000000000005, 0.013000000000000001], [0.04125295508274232, 0.008747044917257684], [0.03210526315789474, 0.017894736842105265], [0.015236051502145924, 0.03476394849785407], [0.0148109243697479, 0.0351890756302521], [0.022239583333333333, 0.02776041666666667], [0.025, 0.025], [0.038435940099833615, 0.01156405990016639], [0.025, 0.025], [0.03259297520661157, 0.01740702479338843], [0.02464183381088825, 0.02535816618911175], [0.0186830835117773, 0.0313169164882227], [0.006730769230769231, 0.04326923076923077], [0.01946847960444994, 0.030531520395550064], [0.025, 0.025], [0.01633211678832117, 0.03366788321167883], [0.025, 0.025], [0.03920212765957447, 0.010797872340425532], [0.04918032786885246, 0.000819672131147541], [0.042344834312265475, 0.007655165687734528], [0.044699787239575565, 0.005300212760424434], [0.015692821368948246, 0.03430717863105175], [0.025, 0.025], [0.011899891559120494, 0.0381001084408795], [0.004344006725088101, 0.045655993274911905], [0.020000000000000004, 0.030000000000000002], [0.0010204081632653062, 0.0489795918367347]], "children_default": [1.0, 3.0, 5.0, 7.0, 9.0, 11.0, 13.0, 15.0, -1.0, 17.0, -1.0, 19.0, -1.0, 21.0, 23.0, 25.0, 27.0, 29.0, -1.0, 31.0, -1.0, 33.0, 35.0, 37.0, 39.0, -1.0, -1.0, -1.0, -1.0, -1.0, -1.0, 41.0, -1.0, -1.0, 43.0, -1.0, -1.0, 45.0, -1.0, 47.0, 49.0, 51.0, -1.0, -1.0, -1.0, 53.0, 55.0, 57.0, -1.0, -1.0, -1.0, -1.0, -1.0, -1.0, -1.0, -1.0, -1.0, 59.0, -1.0, -1.0, 61.0, -1.0, -1.0]}, {"children_left": [1.0, 3.0, 5.0, 7.0, 9.0, -1.0, 11.0, 13.0, 15.0, 17.0, 19.0, -1.0, 21.0, 23.0, 25.0, 27.0, 29.0, 31.0, 33.0, 35.0, -1.0, 37.0, 39.0, 41.0, -1.0, 43.0, -1.0, -1.0, -1.0, 45.0, -1.0, 47.0, -1.0, -1.0, 49.0, -1.0, -1.0, -1.0, -1.0, -1.0, -1.0, -1.0, -1.0, 51.0, -1.0, 53.0, -1.0, -1.0, -1.0, 55.0, -1.0, 57.0, -1.0, 59.0, -1.0, 61.0, -1.0, 63.0, -1.0, 65.0, -1.0, -1.0, -1.0, -1.0, -1.0, 67.0, -1.0, -1.0, -1.0], "children_right": [2.0, 4.0, 6.0, 8.0, 10.0, -1.0, 12.0, 14.0, 16.0, 18.0, 20.0, -1.0, 22.0, 24.0, 26.0, 28.0, 30.0, 32.0, 34.0, 36.0, -1.0, 38.0, 40.0, 42.0, -1.0, 44.0, -1.0, -1.0, -1.0, 46.0, -1.0, 48.0, -1.0, -1.0, 50.0, -1.0, -1.0, -1.0, -1.0, -1.0, -1.0, -1.0, -1.0, 52.0, -1.0, 54.0, -1.0, -1.0, -1.0, 56.0, -1.0, 58.0, -1.0, 60.0, -1.0, 62.0, -1.0, 64.0, -1.0, 66.0, -1.0, -1.0, -1.0, -1.0, -1.0, 68.0, -1.0, -1.0, -1.0], "features": [3.0, 1.0, 6.0, 2.0, 7.0, -2.0, 0.0, 6.0, 6.0, 0.0, 2.0, -2.0, 0.0, 5.0, 8.0, 5.0, 2.0, 1.0, 1.0, 2.0, -2.0, 2.0, 0.0, 7.0, -2.0, 8.0, -2.0, -2.0, -2.0, 7.0, -2.0, 5.0, -2.0, -2.0, 7.0, -2.0, -2.0, -2.0, -2.0, -2.0, -2.0, -2.0, -2.0, 5.0, -2.0, 1.0, -2.0, -2.0, -2.0, 1.0, -2.0, 5.0, -2.0, 1.0, -2.0, 2.0, -2.0, 5.0, -2.0, 1.0, -2.0, -2.0, -2.0, -2.0, -2.0, 8.0, -2.0, -2.0, -2.0], "thresholds": [0.5, 606.5, 0.5, 0.5, 0.5, -2.0, 0.5, 0.5, 0.5, 3.298858642578125, 4.25, -2.0, 2.5, 0.5, 0.5, 0.5, 5.75, 1631.5, 951.0, 1.899999976158142, -2.0, 1.5, 3.798858642578125, 0.5, -2.0, 0.5, -2.0, -2.0, -2.0, 0.5, -2.0, 0.5, -2.0, -2.0, 0.5, -2.0, -2.0, -2.0, -2.0, -2.0, -2.0, -2.0, -2.0, 0.5, -2.0, 271.3636363636364, -2.0, -2.0, -2.0, 1353.4545454545455, -2.0, 0.5, -2.0, 197.63636363636363, -2.0, 1.9545454545454546, -2.0, 0.5, -2.0, 51.727272727272734, -2.0, -2.0, -2.0, -2.0, -2.0, 0.5, -2.0, -2.0, -2.0], "node_sample_weight": [5219.0, 4864.0, 355.0, 2990.0, 1874.0, 76.0, 315.0, 998.0, 1992.0, 1593.0, 281.0, 112.0, 260.0, 182.0, 816.0, 166.0, 1826.0, 696.0, 897.0, 225.0, 109.0, 105.0, 155.0, 266.0, 138.0, 935.0, 1.0, 223.0, 127.0, 1671.0, 415.0, 943.0, 188.0, 463.0, 924.0, 96.0, 433.0, 133.0, 152.0, 116.0, 283.0, 16.0, 299.0, 956.0, 2.0, 972.0, 2.0, 920.0, 35.0, 657.0, 2.0, 946.0, 2.0, 928.8514231862412, 788.1485768137588, 80.22073682539664, 217.77926317460336, 462.0, 2.0, 786.1741823647272, 299.82581763527276, 36.30867842139165, 261.6913215786084, 147.0, 2.0, 59.556776292117775, 342.4432237078822, 100.0, 51.0], "values": [[0.024937727534010346, 0.025062272465989657], [0.024187911184210528, 0.025812088815789475], [0.035211267605633804, 0.014788732394366197], [0.03214046822742475, 0.01785953177257525], [0.011499466382070438, 0.038500533617929565], [0.027631578947368424, 0.022368421052631583], [0.037142857142857144, 0.012857142857142857], [0.018336673346693387, 0.031663326653306616], [0.039056224899598396, 0.010943775100401607], [0.013339610797237916, 0.036660389202762086], [0.0010676156583629894, 0.04893238434163701], [0.021875000000000002, 0.028125000000000004], [0.040961538461538466, 0.009038461538461539], [0.007692307692307693, 0.04230769230769231], [0.020710784313725493, 0.029289215686274513], [0.02319277108433735, 0.026807228915662652], [0.040498357064622126, 0.009501642935377875], [0.015948275862068966, 0.03405172413793104], [0.011315496098104795, 0.038684503901895206], [0.0013333333333333335, 0.04866666666666667], [0.002752293577981652, 0.04724770642201835], [0.0461904761904762, 0.0038095238095238095], [0.03741935483870968, 0.012580645161290325], [0.004699248120300752, 0.04530075187969925], [0.028260869565217395, 0.021739130434782608], [0.022299465240641712, 0.02770053475935829], [0.0, 0.05], [0.015022421524663678, 0.03497757847533633], [0.03779527559055119, 0.012204724409448819], [0.04000598444045482, 0.009994015559545183], [0.043855421686746984, 0.0061445783132530124], [0.01638388123011665, 0.03361611876988335], [0.019680851063829788, 0.030319148936170215], [0.011879049676025918, 0.038120950323974084], [0.012662337662337663, 0.037337662337662336], [0.0, 0.05000000000000001], [0.0015011547344110855, 0.04849884526558892], [0.04849624060150376, 0.0015037593984962407], [0.04736842105263158, 0.002631578947368421], [0.03577586206896552, 0.014224137931034483], [0.042226148409894, 0.0077738515901060075], [0.037500000000000006, 0.0125], [0.006354515050167224, 0.04364548494983278], [0.023901673640167365, 0.026098326359832637], [0.025, 0.025], [0.02227366255144033, 0.027726337448559672], [0.025, 0.025], [0.019619565217391305, 0.030380434782608698], [0.03142857142857143, 0.018571428571428572], [0.021156773211567732, 0.028843226788432267], [0.025, 0.025], [0.02193446088794926, 0.02806553911205074], [0.025, 0.025], [0.04107973611562327, 0.00892026388437674], [0.041227034598282704, 0.008772965401717304], [0.011979905437188444, 0.038020094562811566], [0.018775723175497493, 0.03122427682450251], [0.01753246753246753, 0.032467532467532464], [0.025, 0.025], [0.042055019380745316, 0.007944980619254683], [0.039981311878192115, 0.01001868812180789], [0.016950050176075617, 0.03304994982392439], [0.009303197615588902, 0.0406968023844111], [0.022789115646258504, 0.027210884353741496], [0.025, 0.025], [0.036100006310861195, 0.013899993689138804], [0.040152641512711904, 0.0098473584872881], [0.045, 0.005], [0.0392156862745098, 0.010784313725490198]], "children_default": [1.0, 3.0, 5.0, 7.0, 9.0, -1.0, 11.0, 13.0, 15.0, 17.0, 19.0, -1.0, 21.0, 23.0, 25.0, 27.0, 29.0, 31.0, 33.0, 35.0, -1.0, 37.0, 39.0, 41.0, -1.0, 43.0, -1.0, -1.0, -1.0, 45.0, -1.0, 47.0, -1.0, -1.0, 49.0, -1.0, -1.0, -1.0, -1.0, -1.0, -1.0, -1.0, -1.0, 51.0, -1.0, 53.0, -1.0, -1.0, -1.0, 55.0, -1.0, 57.0, -1.0, 59.0, -1.0, 61.0, -1.0, 63.0, -1.0, 65.0, -1.0, -1.0, -1.0, -1.0, -1.0, 67.0, -1.0, -1.0, -1.0]}, {"children_left": [1.0, 3.0, 5.0, 7.0, 9.0, 11.0, 13.0, 15.0, -1.0, 17.0, 19.0, 21.0, -1.0, 23.0, -1.0, 25.0, -1.0, 27.0, 29.0, 31.0, -1.0, 33.0, -1.0, 35.0, 37.0, 39.0, 41.0, 43.0, 45.0, -1.0, -1.0, -1.0, -1.0, -1.0, -1.0, -1.0, 47.0, 49.0, -1.0, 51.0, -1.0, 53.0, -1.0, 55.0, -1.0, -1.0, 57.0, -1.0, -1.0, -1.0, 59.0, 61.0, -1.0, -1.0, -1.0, -1.0, -1.0, -1.0, -1.0, -1.0, -1.0, 63.0, -1.0, -1.0, -1.0], "children_right": [2.0, 4.0, 6.0, 8.0, 10.0, 12.0, 14.0, 16.0, -1.0, 18.0, 20.0, 22.0, -1.0, 24.0, -1.0, 26.0, -1.0, 28.0, 30.0, 32.0, -1.0, 34.0, -1.0, 36.0, 38.0, 40.0, 42.0, 44.0, 46.0, -1.0, -1.0, -1.0, -1.0, -1.0, -1.0, -1.0, 48.0, 50.0, -1.0, 52.0, -1.0, 54.0, -1.0, 56.0, -1.0, -1.0, 58.0, -1.0, -1.0, -1.0, 60.0, 62.0, -1.0, -1.0, -1.0, -1.0, -1.0, -1.0, -1.0, -1.0, -1.0, 64.0, -1.0, -1.0, -1.0], "features": [1.0, 2.0, 6.0, 5.0, 1.0, 3.0, 3.0, 3.0, -2.0, 0.0, 3.0, 1.0, -2.0, 0.0, -2.0, 7.0, -2.0, 2.0, 7.0, 0.0, -2.0, 2.0, -2.0, 8.0, 8.0, 7.0, 5.0, 3.0, 6.0, -2.0, -2.0, -2.0, -2.0, -2.0, -2.0, -2.0, 0.0, 6.0, -2.0, 7.0, -2.0, 6.0, -2.0, 1.0, -2.0, -2.0, 2.0, -2.0, -2.0, -2.0, 1.0, 5.0, -2.0, -2.0, -2.0, -2.0, -2.0, -2.0, -2.0, -2.0, -2.0, 8.0, -2.0, -2.0, -2.0], "thresholds": [728.0, 0.5, 0.5, 0.5, 421.5, 0.5, 0.5, 0.5, -2.0, 7.5, 0.5, 1573.0, -2.0, 2.5, -2.0, 0.5, -2.0, 2.397814989089966, 0.5, 2.5, -2.0, 3.1649999618530273, -2.0, 0.5, 0.5, 0.5, 0.5, 0.5, 0.5, -2.0, -2.0, -2.0, -2.0, -2.0, -2.0, -2.0, 1.9090909090909092, 0.5, -2.0, 0.5, -2.0, 0.5, -2.0, 128.9090909090909, -2.0, -2.0, 4.090909090909091, -2.0, -2.0, -2.0, 1449.909090909091, 0.5, -2.0, -2.0, -2.0, -2.0, -2.0, -2.0, -2.0, -2.0, -2.0, 0.5, -2.0, -2.0, -2.0], "node_sample_weight": [5219.0, 3396.0, 1823.0, 1095.0, 2301.0, 334.0, 1489.0, 1050.0, 157.0, 1919.0, 382.0, 316.0, 21.0, 1424.0, 170.0, 984.0, 116.0, 1703.0, 216.0, 360.0, 69.0, 279.0, 125.0, 361.0, 1063.0, 939.0, 263.0, 976.0, 948.0, 511.0, 20.0, 248.0, 650.0, 424.0, 199.0, 454.0, 160.0, 943.0, 913.0, 936.0, 2.0, 242.0, 2.0, 468.0, 185.0, 105.0, 504.0, 76.65129922629004, 326.34870077371, 2.0, 732.0, 938.0, 2.0, 105.0, 2.0, 409.4678259785504, 439.5321740214496, 820.0135167033093, 318.9864832966908, 339.0, 144.0, 475.0, 2.0, 104.0, 2.0], "values": [[0.025225138915501055, 0.024774861084498948], [0.03256772673733805, 0.017432273262661956], [0.011546900713110259, 0.038453099286889746], [0.0189041095890411, 0.031095890410958907], [0.03906996957844416, 0.010930030421555846], [0.002245508982035928, 0.04775449101796408], [0.013633310946944258, 0.03636668905305575], [0.018285714285714287, 0.031714285714285716], [0.030573248407643316, 0.01942675159235669], [0.04111516414799375, 0.008884835852006254], [0.028795811518324606, 0.021204188481675393], [0.0015822784810126582, 0.04841772151898734], [0.011904761904761904, 0.0380952380952381], [0.012956460674157302, 0.03704353932584269], [0.033529411764705884, 0.01647058823529412], [0.018140243902439027, 0.031859756097560976], [0.0228448275862069, 0.027155172413793106], [0.042131532589547854, 0.007868467410452143], [0.033101851851851855, 0.016898148148148148], [0.027777777777777776, 0.022222222222222223], [0.043478260869565216, 0.006521739130434783], [0.0007168458781362007, 0.0492831541218638], [0.0052, 0.044800000000000006], [0.019390581717451522, 0.030609418282548477], [0.010771401693320791, 0.03922859830667921], [0.022044728434504796, 0.027955271565495207], [0.0036121673003802284, 0.046387832699619776], [0.04313524590163935, 0.006864754098360656], [0.04018987341772152, 0.009810126582278481], [0.03992172211350294, 0.010078277886497065], [0.005, 0.045], [0.03306451612903226, 0.016935483870967744], [0.027153846153846157, 0.02284615384615385], [0.0025943396226415097, 0.047405660377358494], [0.004020100502512563, 0.04597989949748744], [0.01486784140969163, 0.035132158590308375], [0.0265625, 0.0234375], [0.011187698833510075, 0.038812301166489926], [0.013745892661555313, 0.03625410733844469], [0.024572649572649572, 0.025427350427350427], [0.025, 0.025], [0.008884297520661156, 0.04111570247933885], [0.025, 0.025], [0.023076923076923078, 0.026923076923076925], [0.04135135135135135, 0.008648648648648649], [0.020476190476190474, 0.029523809523809525], [0.023710317460317463, 0.02628968253968254], [0.040867734701619876, 0.009132265298380128], [0.023647819097759374, 0.026352180902240622], [0.025, 0.025], [0.01823770491803279, 0.031762295081967214], [0.021695095948827292, 0.028304904051172707], [0.025, 0.025], [0.0004761904761904762, 0.049523809523809526], [0.025, 0.025], [0.04474928220584387, 0.005250717794156129], [0.04169571600048129, 0.008304283999518717], [0.04176760419473922, 0.008232395805260776], [0.03965685275834769, 0.010343147241652311], [0.008997050147492627, 0.041002949852507374], [0.01666666666666667, 0.03333333333333334], [0.016, 0.034], [0.025, 0.025], [0.021634615384615384, 0.02836538461538462], [0.025, 0.025]], "children_default": [1.0, 3.0, 5.0, 7.0, 9.0, 11.0, 13.0, 15.0, -1.0, 17.0, 19.0, 21.0, -1.0, 23.0, -1.0, 25.0, -1.0, 27.0, 29.0, 31.0, -1.0, 33.0, -1.0, 35.0, 37.0, 39.0, 41.0, 43.0, 45.0, -1.0, -1.0, -1.0, -1.0, -1.0, -1.0, -1.0, 47.0, 49.0, -1.0, 51.0, -1.0, 53.0, -1.0, 55.0, -1.0, -1.0, 57.0, -1.0, -1.0, -1.0, 59.0, 61.0, -1.0, -1.0, -1.0, -1.0, -1.0, -1.0, -1.0, -1.0, -1.0, 63.0, -1.0, -1.0, -1.0]}, {"children_left": [1.0, 3.0, 5.0, 7.0, 9.0, 11.0, 13.0, -1.0, 15.0, 17.0, 19.0, 21.0, -1.0, -1.0, 23.0, 25.0, -1.0, 27.0, -1.0, 29.0, -1.0, 31.0, 33.0, -1.0, -1.0, 35.0, -1.0, 37.0, 39.0, -1.0, -1.0, -1.0, -1.0, -1.0, -1.0, -1.0, 41.0, -1.0, 43.0, 45.0, 47.0, 49.0, -1.0, 51.0, -1.0, -1.0, 53.0, 55.0, -1.0, -1.0, -1.0, 57.0, -1.0, 59.0, -1.0, 61.0, -1.0, -1.0, -1.0, 63.0, -1.0, 65.0, -1.0, -1.0, 67.0, -1.0, -1.0, -1.0, -1.0], "children_right": [2.0, 4.0, 6.0, 8.0, 10.0, 12.0, 14.0, -1.0, 16.0, 18.0, 20.0, 22.0, -1.0, -1.0, 24.0, 26.0, -1.0, 28.0, -1.0, 30.0, -1.0, 32.0, 34.0, -1.0, -1.0, 36.0, -1.0, 38.0, 40.0, -1.0, -1.0, -1.0, -1.0, -1.0, -1.0, -1.0, 42.0, -1.0, 44.0, 46.0, 48.0, 50.0, -1.0, 52.0, -1.0, -1.0, 54.0, 56.0, -1.0, -1.0, -1.0, 58.0, -1.0, 60.0, -1.0, 62.0, -1.0, -1.0, -1.0, 64.0, -1.0, 66.0, -1.0, -1.0, 68.0, -1.0, -1.0, -1.0, -1.0], "features": [7.0, 0.0, 0.0, 6.0, 3.0, 8.0, 1.0, -2.0, 3.0, 4.0, 1.0, 2.0, -2.0, -2.0, 0.0, 8.0, -2.0, 0.0, -2.0, 2.0, -2.0, 3.0, 0.0, -2.0, -2.0, 6.0, -2.0, 6.0, 8.0, -2.0, -2.0, -2.0, -2.0, -2.0, -2.0, -2.0, 8.0, -2.0, 2.0, 2.0, 2.0, 7.0, -2.0, 0.0, -2.0, -2.0, 0.0, 5.0, -2.0, -2.0, -2.0, 1.0, -2.0, 5.0, -2.0, 2.0, -2.0, -2.0, -2.0, 0.0, -2.0, 0.0, -2.0, -2.0, 0.0, -2.0, -2.0, -2.0, -2.0], "thresholds": [0.5, 0.5, 3.798858642578125, 0.5, 0.5, 0.5, 406.0, -2.0, 0.5, 0.5, 747.5, 0.5, -2.0, -2.0, 4.5, 0.5, -2.0, 2.5, -2.0, 2.065000057220459, -2.0, 0.5, 1.5, -2.0, -2.0, 0.5, -2.0, 0.5, 0.5, -2.0, -2.0, -2.0, -2.0, -2.0, -2.0, -2.0, 0.5, -2.0, 1.5454545454545454, 1.8181818181818181, 6.0227272727272725, 0.5, -2.0, 1.0909090909090908, -2.0, -2.0, 5.909090909090909, 0.5, -2.0, -2.0, -2.0, 547.909090909091, -2.0, 0.5, -2.0, 4.385454545454545, -2.0, -2.0, -2.0, 3.7272727272727275, -2.0, 7.363636363636363, -2.0, -2.0, 4.090909090909091, -2.0, -2.0, -2.0, -2.0], "node_sample_weight": [5219.0, 4642.0, 577.0, 964.0, 3678.0, 357.0, 220.0, 174.0, 904.0, 3379.0, 299.0, 287.0, 159.0, 82.0, 184.0, 965.0, 102.0, 3373.0, 14.0, 220.0, 189.0, 155.0, 132.0, 164.0, 256.0, 474.0, 2.0, 938.0, 2453.0, 292.0, 301.0, 385.0, 14.0, 14.0, 246.0, 2.0, 949.0, 57.0, 580.0, 969.0, 924.0, 949.0, 2.0, 83.42939250583997, 902.57060749416, 231.97178933718607, 263.02821066281393, 969.5026253148221, 134.49737468517787, 115.0, 2.0, 86.68454391439006, 115.31545608560994, 933.7464563467477, 380.2535436532524, 691.0, 6.0, 134.0, 34.0, 939.0, 23.0, 83.08510738333634, 57.914892616663664, 67.54814947523705, 187.45185052476296, 94.28854736778902, 24.71145263221098, 75.46543058619305, 49.53456941380695], "values": [[0.025656255987737117, 0.02434374401226289], [0.028295993106419646, 0.021704006893580353], [0.0044194107452339695, 0.04558058925476603], [0.021628630705394194, 0.02837136929460581], [0.030043501903208265, 0.019956498096791737], [0.0063025210084033615, 0.04369747899159664], [0.0013636363636363637, 0.048636363636363644], [0.0324712643678161, 0.01752873563218391], [0.020575221238938055, 0.029424778761061948], [0.028973068955312223, 0.021026931044687776], [0.04214046822742475, 0.007859531772575251], [0.0071428571428571435, 0.04285714285714286], [0.005974842767295598, 0.0440251572327044], [0.0067073170731707325, 0.04329268292682927], [0.0005434782608695652, 0.049456521739130434], [0.021761658031088083, 0.028238341968911916], [0.020098039215686276, 0.029901960784313727], [0.02900978357545212, 0.02099021642454788], [0.03214285714285715, 0.017857142857142856], [0.048636363636363644, 0.0013636363636363637], [0.02724867724867725, 0.02275132275132275], [0.005161290322580645, 0.044838709677419354], [0.00946969696969697, 0.040530303030303035], [0.0024390243902439024, 0.047560975609756105], [0.0021484375, 0.0478515625], [0.023734177215189875, 0.026265822784810128], [0.025, 0.025], [0.0349680170575693, 0.015031982942430706], [0.026742763962494906, 0.023257236037505097], [0.04897260273972603, 0.0010273972602739727], [0.04700996677740864, 0.002990033222591362], [0.0027272727272727275, 0.04727272727272727], [0.025, 0.025], [0.017857142857142856, 0.03214285714285715], [0.007113821138211382, 0.042886178861788624], [0.025, 0.025], [0.022233930453108536, 0.027766069546891467], [0.034210526315789476, 0.015789473684210527], [0.024655172413793103, 0.0253448275862069], [0.022497420020639834, 0.02750257997936017], [0.02554112554112554, 0.02445887445887446], [0.021707060063224447, 0.028292939936775556], [0.025, 0.025], [0.02939199731630459, 0.020608002683695413], [0.034343954103965214, 0.015656045896034792], [0.018536736782892468, 0.03146326321710753], [0.023571616080177882, 0.02642838391982212], [0.030782892841139897, 0.019217107158860106], [0.02718197722660028, 0.022818022773399723], [0.02391304347826087, 0.02608695652173913], [0.025, 0.025], [0.03864587443995173, 0.011354125560048273], [0.02254684747610733, 0.02745315252389267], [0.02896151401002997, 0.02103848598997003], [0.02750083226636194, 0.022499167733638064], [0.030390738060781478, 0.019609261939218525], [0.008333333333333333, 0.041666666666666664], [0.041791044776119404, 0.008208955223880599], [0.0058823529411764705, 0.04411764705882353], [0.02832800851970181, 0.02167199148029819], [0.021739130434782608, 0.02826086956521739], [0.028937260176774088, 0.02106273982322592], [0.0430933136205987, 0.006906686379401303], [0.014293330468683784, 0.035706669531316224], [0.0300584494697109, 0.0199415505302891], [0.03128693868294532, 0.018713061317054684], [0.00809341332444792, 0.04190658667555208], [0.018197358958167827, 0.031802641041832176], [0.040915435314663906, 0.009084564685336093]], "children_default": [1.0, 3.0, 5.0, 7.0, 9.0, 11.0, 13.0, -1.0, 15.0, 17.0, 19.0, 21.0, -1.0, -1.0, 23.0, 25.0, -1.0, 27.0, -1.0, 29.0, -1.0, 31.0, 33.0, -1.0, -1.0, 35.0, -1.0, 37.0, 39.0, -1.0, -1.0, -1.0, -1.0, -1.0, -1.0, -1.0, 41.0, -1.0, 43.0, 45.0, 47.0, 49.0, -1.0, 51.0, -1.0, -1.0, 53.0, 55.0, -1.0, -1.0, -1.0, 57.0, -1.0, 59.0, -1.0, 61.0, -1.0, -1.0, -1.0, 63.0, -1.0, 65.0, -1.0, -1.0, 67.0, -1.0, -1.0, -1.0, -1.0]}, {"children_left": [1.0, 3.0, 5.0, 7.0, 9.0, 11.0, 13.0, 15.0, 17.0, 19.0, -1.0, 21.0, 23.0, -1.0, 25.0, 27.0, -1.0, 29.0, -1.0, 31.0, -1.0, 33.0, -1.0, 35.0, 37.0, 39.0, 41.0, -1.0, -1.0, -1.0, -1.0, -1.0, -1.0, 43.0, -1.0, -1.0, 45.0, 47.0, 49.0, -1.0, -1.0, -1.0, -1.0, 51.0, -1.0, 53.0, -1.0, 55.0, -1.0, 57.0, 59.0, -1.0, -1.0, 61.0, -1.0, 63.0, -1.0, -1.0, -1.0, -1.0, -1.0, -1.0, -1.0, -1.0, -1.0], "children_right": [2.0, 4.0, 6.0, 8.0, 10.0, 12.0, 14.0, 16.0, 18.0, 20.0, -1.0, 22.0, 24.0, -1.0, 26.0, 28.0, -1.0, 30.0, -1.0, 32.0, -1.0, 34.0, -1.0, 36.0, 38.0, 40.0, 42.0, -1.0, -1.0, -1.0, -1.0, -1.0, -1.0, 44.0, -1.0, -1.0, 46.0, 48.0, 50.0, -1.0, -1.0, -1.0, -1.0, 52.0, -1.0, 54.0, -1.0, 56.0, -1.0, 58.0, 60.0, -1.0, -1.0, 62.0, -1.0, 64.0, -1.0, -1.0, -1.0, -1.0, -1.0, -1.0, -1.0, -1.0, -1.0], "features": [6.0, 5.0, 3.0, 1.0, 0.0, 2.0, 2.0, 3.0, 1.0, 3.0, -2.0, 8.0, 0.0, -2.0, 0.0, 0.0, -2.0, 0.0, -2.0, 8.0, -2.0, 7.0, -2.0, 0.0, 2.0, 2.0, 8.0, -2.0, -2.0, -2.0, -2.0, -2.0, -2.0, 5.0, -2.0, -2.0, 1.0, 0.0, 8.0, -2.0, -2.0, -2.0, -2.0, 7.0, -2.0, 4.0, -2.0, 7.0, -2.0, 1.0, 1.0, -2.0, -2.0, 1.0, -2.0, 2.0, -2.0, -2.0, -2.0, -2.0, -2.0, -2.0, -2.0, -2.0, -2.0], "thresholds": [0.5, 0.5, 0.5, 444.0, 3.298858642578125, 0.5, 0.5, 0.5, 1729.0, 0.5, -2.0, 0.5, 2.5, -2.0, 2.5, 0.5, -2.0, 3.798858642578125, -2.0, 0.5, -2.0, 0.5, -2.0, 1.5, 2.4828150272369385, 1.5, 0.5, -2.0, -2.0, -2.0, -2.0, -2.0, -2.0, 0.5, -2.0, -2.0, 2065.4545454545455, 20.454545454545453, 0.5, -2.0, -2.0, -2.0, -2.0, 0.5, -2.0, 0.5, -2.0, 0.5, -2.0, 834.7272727272726, 494.54545454545456, -2.0, -2.0, 629.2727272727273, -2.0, 1.8461954915003695, -2.0, -2.0, -2.0, -2.0, -2.0, -2.0, -2.0, -2.0, -2.0], "node_sample_weight": [5219.0, 750.0, 4469.0, 572.0, 178.0, 4117.0, 352.0, 263.0, 309.0, 119.0, 125.0, 808.0, 3309.0, 93.0, 307.0, 252.0, 19.0, 292.0, 49.0, 104.0, 48.0, 966.0, 2.0, 968.0, 2341.0, 116.0, 191.0, 382.0, 174.0, 280.0, 383.0, 190.0, 60.0, 947.0, 2.0, 398.0, 930.0, 944.0, 1784.0, 131.0, 162.0, 208.0, 264.0, 584.0, 2.0, 1661.0024089002636, 4.997591099736496, 1131.1010109167519, 52.89898908324801, 655.0, 458.0, 480.0, 2.0, 102.0, 2.0, 210.0, 2.0, 913.0782719038398, 540.9217280961602, 655.1709527228679, 405.8290472771321, 484.1920297767348, 304.8079702232652, 131.2409298107723, 98.75907018922771], "values": [[0.02563709522897107, 0.024362904771028933], [0.0094, 0.040600000000000004], [0.028362049675542626, 0.021637950324457374], [0.0035839160839160845, 0.046416083916083914], [0.028089887640449437, 0.021910112359550565], [0.027374301675977656, 0.022625698324022347], [0.03991477272727273, 0.010085227272727273], [0.006083650190114069, 0.043916349809885936], [0.0014563106796116505, 0.04854368932038835], [0.03529411764705882, 0.014705882352941176], [0.015600000000000001, 0.0344], [0.021225247524752477, 0.028774752475247526], [0.028875793291024483, 0.021124206708975524], [0.021505376344086023, 0.028494623655913983], [0.043322475570032576, 0.006677524429967428], [0.005753968253968254, 0.04424603174603175], [0.028947368421052635, 0.021052631578947368], [0.0011986301369863014, 0.0488013698630137], [0.00510204081632653, 0.04489795918367347], [0.03317307692307692, 0.016826923076923076], [0.05000000000000001, 0.0], [0.022981366459627332, 0.027018633540372674], [0.0, 0.05], [0.03507231404958678, 0.014927685950413223], [0.02631354122170013, 0.023686458778299873], [0.04741379310344827, 0.0025862068965517245], [0.04083769633507854, 0.009162303664921465], [0.003141361256544503, 0.0468586387434555], [0.014080459770114944, 0.035919540229885055], [0.003928571428571429, 0.046071428571428576], [0.002741514360313316, 0.04725848563968669], [0.030263157894736843, 0.019736842105263157], [0.0325, 0.0175], [0.0237064413938754, 0.026293558606124607], [0.025, 0.025], [0.039447236180904524, 0.010552763819095479], [0.03317204301075269, 0.01682795698924731], [0.0225635593220339, 0.027436440677966103], [0.027774663677130048, 0.022225336322869958], [0.046946564885496186, 0.0030534351145038168], [0.04845679012345679, 0.0015432098765432098], [0.03701923076923077, 0.012980769230769231], [0.04640151515151515, 0.0035984848484848487], [0.02474315068493151, 0.025256849315068493], [0.025, 0.025], [0.02531603793870532, 0.02468396206129468], [0.010004820122766009, 0.03999517987723399], [0.024007626448701132, 0.025992373551298877], [0.046219209412768615, 0.0037807905872313877], [0.023893129770992366, 0.026106870229007637], [0.023034934497816597, 0.02696506550218341], [0.019270833333333334, 0.030729166666666665], [0.025, 0.025], [0.03333333333333334, 0.01666666666666667], [0.025, 0.025], [0.01880952380952381, 0.031190476190476196], [0.025, 0.025], [0.037350482039269925, 0.012649517960730076], [0.014597465760155814, 0.03540253423984419], [0.04113430225805453, 0.008865697741945474], [0.01761825588378206, 0.03238174411621794], [0.04421717040387653, 0.005782829596123474], [0.02129340156823716, 0.02870659843176284], [0.022987455301033053, 0.027012544698966946], [0.011473427100293327, 0.03852657289970668]], "children_default": [1.0, 3.0, 5.0, 7.0, 9.0, 11.0, 13.0, 15.0, 17.0, 19.0, -1.0, 21.0, 23.0, -1.0, 25.0, 27.0, -1.0, 29.0, -1.0, 31.0, -1.0, 33.0, -1.0, 35.0, 37.0, 39.0, 41.0, -1.0, -1.0, -1.0, -1.0, -1.0, -1.0, 43.0, -1.0, -1.0, 45.0, 47.0, 49.0, -1.0, -1.0, -1.0, -1.0, 51.0, -1.0, 53.0, -1.0, 55.0, -1.0, 57.0, 59.0, -1.0, -1.0, 61.0, -1.0, 63.0, -1.0, -1.0, -1.0, -1.0, -1.0, -1.0, -1.0, -1.0, -1.0]}, {"children_left": [1.0, 3.0, 5.0, 7.0, 9.0, 11.0, 13.0, 15.0, 17.0, -1.0, 19.0, 21.0, -1.0, 23.0, 25.0, 27.0, 29.0, 31.0, -1.0, 33.0, -1.0, 35.0, -1.0, 37.0, 39.0, -1.0, 41.0, -1.0, -1.0, -1.0, -1.0, -1.0, -1.0, -1.0, -1.0, 43.0, -1.0, 45.0, 47.0, 49.0, 51.0, -1.0, -1.0, 53.0, -1.0, 55.0, -1.0, -1.0, 57.0, 59.0, -1.0, -1.0, 61.0, -1.0, -1.0, -1.0, 63.0, -1.0, 65.0, -1.0, 67.0, -1.0, 69.0, 71.0, -1.0, 73.0, -1.0, -1.0, -1.0, -1.0, -1.0, -1.0, -1.0, -1.0, -1.0], "children_right": [2.0, 4.0, 6.0, 8.0, 10.0, 12.0, 14.0, 16.0, 18.0, -1.0, 20.0, 22.0, -1.0, 24.0, 26.0, 28.0, 30.0, 32.0, -1.0, 34.0, -1.0, 36.0, -1.0, 38.0, 40.0, -1.0, 42.0, -1.0, -1.0, -1.0, -1.0, -1.0, -1.0, -1.0, -1.0, 44.0, -1.0, 46.0, 48.0, 50.0, 52.0, -1.0, -1.0, 54.0, -1.0, 56.0, -1.0, -1.0, 58.0, 60.0, -1.0, -1.0, 62.0, -1.0, -1.0, -1.0, 64.0, -1.0, 66.0, -1.0, 68.0, -1.0, 70.0, 72.0, -1.0, 74.0, -1.0, -1.0, -1.0, -1.0, -1.0, -1.0, -1.0, -1.0, -1.0], "features": [6.0, 2.0, 2.0, 5.0, 7.0, 8.0, 3.0, 0.0, 1.0, -2.0, 2.0, 3.0, -2.0, 8.0, 2.0, 3.0, 2.0, 1.0, -2.0, 0.0, -2.0, 8.0, -2.0, 0.0, 1.0, -2.0, 2.0, -2.0, -2.0, -2.0, -2.0, -2.0, -2.0, -2.0, -2.0, 7.0, -2.0, 8.0, 6.0, 0.0, 6.0, -2.0, -2.0, 3.0, -2.0, 6.0, -2.0, -2.0, 2.0, 1.0, -2.0, -2.0, 2.0, -2.0, -2.0, -2.0, 1.0, -2.0, 0.0, -2.0, 0.0, -2.0, 0.0, 2.0, -2.0, 1.0, -2.0, -2.0, -2.0, -2.0, -2.0, -2.0, -2.0, -2.0, -2.0], "thresholds": [0.5, 2.0850000381469727, 0.5, 0.5, 0.5, 0.5, 0.5, 0.5, 822.5, -2.0, 6.75, 0.5, -2.0, 0.5, 1.375, 0.5, 1.6349999904632568, 1.0, -2.0, 4.5, -2.0, 0.5, -2.0, 3.298858642578125, 550.5, -2.0, 1.899999976158142, -2.0, -2.0, -2.0, -2.0, -2.0, -2.0, -2.0, -2.0, 0.5, -2.0, 0.5, 0.5, 22.09090909090909, 0.5, -2.0, -2.0, 0.5, -2.0, 0.5, -2.0, -2.0, 3.727272727272727, 139.8181818181818, -2.0, -2.0, 3.090909090909091, -2.0, -2.0, -2.0, 699.0909090909091, -2.0, 5.363636363636363, -2.0, 6.454545454545454, -2.0, 9.09090909090909, 1.9090909090909092, -2.0, 726.0, -2.0, -2.0, -2.0, -2.0, -2.0, -2.0, -2.0, -2.0, -2.0], "node_sample_weight": [5219.0, 737.0, 4482.0, 428.0, 309.0, 863.0, 3619.0, 308.0, 120.0, 128.0, 248.0, 862.0, 1.0, 3331.0, 288.0, 152.0, 156.0, 105.0, 40.0, 224.0, 34.0, 960.0, 112.0, 1916.0, 1415.0, 126.0, 240.0, 353.0, 12.0, 105.0, 228.0, 182.0, 99.0, 333.0, 231.0, 951.0, 2.0, 974.0, 1005.0, 967.0, 940.0, 24.0, 590.0, 585.0, 2.0, 946.0, 2.0, 2.0, 850.0, 1584.0412485060601, 32.95875149393976, 2.0, 702.0, 519.0, 2.0, 2.0, 967.0, 645.8210093645222, 156.17899063547776, 334.093945652136, 147.906054347864, 252.34745983472828, 76.65254016527173, 301.91677659699127, 331.08322340300873, 453.118862175635, 190.881137824365, 406.6555403378429, 120.34445966215708, 77.73755818071335, 34.26244181928665, 34.51659336406413, 93.48340663593586, 252.22432423892113, 227.77567576107887], "values": [[0.025445487641310598, 0.024554512358689405], [0.010719131614654003, 0.039280868385346], [0.02786702365015618, 0.02213297634984382], [0.01355140186915888, 0.03644859813084112], [0.006796116504854369, 0.04320388349514564], [0.01998841251448436, 0.030011587485515644], [0.029745786128764853, 0.020254213871235147], [0.005681818181818182, 0.04431818181818182], [0.033749999999999995, 0.01625], [0.017578125, 0.032421875], [0.003830645161290323, 0.04616935483870968], [0.020011600928074247, 0.029988399071925756], [0.0, 0.05], [0.028655058540978686, 0.021344941459021317], [0.04236111111111111, 0.0076388888888888895], [0.0036184210526315794, 0.046381578947368426], [0.007692307692307694, 0.04230769230769231], [0.037142857142857144, 0.012857142857142859], [0.02, 0.030000000000000006], [0.003125, 0.046875], [0.007352941176470588, 0.04264705882352942], [0.021510416666666667, 0.028489583333333336], [0.022321428571428572, 0.02767857142857143], [0.027244258872651358, 0.022755741127348645], [0.030565371024734982, 0.019434628975265017], [0.04801587301587302, 0.001984126984126984], [0.04083333333333334, 0.009166666666666667], [0.002124645892351275, 0.04787535410764873], [0.02916666666666667, 0.020833333333333332], [0.0033333333333333335, 0.04666666666666667], [0.007675438596491228, 0.04232456140350877], [0.028846153846153848, 0.021153846153846155], [0.04141414141414142, 0.008585858585858587], [0.00885885885885886, 0.041141141141141147], [0.002380952380952381, 0.047619047619047616], [0.0240273396424816, 0.025972660357518405], [0.025, 0.025], [0.02920944558521561, 0.020790554414784394], [0.025323383084577118, 0.024676616915422885], [0.04136504653567735, 0.008634953464322647], [0.016117021276595745, 0.033882978723404254], [0.03541666666666667, 0.014583333333333335], [0.043898305084745765, 0.006101694915254237], [0.025384615384615387, 0.024615384615384615], [0.025, 0.025], [0.028594080338266385, 0.021405919661733615], [0.025, 0.025], [0.025, 0.025], [0.022176470588235297, 0.02782352941176471], [0.026198812713456452, 0.02380118728654355], [0.00758523878084303, 0.04241476121915697], [0.025, 0.025], [0.019800569800569802, 0.030199430199430204], [0.019267822736030827, 0.030732177263969172], [0.025, 0.025], [0.025, 0.025], [0.030455015511892454, 0.019544984488107552], [0.024443045897429867, 0.025556954102570136], [0.032745553071955646, 0.017254446928044363], [0.040421855763492665, 0.009578144236507333], [0.044591161237264434, 0.005408838762735566], [0.020012089692947307, 0.029987910307052695], [0.012393587974406201, 0.0376064120255938], [0.03608412973546316, 0.01391587026453684], [0.01768617510659438, 0.03231382489340562], [0.02969627669917225, 0.020303723300827758], [0.031140095658312456, 0.018859904341687547], [0.04618842030601063, 0.003811579693989377], [0.03795125256226515, 0.01204874743773485], [0.00626309753522026, 0.043736902464779744], [0.04124405663839385, 0.008755943361606155], [0.017382943724239926, 0.03261705627576008], [0.039579216602678734, 0.01042078339732127], [0.04051850524681017, 0.009481494753189828], [0.01791344655797235, 0.032086553442027654]], "children_default": [1.0, 3.0, 5.0, 7.0, 9.0, 11.0, 13.0, 15.0, 17.0, -1.0, 19.0, 21.0, -1.0, 23.0, 25.0, 27.0, 29.0, 31.0, -1.0, 33.0, -1.0, 35.0, -1.0, 37.0, 39.0, -1.0, 41.0, -1.0, -1.0, -1.0, -1.0, -1.0, -1.0, -1.0, -1.0, 43.0, -1.0, 45.0, 47.0, 49.0, 51.0, -1.0, -1.0, 53.0, -1.0, 55.0, -1.0, -1.0, 57.0, 59.0, -1.0, -1.0, 61.0, -1.0, -1.0, -1.0, 63.0, -1.0, 65.0, -1.0, 67.0, -1.0, 69.0, 71.0, -1.0, 73.0, -1.0, -1.0, -1.0, -1.0, -1.0, -1.0, -1.0, -1.0, -1.0]}, {"children_left": [1.0, 3.0, 5.0, 7.0, 9.0, 11.0, 13.0, 15.0, -1.0, 17.0, -1.0, 19.0, 21.0, 23.0, 25.0, -1.0, -1.0, 27.0, -1.0, 29.0, 31.0, 33.0, 35.0, -1.0, 37.0, -1.0, 39.0, 41.0, -1.0, -1.0, 43.0, -1.0, -1.0, -1.0, -1.0, 45.0, 47.0, -1.0, -1.0, -1.0, -1.0, 49.0, -1.0, 51.0, -1.0, 53.0, -1.0, 55.0, -1.0, 57.0, -1.0, 59.0, -1.0, 61.0, -1.0, 63.0, -1.0, -1.0, -1.0, -1.0, 65.0, -1.0, -1.0, -1.0, -1.0, 67.0, -1.0, -1.0, -1.0], "children_right": [2.0, 4.0, 6.0, 8.0, 10.0, 12.0, 14.0, 16.0, -1.0, 18.0, -1.0, 20.0, 22.0, 24.0, 26.0, -1.0, -1.0, 28.0, -1.0, 30.0, 32.0, 34.0, 36.0, -1.0, 38.0, -1.0, 40.0, 42.0, -1.0, -1.0, 44.0, -1.0, -1.0, -1.0, -1.0, 46.0, 48.0, -1.0, -1.0, -1.0, -1.0, 50.0, -1.0, 52.0, -1.0, 54.0, -1.0, 56.0, -1.0, 58.0, -1.0, 60.0, -1.0, 62.0, -1.0, 64.0, -1.0, -1.0, -1.0, -1.0, 66.0, -1.0, -1.0, -1.0, -1.0, 68.0, -1.0, -1.0, -1.0], "features": [0.0, 6.0, 7.0, 3.0, 8.0, 2.0, 8.0, 5.0, -2.0, 3.0, -2.0, 0.0, 2.0, 1.0, 0.0, -2.0, -2.0, 8.0, -2.0, 0.0, 0.0, 0.0, 1.0, -2.0, 0.0, -2.0, 2.0, 5.0, -2.0, -2.0, 1.0, -2.0, -2.0, -2.0, -2.0, 4.0, 4.0, -2.0, -2.0, -2.0, -2.0, 4.0, -2.0, 1.0, -2.0, 2.0, -2.0, 2.0, -2.0, 4.0, -2.0, 2.0, -2.0, 3.0, -2.0, 1.0, -2.0, -2.0, -2.0, -2.0, 1.0, -2.0, -2.0, -2.0, -2.0, 4.0, -2.0, -2.0, -2.0], "thresholds": [0.5, 0.5, 0.5, 0.5, 0.5, 2.0850000381469727, 0.5, 0.5, -2.0, 0.5, -2.0, 3.5, 2.899999976158142, 411.0, 3.5, -2.0, -2.0, 0.5, -2.0, 1.5, 6.5, 10.5, 693.0, -2.0, 3.298858642578125, -2.0, 6.75, 0.5, -2.0, -2.0, 2065.4545454545455, -2.0, -2.0, -2.0, -2.0, 0.5, 0.5, -2.0, -2.0, -2.0, -2.0, 0.5, -2.0, 906.4545454545455, -2.0, 4.090909090909091, -2.0, 5.545454545454545, -2.0, 0.5, -2.0, 1.9090909090909092, -2.0, 0.5, -2.0, 1148.909090909091, -2.0, -2.0, -2.0, -2.0, 590.5454545454545, -2.0, -2.0, -2.0, -2.0, 0.5, -2.0, -2.0, -2.0], "node_sample_weight": [5219.0, 1109.0, 4110.0, 190.0, 919.0, 3699.0, 411.0, 182.0, 23.0, 916.0, 3.0, 1599.0, 2100.0, 221.0, 190.0, 397.0, 127.0, 963.0, 113.0, 1261.0, 338.0, 289.0, 1811.0, 111.0, 168.0, 154.0, 126.0, 945.0, 2.0, 533.0, 1092.0, 574.0, 190.0, 635.0, 109.0, 1061.0, 922.0, 159.0, 228.0, 219.0, 23.0, 953.0, 2.0, 2175.5621647066696, 5.437835293330409, 639.0, 2.0, 934.0, 3.0, 479.0, 2.0, 197.10963183915152, 408.8903681608485, 933.287578198223, 557.712421801777, 435.82589122909906, 151.17410877090094, 110.0, 2.0, 177.79555106807615, 298.2044489319238, 898.0, 85.0, 123.44462931125403, 117.55537068874597, 187.20340038947728, 52.79659961052272, 349.0, 2.0], "values": [[0.025761640160950377, 0.024238359839049626], [0.018935978358881875, 0.031064021641118128], [0.027603406326034065, 0.022396593673965938], [0.010789473684210528, 0.03921052631578947], [0.020620239390642, 0.029379760609358], [0.03027845363611787, 0.019721546363882132], [0.0035279805352798057, 0.046472019464720196], [0.01043956043956044, 0.03956043956043956], [0.0391304347826087, 0.010869565217391304], [0.02068777292576419, 0.029312227074235808], [0.0, 0.05000000000000001], [0.033176985616010006, 0.016823014383989997], [0.028071428571428574, 0.02192857142857143], [0.005203619909502263, 0.04479638009049774], [0.0015789473684210528, 0.048421052631578955], [0.0023929471032745593, 0.04760705289672545], [0.029921259842519688, 0.020078740157480318], [0.02227414330218069, 0.027725856697819316], [0.02345132743362832, 0.02654867256637168], [0.03528945281522601, 0.014710547184773989], [0.025295857988165683, 0.02470414201183432], [0.020242214532871974, 0.029757785467128026], [0.029320817228050803, 0.0206791827719492], [0.023423423423423424, 0.02657657657657658], [0.0008928571428571429, 0.049107142857142856], [0.006493506493506494, 0.04350649350649351], [0.0003968253968253968, 0.0496031746031746], [0.02544973544973545, 0.024550264550264555], [0.025, 0.025], [0.04061913696060038, 0.009380863039399626], [0.034249084249084245, 0.01575091575091575], [0.02865853658536585, 0.021341463414634148], [0.015789473684210527, 0.034210526315789476], [0.025905511811023622, 0.02409448818897638], [0.023394495412844038, 0.026605504587155968], [0.040103675777568334, 0.009896324222431668], [0.015021691973969633, 0.03497830802603037], [0.0009433962264150945, 0.04905660377358491], [0.0026315789473684214, 0.04736842105263158], [0.0015981735159817352, 0.04840182648401827], [0.002173913043478261, 0.04782608695652174], [0.023294858342077653, 0.026705141657922354], [0.025, 0.025], [0.024890118461543036, 0.02510988153845697], [0.009194835316421922, 0.04080516468357808], [0.023552425665101722, 0.02644757433489828], [0.025, 0.025], [0.016220556745182014, 0.033779443254817985], [0.016666666666666666, 0.03333333333333333], [0.018580375782881003, 0.031419624217119], [0.025, 0.025], [0.034498567809963965, 0.015501432190036043], [0.02176622560230848, 0.028233774397691522], [0.03926859895328152, 0.01073140104671849], [0.04240734733367789, 0.007592652666322114], [0.014404191287635369, 0.03559580871236463], [0.01635386187973859, 0.03364613812026142], [0.030454545454545456, 0.019545454545454543], [0.025, 0.025], [0.029247076030653723, 0.020752923969346276], [0.04376192255595471, 0.0062380774440452995], [0.03942093541202672, 0.010579064587973273], [0.045294117647058825, 0.004705882352941177], [0.009496010252556477, 0.04050398974744353], [0.013846824053213004, 0.036153175946787], [0.049732910834440106, 0.0002670891655598928], [0.024430171451213387, 0.025569828548786616], [0.046131805157593124, 0.003868194842406877], [0.025, 0.025]], "children_default": [1.0, 3.0, 5.0, 7.0, 9.0, 11.0, 13.0, 15.0, -1.0, 17.0, -1.0, 19.0, 21.0, 23.0, 25.0, -1.0, -1.0, 27.0, -1.0, 29.0, 31.0, 33.0, 35.0, -1.0, 37.0, -1.0, 39.0, 41.0, -1.0, -1.0, 43.0, -1.0, -1.0, -1.0, -1.0, 45.0, 47.0, -1.0, -1.0, -1.0, -1.0, 49.0, -1.0, 51.0, -1.0, 53.0, -1.0, 55.0, -1.0, 57.0, -1.0, 59.0, -1.0, 61.0, -1.0, 63.0, -1.0, -1.0, -1.0, -1.0, 65.0, -1.0, -1.0, -1.0, -1.0, 67.0, -1.0, -1.0, -1.0]}, {"children_left": [1.0, 3.0, 5.0, 7.0, 9.0, 11.0, 13.0, 15.0, 17.0, 19.0, 21.0, -1.0, 23.0, 25.0, 27.0, -1.0, 29.0, 31.0, -1.0, -1.0, 33.0, 35.0, 37.0, 39.0, 41.0, 43.0, 45.0, -1.0, -1.0, 47.0, -1.0, 49.0, -1.0, -1.0, -1.0, 51.0, -1.0, -1.0, -1.0, -1.0, -1.0, -1.0, -1.0, -1.0, -1.0, 53.0, -1.0, -1.0, -1.0, 55.0, -1.0, -1.0, 57.0, 59.0, 61.0, 63.0, -1.0, 65.0, 67.0, 69.0, -1.0, 71.0, -1.0, -1.0, -1.0, 73.0, -1.0, -1.0, -1.0, -1.0, -1.0, -1.0, -1.0, -1.0, -1.0], "children_right": [2.0, 4.0, 6.0, 8.0, 10.0, 12.0, 14.0, 16.0, 18.0, 20.0, 22.0, -1.0, 24.0, 26.0, 28.0, -1.0, 30.0, 32.0, -1.0, -1.0, 34.0, 36.0, 38.0, 40.0, 42.0, 44.0, 46.0, -1.0, -1.0, 48.0, -1.0, 50.0, -1.0, -1.0, -1.0, 52.0, -1.0, -1.0, -1.0, -1.0, -1.0, -1.0, -1.0, -1.0, -1.0, 54.0, -1.0, -1.0, -1.0, 56.0, -1.0, -1.0, 58.0, 60.0, 62.0, 64.0, -1.0, 66.0, 68.0, 70.0, -1.0, 72.0, -1.0, -1.0, -1.0, 74.0, -1.0, -1.0, -1.0, -1.0, -1.0, -1.0, -1.0, -1.0, -1.0], "features": [1.0, 0.0, 6.0, 6.0, 6.0, 7.0, 3.0, 7.0, 3.0, 0.0, 3.0, -2.0, 8.0, 0.0, 8.0, -2.0, 3.0, 8.0, -2.0, -2.0, 7.0, 1.0, 1.0, 1.0, 0.0, 2.0, 0.0, -2.0, -2.0, 7.0, -2.0, 8.0, -2.0, -2.0, -2.0, 6.0, -2.0, -2.0, -2.0, -2.0, -2.0, -2.0, -2.0, -2.0, -2.0, 8.0, -2.0, -2.0, -2.0, 4.0, -2.0, -2.0, 8.0, 1.0, 0.0, 5.0, -2.0, 0.0, 2.0, 0.0, -2.0, 2.0, -2.0, -2.0, -2.0, 0.0, -2.0, -2.0, -2.0, -2.0, -2.0, -2.0, -2.0, -2.0, -2.0], "thresholds": [602.5, 0.5, 0.5, 0.5, 0.5, 0.5, 0.5, 0.5, 0.5, 2.5, 0.5, -2.0, 0.5, 2.5, 0.5, -2.0, 0.5, 0.5, -2.0, -2.0, 0.5, 471.5, 166.0, 1215.0, 3.5, 1.5, 10.5, -2.0, -2.0, 0.5, -2.0, 0.5, -2.0, -2.0, -2.0, 0.5, -2.0, -2.0, -2.0, -2.0, -2.0, -2.0, -2.0, -2.0, -2.0, 0.5, -2.0, -2.0, -2.0, 0.5, -2.0, -2.0, 0.5, 1595.181818181818, 3.6363636363636362, 0.5, -2.0, 4.272727272727273, 5.363636363636363, 5.2727272727272725, -2.0, 2.8636363636363633, -2.0, -2.0, -2.0, 3.8181818181818183, -2.0, -2.0, -2.0, -2.0, -2.0, -2.0, -2.0, -2.0, -2.0], "node_sample_weight": [5219.0, 3349.0, 1870.0, 1052.0, 2297.0, 338.0, 1532.0, 198.0, 854.0, 206.0, 2091.0, 120.0, 287.0, 1445.0, 87.0, 177.0, 148.0, 797.0, 104.0, 114.0, 130.0, 1898.0, 193.0, 161.0, 126.0, 376.0, 1069.0, 122.0, 111.0, 252.0, 12.0, 959.0, 2.0, 79.0, 222.0, 1739.0, 375.0, 233.0, 283.0, 163.0, 222.0, 118.0, 168.0, 172.0, 633.0, 992.0, 194.0, 2.0, 285.0, 953.0, 2.0, 2.0, 990.0, 955.0, 259.0, 951.0, 2.0, 85.0, 922.0, 579.8745639835324, 76.12543601646755, 123.69274509391684, 312.30725490608313, 471.0, 2.0, 84.9315887758949, 387.0684112241051, 856.7148220037107, 172.28517799628938, 197.67089906413213, 58.329100935867885, 27.326846734009443, 78.67315326599055, 641.3567676361142, 270.6432323638858], "values": [[0.025819122437248515, 0.024180877562751484], [0.033039713347267845, 0.01696028665273216], [0.012887700534759359, 0.037112299465240646], [0.01806083650190114, 0.03193916349809886], [0.03989986939486287, 0.010100130605137137], [0.0020710059171597634, 0.04792899408284024], [0.015274151436031332, 0.03472584856396867], [0.009595959595959597, 0.04040404040404041], [0.020023419203747075, 0.029976580796252927], [0.024271844660194174, 0.02572815533980583], [0.041439502630320424, 0.00856049736967958], [0.017083333333333336, 0.03291666666666667], [0.0005226480836236935, 0.04947735191637631], [0.014359861591695501, 0.035640138408304496], [0.030459770114942532, 0.019540229885057474], [0.030225988700564976, 0.01977401129943503], [0.002364864864864865, 0.04763513513513514], [0.02038895859473024, 0.029611041405269763], [0.017788461538461538, 0.032211538461538465], [0.041666666666666664, 0.008333333333333333], [0.016153846153846154, 0.03384615384615385], [0.04075342465753425, 0.009246575342465754], [0.04818652849740933, 0.0018134715025906738], [0.00031055900621118014, 0.049689440993788817], [0.0007936507936507937, 0.049206349206349205], [0.019680851063829788, 0.030319148936170215], [0.012488306828811975, 0.03751169317118803], [0.028278688524590166, 0.02172131147540984], [0.04144144144144145, 0.00855855855855856], [0.001984126984126984, 0.04801587301587302], [0.016666666666666666, 0.03333333333333333], [0.02231491136600626, 0.027685088633993743], [0.0, 0.05], [0.03291139240506329, 0.01708860759493671], [0.012837837837837839, 0.037162162162162164], [0.041489361702127664, 0.00851063829787234], [0.0368, 0.0132], [0.05, 0.0], [0.04558303886925795, 0.00441696113074205], [0.0, 0.05], [0.0015765765765765767, 0.04842342342342342], [0.0038135593220338985, 0.0461864406779661], [0.0020833333333333337, 0.04791666666666667], [0.014534883720930232, 0.03546511627906977], [0.02203791469194313, 0.02796208530805687], [0.013306451612903227, 0.03669354838709677], [0.010824742268041237, 0.03917525773195876], [0.025, 0.025], [0.0061403508771929825, 0.043859649122807015], [0.024501573976915006, 0.025498426023084997], [0.025, 0.025], [0.025, 0.025], [0.02292929292929293, 0.02707070707070707], [0.017853403141361256, 0.03214659685863875], [0.02084942084942085, 0.029150579150579153], [0.02171398527865405, 0.028286014721345953], [0.025, 0.025], [0.024117647058823532, 0.025882352941176474], [0.04246203904555315, 0.007537960954446855], [0.01514433226639642, 0.03485566773360359], [0.022570470792836642, 0.02742952920716336], [0.025062100429950412, 0.024937899570049587], [0.010246319769171877, 0.03975368023082813], [0.016560509554140127, 0.03343949044585987], [0.025, 0.025], [0.040620928558199446, 0.00937907144180056], [0.037202725881091546, 0.012797274118908457], [0.04201559961601062, 0.007984400383989385], [0.04472011546899428, 0.0052798845310057215], [0.008516908463397024, 0.04148309153660298], [0.023426643388448493, 0.026573356611551507], [0.0018297025078189077, 0.048170297492181095], [0.03114149996907656, 0.018858500030923448], [0.0414244297752222, 0.008575570224777807], [0.03873055138545195, 0.011269448614548056]], "children_default": [1.0, 3.0, 5.0, 7.0, 9.0, 11.0, 13.0, 15.0, 17.0, 19.0, 21.0, -1.0, 23.0, 25.0, 27.0, -1.0, 29.0, 31.0, -1.0, -1.0, 33.0, 35.0, 37.0, 39.0, 41.0, 43.0, 45.0, -1.0, -1.0, 47.0, -1.0, 49.0, -1.0, -1.0, -1.0, 51.0, -1.0, -1.0, -1.0, -1.0, -1.0, -1.0, -1.0, -1.0, -1.0, 53.0, -1.0, -1.0, -1.0, 55.0, -1.0, -1.0, 57.0, 59.0, 61.0, 63.0, -1.0, 65.0, 67.0, 69.0, -1.0, 71.0, -1.0, -1.0, -1.0, 73.0, -1.0, -1.0, -1.0, -1.0, -1.0, -1.0, -1.0, -1.0, -1.0]}, {"children_left": [1.0, 3.0, 5.0, 7.0, 9.0, 11.0, 13.0, 15.0, -1.0, 17.0, -1.0, 19.0, -1.0, 21.0, 23.0, 25.0, 27.0, 29.0, -1.0, 31.0, -1.0, 33.0, 35.0, 37.0, 39.0, -1.0, -1.0, -1.0, -1.0, -1.0, -1.0, 41.0, -1.0, 43.0, 45.0, -1.0, -1.0, 47.0, 49.0, -1.0, -1.0, -1.0, 51.0, -1.0, 53.0, 55.0, -1.0, 57.0, -1.0, 59.0, -1.0, -1.0, -1.0, 61.0, 63.0, -1.0, 65.0, -1.0, -1.0, -1.0, 67.0, -1.0, -1.0, -1.0, -1.0, -1.0, 69.0, -1.0, -1.0, -1.0, -1.0], "children_right": [2.0, 4.0, 6.0, 8.0, 10.0, 12.0, 14.0, 16.0, -1.0, 18.0, -1.0, 20.0, -1.0, 22.0, 24.0, 26.0, 28.0, 30.0, -1.0, 32.0, -1.0, 34.0, 36.0, 38.0, 40.0, -1.0, -1.0, -1.0, -1.0, -1.0, -1.0, 42.0, -1.0, 44.0, 46.0, -1.0, -1.0, 48.0, 50.0, -1.0, -1.0, -1.0, 52.0, -1.0, 54.0, 56.0, -1.0, 58.0, -1.0, 60.0, -1.0, -1.0, -1.0, 62.0, 64.0, -1.0, 66.0, -1.0, -1.0, -1.0, 68.0, -1.0, -1.0, -1.0, -1.0, -1.0, 70.0, -1.0, -1.0, -1.0, -1.0], "features": [6.0, 5.0, 0.0, 3.0, 2.0, 8.0, 0.0, 2.0, -2.0, 0.0, -2.0, 3.0, -2.0, 3.0, 3.0, 1.0, 1.0, 1.0, -2.0, 8.0, -2.0, 8.0, 8.0, 1.0, 0.0, -2.0, -2.0, -2.0, -2.0, -2.0, -2.0, 6.0, -2.0, 6.0, 1.0, -2.0, -2.0, 0.0, 8.0, -2.0, -2.0, -2.0, 7.0, -2.0, 0.0, 2.0, -2.0, 0.0, -2.0, 1.0, -2.0, -2.0, -2.0, 6.0, 1.0, -2.0, 1.0, -2.0, -2.0, -2.0, 0.0, -2.0, -2.0, -2.0, -2.0, -2.0, 1.0, -2.0, -2.0, -2.0, -2.0], "thresholds": [0.5, 0.5, 0.5, 0.5, 8.0, 0.5, 3.298858642578125, 3.1649999618530273, -2.0, 2.5, -2.0, 0.5, -2.0, 0.5, 0.5, 783.5, 41.5, 822.5, -2.0, 0.5, -2.0, 0.5, 0.5, 550.5, 3.798858642578125, -2.0, -2.0, -2.0, -2.0, -2.0, -2.0, 0.5, -2.0, 0.5, 1859.2727272727275, -2.0, -2.0, 25.19958496787765, 0.5, -2.0, -2.0, -2.0, 0.5, -2.0, 1.9090909090909092, 2.6363636363636362, -2.0, 5.181818181818182, -2.0, 1392.8181818181818, -2.0, -2.0, -2.0, 0.5, 116.0909090909091, -2.0, 634.5454545454545, -2.0, -2.0, -2.0, 7.016729205753596, -2.0, -2.0, -2.0, -2.0, -2.0, 1049.8181818181818, -2.0, -2.0, -2.0, -2.0], "node_sample_weight": [5219.0, 742.0, 4477.0, 569.0, 173.0, 916.0, 3561.0, 548.0, 37.0, 164.0, 9.0, 914.0, 2.0, 1679.0, 1882.0, 430.0, 118.0, 94.0, 176.0, 966.0, 115.0, 1533.0, 146.0, 1749.0, 133.0, 597.0, 382.0, 12.0, 264.0, 212.0, 25.0, 952.0, 2.0, 937.0, 936.0, 217.0, 168.0, 947.0, 971.0, 27.0, 329.0, 2.0, 954.0, 2.0, 564.0, 1622.2705175642986, 16.729482435701243, 1829.1127974435367, 33.88720255646331, 434.0, 584.0, 542.0, 2.0, 64.03981389116316, 95.96018610883684, 400.26394991122686, 64.73605008877318, 633.8118134349861, 529.1881865650139, 443.0, 63.0, 2.0, 131.0, 240.52872433622372, 782.4712756637763, 107.22180118619923, 73.77819881380077, 144.26058518696956, 30.739414813030443, 25.38098493084165, 28.619015069158355], "values": [[0.025244299674267102, 0.0247557003257329], [0.010983827493261456, 0.03901617250673855], [0.027607773062318517, 0.022392226937681482], [0.004130052724077329, 0.045869947275922675], [0.033526011560693646, 0.01647398843930636], [0.02134279475982533, 0.028657205240174673], [0.029219320415613596, 0.020780679584386407], [0.003923357664233577, 0.04607664233576642], [0.016216216216216217, 0.033783783783783786], [0.03536585365853659, 0.014634146341463417], [0.0, 0.05], [0.02138949671772429, 0.028610503282275712], [0.0, 0.05], [0.03272781417510423, 0.017272185824895772], [0.026089266737513283, 0.023910733262486716], [0.004651162790697674, 0.04534883720930233], [0.0012711864406779662, 0.048728813559322036], [0.038829787234042554, 0.011170212765957447], [0.027556818181818186, 0.02244318181818182], [0.02282608695652174, 0.02717391304347826], [0.023043478260869568, 0.026956521739130435], [0.031539465101108936, 0.018460534898891063], [0.045205479452054796, 0.004794520547945206], [0.025157232704402517, 0.024842767295597486], [0.03834586466165414, 0.011654135338345865], [0.008207705192629816, 0.04179229480737019], [0.0006544502617801048, 0.0493455497382199], [0.008333333333333333, 0.041666666666666664], [0.00321969696969697, 0.04678030303030303], [0.03537735849056604, 0.014622641509433962], [0.024000000000000004, 0.026000000000000002], [0.024789915966386557, 0.025210084033613446], [0.025, 0.025], [0.02769477054429029, 0.022305229455709716], [0.0375534188034188, 0.012446581196581197], [0.04193548387096774, 0.008064516129032258], [0.04940476190476191, 0.0005952380952380953], [0.038225976768743404, 0.0117740232312566], [0.011585993820803296, 0.03841400617919671], [0.02592592592592593, 0.024074074074074074], [0.04270516717325228, 0.007294832826747722], [0.025, 0.025], [0.0220125786163522, 0.027987421383647803], [0.025, 0.025], [0.024556737588652486, 0.02544326241134752], [0.027954647211421418, 0.02204535278857859], [0.020921149315001462, 0.02907885068499854], [0.02561351058583156, 0.024386489414168443], [0.023607732112647228, 0.026392267887352775], [0.019009216589861752, 0.03099078341013825], [0.017294520547945207, 0.0327054794520548], [0.017527675276752766, 0.03247232472324724], [0.025, 0.025], [0.03828853560888483, 0.01171146439111517], [0.020300182653172794, 0.029699817346827213], [0.0373514932923852, 0.012648506707614802], [0.02857053770149568, 0.021429462298504325], [0.03832461017112446, 0.011675389828875544], [0.042063314891319856, 0.007936685108680152], [0.013205417607223477, 0.036794582392776526], [0.034126984126984124, 0.015873015873015872], [0.025, 0.025], [0.035114503816793895, 0.014885496183206108], [0.04417948935677634, 0.005820510643223661], [0.02456775651845024, 0.025432243481549762], [0.04544693580906096, 0.0045530641909390405], [0.020698495066448445, 0.02930150493355156], [0.014903585738360087, 0.03509641426163992], [0.013012609460295905, 0.036987390539704096], [0.01576551143483854, 0.03423448856516146], [0.03668385474861229, 0.01331614525138771]], "children_default": [1.0, 3.0, 5.0, 7.0, 9.0, 11.0, 13.0, 15.0, -1.0, 17.0, -1.0, 19.0, -1.0, 21.0, 23.0, 25.0, 27.0, 29.0, -1.0, 31.0, -1.0, 33.0, 35.0, 37.0, 39.0, -1.0, -1.0, -1.0, -1.0, -1.0, -1.0, 41.0, -1.0, 43.0, 45.0, -1.0, -1.0, 47.0, 49.0, -1.0, -1.0, -1.0, 51.0, -1.0, 53.0, 55.0, -1.0, 57.0, -1.0, 59.0, -1.0, -1.0, -1.0, 61.0, 63.0, -1.0, 65.0, -1.0, -1.0, -1.0, 67.0, -1.0, -1.0, -1.0, -1.0, -1.0, 69.0, -1.0, -1.0, -1.0, -1.0]}, {"children_left": [1.0, 3.0, 5.0, 7.0, 9.0, 11.0, 13.0, 15.0, 17.0, -1.0, 19.0, 21.0, -1.0, -1.0, 23.0, 25.0, 27.0, 29.0, 31.0, -1.0, 33.0, 35.0, 37.0, -1.0, -1.0, -1.0, -1.0, 39.0, 41.0, -1.0, 43.0, -1.0, -1.0, -1.0, -1.0, 45.0, -1.0, -1.0, -1.0, 47.0, -1.0, 49.0, -1.0, -1.0, 51.0, -1.0, -1.0, 53.0, 55.0, -1.0, -1.0, -1.0, -1.0, 57.0, -1.0, -1.0, -1.0, 59.0, -1.0, -1.0, -1.0], "children_right": [2.0, 4.0, 6.0, 8.0, 10.0, 12.0, 14.0, 16.0, 18.0, -1.0, 20.0, 22.0, -1.0, -1.0, 24.0, 26.0, 28.0, 30.0, 32.0, -1.0, 34.0, 36.0, 38.0, -1.0, -1.0, -1.0, -1.0, 40.0, 42.0, -1.0, 44.0, -1.0, -1.0, -1.0, -1.0, 46.0, -1.0, -1.0, -1.0, 48.0, -1.0, 50.0, -1.0, -1.0, 52.0, -1.0, -1.0, 54.0, 56.0, -1.0, -1.0, -1.0, -1.0, 58.0, -1.0, -1.0, -1.0, 60.0, -1.0, -1.0, -1.0], "features": [7.0, 3.0, 0.0, 8.0, 0.0, 3.0, 1.0, 6.0, 1.0, -2.0, 6.0, 2.0, -2.0, -2.0, 0.0, 4.0, 1.0, 2.0, 2.0, -2.0, 1.0, 8.0, 2.0, -2.0, -2.0, -2.0, -2.0, 8.0, 7.0, -2.0, 8.0, -2.0, -2.0, -2.0, -2.0, 5.0, -2.0, -2.0, -2.0, 1.0, -2.0, 2.0, -2.0, -2.0, 1.0, -2.0, -2.0, 0.0, 0.0, -2.0, -2.0, -2.0, -2.0, 7.0, -2.0, -2.0, -2.0, 2.0, -2.0, -2.0, -2.0], "thresholds": [0.5, 0.5, 3.798858642578125, 0.5, 0.5, 0.5, 412.0, 0.5, 596.0, -2.0, 0.5, 1.25, -2.0, -2.0, 4.5, 0.5, 608.0, 0.5, 2.125, -2.0, 748.5, 0.5, 1.75, -2.0, -2.0, -2.0, -2.0, 0.5, 0.5, -2.0, 0.5, -2.0, -2.0, -2.0, -2.0, 0.5, -2.0, -2.0, -2.0, 151.36363636363637, -2.0, 3.090909090909091, -2.0, -2.0, 54.72727272727273, -2.0, -2.0, 3.090909090909091, 5.090909090909091, -2.0, -2.0, -2.0, -2.0, 0.5, -2.0, -2.0, -2.0, 0.8181818181818181, -2.0, -2.0, -2.0], "node_sample_weight": [5219.0, 4650.0, 569.0, 4290.0, 360.0, 343.0, 226.0, 2893.0, 1397.0, 118.0, 300.0, 334.0, 14.0, 99.0, 180.0, 105.0, 2788.0, 801.0, 596.0, 35.0, 282.0, 182.0, 152.0, 144.0, 255.0, 251.0, 18.0, 1837.0, 964.0, 4.0, 957.0, 550.0, 748.0, 543.0, 171.0, 284.0, 14.0, 21.0, 321.0, 1053.0, 2.0, 572.0, 2.0, 2.0, 933.0, 311.0, 2.0, 704.19656327417, 85.80343672583003, 794.387650361028, 391.612349638972, 175.47824369928952, 890.5217563007104, 933.8669978349017, 312.13300216509833, 708.5748573266428, 137.42514267335724, 580.0, 2.0, 330.29363016673096, 102.706369833269], "values": [[0.025253880053650125, 