{"internal_dtype": "<class 'numpy.float64'>", "input_dtype": "<class 'numpy.float64'>", "objective": "binary_crossentropy", "tree_output": "probability", "base_offset": 0, "trees": [{"children_left": [1.0, 3.0, 5.0, 7.0, 9.0, 11.0, 13.0, 15.0, 17.0, 19.0, 21.0, -1.0, 23.0, 25.0, -1.0, 27.0, -1.0, -1.0, -1.0, 29.0, -1.0, 31.0, 33.0, 35.0, -1.0, 37.0, -1.0, -1.0, 39.0, -1.0, -1.0, -1.0, -1.0, 41.0, -1.0, 43.0, -1.0, -1.0, -1.0, -1.0, -1.0, 45.0, 47.0, 49.0, -1.0, -1.0, -1.0, 51.0, -1.0, -1.0, -1.0, -1.0, -1.0], "children_right": [2.0, 4.0, 6.0, 8.0, 10.0, 12.0, 14.0, 16.0, 18.0, 20.0, 22.0, -1.0, 24.0, 26.0, -1.0, 28.0, -1.0, -1.0, -1.0, 30.0, -1.0, 32.0, 34.0, 36.0, -1.0, 38.0, -1.0, -1.0, 40.0, -1.0, -1.0, -1.0, -1.0, 42.0, -1.0, 44.0, -1.0, -1.0, -1.0, -1.0, -1.0, 46.0, 48.0, 50.0, -1.0, -1.0, -1.0, 52.0, -1.0, -1.0, -1.0, -1.0, -1.0], "features": [1.0, 0.0, 7.0, 7.0, 6.0, 0.0, 2.0, 8.0, 3.0, 2.0, 0.0, -2.0, 3.0, 0.0, -2.0, 6.0, -2.0, -2.0, -2.0, 2.0, -2.0, 0.0, 3.0, 4.0, -2.0, 0.0, -2.0, -2.0, 3.0, -2.0, -2.0, -2.0, -2.0, 8.0, -2.0, 5.0, -2.0, -2.0, -2.0, -2.0, -2.0, 0.0, 1.0, 0.0, -2.0, -2.0, -2.0, 2.0, -2.0, -2.0, -2.0, -2.0, -2.0], "thresholds": [563.5, 0.5, 0.5, 0.5, 0.5, 1.5, 4.25, 0.5, 0.5, 2.899999976158142, 2.5, -2.0, 0.5, 4.5, -2.0, 0.5, -2.0, -2.0, -2.0, 1.1650000214576721, -2.0, 1.5, 0.5, 0.5, -2.0, 3.298858642578125, -2.0, -2.0, 0.5, -2.0, -2.0, -2.0, -2.0, 0.5, -2.0, 0.5, -2.0, -2.0, -2.0, -2.0, -2.0, 5.909090909090909, 286.54545454545456, 4.090909090909091, -2.0, -2.0, -2.0, 2.909090909090909, -2.0, -2.0, -2.0, -2.0, -2.0], "node_sample_weight": [5219.0, 3237.0, 1982.0, 1076.0, 2161.0, 1696.0, 286.0, 911.0, 165.0, 186.0, 1975.0, 54.0, 1646.0, 224.0, 66.0, 906.0, 5.0, 225.0, 8.0, 110.0, 89.0, 621.0, 1354.0, 1577.0, 93.0, 183.0, 60.0, 90.0, 923.0, 34.0, 103.0, 188.0, 640.0, 1261.0, 122.0, 1578.0, 8.0, 158.0, 80.0, 614.0, 55.0, 446.0, 343.0, 875.0, 42.0, 140.35186937593897, 32.64813062406103, 88.7491078573606, 65.2508921426394, 267.50424802604005, 145.49575197395995, 31.057989289114616, 90.94201071088538], "values": [[0.025512550296991763, 0.02448744970300824], [0.032792709298733395, 0.017207290701266607], [0.013622603430877902, 0.0363773965691221], [0.018540892193308553, 0.03145910780669145], [0.039888940305414164, 0.01011105969458584], [0.015713443396226417, 0.03428655660377359], [0.0012237762237762239, 0.04877622377622378], [0.021405049396267837, 0.028594950603732162], [0.0027272727272727275, 0.04727272727272728], [0.0239247311827957, 0.026075268817204303], [0.041392405063291136, 0.008607594936708861], [0.032407407407407406, 0.017592592592592594], [0.015249088699878495, 0.034750911300121506], [0.0015625, 0.04843750000000001], [0.0, 0.05], [0.02152317880794702, 0.02847682119205298], [0.0, 0.05], [0.002666666666666667, 0.04733333333333334], [0.00625, 0.043750000000000004], [0.030909090909090914, 0.019090909090909092], [0.011797752808988765, 0.03820224719101124], [0.04516908212560387, 0.004830917874396135], [0.0396602658788774, 0.0103397341211226], [0.014552948636651873, 0.03544705136334813], [0.03602150537634409, 0.013978494623655914], [0.0019125683060109292, 0.048087431693989074], [0.0, 0.05], [0.03333333333333333, 0.016666666666666666], [0.020801733477789817, 0.02919826652221019], [0.030882352941176472, 0.01911764705882353], [0.030582524271844665, 0.019417475728155338], [0.04760638297872341, 0.0023936170212765957], [0.04359375, 0.0064062500000000005], [0.03909595559080096, 0.010904044409199048], [0.0471311475409836, 0.0028688524590163938], [0.014638783269961979, 0.035361216730038024], [0.037500000000000006, 0.0125], [0.0034810126582278484, 0.04651898734177216], [0.00875, 0.04125], [0.0245928338762215, 0.025407166123778503], [0.02727272727272727, 0.022727272727272728], [0.023766816143497762, 0.026233183856502244], [0.02434402332361516, 0.02565597667638484], [0.024114285714285717, 0.02588571428571429], [0.022619047619047622, 0.027380952380952384], [0.03491225319468402, 0.015087746805315978], [0.021440737543610346, 0.028559262456389657], [0.04098582487966216, 0.009014175120337847], [0.04003845037736663, 0.009961549622633367], [0.01598184863548722, 0.034018151364512784], [0.013572819631541094, 0.03642718036845891], [0.03219783453111325, 0.01780216546888675], [0.036286859881414564, 0.01371314011858544]], "children_default": [1.0, 3.0, 5.0, 7.0, 9.0, 11.0, 13.0, 15.0, 17.0, 19.0, 21.0, -1.0, 23.0, 25.0, -1.0, 27.0, -1.0, -1.0, -1.0, 29.0, -1.0, 31.0, 33.0, 35.0, -1.0, 37.0, -1.0, -1.0, 39.0, -1.0, -1.0, -1.0, -1.0, 41.0, -1.0, 43.0, -1.0, -1.0, -1.0, -1.0, -1.0, 45.0, 47.0, 49.0, -1.0, -1.0, -1.0, 51.0, -1.0, -1.0, -1.0, -1.0, -1.0]}, {"children_left": [1.0, 3.0, 5.0, 7.0, 9.0, 11.0, 13.0, 15.0, 17.0, 19.0, 21.0, 23.0, -1.0, 25.0, 27.0, -1.0, -1.0, 29.0, 31.0, 33.0, -1.0, 35.0, 37.0, -1.0, 39.0, 41.0, -1.0, 43.0, 45.0, -1.0, -1.0, -1.0, -1.0, -1.0, -1.0, 47.0, -1.0, -1.0, -1.0, -1.0, -1.0, -1.0, -1.0, -1.0, -1.0, -1.0, -1.0, 49.0, -1.0, -1.0, -1.0], "children_right": [2.0, 4.0, 6.0, 8.0, 10.0, 12.0, 14.0, 16.0, 18.0, 20.0, 22.0, 24.0, -1.0, 26.0, 28.0, -1.0, -1.0, 30.0, 32.0, 34.0, -1.0, 36.0, 38.0, -1.0, 40.0, 42.0, -1.0, 44.0, 46.0, -1.0, -1.0, -1.0, -1.0, -1.0, -1.0, 48.0, -1.0, -1.0, -1.0, -1.0, -1.0, -1.0, -1.0, -1.0, -1.0, -1.0, -1.0, 50.0, -1.0, -1.0, -1.0], "features": [1.0, 6.0, 6.0, 7.0, 2.0, 5.0, 0.0, 1.0, 1.0, 3.0, 3.0, 1.0, -2.0, 3.0, 2.0, -2.0, -2.0, 1.0, 1.0, 8.0, -2.0, 1.0, 1.0, -2.0, 1.0, 2.0, -2.0, 0.0, 1.0, -2.0, -2.0, -2.0, -2.0, -2.0, -2.0, 7.0, -2.0, -2.0, -2.0, -2.0, -2.0, -2.0, -2.0, -2.0, -2.0, -2.0, -2.0, 7.0, -2.0, -2.0, -2.0], "thresholds": [618.5, 0.5, 0.5, 0.5, 0.5, 0.5, 2.5, 8.0, 26.0, 0.5, 0.5, 786.5, -2.0, 0.5, 5.25, -2.0, -2.0, 0.5, 601.0, 0.5, -2.0, 514.5, 343.5, -2.0, 1265.0, 1.5, -2.0, 3.298858642578125, 833.0, -2.0, -2.0, -2.0, -2.0, -2.0, -2.0, 0.5, -2.0, -2.0, -2.0, -2.0, -2.0, -2.0, -2.0, -2.0, -2.0, -2.0, -2.0, 0.5, -2.0, -2.0, -2.0], "node_sample_weight": [5219.0, 3289.0, 1930.0, 411.0, 2878.0, 326.0, 1604.0, 109.0, 302.0, 859.0, 2019.0, 287.0, 48.0, 428.0, 1176.0, 99.0, 89.0, 188.0, 114.0, 955.0, 81.0, 1820.0, 199.0, 45.0, 249.0, 411.0, 21.0, 1010.0, 166.0, 258.0, 7.0, 122.0, 7.0, 511.0, 2.0, 1738.0, 120.0, 248.0, 50.0, 144.0, 157.0, 85.0, 398.0, 398.0, 941.0, 14.0, 178.0, 1016.0, 2.0, 474.0, 2.0], "values": [[0.025330523088714318, 0.02466947691128569], [0.033216783216783216, 0.016783216783216783], [0.01189119170984456, 0.03810880829015544], [0.015206812652068127, 0.034793187347931874], [0.035788742182070885, 0.01421125781792912], [0.002147239263803681, 0.04785276073619632], [0.013871571072319202, 0.0361284289276808], [0.04128440366972477, 0.00871559633027523], [0.005794701986754967, 0.04420529801324504], [0.021653084982537835, 0.028346915017462167], [0.041802872709262015, 0.00819712729073799], [0.0013937282229965157, 0.04860627177700349], [0.013541666666666667, 0.036458333333333336], [0.01880841121495327, 0.031191588785046732], [0.01207482993197279, 0.03792517006802721], [0.03282828282828283, 0.017171717171717175], [0.032584269662921356, 0.01741573033707865], [0.0026595744680851063, 0.04734042553191489], [0.010964912280701754, 0.03903508771929825], [0.022879581151832463, 0.02712041884816754], [0.022839506172839506, 0.027160493827160497], [0.04104395604395605, 0.008956043956043956], [0.04874371859296483, 0.001256281407035176], [0.01, 0.04], [0.0006024096385542169, 0.04939759036144579], [0.018126520681265208, 0.0318734793187348], [0.0380952380952381, 0.011904761904761904], [0.011287128712871287, 0.03871287128712871], [0.016867469879518072, 0.03313253012048193], [0.0029069767441860465, 0.04709302325581396], [0.0, 0.05], [0.010655737704918034, 0.03934426229508197], [0.05, 0.0], [0.023287671232876714, 0.02671232876712329], [0.025, 0.025], [0.041800920598388955, 0.008199079401611048], [0.026250000000000002, 0.02375], [0.04959677419354839, 0.0004032258064516129], [0.047, 0.0030000000000000005], [0.0010416666666666669, 0.04895833333333334], [0.0019108280254777072, 0.048089171974522296], [0.009411764705882354, 0.04058823529411765], [0.02035175879396985, 0.029648241206030154], [0.01469849246231156, 0.035301507537688445], [0.010945802337938364, 0.039054197662061634], [0.03571428571428571, 0.014285714285714287], [0.012921348314606743, 0.03707865168539326], [0.02332677165354331, 0.026673228346456693], [0.025, 0.025], [0.03850210970464135, 0.011497890295358651], [0.025, 0.025]], "children_default": [1.0, 3.0, 5.0, 7.0, 9.0, 11.0, 13.0, 15.0, 17.0, 19.0, 21.0, 23.0, -1.0, 25.0, 27.0, -1.0, -1.0, 29.0, 31.0, 33.0, -1.0, 35.0, 37.0, -1.0, 39.0, 41.0, -1.0, 43.0, 45.0, -1.0, -1.0, -1.0, -1.0, -1.0, -1.0, 47.0, -1.0, -1.0, -1.0, -1.0, -1.0, -1.0, -1.0, -1.0, -1.0, -1.0, -1.0, 49.0, -1.0, -1.0, -1.0]}, {"children_left": [1.0, 3.0, 5.0, 7.0, 9.0, 11.0, 13.0, 15.0, -1.0, 17.0, 19.0, 21.0, 23.0, 25.0, -1.0, 27.0, -1.0, 29.0, 31.0, 33.0, 35.0, -1.0, -1.0, -1.0, 37.0, -1.0, 39.0, 41.0, -1.0, 43.0, -1.0, -1.0, -1.0, -1.0, 45.0, -1.0, -1.0, -1.0, -1.0, -1.0, -1.0, -1.0, -1.0, 47.0, -1.0, -1.0, -1.0, -1.0, -1.0], "children_right": [2.0, 4.0, 6.0, 8.0, 10.0, 12.0, 14.0, 16.0, -1.0, 18.0, 20.0, 22.0, 24.0, 26.0, -1.0, 28.0, -1.0, 30.0, 32.0, 34.0, 36.0, -1.0, -1.0, -1.0, 38.0, -1.0, 40.0, 42.0, -1.0, 44.0, -1.0, -1.0, -1.0, -1.0, 46.0, -1.0, -1.0, -1.0, -1.0, -1.0, -1.0, -1.0, -1.0, 48.0, -1.0, -1.0, -1.0, -1.0, -1.0], "features": [7.0, 0.0, 2.0, 5.0, 1.0, 0.0, 2.0, 3.0, -2.0, 1.0, 8.0, 3.0, 1.0, 0.0, -2.0, 8.0, -2.0, 3.0, 8.0, 1.0, 0.0, -2.0, -2.0, -2.0, 1.0, -2.0, 1.0, 7.0, -2.0, 4.0, -2.0, -2.0, -2.0, -2.0, 6.0, -2.0, -2.0, -2.0, -2.0, -2.0, -2.0, -2.0, -2.0, 1.0, -2.0, -2.0, -2.0, -2.0, -2.0], "thresholds": [0.5, 0.5, 2.4828150272369385, 0.5, 564.0, 0.5, 6.75, 0.5, -2.0, 421.5, 0.5, 0.5, 418.0, 3.5, -2.0, 0.5, -2.0, 0.5, 0.5, 774.5, 3.5, -2.0, -2.0, -2.0, 777.0, -2.0, 1261.5, 0.5, -2.0, 0.5, -2.0, -2.0, -2.0, -2.0, 0.5, -2.0, -2.0, -2.0, -2.0, -2.0, -2.0, -2.0, -2.0, 220.63636363636363, -2.0, -2.0, -2.0, -2.0, -2.0], "node_sample_weight": [5219.0, 4629.0, 590.0, 943.0, 3686.0, 346.0, 244.0, 898.0, 86.0, 2031.0, 1655.0, 155.0, 191.0, 227.0, 27.0, 836.0, 85.0, 1819.0, 212.0, 1029.0, 626.0, 220.0, 4.0, 46.0, 145.0, 76.0, 168.0, 946.0, 1.0, 1622.0, 274.0, 142.0, 129.0, 159.0, 970.0, 333.0, 429.0, 34.0, 127.0, 118.0, 100.0, 568.0, 2.0, 971.0, 3.0, 29.0, 697.0, 291.10386246184146, 169.8961375381586], "values": [[0.02505269208660663, 0.024947307913393373], [0.02788939295744221, 0.022110607042557788], [0.0027966101694915256, 0.04720338983050848], [0.02168610816542948, 0.02831389183457052], [0.029476397178513296, 0.020523602821486707], [0.004046242774566475, 0.045953757225433524], [0.0010245901639344263, 0.048975409836065575], [0.02121380846325167, 0.028786191536748332], [0.030813953488372098, 0.01918604651162791], [0.04165435745937962, 0.008345642540620384], [0.014531722054380665, 0.03546827794561934], [0.0025806451612903226, 0.04741935483870968], [0.005235602094240838, 0.044764397905759166], [0.000881057268722467, 0.04911894273127754], [0.001851851851851852, 0.04814814814814815], [0.021291866028708136, 0.028708133971291867], [0.021764705882352943, 0.028235294117647063], [0.04219351291918637, 0.007806487080813634], [0.03702830188679246, 0.012971698113207548], [0.013459669582118564, 0.03654033041788144], [0.016293929712460065, 0.03370607028753994], [0.0029545454545454545, 0.04704545454545455], [0.0, 0.05], [0.016304347826086956, 0.03369565217391304], [0.0017241379310344827, 0.04827586206896552], [0.006578947368421052, 0.04342105263157895], [0.00029761904761904765, 0.04970238095238095], [0.022251585623678648, 0.02774841437632135], [0.0, 0.05], [0.04133785450061652, 0.008662145499383477], [0.04817518248175183, 0.0018248175182481751], [0.03450704225352113, 0.015492957746478875], [0.03527131782945736, 0.014728682170542637], [0.025471698113207545, 0.024528301886792454], [0.013298969072164948, 0.036701030927835054], [0.024174174174174175, 0.025825825825825825], [0.012004662004662006, 0.037995337995338], [0.011764705882352941, 0.03823529411764706], [0.0007874015748031497, 0.04921259842519685], [0.0, 0.05], [0.0030000000000000005, 0.047], [0.02420774647887324, 0.02579225352112676], [0.025, 0.025], [0.023326467559217304, 0.026673532440782702], [0.016666666666666666, 0.03333333333333333], [0.018965517241379314, 0.03103448275862069], [0.01994261119081779, 0.030057388809182215], [0.03773733555597596, 0.012262664444024044], [0.03392964633667502, 0.01607035366332498]], "children_default": [1.0, 3.0, 5.0, 7.0, 9.0, 11.0, 13.0, 15.0, -1.0, 17.0, 19.0, 21.0, 23.0, 25.0, -1.0, 27.0, -1.0, 29.0, 31.0, 33.0, 35.0, -1.0, -1.0, -1.0, 37.0, -1.0, 39.0, 41.0, -1.0, 43.0, -1.0, -1.0, -1.0, -1.0, 45.0, -1.0, -1.0, -1.0, -1.0, -1.0, -1.0, -1.0, -1.0, 47.0, -1.0, -1.0, -1.0, -1.0, -1.0]}, {"children_left": [1.0, 3.0, 5.0, 7.0, 9.0, 11.0, 13.0, 15.0, 17.0, 19.0, -1.0, 21.0, 23.0, 25.0, 27.0, 29.0, -1.0, -1.0, 31.0, 33.0, -1.0, 35.0, -1.0, 37.0, 39.0, 41.0, 43.0, 45.0, -1.0, -1.0, -1.0, -1.0, -1.0, -1.0, -1.0, -1.0, -1.0, 47.0, -1.0, -1.0, 49.0, -1.0, -1.0, -1.0, -1.0, -1.0, -1.0, -1.0, -1.0, 51.0, -1.0, -1.0, -1.0], "children_right": [2.0, 4.0, 6.0, 8.0, 10.0, 12.0, 14.0, 16.0, 18.0, 20.0, -1.0, 22.0, 24.0, 26.0, 28.0, 30.0, -1.0, -1.0, 32.0, 34.0, -1.0, 36.0, -1.0, 38.0, 40.0, 42.0, 44.0, 46.0, -1.0, -1.0, -1.0, -1.0, -1.0, -1.0, -1.0, -1.0, -1.0, 48.0, -1.0, -1.0, 50.0, -1.0, -1.0, -1.0, -1.0, -1.0, -1.0, -1.0, -1.0, 52.0, -1.0, -1.0, -1.0], "features": [6.0, 5.0, 8.0, 0.0, 2.0, 2.0, 0.0, 3.0, 1.0, 1.0, -2.0, 3.0, 1.0, 1.0, 3.0, 0.0, -2.0, -2.0, 1.0, 3.0, -2.0, 8.0, -2.0, 2.0, 1.0, 0.0, 0.0, 1.0, -2.0, -2.0, -2.0, -2.0, -2.0, -2.0, -2.0, -2.0, -2.0, 3.0, -2.0, -2.0, 3.0, -2.0, -2.0, -2.0, -2.0, -2.0, -2.0, -2.0, -2.0, 1.0, -2.0, -2.0, -2.0], "thresholds": [0.5, 0.5, 0.5, 3.798858642578125, 2.2328150272369385, 0.5, 2.5, 0.5, 413.0, 822.5, -2.0, 0.5, 547.5, 752.0, 0.5, 0.5, -2.0, -2.0, 1261.5, 0.5, -2.0, 0.5, -2.0, 12.0, 774.0, 0.5, 1.5, 550.5, -2.0, -2.0, -2.0, -2.0, -2.0, -2.0, -2.0, -2.0, -2.0, 0.5, -2.0, -2.0, 0.5, -2.0, -2.0, -2.0, -2.0, -2.0, -2.0, -2.0, -2.0, 1503.3636363636363, -2.0, -2.0, -2.0], "node_sample_weight": [5219.0, 749.0, 4470.0, 586.0, 163.0, 2966.0, 1504.0, 376.0, 210.0, 98.0, 94.0, 877.0, 2089.0, 478.0, 1026.0, 369.0, 7.0, 54.0, 160.0, 82.0, 16.0, 925.0, 80.0, 1091.0, 998.0, 345.0, 133.0, 949.0, 108.0, 227.0, 253.0, 109.0, 95.0, 157.0, 6.0, 546.0, 2.0, 1095.0, 2.0, 188.0, 932.0, 3.0, 419.0, 6.0, 152.0, 751.0, 525.0, 773.0, 102.0, 577.0, 45.0, 146.27299854563427, 52.72700145436572], "values": [[0.02512933512167082, 0.024870664878329184], [0.010280373831775701, 0.0397196261682243], [0.02761744966442953, 0.022382550335570472], [0.0040955631399317415, 0.045904436860068266], [0.03251533742331289, 0.017484662576687116], [0.025910316925151722, 0.02408968307484828], [0.03098404255319149, 0.01901595744680851], [0.0050531914893617025, 0.0449468085106383], [0.002380952380952381, 0.047619047619047616], [0.03826530612244898, 0.011734693877551022], [0.021808510638297876, 0.02819148936170213], [0.020182440136830102, 0.0298175598631699], [0.028314983245572047, 0.02168501675442796], [0.03671548117154812, 0.013284518828451884], [0.02831384015594542, 0.02168615984405458], [0.004607046070460705, 0.04539295392953929], [0.028571428571428574, 0.021428571428571432], [0.008333333333333333, 0.041666666666666664], [0.0003125, 0.0496875], [0.04085365853658537, 0.009146341463414634], [0.025, 0.025], [0.02108108108108108, 0.02891891891891892], [0.0225, 0.027500000000000004], [0.04078826764436297, 0.00921173235563703], [0.01467935871743487, 0.03532064128256513], [0.043623188405797104, 0.006376811594202899], [0.018796992481203006, 0.031203007518796996], [0.02713382507903056, 0.022866174920969446], [0.04490740740740741, 0.005092592592592593], [0.0028634361233480176, 0.047136563876651986], [0.008695652173913044, 0.04130434782608696], [0.001376146788990826, 0.048623853211009184], [0.005263157894736842, 0.04473684210526316], [0.03280254777070064, 0.017197452229299363], [0.041666666666666664, 0.008333333333333333], [0.024633699633699636, 0.02536630036630037], [0.025, 0.025], [0.040639269406392696, 0.009360730593607305], [0.0, 0.05], [0.021808510638297876, 0.02819148936170213], [0.014484978540772532, 0.03551502145922747], [0.0, 0.05000000000000001], [0.04307875894988067, 0.006921241050119333], [0.05000000000000001, 0.0], [0.020394736842105264, 0.029605263157894735], [0.04061251664447404, 0.009387483355525967], [0.010571428571428574, 0.03942857142857143], [0.02639068564036223, 0.023609314359637774], [0.03872549019607843, 0.01127450980392157], [0.0195840554592721, 0.030415944540727904], [0.02888888888888889, 0.021111111111111112], [0.004101919055230224, 0.04589808094476978], [0.02655186074276716, 0.023448139257232846]], "children_default": [1.0, 3.0, 5.0, 7.0, 9.0, 11.0, 13.0, 15.0, 17.0, 19.0, -1.0, 21.0, 23.0, 25.0, 27.0, 29.0, -1.0, -1.0, 31.0, 33.0, -1.0, 35.0, -1.0, 37.0, 39.0, 41.0, 43.0, 45.0, -1.0, -1.0, -1.0, -1.0, -1.0, -1.0, -1.0, -1.0, -1.0, 47.0, -1.0, -1.0, 49.0, -1.0, -1.0, -1.0, -1.0, -1.0, -1.0, -1.0, -1.0, 51.0, -1.0, -1.0, -1.0]}, {"children_left": [1.0, 3.0, 5.0, 7.0, 9.0, 11.0, 13.0, 15.0, 17.0, 19.0, 21.0, 23.0, -1.0, 25.0, -1.0, 27.0, -1.0, -1.0, -1.0, 29.0, 31.0, 33.0, -1.0, 35.0, 37.0, 39.0, 41.0, 43.0, -1.0, -1.0, 45.0, -1.0, -1.0, -1.0, -1.0, -1.0, -1.0, -1.0, -1.0, -1.0, -1.0, 47.0, -1.0, -1.0, -1.0, 49.0, -1.0, 51.0, -1.0, -1.0, -1.0, -1.0, -1.0], "children_right": [2.0, 4.0, 6.0, 8.0, 10.0, 12.0, 14.0, 16.0, 18.0, 20.0, 22.0, 24.0, -1.0, 26.0, -1.0, 28.0, -1.0, -1.0, -1.0, 30.0, 32.0, 34.0, -1.0, 36.0, 38.0, 40.0, 42.0, 44.0, -1.0, -1.0, 46.0, -1.0, -1.0, -1.0, -1.0, -1.0, -1.0, -1.0, -1.0, -1.0, -1.0, 48.0, -1.0, -1.0, -1.0, 50.0, -1.0, 52.0, -1.0, -1.0, -1.0, -1.0, -1.0], "features": [1.0, 0.0, 6.0, 7.0, 1.0, 5.0, 3.0, 8.0, 3.0, 3.0, 7.0, 0.0, -2.0, 2.0, -2.0, 3.0, -2.0, -2.0, -2.0, 6.0, 2.0, 1.0, -2.0, 0.0, 2.0, 1.0, 8.0, 5.0, -2.0, -2.0, 5.0, -2.0, -2.0, -2.0, -2.0, -2.0, -2.0, -2.0, -2.0, -2.0, -2.0, 8.0, -2.0, -2.0, -2.0, 2.0, -2.0, 1.0, -2.0, -2.0, -2.0, -2.0, -2.0], "thresholds": [714.5, 0.5, 0.5, 0.5, 518.5, 0.5, 0.5, 0.5, 0.5, 0.5, 0.5, 3.298858642578125, -2.0, 1.3650000095367432, -2.0, 0.5, -2.0, -2.0, -2.0, 0.5, 7.5, 523.5, -2.0, 2.5, 3.75, 1488.5, 0.5, 0.5, -2.0, -2.0, 0.5, -2.0, -2.0, -2.0, -2.0, -2.0, -2.0, -2.0, -2.0, -2.0, -2.0, 0.5, -2.0, -2.0, -2.0, 4.818181818181818, -2.0, 1544.090909090909, -2.0, -2.0, -2.0, -2.0, -2.0], "node_sample_weight": [5219.0, 3389.0, 1830.0, 1094.0, 2295.0, 339.0, 1491.0, 923.0, 171.0, 2082.0, 213.0, 304.0, 49.0, 1422.0, 95.0, 921.0, 2.0, 225.0, 9.0, 1903.0, 179.0, 187.0, 36.0, 117.0, 187.0, 93.0, 1329.0, 922.0, 73.0, 197.0, 1752.0, 237.0, 14.0, 25.0, 251.0, 89.0, 49.0, 110.0, 126.0, 89.0, 17.0, 951.0, 646.0, 635.0, 69.0, 1017.0, 2.0, 648.0, 2.0, 453.0413036295275, 58.95869637047252, 35.066421127477916, 16.933578872522084], "values": [[0.025531711055757807, 0.024468288944242193], [0.03331366184715255, 0.01668633815284745], [0.011120218579234974, 0.03887978142076503], [0.01969835466179159, 0.030301645338208408], [0.03980392156862746, 0.01019607843137255], [0.0028023598820059, 0.0471976401179941], [0.013011401743796112, 0.036988598256203896], [0.022535211267605635, 0.027464788732394368], [0.0043859649122807015, 0.0456140350877193], [0.04104226705091259, 0.008957732949087418], [0.027699530516431925, 0.022300469483568074], [0.0011513157894736843, 0.04884868421052632], [0.019387755102040816, 0.030612244897959183], [0.012271448663853726, 0.03772855133614628], [0.034210526315789476, 0.015789473684210527], [0.02258414766558089, 0.027415852334419108], [0.0, 0.05], [0.004, 0.046000000000000006], [0.005555555555555556, 0.044444444444444446], [0.04040987913820284, 0.009590120861797162], [0.047765363128491625, 0.00223463687150838], [0.03128342245989305, 0.01871657754010695], [0.009722222222222222, 0.04027777777777778], [0.0025641025641025645, 0.04743589743589744], [0.00026737967914438503, 0.04973262032085562], [0.006989247311827957, 0.043010752688172046], [0.012641083521444696, 0.03735891647855531], [0.0227765726681128, 0.027223427331887203], [0.025342465753424658, 0.024657534246575342], [0.022335025380710662, 0.02766497461928934], [0.04175228310502283, 0.00824771689497717], [0.048734177215189876, 0.0012658227848101268], [0.042857142857142864, 0.0071428571428571435], [0.006000000000000001, 0.044000000000000004], [0.03127490039840638, 0.018725099601593628], [0.0016853932584269665, 0.048314606741573035], [0.0030612244897959186, 0.04693877551020409], [0.0, 0.05], [0.0031746031746031746, 0.046825396825396826], [0.003932584269662922, 0.04606741573033708], [0.017647058823529415, 0.03235294117647059], [0.01267087276550999, 0.03732912723449001], [0.013777089783281734, 0.03622291021671827], [0.024960629921259844, 0.02503937007874016], [0.026086956521739132, 0.02391304347826087], [0.022664700098328418, 0.027335299901671585], [0.025, 0.025], [0.020756172839506176, 0.029243827160493827], [0.025, 0.025], [0.03785982656341286, 0.012140173436587144], [0.03558312764144334, 0.014416872358556657], [0.0014258654973153275, 0.04857413450268468], [0.04429069635226467, 0.005709303647735326]], "children_default": [1.0, 3.0, 5.0, 7.0, 9.0, 11.0, 13.0, 15.0, 17.0, 19.0, 21.0, 23.0, -1.0, 25.0, -1.0, 27.0, -1.0, -1.0, -1.0, 29.0, 31.0, 33.0, -1.0, 35.0, 37.0, 39.0, 41.0, 43.0, -1.0, -1.0, 45.0, -1.0, -1.0, -1.0, -1.0, -1.0, -1.0, -1.0, -1.0, -1.0, -1.0, 47.0, -1.0, -1.0, -1.0, 49.0, -1.0, 51.0, -1.0, -1.0, -1.0, -1.0, -1.0]}, {"children_left": [1.0, 3.0, 5.0, 7.0, 9.0, 11.0, 13.0, 15.0, 17.0, 19.0, -1.0, 21.0, -1.0, 23.0, 25.0, 27.0, 29.0, -1.0, 31.0, -1.0, 33.0, 35.0, -1.0, 37.0, 39.0, 41.0, 43.0, -1.0, -1.0, -1.0, -1.0, -1.0, -1.0, -1.0, -1.0, -1.0, -1.0, -1.0, -1.0, -1.0, 45.0, -1.0, 47.0, -1.0, -1.0, 49.0, -1.0, -1.0, -1.0, -1.0, -1.0], "children_right": [2.0, 4.0, 6.0, 8.0, 10.0, 12.0, 14.0, 16.0, 18.0, 20.0, -1.0, 22.0, -1.0, 24.0, 26.0, 28.0, 30.0, -1.0, 32.0, -1.0, 34.0, 36.0, -1.0, 38.0, 40.0, 42.0, 44.0, -1.0, -1.0, -1.0, -1.0, -1.0, -1.0, -1.0, -1.0, -1.0, -1.0, -1.0, -1.0, -1.0, 46.0, -1.0, 48.0, -1.0, -1.0, 50.0, -1.0, -1.0, -1.0, -1.0, -1.0], "features": [6.0, 5.0, 2.0, 8.0, 0.0, 3.0, 1.0, 1.0, 0.0, 2.0, -2.0, 8.0, -2.0, 0.0, 3.0, 1.0, 0.0, -2.0, 1.0, -2.0, 0.0, 6.0, -2.0, 1.0, 2.0, 2.0, 2.0, -2.0, -2.0, -2.0, -2.0, -2.0, -2.0, -2.0, -2.0, -2.0, -2.0, -2.0, -2.0, -2.0, 8.0, -2.0, 8.0, -2.0, -2.0, 2.0, -2.0, -2.0, -2.0, -2.0, -2.0], "thresholds": [0.5, 0.5, 0.5, 0.5, 4.5, 0.5, 564.0, 714.0, 3.5, 0.5, -2.0, 0.5, -2.0, 2.5, 0.5, 708.0, 4.5, -2.0, 416.5, -2.0, 2.5, 0.5, -2.0, 71.0, 1.2900000214576721, 2.365000009536743, 1.7099999785423279, -2.0, -2.0, -2.0, -2.0, -2.0, -2.0, -2.0, -2.0, -2.0, -2.0, -2.0, -2.0, -2.0, 0.5, -2.0, 0.5, -2.0, -2.0, 2.7727272727272725, -2.0, -2.0, -2.0, -2.0, -2.0], "node_sample_weight": [5219.0, 772.0, 4447.0, 624.0, 148.0, 853.0, 3594.0, 460.0, 164.0, 118.0, 30.0, 791.0, 75.0, 1996.0, 1598.0, 273.0, 187.0, 80.0, 99.0, 100.0, 79.0, 951.0, 1.0, 631.0, 1365.0, 1514.0, 84.0, 354.0, 8.0, 148.0, 60.0, 20.0, 108.0, 55.0, 67.0, 2.0, 522.0, 148.0, 673.0, 33.0, 1348.0, 760.0, 962.0, 21.0, 95.0, 466.0, 570.0, 454.0, 263.0, 35.06950759816026, 125.93049240183974], "values": [[0.025062272465989657, 0.024937727534010346], [0.008290155440414507, 0.0417098445595855], [0.027973914998875648, 0.022026085001124355], [0.0033653846153846156, 0.046634615384615385], [0.029054054054054052, 0.020945945945945947], [0.02063305978898007, 0.029366940211019932], [0.029716193656093494, 0.020283806343906512], [0.003695652173913044, 0.04630434782608696], [0.0024390243902439024, 0.047560975609756105], [0.034745762711864414, 0.015254237288135594], [0.006666666666666667, 0.043333333333333335], [0.020733249051833127, 0.02926675094816688], [0.022000000000000002, 0.028], [0.04228456913827656, 0.0077154308617234475], [0.014017521902377974, 0.03598247809762203], [0.005494505494505495, 0.04450549450549451], [0.0010695187165775401, 0.048930481283422464], [0.00875, 0.04125], [0.00101010101010101, 0.04898989898989899], [0.026000000000000002, 0.024000000000000004], [0.038607594936708865, 0.01139240506329114], [0.022397476340694007, 0.027602523659305992], [0.0, 0.05], [0.044374009508716325, 0.005625990491283677], [0.04131868131868132, 0.008681318681318682], [0.013077939233817702, 0.036922060766182305], [0.030952380952380953, 0.01904761904761905], [0.00480225988700565, 0.04519774011299435], [0.05, 0.0], [0.0013513513513513514, 0.04864864864864865], [0.0, 0.05], [0.005, 0.045], [0.004629629629629629, 0.04537037037037037], [0.03636363636363636, 0.013636363636363636], [0.027611940298507463, 0.022388059701492536], [0.025, 0.025], [0.023659003831417627, 0.026340996168582376], [0.043243243243243246, 0.006756756756756757], [0.04323922734026746, 0.00676077265973254], [0.030303030303030304, 0.0196969696969697], [0.041357566765578634, 0.008642433234421366], [0.015723684210526317, 0.03427631578947368], [0.012577962577962579, 0.037422037422037424], [0.05, 0.0], [0.03315789473684211, 0.016842105263157894], [0.023712446351931333, 0.02628755364806867], [0.028859649122807016, 0.021140350877192984], [0.019383259911894275, 0.030616740088105728], [0.02053231939163498, 0.029467680608365018], [0.028514800135159578, 0.02148519986484042], [0.034145820587112866, 0.015854179412887134]], "children_default": [1.0, 3.0, 5.0, 7.0, 9.0, 11.0, 13.0, 15.0, 17.0, 19.0, -1.0, 21.0, -1.0, 23.0, 25.0, 27.0, 29.0, -1.0, 31.0, -1.0, 33.0, 35.0, -1.0, 37.0, 39.0, 41.0, 43.0, -1.0, -1.0, -1.0, -1.0, -1.0, -1.0, -1.0, -1.0, -1.0, -1.0, -1.0, -1.0, -1.0, 45.0, -1.0, 47.0, -1.0, -1.0, 49.0, -1.0, -1.0, -1.0, -1.0, -1.0]}, {"children_left": [1.0, 3.0, 5.0, 7.0, 9.0, 11.0, 13.0, 15.0, 17.0, 19.0, 21.0, -1.0, 23.0, -1.0, -1.0, 25.0, 27.0, 29.0, 31.0, -1.0, 33.0, -1.0, 35.0, 37.0, -1.0, 39.0, -1.0, -1.0, 41.0, -1.0, -1.0, -1.0, -1.0, -1.0, -1.0, -1.0, -1.0, -1.0, -1.0, -1.0, -1.0, -1.0, -1.0], "children_right": [2.0, 4.0, 6.0, 8.0, 10.0, 12.0, 14.0, 16.0, 18.0, 20.0, 22.0, -1.0, 24.0, -1.0, -1.0, 26.0, 28.0, 30.0, 32.0, -1.0, 34.0, -1.0, 36.0, 38.0, -1.0, 40.0, -1.0, -1.0, 42.0, -1.0, -1.0, -1.0, -1.0, -1.0, -1.0, -1.0, -1.0, -1.0, -1.0, -1.0, -1.0, -1.0, -1.0], "features": [3.0, 7.0, 1.0, 1.0, 1.0, 0.0, 6.0, 2.0, 0.0, 2.0, 2.0, -2.0, 7.0, -2.0, -2.0, 5.0, 6.0, 2.0, 2.0, -2.0, 0.0, -2.0, 8.0, 0.0, -2.0, 6.0, -2.0, -2.0, 8.0, -2.0, -2.0, -2.0, -2.0, -2.0, -2.0, -2.0, -2.0, -2.0, -2.0, -2.0, -2.0, -2.0, -2.0], "thresholds": [0.5, 0.5, 793.5, 601.0, 410.0, 0.5, 0.5, 0.5, 3.298858642578125, 0.5, 2.397814989089966, -2.0, 0.5, -2.0, -2.0, 0.5, 0.5, 1.25, 3.2899999618530273, -2.0, 2.5, -2.0, 0.5, 24.5, -2.0, 0.5, -2.0, -2.0, 0.5, -2.0, -2.0, -2.0, -2.0, -2.0, -2.0, -2.0, -2.0, -2.0, -2.0, -2.0, -2.0, -2.0, -2.0], "node_sample_weight": [5219.0, 4840.0, 379.0, 4287.0, 553.0, 301.0, 78.0, 2731.0, 1556.0, 261.0, 292.0, 74.0, 244.0, 11.0, 97.0, 878.0, 1853.0, 655.0, 901.0, 232.0, 108.0, 150.0, 164.0, 239.0, 5.0, 931.0, 111.0, 67.0, 1811.0, 103.0, 729.0, 499.0, 655.0, 25.0, 86.0, 134.0, 90.0, 305.0, 5.0, 2.0, 548.0, 795.0, 757.0], "values": [[0.025301781950565243, 0.02469821804943476], [0.0243698347107438, 0.025630165289256202], [0.037203166226912936, 0.012796833773087072], [0.026953580592488924, 0.023046419407511082], [0.004339963833634721, 0.045660036166365284], [0.0425249169435216, 0.007475083056478406], [0.016666666666666666, 0.03333333333333333], [0.034474551446356645, 0.015525448553643356], [0.013753213367609256, 0.03624678663239075], [0.008045977011494253, 0.04195402298850575], [0.0010273972602739727, 0.04897260273972603], [0.02364864864864865, 0.026351351351351353], [0.047745901639344265, 0.002254098360655738], [0.0, 0.05], [0.0288659793814433, 0.021134020618556702], [0.02203872437357631, 0.02796127562642369], [0.040366972477064215, 0.00963302752293578], [0.017557251908396947, 0.03244274809160305], [0.010987791342952276, 0.03901220865704772], [0.0030172413793103452, 0.04698275862068966], [0.015277777777777779, 0.034722222222222224], [0.0020000000000000005, 0.048], [0.0018292682926829272, 0.048170731707317074], [0.04832635983263599, 0.0016736401673640169], [0.02, 0.030000000000000006], [0.02180451127819549, 0.02819548872180451], [0.03288288288288289, 0.01711711711711712], [0.03656716417910448, 0.013432835820895522], [0.04006073992269464, 0.009939260077305357], [0.008737864077669903, 0.0412621359223301], [0.01927297668038409, 0.030727023319615916], [0.00781563126252505, 0.04218436873747495], [0.014274809160305343, 0.03572519083969466], [0.03, 0.02], [0.010465116279069767, 0.03953488372093024], [0.002238805970149254, 0.04776119402985075], [0.006666666666666668, 0.043333333333333335], [0.04901639344262296, 0.0009836065573770494], [0.030000000000000006, 0.02], [0.025, 0.025], [0.024635036496350366, 0.025364963503649637], [0.02547169811320755, 0.024528301886792454], [0.0297886393659181, 0.020211360634081903]], "children_default": [1.0, 3.0, 5.0, 7.0, 9.0, 11.0, 13.0, 15.0, 17.0, 19.0, 21.0, -1.0, 23.0, -1.0, -1.0, 25.0, 27.0, 29.0, 31.0, -1.0, 33.0, -1.0, 35.0, 37.0, -1.0, 39.0, -1.0, -1.0, 41.0, -1.0, -1.0, -1.0, -1.0, -1.0, -1.0, -1.0, -1.0, -1.0, -1.0, -1.0, -1.0, -1.0, -1.0]}, {"children_left": [1.0, 3.0, 5.0, 7.0, 9.0, 11.0, 13.0, 15.0, -1.0, 17.0, 19.0, 21.0, 23.0, -1.0, 25.0, 27.0, -1.0, 29.0, 31.0, 33.0, 35.0, 37.0, -1.0, 39.0, -1.0, -1.0, -1.0, 41.0, -1.0, 43.0, 45.0, -1.0, 47.0, -1.0, -1.0, -1.0, -1.0, -1.0, -1.0, -1.0, -1.0, -1.0, -1.0, 49.0, -1.0, -1.0, -1.0, 51.0, -1.0, -1.0, -1.0, -1.0, 53.0, -1.0, -1.0], "children_right": [2.0, 4.0, 6.0, 8.0, 10.0, 12.0, 14.0, 16.0, -1.0, 18.0, 20.0, 22.0, 24.0, -1.0, 26.0, 28.0, -1.0, 30.0, 32.0, 34.0, 36.0, 38.0, -1.0, 40.0, -1.0, -1.0, -1.0, 42.0, -1.0, 44.0, 46.0, -1.0, 48.0, -1.0, -1.0, -1.0, -1.0, -1.0, -1.0, -1.0, -1.0, -1.0, -1.0, 50.0, -1.0, -1.0, -1.0, 52.0, -1.0, -1.0, -1.0, -1.0, 54.0, -1.0, -1.0], "features": [7.0, 2.0, 8.0, 5.0, 3.0, 1.0, 1.0, 3.0, -2.0, 1.0, 2.0, 2.0, 1.0, -2.0, 1.0, 8.0, -2.0, 8.0, 0.0, 2.0, 8.0, 3.0, -2.0, 1.0, -2.0, -2.0, -2.0, 7.0, -2.0, 4.0, 8.0, -2.0, 4.0, -2.0, -2.0, -2.0, -2.0, -2.0, -2.0, -2.0, -2.0, -2.0, -2.0, 2.0, -2.0, -2.0, -2.0, 2.0, -2.0, -2.0, -2.0, -2.0, 2.0, -2.0, -2.0], "thresholds": [0.5, 0.5, 0.5, 0.5, 0.5, 410.0, 449.0, 0.5, -2.0, 608.0, 2.397814989089966, 0.5, 1266.0, -2.0, 1378.5, 0.5, -2.0, 0.5, 2.5, 1.7099999785423279, 0.5, 0.5, -2.0, 1215.0, -2.0, -2.0, -2.0, 0.5, -2.0, 0.5, 0.5, -2.0, 0.5, -2.0, -2.0, -2.0, -2.0, -2.0, -2.0, -2.0, -2.0, -2.0, -2.0, 3.909090909090909, -2.0, -2.0, -2.0, 3.090909090909091, -2.0, -2.0, -2.0, -2.0, 5.054545454545455, -2.0, -2.0], "node_sample_weight": [5219.0, 4616.0, 603.0, 928.0, 3688.0, 438.0, 165.0, 878.0, 85.0, 3389.0, 299.0, 251.0, 187.0, 36.0, 132.0, 826.0, 72.0, 1863.0, 1526.0, 150.0, 149.0, 176.0, 75.0, 112.0, 87.0, 109.0, 65.0, 928.0, 7.0, 1025.0, 960.0, 460.0, 1141.0, 94.0, 99.0, 101.0, 92.0, 248.0, 4.0, 127.0, 10.0, 530.0, 2.0, 637.0, 3.0, 2.0, 669.0, 693.0, 8.0, 176.72279417815437, 73.27720582184563, 218.22623797969473, 125.77376202030527, 65.91167217096114, 44.08832782903886], "values": [[0.02536884460624641, 0.024631155393753594], [0.02802209705372617, 0.02197790294627383], [0.005058043117744611, 0.04494195688225539], [0.020689655172413796, 0.02931034482758621], [0.02986713665943601, 0.02013286334056399], [0.006278538812785388, 0.043721461187214615], [0.0018181818181818184, 0.04818181818181818], [0.019646924829157177, 0.030353075170842826], [0.03235294117647059, 0.01764705882352941], [0.028799055768663324, 0.02120094423133668], [0.041973244147157196, 0.00802675585284281], [0.009163346613545818, 0.04083665338645418], [0.0024064171122994654, 0.04759358288770053], [0.005555555555555556, 0.044444444444444446], [0.0007575757575757576, 0.04924242424242424], [0.01955205811138015, 0.030447941888619857], [0.02291666666666667, 0.027083333333333334], [0.041438539989264625, 0.008561460010735374], [0.013368283093053736, 0.03663171690694627], [0.045, 0.005], [0.0389261744966443, 0.011073825503355705], [0.004545454545454546, 0.045454545454545456], [0.02, 0.03], [0.004017857142857143, 0.04598214285714286], [0.0, 0.05], [0.0045871559633027525, 0.04541284403669725], [0.006153846153846154, 0.04384615384615385], [0.021120689655172414, 0.02887931034482759], [0.0, 0.05], [0.04004878048780488, 0.009951219512195124], [0.041875, 0.008125], [0.01945652173913044, 0.030543478260869568], [0.011787905346187556, 0.038212094653812444], [0.047872340425531915, 0.002127659574468085], [0.044444444444444446, 0.005555555555555556], [0.03910891089108911, 0.010891089108910892], [0.04402173913043478, 0.005978260869565218], [0.004233870967741936, 0.04576612903225807], [0.0125, 0.037500000000000006], [0.0023622047244094492, 0.047637795275590554], [0.015000000000000003, 0.035], [0.02358490566037736, 0.026415094339622643], [0.025, 0.025], [0.02370486656200942, 0.02629513343799058], [0.016666666666666666, 0.03333333333333333], [0.025, 0.025], [0.026831091180866965, 0.023168908819133034], [0.023809523809523808, 0.026190476190476195], [0.037500000000000006, 0.0125], [0.038399911796701255, 0.011600088203298742], [0.028847446724859845, 0.021152553275140155], [0.010820476588174742, 0.03917952341182526], [0.022967334797132855, 0.02703266520286715], [0.026550684307642274, 0.02344931569235773], [0.001134087012641641, 0.048865912987358366]], "children_default": [1.0, 3.0, 5.0, 7.0, 9.0, 11.0, 13.0, 15.0, -1.0, 17.0, 19.0, 21.0, 23.0, -1.0, 25.0, 27.0, -1.0, 29.0, 31.0, 33.0, 35.0, 37.0, -1.0, 39.0, -1.0, -1.0, -1.0, 41.0, -1.0, 43.0, 45.0, -1.0, 47.0, -1.0, -1.0, -1.0, -1.0, -1.0, -1.0, -1.0, -1.0, -1.0, -1.0, 49.0, -1.0, -1.0, -1.0, 51.0, -1.0, -1.0, -1.0, -1.0, 53.0, -1.0, -1.0]}, {"children_left": [1.0, 3.0, 5.0, 7.0, 9.0, 11.0, 13.0, 15.0, -1.0, 17.0, -1.0, 19.0, -1.0, 21.0, 23.0, 25.0, 27.0, 29.0, -1.0, 31.0, -1.0, 33.0, 35.0, 37.0, 39.0, -1.0, -1.0, -1.0, -1.0, -1.0, -1.0, -1.0, -1.0, -1.0, -1.0, -1.0, -1.0, 41.0, -1.0, 43.0, -1.0, -1.0, 45.0, -1.0, -1.0, -1.0, -1.0], "children_right": [2.0, 4.0, 6.0, 8.0, 10.0, 12.0, 14.0, 16.0, -1.0, 18.0, -1.0, 20.0, -1.0, 22.0, 24.0, 26.0, 28.0, 30.0, -1.0, 32.0, -1.0, 34.0, 36.0, 38.0, 40.0, -1.0, -1.0, -1.0, -1.0, -1.0, -1.0, -1.0, -1.0, -1.0, -1.0, -1.0, -1.0, 42.0, -1.0, 44.0, -1.0, -1.0, 46.0, -1.0, -1.0, -1.0, -1.0], "features": [6.0, 0.0, 0.0, 1.0, 5.0, 3.0, 0.0, 5.0, -2.0, 8.0, -2.0, 8.0, -2.0, 1.0, 1.0, 1.0, 1.0, 3.0, -2.0, 7.0, -2.0, 8.0, 3.0, 1.0, 8.0, -2.0, -2.0, -2.0, -2.0, -2.0, -2.0, -2.0, -2.0, -2.0, -2.0, -2.0, -2.0, 8.0, -2.0, 3.0, -2.0, -2.0, 1.0, -2.0, -2.0, -2.0, -2.0], "thresholds": [0.5, 2.5, 0.5, 639.5, 0.5, 0.5, 2.5, 0.5, -2.0, 0.5, -2.0, 0.5, -2.0, 774.5, 591.0, 188.5, 1.0, 0.5, -2.0, 0.5, -2.0, 0.5, 0.5, 440.5, 0.5, -2.0, -2.0, -2.0, -2.0, -2.0, -2.0, -2.0, -2.0, -2.0, -2.0, -2.0, -2.0, 0.5, -2.0, 0.5, -2.0, -2.0, 286.54545454545456, -2.0, -2.0, -2.0, -2.0], "node_sample_weight": [5219.0, 711.0, 4508.0, 307.0, 404.0, 919.0, 3589.0, 247.0, 62.0, 324.0, 110.0, 854.0, 80.0, 1056.0, 2533.0, 166.0, 81.0, 194.0, 172.0, 959.0, 3.0, 693.0, 363.0, 1403.0, 1130.0, 226.0, 22.0, 107.0, 33.0, 225.0, 7.0, 557.0, 2.0, 493.0, 426.0, 395.0, 38.0, 1269.0, 164.0, 932.0, 534.0, 525.0, 349.0, 415.0, 22.0, 169.02757795181233, 51.97242204818766], "values": [[0.025531711055757807, 0.024468288944242193], [0.009704641350210971, 0.04029535864978903], [0.02802795031055901, 0.021972049689440998], [0.014657980456026058, 0.035342019543973945], [0.0059405940594059415, 0.044059405940594064], [0.020620239390642, 0.029379760609358], [0.0299247701309557, 0.020075229869044302], [0.01720647773279352, 0.03279352226720648], [0.004032258064516129, 0.04596774193548387], [0.002160493827160494, 0.047839506172839504], [0.022727272727272728, 0.02727272727272727], [0.020667447306791573, 0.029332552693208433], [0.02, 0.030000000000000006], [0.03484848484848485, 0.015151515151515152], [0.027872088432688517, 0.02212791156731149], [0.006325301204819277, 0.043674698795180725], [0.03950617283950617, 0.010493827160493829], [0.0036082474226804126, 0.04639175257731959], [0.00494186046511628, 0.04505813953488372], [0.021897810218978103, 0.0281021897810219], [0.0, 0.05000000000000001], [0.04386724386724387, 0.006132756132756133], [0.01763085399449036, 0.03236914600550964], [0.04016393442622951, 0.009836065573770493], [0.012610619469026548, 0.03738938053097345], [0.0042035398230088495, 0.045796460176991155], [0.029545454545454545, 0.020454545454545454], [0.028037383177570093, 0.021962616822429906], [0.045454545454545456, 0.004545454545454546], [0.004666666666666667, 0.04533333333333334], [0.0071428571428571435, 0.042857142857142864], [0.02531418312387792, 0.024685816876122084], [0.025, 0.025], [0.04208924949290061, 0.007910750507099391], [0.043309859154929575, 0.006690140845070423], [0.01810126582278481, 0.03189873417721519], [0.03289473684210526, 0.017105263157894738], [0.04125295508274232, 0.008747044917257684], [0.030182926829268295, 0.019817073170731708], [0.015236051502145924, 0.03476394849785407], [0.013857677902621723, 0.03614232209737828], [0.0260952380952381, 0.023904761904761908], [0.02464183381088825, 0.02535816618911175], [0.02108433734939759, 0.02891566265060241], [0.01590909090909091, 0.03409090909090909], [0.041125708489844, 0.008874291510156002], [0.035569269808041336, 0.014430730191958667]], "children_default": [1.0, 3.0, 5.0, 7.0, 9.0, 11.0, 13.0, 15.0, -1.0, 17.0, -1.0, 19.0, -1.0, 21.0, 23.0, 25.0, 27.0, 29.0, -1.0, 31.0, -1.0, 33.0, 35.0, 37.0, 39.0, -1.0, -1.0, -1.0, -1.0, -1.0, -1.0, -1.0, -1.0, -1.0, -1.0, -1.0, -1.0, 41.0, -1.0, 43.0, -1.0, -1.0, 45.0, -1.0, -1.0, -1.0, -1.0]}, {"children_left": [1.0, 3.0, 5.0, 7.0, 9.0, -1.0, 11.0, 13.0, 15.0, 17.0, 19.0, -1.0, 21.0, 23.0, 25.0, 27.0, 29.0, 31.0, 33.0, 35.0, -1.0, 37.0, 39.0, -1.0, -1.0, 41.0, -1.0, -1.0, -1.0, 43.0, -1.0, -1.0, -1.0, -1.0, -1.0, -1.0, -1.0, -1.0, -1.0, -1.0, -1.0, -1.0, -1.0, 45.0, -1.0, -1.0, -1.0], "children_right": [2.0, 4.0, 6.0, 8.0, 10.0, -1.0, 12.0, 14.0, 16.0, 18.0, 20.0, -1.0, 22.0, 24.0, 26.0, 28.0, 30.0, 32.0, 34.0, 36.0, -1.0, 38.0, 40.0, -1.0, -1.0, 42.0, -1.0, -1.0, -1.0, 44.0, -1.0, -1.0, -1.0, -1.0, -1.0, -1.0, -1.0, -1.0, -1.0, -1.0, -1.0, -1.0, -1.0, 46.0, -1.0, -1.0, -1.0], "features": [3.0, 1.0, 6.0, 2.0, 7.0, -2.0, 0.0, 6.0, 6.0, 0.0, 2.0, -2.0, 0.0, 5.0, 8.0, 5.0, 2.0, 1.0, 1.0, 2.0, -2.0, 2.0, 0.0, -2.0, -2.0, 8.0, -2.0, -2.0, -2.0, 7.0, -2.0, -2.0, -2.0, -2.0, -2.0, -2.0, -2.0, -2.0, -2.0, -2.0, -2.0, -2.0, -2.0, 1.0, -2.0, -2.0, -2.0], "thresholds": [0.5, 606.5, 0.5, 0.5, 0.5, -2.0, 0.5, 0.5, 0.5, 3.298858642578125, 4.25, -2.0, 2.5, 0.5, 0.5, 0.5, 5.75, 1631.5, 951.0, 1.899999976158142, -2.0, 1.5, 3.798858642578125, -2.0, -2.0, 0.5, -2.0, -2.0, -2.0, 0.5, -2.0, -2.0, -2.0, -2.0, -2.0, -2.0, -2.0, -2.0, -2.0, -2.0, -2.0, -2.0, -2.0, 271.3636363636364, -2.0, -2.0, -2.0], "node_sample_weight": [5219.0, 4864.0, 355.0, 2990.0, 1874.0, 40.0, 315.0, 998.0, 1992.0, 1593.0, 281.0, 73.0, 260.0, 182.0, 816.0, 166.0, 1826.0, 696.0, 897.0, 225.0, 64.0, 105.0, 155.0, 234.0, 87.0, 935.0, 1.0, 129.0, 90.0, 1671.0, 202.0, 753.0, 112.0, 249.0, 884.0, 53.0, 221.0, 76.0, 80.0, 69.0, 139.0, 535.0, 2.0, 972.0, 2.0, 286.85142318624116, 162.1485768137588], "values": [[0.024937727534010346, 0.025062272465989657], [0.024187911184210528, 0.025812088815789475], [0.035211267605633804, 0.014788732394366197], [0.03214046822742475, 0.01785953177257525], [0.011499466382070438, 0.038500533617929565], [0.02, 0.030000000000000006], [0.037142857142857144, 0.012857142857142857], [0.018336673346693387, 0.031663326653306616], [0.039056224899598396, 0.010943775100401607], [0.013339610797237916, 0.036660389202762086], [0.0010676156583629894, 0.04893238434163701], [0.02054794520547945, 0.02945205479452055], [0.040961538461538466, 0.009038461538461539], [0.007692307692307693, 0.04230769230769231], [0.020710784313725493, 0.029289215686274513], [0.02319277108433735, 0.026807228915662652], [0.040498357064622126, 0.009501642935377875], [0.015948275862068966, 0.03405172413793104], [0.011315496098104795, 0.038684503901895206], [0.0013333333333333335, 0.04866666666666667], [0.0, 0.05], [0.0461904761904762, 0.0038095238095238095], [0.03741935483870968, 0.012580645161290325], [0.002777777777777778, 0.04722222222222223], [0.03218390804597702, 0.017816091954022988], [0.022299465240641712, 0.02770053475935829], [0.0, 0.05], [0.011627906976744186, 0.03837209302325582], [0.037222222222222226, 0.012777777777777779], [0.04000598444045482, 0.009994015559545183], [0.04306930693069307, 0.006930693069306932], [0.016799468791500665, 0.033200531208499334], [0.020089285714285716, 0.029910714285714287], [0.012248995983935744, 0.03775100401606426], [0.012047511312217195, 0.03795248868778281], [0.0, 0.05000000000000001], [0.0029411764705882353, 0.047058823529411764], [0.05, 0.0], [0.045, 0.005], [0.03478260869565218, 0.015217391304347827], [0.043525179856115113, 0.006474820143884892], [0.024205607476635516, 0.025794392523364486], [0.025, 0.025], [0.02227366255144033, 0.027726337448559672], [0.025, 0.025], [0.036628618531518116, 0.01337138146848189], [0.04127713468972105, 0.008722865310278948]], "children_default": [1.0, 3.0, 5.0, 7.0, 9.0, -1.0, 11.0, 13.0, 15.0, 17.0, 19.0, -1.0, 21.0, 23.0, 25.0, 27.0, 29.0, 31.0, 33.0, 35.0, -1.0, 37.0, 39.0, -1.0, -1.0, 41.0, -1.0, -1.0, -1.0, 43.0, -1.0, -1.0, -1.0, -1.0, -1.0, -1.0, -1.0, -1.0, -1.0, -1.0, -1.0, -1.0, -1.0, 45.0, -1.0, -1.0, -1.0]}, {"children_left": [1.0, 3.0, 5.0, 7.0, 9.0, 11.0, 13.0, 15.0, -1.0, 17.0, 19.0, 21.0, -1.0, 23.0, -1.0, 25.0, -1.0, 27.0, 29.0, 31.0, -1.0, 33.0, -1.0, 35.0, 37.0, 39.0, -1.0, 41.0, 43.0, -1.0, -1.0, -1.0, -1.0, -1.0, -1.0, -1.0, 45.0, -1.0, -1.0, -1.0, -1.0, 47.0, -1.0, -1.0, 49.0, -1.0, -1.0, -1.0, -1.0, -1.0, -1.0], "children_right": [2.0, 4.0, 6.0, 8.0, 10.0, 12.0, 14.0, 16.0, -1.0, 18.0, 20.0, 22.0, -1.0, 24.0, -1.0, 26.0, -1.0, 28.0, 30.0, 32.0, -1.0, 34.0, -1.0, 36.0, 38.0, 40.0, -1.0, 42.0, 44.0, -1.0, -1.0, -1.0, -1.0, -1.0, -1.0, -1.0, 46.0, -1.0, -1.0, -1.0, -1.0, 48.0, -1.0, -1.0, 50.0, -1.0, -1.0, -1.0, -1.0, -1.0, -1.0], "features": [1.0, 2.0, 6.0, 5.0, 1.0, 3.0, 3.0, 3.0, -2.0, 0.0, 3.0, 1.0, -2.0, 0.0, -2.0, 7.0, -2.0, 2.0, 7.0, 0.0, -2.0, 2.0, -2.0, 8.0, 8.0, 7.0, -2.0, 3.0, 6.0, -2.0, -2.0, -2.0, -2.0, -2.0, -2.0, -2.0, 0.0, -2.0, -2.0, -2.0, -2.0, 1.0, -2.0, -2.0, 2.0, -2.0, -2.0, -2.0, -2.0, -2.0, -2.0], "thresholds": [728.0, 0.5, 0.5, 0.5, 421.5, 0.5, 0.5, 0.5, -2.0, 7.5, 0.5, 1573.0, -2.0, 2.5, -2.0, 0.5, -2.0, 2.397814989089966, 0.5, 2.5, -2.0, 3.1649999618530273, -2.0, 0.5, 0.5, 0.5, -2.0, 0.5, 0.5, -2.0, -2.0, -2.0, -2.0, -2.0, -2.0, -2.0, 1.9090909090909092, -2.0, -2.0, -2.0, -2.0, 128.9090909090909, -2.0, -2.0, 4.090909090909091, -2.0, -2.0, -2.0, -2.0, -2.0, -2.0], "node_sample_weight": [5219.0, 3396.0, 1823.0, 1095.0, 2301.0, 334.0, 1489.0, 1050.0, 94.0, 1919.0, 382.0, 316.0, 18.0, 1424.0, 99.0, 984.0, 76.0, 1703.0, 216.0, 360.0, 31.0, 279.0, 73.0, 361.0, 1063.0, 939.0, 222.0, 976.0, 948.0, 266.0, 20.0, 158.0, 361.0, 212.0, 104.0, 236.0, 160.0, 830.0, 536.0, 525.0, 2.0, 468.0, 73.0, 37.0, 504.0, 61.651299226290035, 235.34870077370996, 44.46782597855045, 37.53217402144955, 127.01351670330924, 33.986483296690764], "values": [[0.025225138915501055, 0.024774861084498948], [0.03256772673733805, 0.017432273262661956], [0.011546900713110259, 0.038453099286889746], [0.0189041095890411, 0.031095890410958907], [0.03906996957844416, 0.010930030421555846], [0.002245508982035928, 0.04775449101796408], [0.013633310946944258, 0.03636668905305575], [0.018285714285714287, 0.031714285714285716], [0.029787234042553193, 0.02021276595744681], [0.04111516414799375, 0.008884835852006254], [0.028795811518324606, 0.021204188481675393], [0.0015822784810126582, 0.04841772151898734], [0.013888888888888888, 0.036111111111111115], [0.012956460674157302, 0.03704353932584269], [0.03585858585858586, 0.014141414141414142], [0.018140243902439027, 0.031859756097560976], [0.020394736842105264, 0.029605263157894735], [0.042131532589547854, 0.007868467410452143], [0.033101851851851855, 0.016898148148148148], [0.027777777777777776, 0.022222222222222223], [0.046774193548387105, 0.0032258064516129032], [0.0007168458781362007, 0.0492831541218638], [0.008904109589041096, 0.0410958904109589], [0.019390581717451522, 0.030609418282548477], [0.010771401693320791, 0.03922859830667921], [0.022044728434504796, 0.027955271565495207], [0.00427927927927928, 0.045720720720720726], [0.04313524590163935, 0.006864754098360656], [0.04018987341772152, 0.009810126582278481], [0.0368421052631579, 0.013157894736842105], [0.005, 0.045], [0.030696202531645574, 0.019303797468354433], [0.023961218836565098, 0.026038781163434905], [0.0016509433962264152, 0.04834905660377359], [0.0, 0.05], [0.014406779661016951, 0.03559322033898305], [0.0265625, 0.0234375], [0.010240963855421687, 0.03975903614457831], [0.012126865671641791, 0.03787313432835821], [0.02457142857142857, 0.025428571428571432], [0.025, 0.025], [0.023076923076923078, 0.026923076923076925], [0.02808219178082192, 0.021917808219178082], [0.032432432432432434, 0.01756756756756757], [0.023710317460317463, 0.02628968253968254], [0.049188987083362584, 0.0008110129166374234], [0.0187697447411571, 0.031230255258842904], [0.048875591533885245, 0.0011244084661147602], [0.026020573722011095, 0.02397942627798891], [0.03661027676969162, 0.013389723230308386], [0.026481115805459997, 0.023518884194540006]], "children_default": [1.0, 3.0, 5.0, 7.0, 9.0, 11.0, 13.0, 15.0, -1.0, 17.0, 19.0, 21.0, -1.0, 23.0, -1.0, 25.0, -1.0, 27.0, 29.0, 31.0, -1.0, 33.0, -1.0, 35.0, 37.0, 39.0, -1.0, 41.0, 43.0, -1.0, -1.0, -1.0, -1.0, -1.0, -1.0, -1.0, 45.0, -1.0, -1.0, -1.0, -1.0, 47.0, -1.0, -1.0, 49.0, -1.0, -1.0, -1.0, -1.0, -1.0, -1.0]}, {"children_left": [1.0, 3.0, 5.0, 7.0, 9.0, 11.0, 13.0, -1.0, 15.0, 17.0, 19.0, 21.0, -1.0, -1.0, 23.0, 25.0, -1.0, 27.0, -1.0, 29.0, -1.0, 31.0, 33.0, -1.0, -1.0, 35.0, -1.0, 37.0, 39.0, -1.0, -1.0, -1.0, -1.0, -1.0, -1.0, -1.0, -1.0, -1.0, 41.0, 43.0, -1.0, -1.0, -1.0, -1.0, 45.0, -1.0, -1.0], "children_right": [2.0, 4.0, 6.0, 8.0, 10.0, 12.0, 14.0, -1.0, 16.0, 18.0, 20.0, 22.0, -1.0, -1.0, 24.0, 26.0, -1.0, 28.0, -1.0, 30.0, -1.0, 32.0, 34.0, -1.0, -1.0, 36.0, -1.0, 38.0, 40.0, -1.0, -1.0, -1.0, -1.0, -1.0, -1.0, -1.0, -1.0, -1.0, 42.0, 44.0, -1.0, -1.0, -1.0, -1.0, 46.0, -1.0, -1.0], "features": [7.0, 0.0, 0.0, 6.0, 3.0, 8.0, 1.0, -2.0, 3.0, 4.0, 1.0, 2.0, -2.0, -2.0, 0.0, 8.0, -2.0, 0.0, -2.0, 2.0, -2.0, 3.0, 0.0, -2.0, -2.0, 6.0, -2.0, 6.0, 8.0, -2.0, -2.0, -2.0, -2.0, -2.0, -2.0, -2.0, -2.0, -2.0, 2.0, 2.0, -2.0, -2.0, -2.0, -2.0, 0.0, -2.0, -2.0], "thresholds": [0.5, 0.5, 3.798858642578125, 0.5, 0.5, 0.5, 406.0, -2.0, 0.5, 0.5, 747.5, 0.5, -2.0, -2.0, 4.5, 0.5, -2.0, 2.5, -2.0, 2.065000057220459, -2.0, 0.5, 1.5, -2.0, -2.0, 0.5, -2.0, 0.5, 0.5, -2.0, -2.0, -2.0, -2.0, -2.0, -2.0, -2.0, -2.0, -2.0, 1.5454545454545454, 1.8181818181818181, -2.0, -2.0, -2.0, -2.0, 5.909090909090909, -2.0, -2.0], "node_sample_weight": [5219.0, 4642.0, 577.0, 964.0, 3678.0, 357.0, 220.0, 105.0, 904.0, 3379.0, 299.0, 287.0, 83.0, 39.0, 184.0, 965.0, 69.0, 3373.0, 14.0, 220.0, 107.0, 155.0, 132.0, 86.0, 137.0, 474.0, 2.0, 938.0, 2453.0, 173.0, 151.0, 231.0, 9.0, 14.0, 138.0, 2.0, 129.0, 28.0, 580.0, 969.0, 887.0, 56.42939250583997, 189.57060749416001, 32.97178933718608, 263.02821066281393, 138.74645634674758, 41.253543653252414], "values": [[0.025656255987737117, 0.02434374401226289], [0.028295993106419646, 0.021704006893580353], [0.0044194107452339695, 0.04558058925476603], [0.021628630705394194, 0.02837136929460581], [0.030043501903208265, 0.019956498096791737], [0.0063025210084033615, 0.04369747899159664], [0.0013636363636363637, 0.048636363636363644], [0.03333333333333333, 0.016666666666666666], [0.020575221238938055, 0.029424778761061948], [0.028973068955312223, 0.021026931044687776], [0.04214046822742475, 0.007859531772575251], [0.0071428571428571435, 0.04285714285714286], [0.00783132530120482, 0.04216867469879518], [0.005128205128205128, 0.04487179487179487], [0.0005434782608695652, 0.049456521739130434], [0.021761658031088083, 0.028238341968911916], [0.01884057971014493, 0.03115942028985507], [0.02900978357545212, 0.02099021642454788], [0.03214285714285715, 0.017857142857142856], [0.048636363636363644, 0.0013636363636363637], [0.030841121495327105, 0.0191588785046729], [0.005161290322580645, 0.044838709677419354], [0.00946969696969697, 0.040530303030303035], [0.004651162790697674, 0.04534883720930233], [0.0, 0.05], [0.023734177215189875, 0.026265822784810128], [0.025, 0.025], [0.0349680170575693, 0.015031982942430706], [0.026742763962494906, 0.023257236037505097], [0.04826589595375722, 0.0017341040462427748], [0.05, 0.0], [0.004545454545454545, 0.045454545454545456], [0.011111111111111112, 0.03888888888888889], [0.017857142857142856, 0.03214285714285715], [0.007246376811594203, 0.0427536231884058], [0.025, 0.025], [0.03372093023255814, 0.01627906976744186], [0.025, 0.025], [0.024655172413793103, 0.0253448275862069], [0.022497420020639834, 0.02750257997936017], [0.02531003382187148, 0.024689966178128527], [0.0363668008727932, 0.013633199127206806], [0.03190285455805031, 0.018097145441949694], [0.0015164478787813085, 0.04848355212121869], [0.023571616080177882, 0.02642838391982212], [0.029497770141774925, 0.020502229858225078], [0.008660805619535248, 0.04133919438046475]], "children_default": [1.0, 3.0, 5.0, 7.0, 9.0, 11.0, 13.0, -1.0, 15.0, 17.0, 19.0, 21.0, -1.0, -1.0, 23.0, 25.0, -1.0, 27.0, -1.0, 29.0, -1.0, 31.0, 33.0, -1.0, -1.0, 35.0, -1.0, 37.0, 39.0, -1.0, -1.0, -1.0, -1.0, -1.0, -1.0, -1.0, -1.0, -1.0, 41.0, 43.0, -1.0, -1.0, -1.0, -1.0, 45.0, -1.0, -1.0]}, {"children_left": [1.0, 3.0, 5.0, 7.0, 9.0, 11.0, 13.0, 15.0, 17.0, 19.0, -1.0, 21.0, 23.0, -1.0, 25.0, 27.0, -1.0, 29.0, -1.0, 31.0, -1.0, 33.0, -1.0, 35.0, 37.0, 39.0, 41.0, -1.0, -1.0, -1.0, -1.0, -1.0, -1.0, -1.0, -1.0, -1.0, 43.0, -1.0, 45.0, -1.0, -1.0, -1.0, -1.0, 47.0, -1.0, 49.0, 51.0, -1.0, -1.0, -1.0, -1.0, -1.0, -1.0], "children_right": [2.0, 4.0, 6.0, 8.0, 10.0, 12.0, 14.0, 16.0, 18.0, 20.0, -1.0, 22.0, 24.0, -1.0, 26.0, 28.0, -1.0, 30.0, -1.0, 32.0, -1.0, 34.0, -1.0, 36.0, 38.0, 40.0, 42.0, -1.0, -1.0, -1.0, -1.0, -1.0, -1.0, -1.0, -1.0, -1.0, 44.0, -1.0, 46.0, -1.0, -1.0, -1.0, -1.0, 48.0, -1.0, 50.0, 52.0, -1.0, -1.0, -1.0, -1.0, -1.0, -1.0], "features": [6.0, 5.0, 3.0, 1.0, 0.0, 2.0, 2.0, 3.0, 1.0, 3.0, -2.0, 8.0, 0.0, -2.0, 0.0, 0.0, -2.0, 0.0, -2.0, 8.0, -2.0, 7.0, -2.0, 0.0, 2.0, 2.0, 8.0, -2.0, -2.0, -2.0, -2.0, -2.0, -2.0, -2.0, -2.0, -2.0, 1.0, -2.0, 8.0, -2.0, -2.0, -2.0, -2.0, 4.0, -2.0, 1.0, 1.0, -2.0, -2.0, -2.0, -2.0, -2.0, -2.0], "thresholds": [0.5, 0.5, 0.5, 444.0, 3.298858642578125, 0.5, 0.5, 0.5, 1729.0, 0.5, -2.0, 0.5, 2.5, -2.0, 2.5, 0.5, -2.0, 3.798858642578125, -2.0, 0.5, -2.0, 0.5, -2.0, 1.5, 2.4828150272369385, 1.5, 0.5, -2.0, -2.0, -2.0, -2.0, -2.0, -2.0, -2.0, -2.0, -2.0, 2065.4545454545455, -2.0, 0.5, -2.0, -2.0, -2.0, -2.0, 0.5, -2.0, 834.7272727272726, 494.54545454545456, -2.0, -2.0, -2.0, -2.0, -2.0, -2.0], "node_sample_weight": [5219.0, 750.0, 4469.0, 572.0, 178.0, 4117.0, 352.0, 263.0, 309.0, 119.0, 69.0, 808.0, 3309.0, 64.0, 307.0, 252.0, 11.0, 292.0, 33.0, 104.0, 15.0, 966.0, 2.0, 968.0, 2341.0, 116.0, 191.0, 235.0, 100.0, 161.0, 199.0, 139.0, 32.0, 525.0, 2.0, 191.0, 930.0, 732.0, 1784.0, 71.0, 87.0, 136.0, 125.0, 1661.0024089002636, 4.997591099736496, 655.0, 458.0, 71.0, 2.0, 154.07827190383978, 134.92172809616022, 152.17095272286792, 79.82904727713209], "values": [[0.02563709522897107, 0.024362904771028933], [0.0094, 0.040600000000000004], [0.028362049675542626, 0.021637950324457374], [0.0035839160839160845, 0.046416083916083914], [0.028089887640449437, 0.021910112359550565], [0.027374301675977656, 0.022625698324022347], [0.03991477272727273, 0.010085227272727273], [0.006083650190114069, 0.043916349809885936], [0.0014563106796116505, 0.04854368932038835], [0.03529411764705882, 0.014705882352941176], [0.013043478260869566, 0.03695652173913044], [0.021225247524752477, 0.028774752475247526], [0.028875793291024483, 0.021124206708975524], [0.02109375, 0.02890625], [0.043322475570032576, 0.006677524429967428], [0.005753968253968254, 0.04424603174603175], [0.01363636363636364, 0.03636363636363637], [0.0011986301369863014, 0.0488013698630137], [0.007575757575757576, 0.04242424242424243], [0.03317307692307692, 0.016826923076923076], [0.05, 0.0], [0.022981366459627332, 0.027018633540372674], [0.0, 0.05], [0.03507231404958678, 0.014927685950413223], [0.02631354122170013, 0.023686458778299873], [0.04741379310344827, 0.0025862068965517245], [0.04083769633507854, 0.009162303664921465], [0.0034042553191489366, 0.04659574468085107], [0.011000000000000001, 0.03900000000000001], [0.0055900621118012426, 0.04440993788819876], [0.0015075376884422112, 0.048492462311557794], [0.030575539568345324, 0.01942446043165468], [0.028125, 0.021875000000000002], [0.023809523809523808, 0.02619047619047619], [0.025, 0.025], [0.04162303664921466, 0.008376963350785341], [0.03317204301075269, 0.01682795698924731], [0.0203551912568306, 0.029644808743169403], [0.027774663677130048, 0.022225336322869958], [0.04929577464788732, 0.0007042253521126761], [0.0471264367816092, 0.0028735632183908046], [0.04080882352941177, 0.009191176470588236], [0.046, 0.004], [0.02531603793870532, 0.02468396206129468], [0.010004820122766009, 0.03999517987723399], [0.023893129770992366, 0.026106870229007637], [0.023034934497816597, 0.02696506550218341], [0.03450704225352113, 0.015492957746478875], [0.025, 0.025], [0.029555845473358405, 0.020444154526641594], [0.023688448479774332, 0.02631155152022568], [0.03877218282746127, 0.01122781717253873], [0.02066916813214506, 0.029330831867854942]], "children_default": [1.0, 3.0, 5.0, 7.0, 9.0, 11.0, 13.0, 15.0, 17.0, 19.0, -1.0, 21.0, 23.0, -1.0, 25.0, 27.0, -1.0, 29.0, -1.0, 31.0, -1.0, 33.0, -1.0, 35.0, 37.0, 39.0, 41.0, -1.0, -1.0, -1.0, -1.0, -1.0, -1.0, -1.0, -1.0, -1.0, 43.0, -1.0, 45.0, -1.0, -1.0, -1.0, -1.0, 47.0, -1.0, 49.0, 51.0, -1.0, -1.0, -1.0, -1.0, -1.0, -1.0]}, {"children_left": [1.0, 3.0, 5.0, 7.0, 9.0, 11.0, 13.0, 15.0, 17.0, -1.0, 19.0, 21.0, -1.0, 23.0, 25.0, 27.0, 29.0, 31.0, -1.0, 33.0, -1.0, 35.0, -1.0, 37.0, 39.0, -1.0, 41.0, -1.0, -1.0, -1.0, -1.0, -1.0, -1.0, -1.0, -1.0, -1.0, -1.0, 43.0, 45.0, 47.0, -1.0, -1.0, -1.0, -1.0, -1.0, -1.0, -1.0, 49.0, -1.0, -1.0, -1.0], "children_right": [2.0, 4.0, 6.0, 8.0, 10.0, 12.0, 14.0, 16.0, 18.0, -1.0, 20.0, 22.0, -1.0, 24.0, 26.0, 28.0, 30.0, 32.0, -1.0, 34.0, -1.0, 36.0, -1.0, 38.0, 40.0, -1.0, 42.0, -1.0, -1.0, -1.0, -1.0, -1.0, -1.0, -1.0, -1.0, -1.0, -1.0, 44.0, 46.0, 48.0, -1.0, -1.0, -1.0, -1.0, -1.0, -1.0, -1.0, 50.0, -1.0, -1.0, -1.0], "features": [6.0, 2.0, 2.0, 5.0, 7.0, 8.0, 3.0, 0.0, 1.0, -2.0, 2.0, 3.0, -2.0, 8.0, 2.0, 3.0, 2.0, 1.0, -2.0, 0.0, -2.0, 8.0, -2.0, 0.0, 1.0, -2.0, 2.0, -2.0, -2.0, -2.0, -2.0, -2.0, -2.0, -2.0, -2.0, -2.0, -2.0, 8.0, 6.0, 0.0, -2.0, -2.0, -2.0, -2.0, -2.0, -2.0, -2.0, 1.0, -2.0, -2.0, -2.0], "thresholds": [0.5, 2.0850000381469727, 0.5, 0.5, 0.5, 0.5, 0.5, 0.5, 822.5, -2.0, 6.75, 0.5, -2.0, 0.5, 1.375, 0.5, 1.6349999904632568, 1.0, -2.0, 4.5, -2.0, 0.5, -2.0, 3.298858642578125, 550.5, -2.0, 1.899999976158142, -2.0, -2.0, -2.0, -2.0, -2.0, -2.0, -2.0, -2.0, -2.0, -2.0, 0.5, 0.5, 22.09090909090909, -2.0, -2.0, -2.0, -2.0, -2.0, -2.0, -2.0, 139.8181818181818, -2.0, -2.0, -2.0], "node_sample_weight": [5219.0, 737.0, 4482.0, 428.0, 309.0, 863.0, 3619.0, 308.0, 120.0, 72.0, 248.0, 862.0, 1.0, 3331.0, 288.0, 152.0, 156.0, 105.0, 15.0, 224.0, 29.0, 960.0, 81.0, 1916.0, 1415.0, 69.0, 240.0, 196.0, 7.0, 62.0, 121.0, 129.0, 64.0, 166.0, 121.0, 504.0, 2.0, 974.0, 1005.0, 967.0, 771.0, 16.0, 291.0, 717.0, 2.0, 2.0, 843.0, 1584.0412485060601, 28.958751493939758, 41.09394565213601, 64.906054347864], "values": [[0.025445487641310598, 0.024554512358689405], [0.010719131614654003, 0.039280868385346], [0.02786702365015618, 0.02213297634984382], [0.01355140186915888, 0.03644859813084112], [0.006796116504854369, 0.04320388349514564], [0.01998841251448436, 0.030011587485515644], [0.029745786128764853, 0.020254213871235147], [0.005681818181818182, 0.04431818181818182], [0.033749999999999995, 0.01625], [0.017361111111111112, 0.03263888888888889], [0.003830645161290323, 0.04616935483870968], [0.020011600928074247, 0.029988399071925756], [0.0, 0.05], [0.028655058540978686, 0.021344941459021317], [0.04236111111111111, 0.0076388888888888895], [0.0036184210526315794, 0.046381578947368426], [0.007692307692307694, 0.04230769230769231], [0.037142857142857144, 0.012857142857142859], [0.010000000000000002, 0.04000000000000001], [0.003125, 0.046875], [0.008620689655172414, 0.04137931034482759], [0.021510416666666667, 0.028489583333333336], [0.02345679012345679, 0.026543209876543208], [0.027244258872651358, 0.022755741127348645], [0.030565371024734982, 0.019434628975265017], [0.05, 0.0], [0.04083333333333334, 0.009166666666666667], [0.002806122448979592, 0.047193877551020405], [0.014285714285714287, 0.03571428571428571], [0.005645161290322581, 0.04435483870967742], [0.011157024793388431, 0.03884297520661157], [0.026356589147286825, 0.02364341085271318], [0.03671875, 0.013281250000000001], [0.007530120481927711, 0.042469879518072295], [0.0008264462809917356, 0.049173553719008264], [0.02361111111111111, 0.02638888888888889], [0.025, 0.025], [0.02920944558521561, 0.020790554414784394], [0.025323383084577118, 0.024676616915422885], [0.04136504653567735, 0.008634953464322647], [0.017055771725032427, 0.032944228274967575], [0.028125, 0.021875000000000002], [0.0436426116838488, 0.006357388316151203], [0.025383542538354252, 0.02461645746164575], [0.025, 0.025], [0.025, 0.025], [0.02236061684460261, 0.02763938315539739], [0.026198812713456452, 0.02380118728654355], [0.0017265937728863615, 0.04827340622711364], [0.035399309059318505, 0.0146006909406815], [0.043837246709587364, 0.006162753290412632]], "children_default": [1.0, 3.0, 5.0, 7.0, 9.0, 11.0, 13.0, 15.0, 17.0, -1.0, 19.0, 21.0, -1.0, 23.0, 25.0, 27.0, 29.0, 31.0, -1.0, 33.0, -1.0, 35.0, -1.0, 37.0, 39.0, -1.0, 41.0, -1.0, -1.0, -1.0, -1.0, -1.0, -1.0, -1.0, -1.0, -1.0, -1.0, 43.0, 45.0, 47.0, -1.0, -1.0, -1.0, -1.0, -1.0, -1.0, -1.0, 49.0, -1.0, -1.0, -1.0]}, {"children_left": [1.0, 3.0, 5.0, 7.0, 9.0, 11.0, 13.0, 15.0, -1.0, 17.0, -1.0, 19.0, 21.0, 23.0, 25.0, -1.0, -1.0, 27.0, -1.0, 29.0, 31.0, 33.0, 35.0, -1.0, 37.0, -1.0, 39.0, -1.0, -1.0, -1.0, 41.0, -1.0, -1.0, -1.0, -1.0, 43.0, 45.0, -1.0, -1.0, -1.0, -1.0, 47.0, -1.0, 49.0, -1.0, -1.0, -1.0, -1.0, -1.0, -1.0, -1.0], "children_right": [2.0, 4.0, 6.0, 8.0, 10.0, 12.0, 14.0, 16.0, -1.0, 18.0, -1.0, 20.0, 22.0, 24.0, 26.0, -1.0, -1.0, 28.0, -1.0, 30.0, 32.0, 34.0, 36.0, -1.0, 38.0, -1.0, 40.0, -1.0, -1.0, -1.0, 42.0, -1.0, -1.0, -1.0, -1.0, 44.0, 46.0, -1.0, -1.0, -1.0, -1.0, 48.0, -1.0, 50.0, -1.0, -1.0, -1.0, -1.0, -1.0, -1.0, -1.0], "features": [0.0, 6.0, 7.0, 3.0, 8.0, 2.0, 8.0, 5.0, -2.0, 3.0, -2.0, 0.0, 2.0, 1.0, 0.0, -2.0, -2.0, 8.0, -2.0, 0.0, 0.0, 0.0, 1.0, -2.0, 0.0, -2.0, 2.0, -2.0, -2.0, -2.0, 1.0, -2.0, -2.0, -2.0, -2.0, 4.0, 4.0, -2.0, -2.0, -2.0, -2.0, 1.0, -2.0, 2.0, -2.0, -2.0, -2.0, -2.0, -2.0, -2.0, -2.0], "thresholds": [0.5, 0.5, 0.5, 0.5, 0.5, 2.0850000381469727, 0.5, 0.5, -2.0, 0.5, -2.0, 3.5, 2.899999976158142, 411.0, 3.5, -2.0, -2.0, 0.5, -2.0, 1.5, 6.5, 10.5, 693.0, -2.0, 3.298858642578125, -2.0, 6.75, -2.0, -2.0, -2.0, 2065.4545454545455, -2.0, -2.0, -2.0, -2.0, 0.5, 0.5, -2.0, -2.0, -2.0, -2.0, 906.4545454545455, -2.0, 4.090909090909091, -2.0, -2.0, -2.0, -2.0, -2.0, -2.0, -2.0], "node_sample_weight": [5219.0, 1109.0, 4110.0, 190.0, 919.0, 3699.0, 411.0, 182.0, 8.0, 916.0, 3.0, 1599.0, 2100.0, 221.0, 190.0, 213.0, 93.0, 963.0, 80.0, 1261.0, 338.0, 289.0, 1811.0, 53.0, 168.0, 77.0, 126.0, 549.0, 2.0, 260.0, 1092.0, 340.0, 112.0, 362.0, 47.0, 1061.0, 922.0, 89.0, 128.0, 151.0, 14.0, 2175.5621647066696, 5.437835293330409, 639.0, 2.0, 501.0, 3.0, 189.10963183915152, 43.89036816084847, 214.28757819822295, 101.71242180177705], "values": [[0.025761640160950377, 0.024238359839049626], [0.018935978358881875, 0.031064021641118128], [0.027603406326034065, 0.022396593673965938], [0.010789473684210528, 0.03921052631578947], [0.020620239390642, 0.029379760609358], [0.03027845363611787, 0.019721546363882132], [0.0035279805352798057, 0.046472019464720196], [0.01043956043956044, 0.03956043956043956], [0.018750000000000003, 0.03125], [0.02068777292576419, 0.029312227074235808], [0.0, 0.05000000000000001], [0.033176985616010006, 0.016823014383989997], [0.028071428571428574, 0.02192857142857143], [0.005203619909502263, 0.04479638009049774], [0.0015789473684210528, 0.048421052631578955], [0.0037558685446009393, 0.046244131455399066], [0.030645161290322583, 0.01935483870967742], [0.02227414330218069, 0.027725856697819316], [0.021875, 0.028125], [0.03528945281522601, 0.014710547184773989], [0.025295857988165683, 0.02470414201183432], [0.020242214532871974, 0.029757785467128026], [0.029320817228050803, 0.0206791827719492], [0.018867924528301886, 0.031132075471698117], [0.0008928571428571429, 0.049107142857142856], [0.008441558441558443, 0.04155844155844156], [0.0003968253968253968, 0.0496031746031746], [0.024772313296903464, 0.025227686703096542], [0.025, 0.025], [0.04384615384615385, 0.006153846153846154], [0.034249084249084245, 0.01575091575091575], [0.02808823529411765, 0.021911764705882353], [0.016964285714285716, 0.033035714285714286], [0.023204419889502764, 0.02679558011049724], [0.009574468085106383, 0.04042553191489362], [0.040103675777568334, 0.009896324222431668], [0.015021691973969633, 0.03497830802603037], [0.0016853932584269665, 0.048314606741573035], [0.0, 0.05], [0.002317880794701987, 0.04768211920529802], [0.0035714285714285718, 0.04642857142857143], [0.024890118461543036, 0.02510988153845697], [0.009194835316421922, 0.04080516468357808], [0.023552425665101722, 0.02644757433489828], [0.025, 0.025], [0.01996007984031936, 0.03003992015968064], [0.016666666666666666, 0.03333333333333333], [0.03384280291679465, 0.01615719708320535], [0.015948829534413, 0.034051170465587], [0.03616119833683217, 0.013838801663167833], [0.041303749426416944, 0.008696250573583055]], "children_default": [1.0, 3.0, 5.0, 7.0, 9.0, 11.0, 13.0, 15.0, -1.0, 17.0, -1.0, 19.0, 21.0, 23.0, 25.0, -1.0, -1.0, 27.0, -1.0, 29.0, 31.0, 33.0, 35.0, -1.0, 37.0, -1.0, 39.0, -1.0, -1.0, -1.0, 41.0, -1.0, -1.0, -1.0, -1.0, 43.0, 45.0, -1.0, -1.0, -1.0, -1.0, 47.0, -1.0, 49.0, -1.0, -1.0, -1.0, -1.0, -1.0, -1.0, -1.0]}, {"children_left": [1.0, 3.0, 5.0, 7.0, 9.0, 11.0, 13.0, 15.0, 17.0, 19.0, 21.0, -1.0, 23.0, 25.0, 27.0, -1.0, 29.0, 31.0, -1.0, -1.0, 33.0, 35.0, 37.0, 39.0, 41.0, 43.0, 45.0, -1.0, -1.0, -1.0, -1.0, 47.0, -1.0, -1.0, -1.0, 49.0, -1.0, -1.0, -1.0, -1.0, -1.0, -1.0, -1.0, -1.0, -1.0, 51.0, -1.0, -1.0, -1.0, -1.0, 53.0, -1.0, 55.0, 57.0, -1.0, -1.0, -1.0, 59.0, -1.0, -1.0, -1.0], "children_right": [2.0, 4.0, 6.0, 8.0, 10.0, 12.0, 14.0, 16.0, 18.0, 20.0, 22.0, -1.0, 24.0, 26.0, 28.0, -1.0, 30.0, 32.0, -1.0, -1.0, 34.0, 36.0, 38.0, 40.0, 42.0, 44.0, 46.0, -1.0, -1.0, -1.0, -1.0, 48.0, -1.0, -1.0, -1.0, 50.0, -1.0, -1.0, -1.0, -1.0, -1.0, -1.0, -1.0, -1.0, -1.0, 52.0, -1.0, -1.0, -1.0, -1.0, 54.0, -1.0, 56.0, 58.0, -1.0, -1.0, -1.0, 60.0, -1.0, -1.0, -1.0], "features": [1.0, 0.0, 6.0, 6.0, 6.0, 7.0, 3.0, 7.0, 3.0, 0.0, 3.0, -2.0, 8.0, 0.0, 8.0, -2.0, 3.0, 8.0, -2.0, -2.0, 7.0, 1.0, 1.0, 1.0, 0.0, 2.0, 0.0, -2.0, -2.0, -2.0, -2.0, 8.0, -2.0, -2.0, -2.0, 6.0, -2.0, -2.0, -2.0, -2.0, -2.0, -2.0, -2.0, -2.0, -2.0, 8.0, -2.0, -2.0, -2.0, -2.0, 8.0, -2.0, 0.0, 0.0, -2.0, -2.0, -2.0, 0.0, -2.0, -2.0, -2.0], "thresholds": [602.5, 0.5, 0.5, 0.5, 0.5, 0.5, 0.5, 0.5, 0.5, 2.5, 0.5, -2.0, 0.5, 2.5, 0.5, -2.0, 0.5, 0.5, -2.0, -2.0, 0.5, 471.5, 166.0, 1215.0, 3.5, 1.5, 10.5, -2.0, -2.0, -2.0, -2.0, 0.5, -2.0, -2.0, -2.0, 0.5, -2.0, -2.0, -2.0, -2.0, -2.0, -2.0, -2.0, -2.0, -2.0, 0.5, -2.0, -2.0, -2.0, -2.0, 0.5, -2.0, 3.6363636363636362, 4.272727272727273, -2.0, -2.0, -2.0, 3.8181818181818183, -2.0, -2.0, -2.0], "node_sample_weight": [5219.0, 3349.0, 1870.0, 1052.0, 2297.0, 338.0, 1532.0, 198.0, 854.0, 206.0, 2091.0, 67.0, 287.0, 1445.0, 87.0, 111.0, 148.0, 797.0, 72.0, 83.0, 130.0, 1898.0, 193.0, 161.0, 126.0, 376.0, 1069.0, 77.0, 51.0, 206.0, 8.0, 959.0, 2.0, 49.0, 121.0, 1739.0, 200.0, 124.0, 140.0, 119.0, 96.0, 59.0, 109.0, 94.0, 363.0, 992.0, 120.0, 503.0, 2.0, 2.0, 990.0, 591.0, 259.0, 85.0, 252.0, 18.692745093916844, 60.30725490608315, 84.9315887758949, 51.068411224105105, 108.35676763611424, 28.643232363885758], "values": [[0.025819122437248515, 0.024180877562751484], [0.033039713347267845, 0.01696028665273216], [0.012887700534759359, 0.037112299465240646], [0.01806083650190114, 0.03193916349809886], [0.03989986939486287, 0.010100130605137137], [0.0020710059171597634, 0.04792899408284024], [0.015274151436031332, 0.03472584856396867], [0.009595959595959597, 0.04040404040404041], [0.020023419203747075, 0.029976580796252927], [0.024271844660194174, 0.02572815533980583], [0.041439502630320424, 0.00856049736967958], [0.018656716417910446, 0.03134328358208956], [0.0005226480836236935, 0.04947735191637631], [0.014359861591695501, 0.035640138408304496], [0.030459770114942532, 0.019540229885057474], [0.03018018018018018, 0.019819819819819822], [0.002364864864864865, 0.04763513513513514], [0.02038895859473024, 0.029611041405269763], [0.019444444444444445, 0.030555555555555558], [0.03855421686746988, 0.011445783132530122], [0.016153846153846154, 0.03384615384615385], [0.04075342465753425, 0.009246575342465754], [0.04818652849740933, 0.0018134715025906738], [0.00031055900621118014, 0.049689440993788817], [0.0007936507936507937, 0.049206349206349205], [0.019680851063829788, 0.030319148936170215], [0.012488306828811975, 0.03751169317118803], [0.03506493506493507, 0.014935064935064937], [0.0392156862745098, 0.010784313725490198], [0.0024271844660194173, 0.047572815533980586], [0.0, 0.05], [0.02231491136600626, 0.027685088633993743], [0.0, 0.05], [0.027551020408163266, 0.022448979591836737], [0.00950413223140496, 0.04049586776859505], [0.041489361702127664, 0.00851063829787234], [0.03325, 0.01675], [0.05, 0.0], [0.0475, 0.0025], [0.0, 0.05], [0.0005208333333333333, 0.049479166666666664], [0.007627118644067797, 0.0423728813559322], [0.003211009174311927, 0.046788990825688076], [0.01648936170212766, 0.03351063829787235], [0.021487603305785127, 0.02851239669421488], [0.013306451612903227, 0.03669354838709677], [0.005833333333333334, 0.044166666666666674], [0.024453280318091453, 0.025546719681908553], [0.025, 0.025], [0.025, 0.025], [0.02292929292929293, 0.02707070707070707], [0.0188663282571912, 0.031133671742808802], [0.02084942084942085, 0.029150579150579153], [0.024117647058823532, 0.025882352941176474], [0.03869047619047619, 0.01130952380952381], [0.03477284886378345, 0.015227151136216553], [0.004145438229435687, 0.045854561770564316], [0.040620928558199446, 0.00937907144180056], [0.026435128245438318, 0.023564871754561685], [0.04261698168510734, 0.007383018314892663], [0.01683335218835887, 0.03316664781164113]], "children_default": [1.0, 3.0, 5.0, 7.0, 9.0, 11.0, 13.0, 15.0, 17.0, 19.0, 21.0, -1.0, 23.0, 25.0, 27.0, -1.0, 29.0, 31.0, -1.0, -1.0, 33.0, 35.0, 37.0, 39.0, 41.0, 43.0, 45.0, -1.0, -1.0, -1.0, -1.0, 47.0, -1.0, -1.0, -1.0, 49.0, -1.0, -1.0, -1.0, -1.0, -1.0, -1.0, -1.0, -1.0, -1.0, 51.0, -1.0, -1.0, -1.0, -1.0, 53.0, -1.0, 55.0, 57.0, -1.0, -1.0, -1.0, 59.0, -1.0, -1.0, -1.0]}, {"children_left": [1.0, 3.0, 5.0, 7.0, 9.0, 11.0, 13.0, 15.0, -1.0, 17.0, -1.0, 19.0, -1.0, 21.0, 23.0, 25.0, 27.0, 29.0, -1.0, 31.0, -1.0, 33.0, 35.0, 37.0, 39.0, -1.0, -1.0, -1.0, -1.0, -1.0, -1.0, -1.0, -1.0, 41.0, -1.0, -1.0, -1.0, 43.0, 45.0, -1.0, -1.0, -1.0, 47.0, 49.0, -1.0, 51.0, -1.0, -1.0, 53.0, -1.0, -1.0, -1.0, -1.0, -1.0, -1.0], "children_right": [2.0, 4.0, 6.0, 8.0, 10.0, 12.0, 14.0, 16.0, -1.0, 18.0, -1.0, 20.0, -1.0, 22.0, 24.0, 26.0, 28.0, 30.0, -1.0, 32.0, -1.0, 34.0, 36.0, 38.0, 40.0, -1.0, -1.0, -1.0, -1.0, -1.0, -1.0, -1.0, -1.0, 42.0, -1.0, -1.0, -1.0, 44.0, 46.0, -1.0, -1.0, -1.0, 48.0, 50.0, -1.0, 52.0, -1.0, -1.0, 54.0, -1.0, -1.0, -1.0, -1.0, -1.0, -1.0], "features": [6.0, 5.0, 0.0, 3.0, 2.0, 8.0, 0.0, 2.0, -2.0, 0.0, -2.0, 3.0, -2.0, 3.0, 3.0, 1.0, 1.0, 1.0, -2.0, 8.0, -2.0, 8.0, 8.0, 1.0, 0.0, -2.0, -2.0, -2.0, -2.0, -2.0, -2.0, -2.0, -2.0, 6.0, -2.0, -2.0, -2.0, 0.0, 8.0, -2.0, -2.0, -2.0, 0.0, 0.0, -2.0, 1.0, -2.0, -2.0, 1.0, -2.0, -2.0, -2.0, -2.0, -2.0, -2.0], "thresholds": [0.5, 0.5, 0.5, 0.5, 8.0, 0.5, 3.298858642578125, 3.1649999618530273, -2.0, 2.5, -2.0, 0.5, -2.0, 0.5, 0.5, 783.5, 41.5, 822.5, -2.0, 0.5, -2.0, 0.5, 0.5, 550.5, 3.798858642578125, -2.0, -2.0, -2.0, -2.0, -2.0, -2.0, -2.0, -2.0, 0.5, -2.0, -2.0, -2.0, 25.19958496787765, 0.5, -2.0, -2.0, -2.0, 1.9090909090909092, 5.181818181818182, -2.0, 1392.8181818181818, -2.0, -2.0, 116.0909090909091, -2.0, -2.0, -2.0, -2.0, -2.0, -2.0], "node_sample_weight": [5219.0, 742.0, 4477.0, 569.0, 173.0, 916.0, 3561.0, 548.0, 21.0, 164.0, 9.0, 914.0, 2.0, 1679.0, 1882.0, 430.0, 118.0, 94.0, 107.0, 966.0, 76.0, 1533.0, 146.0, 1749.0, 133.0, 371.0, 185.0, 5.0, 146.0, 145.0, 11.0, 555.0, 2.0, 937.0, 839.0, 126.0, 78.0, 947.0, 971.0, 21.0, 171.0, 2.0, 564.0, 1829.1127974435367, 18.887202556463308, 434.0, 286.0, 25.039813891163156, 95.96018610883684, 88.81181343498614, 99.18818656501386, 73.0, 23.0, 26.528724336223707, 126.4712756637763], "values": [[0.025244299674267102, 0.0247557003257329], [0.010983827493261456, 0.03901617250673855], [0.027607773062318517, 0.022392226937681482], [0.004130052724077329, 0.045869947275922675], [0.033526011560693646, 0.01647398843930636], [0.02134279475982533, 0.028657205240174673], [0.029219320415613596, 0.020780679584386407], [0.003923357664233577, 0.04607664233576642], [0.009523809523809525, 0.04047619047619048], [0.03536585365853659, 0.014634146341463417], [0.0, 0.05], [0.02138949671772429, 0.028610503282275712], [0.0, 0.05], [0.03272781417510423, 0.017272185824895772], [0.026089266737513283, 0.023910733262486716], [0.004651162790697674, 0.04534883720930233], [0.0012711864406779662, 0.048728813559322036], [0.038829787234042554, 0.011170212765957447], [0.026168224299065422, 0.02383177570093458], [0.02282608695652174, 0.02717391304347826], [0.024342105263157898, 0.02565789473684211], [0.031539465101108936, 0.018460534898891063], [0.045205479452054796, 0.004794520547945206], [0.025157232704402517, 0.024842767295597486], [0.03834586466165414, 0.011654135338345865], [0.0071428571428571435, 0.04285714285714286], [0.0013513513513513514, 0.04864864864864865], [0.02, 0.030000000000000006], [0.0020547945205479454, 0.04794520547945205], [0.03413793103448276, 0.015862068965517243], [0.022727272727272728, 0.02727272727272728], [0.024234234234234237, 0.025765765765765766], [0.025, 0.025], [0.02769477054429029, 0.022305229455709716], [0.03730631704410012, 0.012693682955899881], [0.04523809523809524, 0.004761904761904762], [0.04871794871794872, 0.001282051282051282], [0.038225976768743404, 0.0117740232312566], [0.011585993820803296, 0.03841400617919671], [0.03333333333333334, 0.01666666666666667], [0.04298245614035088, 0.007017543859649124], [0.025, 0.025], [0.024556737588652486, 0.02544326241134752], [0.02561351058583156, 0.024386489414168443], [0.0026472951645710877, 0.047352704835428916], [0.019009216589861752, 0.03099078341013825], [0.01888111888111888, 0.03111888111888112], [0.04800318004689143, 0.0019968199531085807], [0.020300182653172794, 0.029699817346827213], [0.028043461510585198, 0.02195653848941481], [0.040926338799327826, 0.00907366120067218], [0.00684931506849315, 0.04315068493150685], [0.034782608695652174, 0.015217391304347827], [0.0481152504972986, 0.001884749502701394], [0.014814144740420596, 0.03518585525957941]], "children_default": [1.0, 3.0, 5.0, 7.0, 9.0, 11.0, 13.0, 15.0, -1.0, 17.0, -1.0, 19.0, -1.0, 21.0, 23.0, 25.0, 27.0, 29.0, -1.0, 31.0, -1.0, 33.0, 35.0, 37.0, 39.0, -1.0, -1.0, -1.0, -1.0, -1.0, -1.0, -1.0, -1.0, 41.0, -1.0, -1.0, -1.0, 43.0, 45.0, -1.0, -1.0, -1.0, 47.0, 49.0, -1.0, 51.0, -1.0, -1.0, 53.0, -1.0, -1.0, -1.0, -1.0, -1.0, -1.0]}, {"children_left": [1.0, 3.0, 5.0, 7.0, 9.0, 11.0, 13.0, 15.0, 17.0, -1.0, 19.0, 21.0, -1.0, -1.0, 23.0, 25.0, 27.0, 29.0, 31.0, -1.0, 33.0, 35.0, 37.0, -1.0, -1.0, -1.0, -1.0, 39.0, 41.0, -1.0, 43.0, -1.0, -1.0, -1.0, -1.0, -1.0, -1.0, -1.0, -1.0, 45.0, -1.0, 47.0, -1.0, -1.0, -1.0, -1.0, 49.0, -1.0, -1.0, -1.0, -1.0], "children_right": [2.0, 4.0, 6.0, 8.0, 10.0, 12.0, 14.0, 16.0, 18.0, -1.0, 20.0, 22.0, -1.0, -1.0, 24.0, 26.0, 28.0, 30.0, 32.0, -1.0, 34.0, 36.0, 38.0, -1.0, -1.0, -1.0, -1.0, 40.0, 42.0, -1.0, 44.0, -1.0, -1.0, -1.0, -1.0, -1.0, -1.0, -1.0, -1.0, 46.0, -1.0, 48.0, -1.0, -1.0, -1.0, -1.0, 50.0, -1.0, -1.0, -1.0, -1.0], "features": [7.0, 3.0, 0.0, 8.0, 0.0, 3.0, 1.0, 6.0, 1.0, -2.0, 6.0, 2.0, -2.0, -2.0, 0.0, 4.0, 1.0, 2.0, 2.0, -2.0, 1.0, 8.0, 2.0, -2.0, -2.0, -2.0, -2.0, 8.0, 7.0, -2.0, 8.0, -2.0, -2.0, -2.0, -2.0, -2.0, -2.0, -2.0, -2.0, 1.0, -2.0, 2.0, -2.0, -2.0, -2.0, -2.0, 0.0, -2.0, -2.0, -2.0, -2.0], "thresholds": [0.5, 0.5, 3.798858642578125, 0.5, 0.5, 0.5, 412.0, 0.5, 596.0, -2.0, 0.5, 1.25, -2.0, -2.0, 4.5, 0.5, 608.0, 0.5, 2.125, -2.0, 748.5, 0.5, 1.75, -2.0, -2.0, -2.0, -2.0, 0.5, 0.5, -2.0, 0.5, -2.0, -2.0, -2.0, -2.0, -2.0, -2.0, -2.0, -2.0, 151.36363636363637, -2.0, 3.090909090909091, -2.0, -2.0, -2.0, -2.0, 5.090909090909091, -2.0, -2.0, -2.0, -2.0], "node_sample_weight": [5219.0, 4650.0, 569.0, 4290.0, 360.0, 343.0, 226.0, 2893.0, 1397.0, 75.0, 300.0, 334.0, 9.0, 51.0, 180.0, 105.0, 2788.0, 801.0, 596.0, 18.0, 282.0, 182.0, 152.0, 81.0, 141.0, 159.0, 10.0, 1837.0, 964.0, 4.0, 957.0, 296.0, 435.0, 282.0, 107.0, 241.0, 8.0, 15.0, 165.0, 1053.0, 2.0, 572.0, 2.0, 2.0, 608.0, 299.19656327417, 85.80343672583003, 226.38765036102802, 68.61234963897198, 109.57485732664277, 22.425142673357225], "values": [[0.025253880053650125, 0.024746119946349877], [0.027892473118279575, 0.02210752688172043], [0.0036906854130052727, 0.04630931458699473], [0.02702797202797203, 0.022972027972027975], [0.03819444444444445, 0.011805555555555555], [0.0052478134110787176, 0.044752186588921286], [0.0013274336283185843, 0.048672566371681415], [0.025734531628067752, 0.02426546837193225], [0.029706513958482464, 0.02029348604151754], [0.02, 0.03], [0.0425, 0.0075], [0.004790419161676647, 0.045209580838323354], [0.022222222222222223, 0.027777777777777776], [0.00392156862745098, 0.04607843137254902], [0.0005555555555555556, 0.049444444444444444], [0.030000000000000002, 0.02], [0.025573888091822095, 0.024426111908177908], [0.041822721598002495, 0.008177278401997504], [0.013422818791946308, 0.03657718120805369], [0.04722222222222223, 0.002777777777777778], [0.042198581560283686, 0.007801418439716313], [0.0035714285714285718, 0.04642857142857144], [0.00625, 0.043750000000000004], [0.005555555555555556, 0.044444444444444446], [0.0, 0.05], [0.031132075471698113, 0.018867924528301886], [0.035, 0.015000000000000003], [0.031981491562329885, 0.018018508437670114], [0.013278008298755188, 0.036721991701244815], [0.0, 0.05], [0.04106583072100314, 0.008934169278996866], [0.016722972972972972, 0.033277027027027034], [0.012298850574712646, 0.037701149425287364], [0.04840425531914894, 0.001595744680851064], [0.03364485981308411, 0.016355140186915886], [0.004149377593360996, 0.04585062240663901], [0.0, 0.05], [0.0033333333333333335, 0.04666666666666667], [0.006666666666666667, 0.043333333333333335], [0.021937321937321938, 0.028062678062678065], [0.025, 0.025], [0.023951048951048954, 0.02604895104895105], [0.025, 0.025], [0.025, 0.025], [0.027138157894736843, 0.02286184210526316], [0.032253044267614744, 0.017746955732385255], [0.023891816904145914, 0.026108183095854092], [0.007373999930602136, 0.04262600006939787], [0.03251043716890294, 0.017489562831097063], [0.03285425222383266, 0.017145747776167338], [0.024526042398536972, 0.02547395760146303]], "children_default": [1.0, 3.0, 5.0, 7.0, 9.0, 11.0, 13.0, 15.0, 17.0, -1.0, 19.0, 21.0, -1.0, -1.0, 23.0, 25.0, 27.0, 29.0, 31.0, -1.0, 33.0, 35.0, 37.0, -1.0, -1.0, -1.0, -1.0, 39.0, 41.0, -1.0, 43.0, -1.0, -1.0, -1.0, -1.0, -1.0, -1.0, -1.0, -1.0, 45.0, -1.0, 47.0, -1.0, -1.0, -1.0, -1.0, 49.0, -1.0, -1.0, -1.0, -1.0]}, {"children_left": [1.0, 3.0, 5.0, 7.0, 9.0, 11.0, 13.0, 15.0, -1.0, 17.0, 19.0, 21.0, 23.0, 25.0, -1.0, 27.0, 29.0, 31.0, 33.0, 35.0, -1.0, 37.0, 39.0, 41.0, 43.0, -1.0, -1.0, -1.0, -1.0, -1.0, -1.0, -1.0, -1.0, 45.0, 47.0, -1.0, -1.0, -1.0, -1.0, 49.0, -1.0, -1.0, -1.0, -1.0, -1.0, 51.0, -1.0, -1.0, -1.0, 53.0, -1.0, -1.0, -1.0, -1.0, -1.0], "children_right": [2.0, 4.0, 6.0, 8.0, 10.0, 12.0, 14.0, 16.0, -1.0, 18.0, 20.0, 22.0, 24.0, 26.0, -1.0, 28.0, 30.0, 32.0, 34.0, 36.0, -1.0, 38.0, 40.0, 42.0, 44.0, -1.0, -1.0, -1.0, -1.0, -1.0, -1.0, -1.0, -1.0, 46.0, 48.0, -1.0, -1.0, -1.0, -1.0, 50.0, -1.0, -1.0, -1.0, -1.0, -1.0, 52.0, -1.0, -1.0, -1.0, 54.0, -1.0, -1.0, -1.0, -1.0, -1.0], "features": [8.0, 0.0, 7.0, 3.0, 3.0, 1.0, 2.0, 6.0, -2.0, 6.0, 1.0, 2.0, 2.0, 0.0, -2.0, 5.0, 5.0, 5.0, 1.0, 2.0, -2.0, 0.0, 3.0, 0.0, 1.0, -2.0, -2.0, -2.0, -2.0, -2.0, -2.0, -2.0, -2.0, 8.0, 8.0, -2.0, -2.0, -2.0, -2.0, 5.0, -2.0, -2.0, -2.0, -2.0, -2.0, 2.0, -2.0, -2.0, -2.0, 0.0, -2.0, -2.0, -2.0, -2.0, -2.0], "thresholds": [0.5, 0.5, 0.5, 0.5, 0.5, 556.0, 3.1649999618530273, 0.5, -2.0, 0.5, 812.0, 1.465000033378601, 2.565000057220459, 3.5, -2.0, 0.5, 0.5, 0.5, 562.0, 1.25, -2.0, 0.5, 0.5, 2.5, 861.0, -2.0, -2.0, -2.0, -2.0, -2.0, -2.0, -2.0, -2.0, 0.5, 0.5, -2.0, -2.0, -2.0, -2.0, 0.5, -2.0, -2.0, -2.0, -2.0, -2.0, 2.7727272727272725, -2.0, -2.0, -2.0, 5.636363636363637, -2.0, -2.0, -2.0, -2.0, -2.0], "node_sample_weight": [5219.0, 3508.0, 1711.0, 1101.0, 2407.0, 1533.0, 178.0, 1039.0, 94.0, 2249.0, 158.0, 890.0, 643.0, 99.0, 101.0, 187.0, 962.0, 270.0, 1979.0, 109.0, 66.0, 82.0, 808.0, 296.0, 347.0, 87.0, 39.0, 228.0, 92.0, 547.0, 2.0, 267.0, 75.0, 1052.0, 941.0, 58.0, 112.0, 1.0, 138.0, 931.0, 105.0, 207.0, 164.0, 55.0, 366.0, 615.0, 2.0, 779.0, 2.0, 647.0, 28.0, 128.44208167150504, 134.55791832849496, 51.03864353110973, 30.961356468890276], "values": [[0.02536884460624641, 0.024631155393753594], [0.024102052451539343, 0.025897947548460663], [0.027966101694915254, 0.02203389830508475], [0.020118074477747504, 0.029881925522252495], [0.025924387203988368, 0.024075612796011635], [0.030887149380300065, 0.019112850619699934], [0.0028089887640449437, 0.04719101123595506], [0.019971126082771896, 0.030028873917228107], [0.026595744680851064, 0.02340425531914894], [0.025055580257892396, 0.024944419742107603], [0.03829113924050633, 0.01170886075949367], [0.04275280898876405, 0.007247191011235955], [0.014463452566096425, 0.03553654743390358], [0.004545454545454545, 0.045454545454545456], [0.0039603960396039604, 0.046039603960396046], [0.009358288770053475, 0.040641711229946524], [0.023232848232848234, 0.02676715176715177], [0.009074074074074075, 0.04092592592592593], [0.027235977766548763, 0.02276402223345124], [0.04541284403669725, 0.0045871559633027525], [0.02954545454545455, 0.020454545454545454], [0.048170731707317074, 0.0018292682926829272], [0.042202970297029706, 0.007797029702970298], [0.019932432432432434, 0.03006756756756757], [0.00979827089337176, 0.040201729106628246], [0.014942528735632184, 0.03505747126436782], [0.0, 0.05], [0.0035087719298245615, 0.046491228070175444], [0.02880434782608696, 0.021195652173913046], [0.02440585009140768, 0.025594149908592323], [0.025, 0.025], [0.005056179775280899, 0.0449438202247191], [0.02666666666666667, 0.023333333333333334], [0.04025665399239544, 0.009743346007604563], [0.012752391073326248, 0.03724760892667375], [0.05, 0.0], [0.04553571428571429, 0.004464285714285714], [0.0, 0.05], [0.04710144927536232, 0.002898550724637681], [0.04065520945220193, 0.009344790547798068], [0.04857142857142858, 0.0014285714285714288], [0.026811594202898553, 0.023188405797101453], [0.016463414634146342, 0.03353658536585366], [0.023636363636363636, 0.026363636363636367], [0.009153005464480874, 0.04084699453551913], [0.023008130081300815, 0.026991869918699188], [0.025, 0.025], [0.020988446726572532, 0.029011553273427474], [0.025, 0.025], [0.028748068006182383, 0.02125193199381762], [0.014285714285714287, 0.03571428571428571], [0.035424527077011866, 0.014575472922988135], [0.03604395832105355, 0.013956041678946448], [0.049020350139800974, 0.0009796498601990346], [0.011242008204461248, 0.03875799179553876]], "children_default": [1.0, 3.0, 5.0, 7.0, 9.0, 11.0, 13.0, 15.0, -1.0, 17.0, 19.0, 21.0, 23.0, 25.0, -1.0, 27.0, 29.0, 31.0, 33.0, 35.0, -1.0, 37.0, 39.0, 41.0, 43.0, -1.0, -1.0, -1.0, -1.0, -1.0, -1.0, -1.0, -1.0, 45.0, 47.0, -1.0, -1.0, -1.0, -1.0, 49.0, -1.0, -1.0, -1.0, -1.0, -1.0, 51.0, -1.0, -1.0, -1.0, 53.0, -1.0, -1.0, -1.0, -1.0, -1.0]}, {"children_left": [1.0, 3.0, 5.0, 7.0, 9.0, 11.0, 13.0, 15.0, 17.0, -1.0, 19.0, -1.0, 21.0, 23.0, -1.0, 25.0, 27.0, 29.0, -1.0, -1.0, 31.0, -1.0, 33.0, 35.0, 37.0, -1.0, 39.0, -1.0, -1.0, 41.0, -1.0, -1.0, 43.0, -1.0, -1.0, -1.0, -1.0, -1.0, 45.0, -1.0, -1.0, -1.0, -1.0, -1.0, -1.0, -1.0, -1.0], "children_right": [2.0, 4.0, 6.0, 8.0, 10.0, 12.0, 14.0, 16.0, 18.0, -1.0, 20.0, -1.0, 22.0, 24.0, -1.0, 26.0, 28.0, 30.0, -1.0, -1.0, 32.0, -1.0, 34.0, 36.0, 38.0, -1.0, 40.0, -1.0, -1.0, 42.0, -1.0, -1.0, 44.0, -1.0, -1.0, -1.0, -1.0, -1.0, 46.0, -1.0, -1.0, -1.0, -1.0, -1.0, -1.0, -1.0, -1.0], "features": [1.0, 8.0, 6.0, 0.0, 6.0, 7.0, 3.0, 7.0, 7.0, -2.0, 2.0, -2.0, 1.0, 2.0, -2.0, 6.0, 3.0, 0.0, -2.0, -2.0, 2.0, -2.0, 0.0, 0.0, 2.0, -2.0, 8.0, -2.0, -2.0, 3.0, -2.0, -2.0, 3.0, -2.0, -2.0, -2.0, -2.0, -2.0, 6.0, -2.0, -2.0, -2.0, -2.0, -2.0, -2.0, -2.0, -2.0], "thresholds": [562.5, 0.5, 0.5, 0.5, 0.5, 0.5, 0.5, 0.5, 0.5, -2.0, 0.5, -2.0, 779.0, 2.0850000381469727, -2.0, 0.5, 0.5, 4.5, -2.0, -2.0, 1.4050000309944153, -2.0, 4.5, 3.5, 2.4828150272369385, -2.0, 0.5, -2.0, -2.0, 0.5, -2.0, -2.0, 0.5, -2.0, -2.0, -2.0, -2.0, -2.0, 0.5, -2.0, -2.0, -2.0, -2.0, -2.0, -2.0, -2.0, -2.0], "node_sample_weight": [5219.0, 3280.0, 1939.0, 2288.0, 992.0, 346.0, 1593.0, 1055.0, 1233.0, 102.0, 921.0, 72.0, 292.0, 1513.0, 121.0, 917.0, 138.0, 1159.0, 82.0, 2.0, 919.0, 55.0, 252.0, 602.0, 911.0, 78.0, 943.0, 194.0, 5.0, 954.0, 421.0, 132.0, 947.0, 181.0, 126.0, 522.0, 206.0, 105.0, 959.0, 649.0, 2.0, 548.0, 89.0, 523.0, 70.0, 2.0, 705.0], "values": [[0.0252826211917992, 0.024717378808200803], [0.0331859756097561, 0.016814024390243903], [0.011913357400722023, 0.038086642599277985], [0.02958916083916084, 0.02041083916083916], [0.041481854838709684, 0.008518145161290324], [0.0023121387283236996, 0.0476878612716763], [0.013998744507219083, 0.036001255492780916], [0.018293838862559243, 0.031706161137440764], [0.03925385239253853, 0.010746147607461476], [0.018627450980392157, 0.03137254901960784], [0.04299674267100977, 0.007003257328990228], [0.013888888888888888, 0.036111111111111115], [0.0008561643835616438, 0.04914383561643836], [0.013152676801057504, 0.036847323198942496], [0.03677685950413223, 0.01322314049586777], [0.02044711014176663, 0.029552889858233372], [0.003985507246376812, 0.046014492753623196], [0.0408541846419327, 0.009145815358067301], [0.012804878048780489, 0.03719512195121952], [0.0, 0.05], [0.04309031556039173, 0.00690968443960827], [0.00909090909090909, 0.04090909090909091], [0.0003968253968253968, 0.0496031746031746], [0.015199335548172759, 0.034800664451827244], [0.011800219538968168, 0.03819978046103184], [0.03461538461538462, 0.015384615384615387], [0.019989395546129374, 0.030010604453870625], [0.004896907216494845, 0.045103092783505154], [0.0, 0.05], [0.04103773584905661, 0.008962264150943398], [0.03681710213776722, 0.01318289786223278], [0.04810606060606061, 0.001893939393939394], [0.04213305174234425, 0.007866948257655755], [0.0005524861878453039, 0.0494475138121547], [0.0, 0.05], [0.018582375478927205, 0.0314176245210728], [0.004611650485436894, 0.0453883495145631], [0.0014285714285714288, 0.04857142857142858], [0.0132429614181439, 0.0367570385818561], [0.026117103235747303, 0.023882896764252697], [0.025, 0.025], [0.025364963503649637, 0.024635036496350366], [0.03707865168539326, 0.012921348314606743], [0.026290630975143402, 0.023709369024856597], [0.02857142857142857, 0.02142857142857143], [0.025, 0.025], [0.021347517730496455, 0.02865248226950355]], "children_default": [1.0, 3.0, 5.0, 7.0, 9.0, 11.0, 13.0, 15.0, 17.0, -1.0, 19.0, -1.0, 21.0, 23.0, -1.0, 25.0, 27.0, 29.0, -1.0, -1.0, 31.0, -1.0, 33.0, 35.0, 37.0, -1.0, 39.0, -1.0, -1.0, 41.0, -1.0, -1.0, 43.0, -1.0, -1.0, -1.0, -1.0, -1.0, 45.0, -1.0, -1.0, -1.0, -1.0, -1.0, -1.0, -1.0, -1.0]}]}